0.69,0.633,-0.649,-0.974999,0.409357,-0.676203,0.624839,-0.975223,-0.458921,-0.101811,-0.98261,0.120035,0.202022,0.0749986,0.82618,-0.338807,-0.708675,0.620415,0.204183,-0.665921,0.719077,-0.298403,0.290091,0.383,0.634,0.235,0.571,-0.651,-0.984,-0.0989951,0.448153,0.265349,-0.459641,0.359962,-0.150903,0.506459,0.687213,-0.523986,0.0831761,-0.778221,-0.06788,0.106979,-0.0961373,-0.868403,0.734076,-0.723194,-0.66646,-0.985357,0.454015,0.550068,0.915941,0.173472,0.808956,0.20225,-0.446117,0.44,0.994,0.682131,0.786478,0.581027,-0.394728,0.239247,-0.147668,0.170577,-0.782712,0.288343,-0.763242,0.925381,0.398999,0.386569,0.712717,0.828865,0.976195,-0.45409,0.900785,0.664263,-0.627309,0.791936,0.266961,0.869723,-0.0730021,-0.323561,-0.0477765,-0.323005,0.886,0.0653424,0.667718,0.886617,-0.241008,0.466689,0.45226,0.350778,-0.745164,0.871566,-0.88315,-0.415508,-0.121071,-0.580515,0.970493,0.998605,0.076332,0.0451313,0.730892,-0.00344703,0.106354,0.164988,-0.765582,0.489065,-0.520209,-0.115809,0.111392,-0.209005,0.543,0.622807,0.0325109,-0.0165961,-0.315578,-0.269148,-0.528685,0.491532,0.761629,0.486065,-0.57885,1.08819,0.416247,-0.547824,1.01291,0.491998,-0.907823,0.328607,-0.0728683,-0.324818,-0.634109,-0.76637,0.150945,0.330244,-0.252721,0.167705,-0.895514,0.00999908,0.543,0.215673,0.345614,0.0606253,-0.608931,-0.521832,-0.79234,0.290752,0.318346,-0.287941,-0.725417,-0.0254249,0.596183,0.983983,-0.648333,-0.714169,0.775617,0.763869,0.680719,0.928001,0.228851,-0.294563,-0.997854,-0.132076,-0.319403,0.105927,-0.907202,-0.153023,-0.809,0.752812,0.796184,0.206899,-0.497552,0.33772,-0.425219,0.207242,0.499332,-0.68115,1.27696,-0.485618,-0.765483,0.663782,-0.425568,0.449626,0.541102,-0.4654,0.910187,0.545658,-0.624009,0.549027,-0.285665,0.235476,0.674192,-0.12195,0.811206,0.883,0.908,0.896429,-0.297566,0.609913,0.624554,-0.762166,0.132713,-0.588891,0.246316,0.222893,-0.0553691,-0.668887,0.0259452,-0.790861,0.84158,-0.473089,0.958625,-0.691433,-0.664419,0.136865,-0.504555,0.242791,0.67173,-0.436735,-0.591545,-0.250766,0.70511,-0.857,0.102,0.501675,0.538194,-0.506087,-0.134251,0.844353,-0.692844,-0.628785,0.857409,-0.049722,0.907331,-0.990131,0.101401,-0.519958,-0.869241,0.690317,-0.161716,0.754756,-0.664705,-0.889858,0.374525,0.39982,-0.258512,0.317102,-0.0718809,-0.0597825,-0.659866,0.482728,0.135,0.594634,0.1722,-0.797184,0.0450426,-0.687365,-0.140718,0.751422,-0.624889,-0.389655,0.550978,0.0404269,-0.366877,0.177517,0.414244,-0.987508,0.678681,0.092238,0.255313,0.827295,-0.748471,-0.0675058,-1.2384,0.337693,-0.240322,-0.38476,0.205447,0.489966,0.458,0.0927043,-0.0203401,-0.828621,-0.269436,0.767002,-0.527562,0.837299,-0.898937,-0.359477,-0.304293,0.536689,-0.209756,-0.203164,0.125632,0.755746,0.961216,-0.816997,0.467833,0.111985,-0.172837,-0.729887,-0.0568533,0.344936,0.144524,-0.279443,-0.217667,0.794,0.309,0.974074,0.268351,-0.633843,0.215064,0.953699,-0.81427,0.765341,0.487962,0.850489,-0.0459385,0.0180206,-0.25933,-0.874567,-0.507529,0.275876,-0.472976,0.400646,-0.303524,0.802838,-0.0124216,0.626981,-0.124724,-0.861085,0.693792,0.595861,0.322161,-0.265,0.934,-0.917507,-0.524905,-0.201146,0.754677,0.575571,-0.138371,-0.327087,0.0556437,-0.433841,0.914182,-0.724621,-0.238859,0.141063,0.468131,0.203239,-0.0639457,1.07805,-0.702828,-0.377189,-0.0566732,-0.391462,-0.660197,0.722886,0.852228,-0.294491,0.828262,0.331,0.997,-0.301713,-0.961743,0.893867,-0.0786138,-0.63533,-0.0944622,0.911591,0.394687,-0.0608777,-0.349525,-0.343982,0.645475,-0.770636,0.142134,-0.294143,0.116418,1.10561,0.546908,0.644956,0.367118,0.156731,1.22263,0.991124,0.114206,0.748839,0.471423,0.035,-0.381,-0.142748,0.875346,-0.860571,0.675168,1.11003,-0.803328,0.825282,0.601142,-0.709659,0.780388,0.148514,0.348262,-0.74002,0.824035,0.513049,-0.302017,1.31276,0.32743,0.407898,1.05911,1.09158,-0.518057,0.441438,-0.633907,0.617815,0.0228646,0.461001,0.501919,-0.950473,-0.5797,0.616899,-0.0320106,-0.525627,0.889849,-0.611898,0.810114,0.376312,0.789467,0.5958,0.937126,1.01221,-0.201355,0.252485,0.870225,1.31952,0.806626,1.03186,1.05298,-0.434623,-0.317891,0.560185,0.666362,-0.530083,-0.880894,-0.96,-0.803304,-0.301562,0.417207,0.202838,-0.14529,0.670383,-0.0575674,0.510406,0.282515,-0.41742,0.440167,0.334712,-0.730145,0.768166,0.0313161,1.12673,0.325452,0.0289426,-0.136457,-0.373879,-0.362735,1.0396,0.789394,-0.912251,0.71466,-0.951597,0.446429,0.533049,-0.782073,0.129091,0.120211,-0.545875,0.955384,-0.223364,0.703726,-0.519696,0.596555,-0.987643,0.518182,0.0344332,-0.190246,0.446608,-0.544966,-0.031662,-0.240254,0.110429,-0.389357,0.247687,0.713768,-0.404839,0.0154982,0.68172,-0.643871,-0.227613,-1.00783,-0.984778,-0.378968,0.0166066,0.610045,0.025539,-0.648468,-0.117312,-0.127661,0.896771,-0.182781,-0.5107,-0.950841,-0.477274,-0.511313,0.676972,0.75027,0.103217,-0.184671,-0.932231,0.836939,0.0149368,-0.318395,-1.01697,-0.858604,-1.08681,-0.458293,0.320049,0.549028,-0.093,0.935,0.128542,-0.00194388,-0.237944,-0.559583,-0.746613,0.0408131,0.815311,-0.718121,0.873388,0.411161,-0.389202,0.544875,-0.278481,0.141143,-1.07061,-0.33581,-0.50154,-0.537895,0.0187769,-0.753965,-0.883743,-0.653724,-0.227675,-0.862933,-0.890545,-0.532031,-0.429,0.222,-0.960318,0.157552,0.413775,0.478611,1.20194,0.38191,-0.163543,0.622274,-0.588504,-0.688119,0.313741,0.304521,0.201085,-1.18708,-0.323303,-0.897885,-0.0854894,-0.48726,-0.510637,0.236384,0.435341,-0.830136,-0.960198,0.671793,-0.930553,-0.518574,0.695,0.922995,-0.0354182,-0.568731,0.501839,0.310738,0.510671,0.973977,0.793328,0.0043213,0.365159,-0.415734,0.818113,-0.365564,-0.690021,-0.112058,-1.43699,0.151478,-0.246322,-0.639888,0.281369,-1.14109,0.260194,-0.375887,0.710796,-0.534211,-0.562362,0.507461,0.978,-0.845023,0.553762,0.836503,-0.562203,-0.156443,0.775361,0.0335077,0.290962,-0.401353,-0.189253,-0.760753,-0.432263,0.0402306,-0.613104,-0.761207,-1.23056,-0.585823,0.381714,0.24985,-1.21515,-0.426647,-0.358452,-0.986952,-0.0463855,0.588124,-0.752708,-0.567047,-0.802,-0.304003,0.497677,-0.7083,-0.330813,0.327317,0.671781,-0.226214,0.416998,0.131865,0.365178,0.604797,-0.3389,0.172868,0.56817,0.167453,-0.655573,-1.24431,0.298662,-0.409539,-0.590056,0.0966878,-0.70687,-0.120797,-0.98313,0.0169705,-0.530073,-0.384791,-0.788,-0.279005,-0.391379,-0.520742,0.117388,0.841441,-0.212702,0.604517,-0.514606,0.755484,0.554593,0.342558,-0.608842,-0.871428,-0.155212,-0.360857,0.501593,-0.744611,-0.882791,-0.755046,-0.508748,-1.00982,-0.0190376,0.343876,-0.0824135,0.37977,-0.755145,-0.101123,0.934,-0.290003,0.0703239,-0.83168,0.0408888,0.733137,-0.818456,1.04977,-0.0187404,-0.637508,-0.00853735,0.186046,0.822824,-0.681806,-1.01349,-0.780602,-0.473186,-0.491394,-0.0210074,0.733523,-0.0196603,-0.0868758,0.828021,0.715762,-0.333959,-0.0870812,0.0555101,0.505044,0.788,-0.16,0.961744,0.280609,0.11124,0.0350312,-0.015929,-0.899131,-0.743924,0.0956717,0.623262,0.150265,0.353574,-0.482505,-0.725196,0.159164,-0.59493,-0.69871,-0.0344836,-0.46656,-0.111064,0.586751,-0.631379,0.505852,-0.427407,-0.77347,0.214546,-0.241034,-0.34,0.815,-0.736,-0.995,-0.789,0.782984,0.283995,0.318975,-0.18904,-0.735157,-0.0281349,0.0771257,0.36,-0.856,0.780998,-0.732002,-0.780001,0.616,0.424016,-0.376,0.92,-0.612,0.161799,-0.632758,0.536,0.083,0.871,-0.895,-0.136,-0.358,-0.579,0.525,-0.543995,-0.757586,0.530443,-0.3323,-0.975224,-0.628532,0.545358,-0.159731,-0.807781,-0.928997,0.473997,0.55283,-0.783954,-0.188494,0.821132,-0.565006,-0.57419,-0.199292,-0.383394,-0.655008,-0.253,0.777,-0.731,-0.718,-0.141,-0.86,0.944996,0.723239,-0.217634,-0.636478,-0.197455,-0.210452,-0.39553,0.889338,0.0104762,-0.374521,0.812382,-0.888121,0.0232761,-0.995864,-0.806107,-0.932801,0.564444,0.971553,-0.117627,-0.0509543,0.959564,0.3,0.733661,-0.432634,0.197387,-0.956679,0.908002,0.47,-0.674825,-0.672463,0.172188,-0.732267,0.61612,0.526575,-0.3421,0.98107,-0.69753,-0.194304,0.837527,0.279711,0.409611,0.66656,0.457732,-0.93978,0.292284,0.269603,-0.796089,-0.0668881,-0.189405,0.0198452,0.315809,-0.311288,-0.726857,-0.405123,-0.199594,0.45,-0.362715,-0.279846,-0.505968,-0.0160905,-0.397515,0.6637,-0.178375,-0.764941,0.143554,0.37526,-0.904274,0.388199,-0.78137,0.627927,-0.55246,0.380889,-0.0106081,0.548574,0.545124,-0.630848,-0.641624,0.47502,-0.539505,-0.151636,0.855817,0.245676,0.456451,-0.933,0.840702,0.825182,0.116797,-0.926431,-0.933563,0.487588,-0.527088,-0.385605,-0.35088,0.154848,-0.755544,0.782836,-0.23856,-0.748796,0.0995489,-0.239471,0.939357,0.103552,0.670826,-0.57423,-0.514414,-0.208696,0.801205,-0.668707,0.45347,-0.977939,-0.0219047,0.226,-0.172287,0.999607,-0.111331,-0.327656,0.738249,0.310071,-0.955781,0.681683,-0.64714,-0.456989,-1.14314,0.0939279,-0.974382,-0.443349,-0.0808098,-0.431522,-0.223484,0.932125,-0.129737,1.21864,-0.126964,1.16536,0.725361,-0.641925,1.01238,0.116462,0.920944,0.364,-0.307689,-0.0845565,-0.80935,0.519465,-0.652888,-0.667429,0.480623,0.602438,-1.18602,0.733664,-0.0458389,-0.702785,-0.407898,0.284514,0.500793,-0.129487,0.357986,-0.656928,0.00261706,0.717073,-0.729234,0.793442,0.744036,-0.747876,0.379456,-0.474598,0.802,0.294,0.634801,0.751368,-0.72276,0.920579,-0.44299,0.762416,0.269848,-0.456127,-0.668457,-0.0825364,-0.908648,-1.30715,-0.585634,0.49869,-0.897835,0.295312,-0.580056,0.615613,0.768822,0.896546,-0.849913,-0.019162,0.711578,0.714627,0.876477,-0.36326,0.299,0.226,0.1566,0.140472,-0.83743,-0.600343,-0.212029,0.774343,-0.79956,0.0143887,0.364176,0.0690836,0.303797,0.425152,-0.942383,0.430434,0.228171,-0.680448,-0.35931,0.537842,0.85475,0.29032,0.408175,0.452502,-0.0296405,0.0786877,0.847024,-0.48226,-0.253966,0.758,0.143903,0.605104,-0.00690612,0.865514,-0.332796,-0.438713,-0.779195,0.590164,-0.448596,-0.66896,-1.20807,0.0374547,-0.0817132,0.509433,0.00252209,-0.0701168,-0.183915,-0.840736,0.611048,0.704606,0.739245,0.0345438,-0.337593,-0.206837,-0.471833,0.532189,0.840939,-0.596,0.592263,-0.92428,-0.909927,-0.759519,0.674573,-0.372126,-0.867376,-1.00003,0.283651,-0.835034,-0.267994,0.0437301,-0.905138,-0.0574852,-0.441947,0.488913,-0.578603,0.462118,-0.302874,0.413768,0.0924029,0.60106,-0.441748,-0.112656,-0.295064,0.0619904,0.128,0.214,-0.857675,-0.139969,0.0282106,0.629468,-0.452788,0.296244,-0.940307,0.966244,0.520721,0.531825,0.654386,-0.764677,-1.04049,-0.503037,0.336714,-0.969767,0.820145,0.677844,0.201066,-0.725612,-0.479642,0.0969196,0.445262,0.578794,-0.2637,0.436406,-0.627,-0.039,-0.500638,0.388918,-0.904664,-0.774947,-0.959004,-0.00614624,1.09498,-0.56073,0.872517,0.512637,-0.891298,0.329852,0.351921,0.774524,0.890023,0.0578795,-0.620226,-0.258072,-0.434756,0.61703,-0.757828,0.505421,0.795424,-0.208661,-0.760771,-0.141997,-0.527022,-0.398,-0.700916,-0.698099,0.567926,-0.524767,0.985428,0.401441,-0.249439,0.704465,-0.669957,-0.90045,0.688754,0.997002,0.316787,0.582263,0.0183235,-0.381886,-0.149837,-0.642135,0.0544203,-0.365851,-0.0223429,0.500848,-0.62499,0.393001,-0.219303,0.898973,-0.998,0.194996,-0.240267,-0.599043,0.344896,-0.294651,-0.078951,-0.0150314,0.121308,-0.532141,0.773785,-0.0335164,0.70264,0.607512,-0.0114107,0.671572,0.5811,1.02238,-0.274197,-0.928296,-0.936207,0.383097,-0.711264,0.0756328,-0.80858,0.492537,-0.165077,-0.325109,-0.348019,0.727992,-0.429258,-0.38901,-0.510634,-0.0337984,-0.29256,0.883653,0.571504,0.564325,-0.7303,-1.07635,0.444225,-0.725426,0.0149861,0.379236,0.199945,0.613254,-0.399101,-0.131059,0.155614,0.0318968,-0.756062,0.117999,-0.984552,-0.342916,0.953534,-0.717419,0.789996,-0.25295,-0.498129,0.982535,-0.86429,-0.248478,-0.307416,-0.498804,0.0684632,-0.101232,0.917787,-0.804714,-0.835901,-0.522432,-0.484465,0.554913,0.8597,0.141812,-0.0247005,0.213495,-0.677113,-0.212493,0.226008,-0.238866,0.246033,0.438541,1.01218,0.396001,0.731999,0.892121,0.224905,0.567531,-0.619473,0.831736,0.49123,-0.861932,0.922293,0.807232,-0.571727,-0.246723,-0.632556,-0.579579,-0.0802942,-0.79979,0.927157,0.181973,0.830805,0.984848,0.853738,-0.981632,-0.722532,0.35932,-0.339448,0.0818403,-0.641007,-0.909208,-0.365006,0.913029,0.479335,0.908397,0.519307,-0.6555,-0.102515,0.396089,0.486839,-0.88435,0.414132,0.535012,0.795571,0.622695,-0.911463,0.568991,0.850965,0.0312711,0.869341,0.930371,0.687404,0.402147,0.0169864,-0.153049,-0.0418129,0.429027,-0.518651,0.760299,-0.38,-0.13,0.395442,-0.227351,-0.586771,-0.496606,-0.345051,0.572592,-0.380697,0.226873,0.211623,-0.880248,0.17017,-0.940361,0.328376,-0.244962,0.783002,0.098324,-0.562928,0.813894,1.09236,-0.906156,-0.0667317,0.105147,-0.0322343,-0.966935,-0.870437,-0.977172,0.142,-0.315,0.333121,0.278127,0.0896307,-0.324121,0.578956,0.351835,-0.298293,0.939025,-0.376279,0.309588,0.189576,0.960134,0.29151,-0.339334,0.684753,-0.298484,0.595639,0.743093,0.829955,0.84072,-0.274877,0.116493,0.170457,0.477055,0.84315,-0.72051,0.247,-0.934816,0.857142,0.925673,-0.707453,0.142034,0.233775,0.433474,0.559,-0.0166129,-0.623824,-0.869169,-0.139598,0.0966218,0.226508,-0.744506,-0.255306,-0.782181,0.121592,-0.383043,-0.109809,1.01624,0.912924,0.837323,0.432054,0.872275,-0.53289,-0.256784,0.571,-0.585056,-0.419468,-0.582216,-0.470052,1.00399,-0.648877,-0.144943,0.287025,0.62649,0.723018,-0.854144,-1.02092,-0.941421,-1.07673,0.0180535,-0.0167851,-0.0447314,0.0257516,0.772876,0.0607605,0.446907,1.04391,0.115911,0.0884888,0.208232,-0.18141,-0.476122,0.197,0.353245,-0.177508,-0.617761,0.849442,0.0340418,-0.21495,-0.67204,-0.0140408,-0.489878,-0.554378,0.5216,0.53272,-0.802146,0.79882,0.771115,-0.827348,0.635024,-0.435263,0.139751,-0.535674,-0.0313789,-0.735071,-0.213078,1.09108,0.995368,0.669973,0.0202221,-0.272,-0.508564,0.102801,0.525777,0.457154,0.547984,0.417852,-0.26463,-0.638341,0.495903,-0.670265,0.142939,-1.02344,-0.0308801,-0.0308324,0.871257,0.0614413,-0.358705,0.380199,0.229839,0.690182,0.805113,0.788974,0.494752,-0.491195,0.773476,-0.94948,0.972635,0.265,0.708255,-0.00882235,0.564151,0.776246,0.665089,0.059505,-0.289108,0.0618486,-0.699831,0.316438,0.442829,-1.06341,0.919763,-0.53212,0.769584,-0.337133,0.59684,0.717433,0.709093,0.687837,-0.0102224,-0.624465,0.259396,-0.789556,-0.973706,-0.35502,-0.823728,0.778,-0.306998,-0.852674,-0.399202,0.9519,-0.315612,-0.854612,0.270674,-0.668487,0.171713,0.53149,0.00646179,0.130382,-0.0205368,-0.439549,-0.2975,-0.500439,0.0441553,-0.531625,0.145,-0.848789,0.696939,-0.192469,0.80769,-0.794096,-0.282929,0.0445215,-0.610963,-0.257,0.246,-0.878,-0.923,0.495999,0.827949,-0.766076,0.452928,-0.479188,-0.616998,-0.720979,-0.584006,0.121,0.819999,0.429078,-0.747927,-0.646018,0.989996,-0.489019,-0.589,-0.41,-0.024,0.551923,-0.700003,-0.772,0.918,-0.895,-0.568,-0.364,-0.293,-0.621,-0.064,0.509999,-0.499085,-0.42946,0.00540082,-0.671688,-0.196755,-0.541579,-0.592758,0.186988,-0.705002,-0.176995,0.863558,0.667967,0.806467,0.676389,0.583682,0.355055,-0.814935,0.994054,0.945002,-0.281,0.546,-0.756,-0.053,0.02,0.908,0.379991,0.212644,-0.828971,0.760291,-0.854184,0.680635,0.819054,-0.724306,-0.314017,-0.854551,0.0815517,-0.29856,-0.889994,0.822178,-0.445085,-0.504251,0.698253,-0.760955,-0.692776,0.370131,0.807299,0.645731,0.101254,0.355894,0.151742,0.823895,-0.540001,0.398,-0.229177,0.48244,-0.123332,-0.815656,-0.264918,-0.369773,0.956281,-0.556398,-0.691341,0.751281,-0.76644,-0.491124,0.420146,-0.157015,-0.22782,0.129114,-0.225767,0.425414,0.673265,0.990943,0.544051,0.815967,-0.198915,-0.111023,0.518602,0.958456,0.830771,-0.317,0.784298,-0.700375,0.685392,-0.353173,0.892884,-0.811442,-0.599811,-0.833874,-0.262557,0.764546,0.975402,-0.540317,-0.0225775,0.71312,-0.0462618,-0.513042,-0.285021,0.852201,0.176284,-0.0508482,-0.330401,-0.370752,-0.240456,0.734614,-0.907925,0.220982,-0.333246,0.19,0.184605,-0.486416,0.505055,-0.352491,-0.503293,0.25137,-0.146894,0.931438,-0.131482,-0.0358408,0.688639,-0.166688,-0.431795,0.16898,0.306728,0.63072,-0.0247274,0.891713,0.643608,0.189016,0.24623,-0.654328,-0.907529,0.887773,-0.0815746,-0.5911,0.612951,-0.405,0.641202,0.864689,0.875964,-0.467136,1.0546,0.410314,0.167739,-0.454313,1.10462,0.229948,0.93266,-0.986089,0.485251,0.133649,-0.0860107,-0.860846,0.91712,-0.65935,0.436787,0.0678654,-0.637008,-0.31871,-0.779539,0.0284194,-0.641845,0.707731,-0.150209,-0.137,-0.873879,-0.961093,0.518115,0.885579,0.994795,0.446675,-0.587145,0.62312,-0.680105,-0.191436,0.595052,0.804571,0.637614,-0.0541684,0.820152,0.135097,-0.863041,-0.489428,0.0670335,-0.749659,-0.0957474,1.02032,-0.355014,-0.511595,-1.06007,-0.738303,0.524,-0.614,0.982143,0.948326,0.337012,-0.774968,1.04258,-0.613359,0.585251,0.585523,0.713643,0.286807,-0.259914,0.0842047,0.704916,0.682837,-0.628811,-0.211452,-0.369666,0.91633,0.88147,-0.34621,-0.408584,-0.521404,-0.767757,0.0246841,-0.879863,-0.654894,0.269,0.84,-0.372359,-0.598458,0.899908,-0.710429,0.876415,-0.371418,0.86107,0.453441,-0.0447623,0.336139,-0.223313,0.945487,-0.594612,-0.132838,-0.148417,0.450737,-0.481845,0.351363,-0.33544,0.134721,0.573395,-0.450138,0.109781,0.66296,-0.354199,0.310633,-0.387852,-0.352,0.677652,0.453015,-0.909432,0.899167,0.768253,0.820401,-0.930402,0.293136,-0.505391,0.432256,-0.397026,0.332558,-0.336822,-0.204596,-0.309344,-0.571076,0.559891,0.563027,-0.871327,-1.05475,0.173868,-0.56369,-0.307224,-0.841678,-0.180925,0.776926,-0.883915,0.275,0.0958888,-0.798765,0.30817,-0.835894,0.544135,0.490532,-0.647882,0.258345,0.0632125,0.892301,-0.724367,-0.139082,0.116145,-0.153995,-0.767729,0.391367,0.55354,-0.61648,0.374979,-0.18667,-0.851956,0.668861,0.0272294,0.00735339,-0.929569,0.567524,0.226,-0.463,-0.109883,-0.192713,0.244502,-1.14181,0.0564807,-0.113139,1.02332,-0.435751,1.01331,-0.822418,0.527867,-0.268005,0.374179,0.448538,0.882877,-0.735805,-0.794903,0.490813,0.061898,0.230333,0.886482,-0.464733,0.853614,0.759083,-0.863189,-0.805516,-0.367,0.753,0.305574,0.794742,-0.732014,-0.781822,-0.241761,0.265099,0.83127,0.489819,-0.944713,0.611688,0.907808,0.474144,0.235459,0.459473,0.867171,-0.343402,-0.172951,0.729931,-0.562753,-0.460864,-0.276419,0.614665,0.603546,-0.750018,0.418771,0.0350748,0.752001,0.066,-0.21959,-0.684269,-0.166056,-0.831998,0.777446,-0.38813,-0.640814,-0.443767,0.461823,-0.917795,-0.872254,0.508204,0.655665,-1.11655,-0.552477,-0.000265733,0.0901443,-0.400686,0.418734,0.546061,0.934079,0.56729,1.17297,-0.470368,-0.747794,-0.168455,-0.912,0.648,0.428984,0.847183,-0.238554,-0.739329,0.705256,0.0459127,-0.666604,0.586212,0.314008,-0.382582,-0.870629,-0.291256,-0.807164,0.556856,0.650442,-0.895402,0.457891,-0.420004,-0.10448,-0.407277,-0.286891,0.907549,1.06889,-0.6343,-0.0341486,0.353568,-0.276999,0.198349,0.763451,-0.138651,-0.601767,0.1837,-0.753783,-0.238196,0.503035,0.988427,0.191076,0.619033,0.451381,-0.842661,0.911579,0.17934,-0.444811,-0.435742,0.282072,-0.372872,1.21693,1.06603,-0.543228,-0.0492892,-0.5468,-0.645631,-0.651714,0.689019,-0.369,-0.119718,-0.363096,-0.0713341,-0.96445,-0.571912,0.446561,-0.771367,0.706618,0.516037,-0.356937,-0.455159,-0.00854745,-0.957693,-0.630685,-0.355628,-0.597742,-0.354313,0.726154,-0.0516878,-0.601349,-0.458934,-0.309164,-0.614274,0.97353,-0.712871,-0.11871,-0.807977,-0.296023,-0.125552,0.487035,0.390529,0.794844,0.760614,0.935279,0.568743,-0.812605,0.160131,0.420602,0.183089,-0.489148,0.654652,0.754385,0.617402,0.817858,0.921243,1.01645,0.719421,0.719344,0.218847,-0.75231,0.906607,0.171641,-0.834192,-1.01878,0.0920123,-0.780122,-0.436973,-0.133467,-0.0585805,0.497449,-0.553138,0.914138,-0.129414,0.676533,0.689426,-0.898512,0.432796,-0.497927,-0.0637084,-0.784056,-0.210363,-0.143443,0.914607,-0.291262,-0.619164,0.628996,0.857753,0.587582,-0.0621463,-0.175933,0.136933,-0.315207,0.67351,0.161,-0.572,-0.665736,0.360149,0.035043,0.361968,-0.461966,-0.282614,0.30957,0.71425,-0.369354,-0.56489,0.0784221,-0.76357,0.690753,0.522238,0.644906,0.984873,-0.272103,1.26985,0.705916,-0.424721,0.648952,-0.619388,-0.943943,-0.119571,0.155512,-0.404524,0.946,0.664,-0.7116,0.075264,0.700842,-0.186849,-0.609264,-0.0888591,0.487358,-0.693255,-0.463974,-0.671612,0.430153,0.248415,-0.284114,0.00647397,0.998556,-0.608335,-0.203433,0.217352,1.06612,0.0907798,-0.479349,0.264342,0.141797,0.65482,0.370426,-0.144614,-0.096,-0.671235,0.459033,-0.611374,0.629497,0.503073,0.321539,0.411717,0.587605,0.0792451,0.254392,-0.295197,-0.0922124,-0.976783,0.0846359,-0.197257,0.182156,0.484254,0.75557,-0.0791434,0.395251,0.669235,0.273248,0.0156052,0.80718,0.299604,0.592521,0.0485976,0.253,-0.289209,0.465181,0.735472,0.13836,0.146929,-0.59684,-0.574738,-0.568678,-0.252659,0.237081,0.628814,0.831112,-0.669069,-0.707193,0.011771,-0.509223,-0.149873,0.61857,0.350576,0.898833,-0.367543,0.618239,0.0673227,-0.99642,-0.849737,0.518409,0.87043,0.63,0.243862,-0.509394,-0.508314,1.01188,1.07829,-0.662921,-0.303028,-0.534426,0.713208,-0.414166,-0.403044,-0.898885,0.606657,1.03217,1.04875,0.981381,0.8079,-0.480844,0.843425,-0.600239,0.977982,-0.355681,0.752368,1.00332,0.684764,-0.225759,-0.997758,0.873,-0.665246,0.439083,0.556552,0.197758,0.549838,0.563555,-0.274927,0.403548,0.0931163,0.116612,0.797314,-0.414844,0.476831,-0.850014,-0.212766,0.122568,0.707406,-0.213773,-0.425583,-0.0655784,0.194417,0.900438,0.248721,-0.370446,-0.508209,0.00946357,-0.384705,-0.856,0.324856,-0.825301,0.578577,0.226383,0.2018,-0.333632,0.966613,-0.332335,-0.886439,-0.457521,0.588515,0.340038,0.777734,0.084407,0.974063,0.259113,0.190539,-0.3114,0.868846,-0.639506,-0.0448078,0.946321,0.25046,0.658787,0.820296,-0.925821,-0.717122,0.851,-0.370001,-0.545278,0.550384,0.954051,-0.368011,0.139092,-0.249784,0.808503,0.319163,-0.35891,0.993194,0.442707,0.200218,0.618149,-0.656445,-0.473889,-0.330954,0.831721,0.309181,0.381061,-0.943393,0.161846,0.292158,0.00314711,-0.337343,-0.449277,-0.333026,-0.957,-0.815,-0.493,0.451,-0.184609,-0.0372157,0.00295587,-0.672898,0.149155,0.685028,0.0570898,-0.054996,0,0.255001,-0.504983,-0.998983,-0.543991,-0.888998,-0.658009,-0.463,-0.666,0.732,0.845999,0.272,0.789,-0.435,-0.435,-0.649,0.231,-0.327,-0.424,0.274,-0.142001,0.0830805,-0.278824,0.227686,0.602523,0.283359,0.557835,-0.248802,-0.0320218,-0.828012,0.252958,0.524865,-0.0161085,0.747508,0.0827465,-0.00191462,0.417012,0.425008,0.535321,0.751016,-0.286,0.38,0.023,-0.498,0.945,0.145,-0.59,0.175054,0.817524,-0.0153391,-0.99399,-0.775105,0.621113,-0.726425,0.455463,0.220756,0.558885,-0.426609,0.532029,-0.907375,-0.691941,-0.209658,0.174996,0.287768,-0.906053,-0.746623,-0.715735,0.502048,0.23424,0.819808,0.265845,0.954974,0.202998,0.842,-0.987172,-0.300524,-0.0237913,-0.581379,0.846061,-0.717836,0.347182,0.383554,-0.500101,-0.505603,0.654864,0.564592,0.353853,-0.141874,-0.790953,-0.0723855,-0.0592814,-0.953653,0.21118,0.590892,0.276491,0.272237,0.856895,0.149933,-0.114994,0.186134,0.0166199,0.686,-0.309303,0.771829,0.0703282,-0.31146,-0.580766,0.491335,-0.0109866,0.773404,0.828428,-1.08158,-0.216964,-0.489978,-0.748966,-0.324302,-0.753398,0.681116,0.104825,0.972921,-0.965708,0.430833,0.832173,0.189902,0.0857754,0.259498,-0.714532,-0.252979,-0.902534,-0.306,0.919915,0.120639,0.926414,-0.82341,-0.571471,-0.0493223,-0.198618,-0.610081,-0.474222,0.394645,0.820125,-0.399984,0.270538,-0.00805739,-0.108181,0.145728,0.206083,-0.389285,-0.365141,-0.970034,-0.705929,-0.80773,0.237938,-0.965587,0.662851,-0.502015,-0.0721592,0.467,0.234077,0.00720978,-0.887842,-0.324956,-0.876986,0.686073,-0.0630888,-0.822417,-0.36318,0.160705,-0.942794,-0.101751,-0.428713,-0.655041,0.184291,0.250976,-0.370074,0.843375,-0.851851,0.499597,0.81795,-0.186862,0.415968,-0.514464,-0.24686,-0.375822,-0.586867,-0.691,-0.335058,0.305144,0.226629,0.755071,-0.756627,0.00013101,-0.776993,-0.893077,-0.337025,-0.583452,0.555579,0.337934,1.01074,1.0659,0.863802,0.879635,0.576758,-0.214981,0.0507653,-0.820764,-0.729366,0.281225,0.46105,-0.661751,0.829342,-0.578994,-0.834,-0.651,-0.426203,-0.892721,-0.979379,-0.0500373,-0.229194,-0.109292,-0.419408,0.296012,-1.00206,-0.757743,-0.146135,-0.193544,0.0673356,-0.596501,0.762251,-0.536177,-0.713444,0.627827,-0.460359,1.0551,-0.895377,0.529852,0.811903,-0.484731,-0.409446,0.326859,-0.871,0.615,0.708,-0.738451,0.294465,0.504936,-0.915884,-0.0722541,-0.196649,-0.187156,-0.734583,0.237572,0.797956,-0.591773,0.650177,-0.0809621,0.302318,-0.734649,-0.14236,0.247873,0.0723472,0.342485,-0.580921,0.312771,-0.303081,-0.612321,-0.516338,-0.816316,-0.647249,-0.616,0.484296,-0.517272,0.837378,-0.476481,-0.879985,0.263428,-0.679891,-0.841257,-0.681885,0.32902,0.372814,-0.321212,-0.942772,0.297692,0.230008,0.388819,0.863932,-0.660545,0.926811,-0.206077,0.473754,-0.236834,0.454215,0.184348,0.629969,-0.991367,0.872634,-0.804,-0.807063,-0.771473,-0.524589,0.0811486,-0.888115,-1.08496,0.275262,-1.00815,0.22806,0.89709,-0.298226,0.757001,-0.273874,1.05326,-0.487731,-0.301365,-0.286158,0.157647,0.630752,-0.287329,0.603168,0.731696,0.000260793,-0.0637793,-0.986588,-0.283181,-0.566,0.753,-0.731161,0.802001,0.321439,-0.788629,0.383355,-1.15264,0.0833345,0.440053,0.910868,-0.0128256,0.826881,0.176415,-0.329866,-0.676934,-0.725895,-0.0714851,0.17984,-0.77029,0.159764,1.05495,0.982731,0.267051,-0.304407,0.389759,-0.723553,0.0833736,0.77,-0.888,0.309529,0.643703,0.565191,0.184398,-0.219957,-0.38055,0.500343,-0.0498205,0.288105,0.174984,1.04707,-0.481204,0.754244,0.522132,-0.14166,0.463581,0.207825,-0.176235,-0.763326,-0.184615,0.293745,0.811185,-0.26184,-0.0480383,-0.477349,-0.517655,0.52001,-0.928,0.525711,-0.202835,-0.99546,-0.404106,-1.02509,0.467684,-0.476126,0.153417,-0.0757506,-0.649918,0.382078,0.16611,-0.491265,0.059461,0.282456,-1.13468,-0.653699,-0.84677,0.250796,0.690546,-0.0272634,0.812607,-0.412552,1.07537,0.200551,-0.0840088,-0.713,0.0799837,-0.0677336,0.748143,0.034335,-0.706068,-0.82323,-0.0428952,0.516432,1.14868,-0.199993,0.492071,-0.187944,-0.116788,-0.229939,-0.993626,0.623675,0.196091,0.0625136,-0.514049,-0.213517,0.694818,-0.0689311,-0.602564,0.236125,1.0001,-0.906042,0.677885,0.501916,-0.285461,-0.877478,0.662299,0.137914,-0.111855,0.168713,-0.732901,0.706511,0.463523,0.144978,-0.431641,0.243961,-0.290247,0.0474091,0.621537,0.692601,-0.808251,0.617346,0.0744497,0.303212,-0.613755,-1.21515,-1.02126,-0.605821,-0.545319,-0.541282,0.743337,-0.869015,-0.882359,-0.0322151,0.609781,-0.751132,-0.0256126,0.502242,0.444549,0.868862,-0.249151,0.564564,-0.0397398,0.444518,0.584139,0.113157,-0.46981,0.184634,-0.805308,-1.09667,-0.68121,-0.865203,0.711453,0.63399,0.22649,-1.10289,0.127195,0.351827,-0.890817,0.96602,0.540124,0.417825,-0.856534,0.0524214,-0.817801,0.254701,0.308728,0.261698,0.0145802,-0.252122,-0.146695,-0.219995,0.603862,0.168891,-0.418716,0.811927,0.796465,-0.615184,-1.0339,-1.02016,-0.260581,-0.326676,-0.614288,-0.864947,0.819208,0.472858,-0.848869,0.35608,-0.363093,-0.724467,-0.122332,0.532284,0.49143,-0.495999,-0.020551,0.635948,0.98941,0.848829,-0.300714,-0.337537,-0.828253,0.00661023,0.375478,0.382587,-1.24647,0.246477,-0.483325,-1.06012,0.934711,-0.030921,-0.826129,-0.323645,0.452671,0.770161,-0.662305,0.12,0.058,-0.482025,-0.461766,0.612611,-0.718548,-0.0838045,0.386891,0.481205,0.476859,0.996631,0.289432,0.428817,0.689261,0.809348,0.165644,0.0181972,-1.10124,-1.23847,-0.5047,-0.72607,0.895355,0.557388,-0.944833,0.433258,-0.989918,-0.949961,-0.865345,0.644,0.992,-0.947211,-0.509962,0.184886,-0.798929,-0.625885,-0.736836,-0.56519,0.334136,0.425838,-0.771857,-0.187344,-0.228881,0.131405,0.358838,0.640549,-0.880975,-0.637226,-0.0734112,-0.157676,0.0395567,-1.03684,-0.122802,-0.456275,0.110376,0.0122782,-0.847014,0.3,0.145831,0.851678,-0.386055,-0.225089,0.907709,-0.231827,0.223347,0.516476,-0.173214,0.329524,-0.771065,1.11982,1.04775,0.575673,-0.400097,-0.470283,-1.06622,0.333368,-0.568668,-0.0980242,-0.422073,0.429353,0.409904,0.64581,0.0523531,-0.476147,-0.510849,-0.629,0.139133,-0.797359,0.266417,0.872018,-0.913345,0.341457,-0.483073,0.484681,0.781226,0.526998,0.22187,-0.489189,-0.365028,-0.342604,-0.666223,-1.11789,-1.10997,-0.701847,-0.346363,-0.90121,-0.665942,0.0536072,-0.355019,-0.0642607,-0.380108,-0.654611,-0.54376,0.841,-0.54723,-0.487124,0.852832,0.674348,-0.716224,-0.519592,0.274062,0.793398,0.947137,0.666207,0.518053,0.572572,-0.08253,-1.03058,0.815422,-0.193984,-1.05317,0.56653,-0.521855,-1.08851,-0.664137,0.426753,-0.892595,-0.639863,-0.715131,0.0883568,0.114108,-0.445,-0.00640837,0.579649,-0.516437,0.0552178,0.555368,0.507145,-0.623373,0.860134,-0.60958,0.699783,0.839069,-0.904161,0.0704795,-0.313448,0.0803538,0.444496,-0.88373,-0.140074,-0.977516,-0.585567,-0.252575,-0.273469,-0.490288,-0.11475,-0.995433,-0.082649,-0.026405,-0.662,0.570761,-0.907088,-0.0941913,-0.898127,0.18169,-0.225875,0.0512984,-0.575138,-0.355517,0.774923,-0.678956,-0.634036,0.282391,0.626951,-0.9887,0.904276,-0.719567,0.139991,0.0622969,-0.354089,-0.761072,0.271477,0.23311,-0.238363,0.776375,0.476881,0.29163,0.819,0.965998,-0.732758,0.715292,0.533252,0.916417,-0.837646,0.653399,-0.309002,0.0181456,-0.211493,0.101432,0.131726,-0.93879,0.405402,0.0852872,-0.076707,0.0451874,0.150207,-0.529924,-0.00117283,-0.600674,0.622327,0.713256,-0.280991,-0.478448,-0.446204,0.0619927,-0.691,-0.966,0.911,0.685,0.557,0.735356,0.399011,0.0919342,0.648745,0.56378,-0.694792,-0.662941,-0.87,-0.355,0.435177,0.263167,-0.736999,-0.601,-0.65,0.194,0.457,0.508,0.228091,-0.984,0.468,-0.147,0.731,-0.813,-0.068,0.842,-0.194,0.241,0.432999,-0.284159,-0.518095,-0.00775934,-0.544147,0.884083,0.638354,0.656998,0.00214475,0.501007,0.550991,0.131633,-0.855419,-0.0151989,0.951671,-0.592294,0.384158,0.859037,0.15987,-0.603003,0.365999,-0.613,-0.587,-0.167,-0.203,0.701,-0.423,0.728936,0.100253,-0.0595741,-0.468448,-0.898595,0.228982,0.0254973,0.0946133,0.231449,-0.542956,-0.721985,-0.115566,0.450155,0.773771,-0.573414,-0.854565,0.930602,-0.0194426,-0.898532,0.887114,0.907918,0.942958,-0.397433,0.865328,-0.132003,-0.455008,0.835,0.258954,0.341607,0.0908437,0.398545,-0.347418,-0.771052,0.942465,-0.218087,-0.637102,0.173714,0.311304,-0.0658839,-0.685791,0.247546,0.179391,-0.240806,-0.221371,0.0293484,-0.199534,-0.554845,-0.583305,0.717633,-0.460391,-0.669025,0.182713,-0.987161,-0.0765773,0.042,-0.560113,0.0194655,-0.129553,0.715064,-0.56717,0.641872,-0.228804,-0.334567,0.85769,-0.315556,-0.11667,0.506895,0.100949,0.550021,-1.07621,0.409902,-0.101515,0.163721,0.71493,0.535372,0.674355,-0.391216,-0.88154,-0.856943,0.816296,-0.843486,-0.938588,0.021,0.733819,-0.462312,0.613732,-0.769127,0.693485,-0.813055,0.559223,0.645574,0.740699,-0.743799,-0.899189,0.216948,-0.95566,-0.747413,-0.779078,0.18108,-1.04567,-0.707435,-0.676745,-0.0208584,0.224722,-0.679762,-0.767024,-0.135529,-0.212263,0.898191,0.142733,-0.298,0.626586,0.190549,0.270997,0.420592,0.875129,0.0395375,0.693265,0.540199,0.158186,-0.294515,-0.601718,-0.606108,-1.04213,0.729013,0.148799,-0.863417,-0.738846,0.666515,0.229315,-0.866097,0.842885,0.713813,0.0787774,-0.0797899,0.499116,-0.0968876,0.970627,-0.587,-0.176807,-0.341031,-0.327841,-0.472677,0.578842,1.16824,0.664157,0.0756895,-0.302948,-0.313919,-0.889148,0.212811,-0.250479,0.78107,0.269334,-0.433425,0.881979,-0.193558,0.0900584,-0.519312,-0.782107,0.834557,-0.55809,0.905495,0.12516,0.128537,-0.449,-0.305,-0.946554,-0.480198,0.116849,-0.466059,-0.0672661,0.645213,0.308286,-0.354283,0.661347,1.04517,-0.0131235,0.64105,-0.742897,-0.427143,-0.389738,-0.189018,-0.480083,-0.969358,0.481812,-0.55949,-0.549407,-0.829003,-0.491269,-0.38193,-0.993817,-0.0376557,-0.802,0.145,0.660833,-0.274017,0.810415,0.770985,-0.0147398,-0.20436,-0.446276,0.992508,1.12619,-0.227918,0.910056,-0.155222,-0.390965,-0.57366,1.02854,-0.748556,-0.250954,-1.04158,-0.170175,-0.342917,-0.828237,-0.225266,0.569905,-0.260866,-0.226138,0.918069,-0.115183,-0.251,-0.564719,0.0372027,0.393518,-0.887761,0.938436,0.0836109,0.752281,-0.00405461,0.540913,0.718911,0.985683,-0.0349791,0.886562,0.349388,0.559344,0.67783,0.282306,-0.291687,0.603885,0.466492,0.0319763,0.134073,-0.179672,-0.0559737,0.635077,-0.967253,0.0598293,0.872,0.492179,0.888582,-0.868961,0.490483,0.163666,0.883147,0.952136,-0.302722,-0.365021,-0.270698,-0.176366,0.493733,0.698685,-0.407899,-0.76926,0.343477,0.567005,0.0226631,-0.221072,-0.683051,0.582708,-0.521978,-0.644732,-0.221439,-0.106147,-0.189285,0.096,-0.992,-0.61432,-0.877733,0.872624,0.48645,-0.720943,-0.651434,0.243214,-0.0868126,0.424578,-0.689241,0.217337,0.737299,-0.37551,0.340883,-0.295884,-0.651277,0.959694,-0.48638,0.133958,-0.115131,0.0736443,0.571625,-0.115674,-0.476852,0.756899,0.0772466,-0.074,-0.235,0.453904,-1.03479,-0.748817,0.420183,-0.679966,-0.581547,-0.4319,-0.541256,-0.583738,0.0340808,-0.525418,-0.0548002,-0.145073,0.549918,-0.637463,0.402494,0.27116,0.244384,0.136685,-0.556361,0.481713,1.09327,-0.304311,-0.716213,-0.032012,0.55107,-0.418005,-0.058,-0.796229,0.44425,0.12333,0.116737,0.0481901,0.549419,-0.879317,0.214428,0.339669,-0.405355,-0.00780959,-0.0765936,-0.17436,0.5285,-0.702567,0.84157,0.129582,-0.121086,0.105642,0.683122,0.422631,0.506535,0.211278,-0.504878,0.22608,0.744092,-0.615,-0.715007,-0.143031,-0.547729,-0.377118,-0.581399,-1.2169,0.344776,0.206765,-0.464071,-0.33095,0.0732539,0.826379,0.43965,0.0546587,-0.533539,-0.156564,-0.476801,1.01983,-0.0505829,1.1811,-0.160341,0.448231,-0.599906,0.509731,-0.570464,0.468397,-0.49438,-0.596036,-0.7454,0.801448,-0.78321,-1.15617,-0.636071,-0.481726,-0.843646,-0.295796,-0.610965,-0.990151,0.717639,-0.00178255,-0.775783,-0.171121,-0.476642,0.619346,-0.521762,0.537917,-0.293365,-0.325084,0.0526801,0.125526,-0.573124,0.0795709,0.895471,-0.828596,-0.496133,0.855993,0.677674,-0.00326616,0.596466,0.524857,-0.492667,-0.964279,-0.948328,0.117451,-0.368979,-0.466267,0.515065,0.0563262,-0.951993,0.199226,0.660384,1.03538,-0.587638,-0.393948,0.691243,0.928894,0.100937,0.463005,-0.748969,0.487059,-0.871394,-0.615301,-0.247184,-0.843945,-0.380464,-0.192342,0.435329,0.548578,0.706136,0.426161,0.756729,-0.903161,0.0157222,0.862288,-0.000831367,0.854087,0.914917,-0.624052,-0.209729,1.0608,0.336799,-0.673131,0.601328,-0.132754,-0.560037,-0.0124572,-0.392483,0.435463,-0.437323,-0.331105,0.190955,-0.159684,0.10396,0.491585,-0.534046,0.174045,-0.704387,-0.886774,-0.0501332,0.485133,-0.0141689,0.0879823,1.23014,-0.575647,-0.459768,-0.444527,0.994611,0.937615,-0.573508,-0.534578,0.298009,0.309332,-0.720024,-0.31956,-0.982216,-0.815108,0.248091,-0.757935,0.243791,0.819,-0.041,0.994585,-0.846308,0.529249,0.478514,-0.698339,-0.312929,0.125565,-0.618333,-0.791244,0.432317,0.345536,-0.239877,-0.223921,0.480772,-0.291672,0.143725,-0.208245,0.570266,-0.0115618,-0.667384,-0.193829,0.844518,-0.358115,0.107182,0.429936,-0.697774,-0.772,0.652,0.532584,0.528417,-0.477651,0.53544,0.29671,-0.961834,-0.659857,0.619804,-0.120542,1.2803,0.940148,-0.537138,-0.185678,0.0489497,0.0897401,0.314803,-1.02919,-0.49646,0.478112,-0.895873,-0.691203,-0.739455,-0.286001,-0.0832986,0.700913,-0.251327,0.774,0.00773276,0.0340584,-1.03214,-0.359606,-0.823182,0.174712,-0.218033,0.551502,-0.47524,-0.249537,1.01902,-0.632317,-0.0448216,0.41969,1.02034,0.203996,0.938649,-0.419416,0.266153,-0.44527,-0.831313,0.698915,0.940811,-0.372361,-0.661364,-0.749072,-0.322181,-0.042,0.370627,0.415383,-0.712102,-0.601884,-0.470914,-0.606904,-0.320881,-0.403148,0.436012,-0.0252348,0.87496,1.06472,0.234153,0.742827,0.768653,-1.0301,0.0265166,0.662746,0.0113555,-0.501871,-0.607598,-0.856474,0.36071,-0.617236,-0.887238,-0.0963552,-0.178328,0.786,-0.394953,0.495418,-0.7244,0.993321,-0.469926,-0.344677,-0.591592,-0.095152,-0.614943,-0.508582,0.18633,0.596499,0.649329,-0.368531,0.00518186,-0.438382,0.730938,-0.225503,-0.354515,-0.589891,-0.474042,0.303581,0.0451297,-0.399809,0.652831,1.00612,-0.156079,0.622,-0.182694,0.215327,0.3902,-0.00199969,-0.663828,0.774598,0.0238527,-0.226222,0.857222,0.388748,0.859061,-0.544463,0.949987,-0.548745,0.769052,-0.155216,-0.553676,-0.188614,0.64562,-0.641374,0.573115,0.706004,-0.34221,0.623088,0.136767,0.2754,-0.876791,-0.766,-0.244992,-0.481345,0.861075,0.156942,0.763775,-0.162304,-0.837141,-0.937699,-0.911128,0.135085,-0.141845,1.03273,1.01836,-0.936011,-0.763293,0.346412,0.977941,0.611197,-0.665872,-0.514038,-0.709663,0.297717,-0.385057,0.335733,0.0278188,-0.195983,-0.104701,-0.914,0.592992,-0.427943,-0.681088,0.907815,0.0878722,0.733478,0.0432713,-0.157052,-0.885668,-0.286313,-0.583035,-0.802476,0.344768,0.184382,0.681911,0.295106,-0.229668,0.47217,-0.802507,-0.285255,-0.0139231,-0.608231,0.0781946,-0.22186,0.223346,0.233896,0.642966,-0.78,0.588,-0.463,0.864,-0.262963,-0.333338,0.742374,-0.357007,0.760985,0.474001,0.238916,-0.848014,0.14,0.507,-0.880001,-0.112001,-0.149997,0.303001,-0.428999,0.699,0.624,0.592,0.881302,-0.673956,-0.873,0.826,-0.038,-0.539,0.047,0.753,-0.897,-0.176,0.34,-0.803162,-0.314189,0.631978,-0.13878,-0.57275,0.834091,-0.819812,0.459914,0.0740072,0.892015,-0.844262,-0.863355,-0.989121,0.0437132,-0.0132153,-0.128063,0.171955,-0.313985,-0.504996,-0.679,-0.877,-0.622,-0.552,0.95,0.34,-0.090995,-0.44652,0.0921875,0.00933866,0.374257,0.989711,0.21227,0.62842,0.639197,0.62764,-0.947915,0.462504,0.815083,0.0698001,-0.908868,0.267884,0.237552,-0.758182,0.281606,0.835508,0.218191,0.703668,-0.437841,0.461173,-0.804233,-0.123406,0.580005,-0.869,0.324603,0.0868438,0.45194,0.742968,0.609682,-0.440118,-0.162898,-0.359264,-0.387816,0.592142,-0.782564,-0.81072,0.202978,0.826454,0.240225,-0.35703,-0.460221,0.398292,0.922915,0.291074,0.567959,-0.272168,0.120486,-0.687716,0.912808,0.153526,0.73601,0.666,-0.977056,-0.140741,0.745544,0.241718,0.863609,0.217814,-0.301558,0.212649,0.462836,0.505825,0.698378,0.893193,-0.414389,0.507057,0.775012,0.527498,0.480519,-0.369134,1.14133,0.464964,0.88627,0.485551,-0.35133,-0.166448,0.529123,0.077999,0.0519911,0.442,-0.777246,-0.673218,-0.379273,0.669626,0.0567035,-0.671911,-0.353477,-0.268564,0.716089,0.318201,0.768996,-0.00253078,-0.59085,0.213443,-0.253606,0.267414,-0.110735,1.11463,-0.255492,0.81522,-0.400551,1.23332,-0.473792,0.611561,-0.197812,-0.198119,-0.687845,0.899,0.434517,-0.10046,-0.191601,0.0395291,0.0370105,0.326842,-0.168222,-1.06972,-1.06782,0.636698,-0.313362,0.279492,0.198258,-0.691593,1.12587,0.787777,0.604788,-0.554586,-0.412176,1.01537,-0.547325,0.00841795,-0.226205,0.84151,-0.866664,-0.0555442,0.378544,-0.03,0.744047,0.664843,-0.677155,-0.447811,-0.607945,0.0873407,0.682496,0.208876,-0.260352,-0.55933,0.0170028,-0.440094,-0.580865,0.514915,0.920294,0.157048,0.775895,0.58738,-0.11274,-0.155807,0.816998,-0.35211,0.779905,0.00649875,-0.515076,-0.78551,-0.148,-0.299,0.162137,-0.780267,0.156029,-0.675059,0.73186,0.432381,-0.0174062,-1.05445,-0.045812,-0.268704,0.144885,0.984369,0.377828,-0.767905,-0.551922,0.671048,0.196685,0.830607,1.1393,-0.3323,0.183102,-0.612178,-0.259065,0.958442,-0.624332,-0.877806,-0.027,-0.046,0.8934,0.826955,0.619824,0.00944751,-1.03817,-0.670165,0.448639,0.575998,-0.788532,-0.631324,0.279801,0.178864,0.0995726,0.944821,-0.364807,-0.672657,1.01901,-0.532036,0.206053,-0.194444,1.02042,0.398756,0.136656,-0.38205,0.295079,-0.0336504,-0.543979,0.695,-0.352736,0.438611,-0.332011,-0.429285,-0.232616,0.783164,0.15378,0.00550022,-0.525684,-0.252254,0.989188,-0.570753,0.0110269,-0.210111,0.0981226,0.482092,-0.428005,0.197107,0.577129,0.846399,0.486566,-0.489995,-0.102117,0.138353,0.516642,0.121098,0.0379789,-0.653,0.657624,0.0687594,-0.900161,-0.586973,-0.47041,-0.752142,-0.504389,-0.015541,0.72008,0.462873,0.206535,0.942513,-0.765557,0.285945,0.940241,-0.31434,0.497461,-0.398597,-0.870529,0.987764,0.684663,0.318995,0.910846,-0.304208,0.475241,0.963383,0.084,-0.481,-0.347538,0.697684,-0.133085,-0.673459,-0.317183,-0.601317,-0.805577,-0.189315,-0.763123,-0.560177,0.537638,0.921323,-0.846535,-0.0899863,0.919011,0.825492,0.65108,0.484387,-0.741826,0.352374,1.11261,0.7973,0.0871322,0.0754302,-0.225026,-0.733369,0.096,0.781,-0.760792,-0.808672,-0.825222,-0.712223,0.617987,-0.467023,-0.317838,-0.859067,0.191316,-0.536725,-0.0511156,0.530513,0.131059,-0.400546,0.468458,-0.24462,0.551874,0.0523835,-0.165551,0.397401,-0.522827,-0.723782,0.787196,0.657445,0.774527,-0.288975,-0.362992,-0.906,-0.458918,0.668185,0.658774,-0.995192,0.129622,0.472262,-0.38204,-0.215942,-0.671856,-0.0565905,0.0397474,0.320375,0.721246,0.739734,-0.0686155,-0.120887,-0.618428,0.920042,0.154815,0.338255,1.23965,0.0948982,0.652074,0.701618,0.0641305,0.377021,0.412,-0.138026,0.646003,0.50353,-0.292002,-1.134,-0.375448,-0.814883,-0.65223,0.706407,-1.25083,-0.0790922,-0.328455,-0.281726,-0.414024,0.659449,0.669225,0.823597,0.233604,1.28835,0.977226,-0.117054,0.513083,-0.275277,0.565255,-0.354655,0.373777,0.123781,-0.545135,-0.92114,-0.949683,0.277676,-0.729128,0.451993,-0.657498,-0.308093,0.619133,-0.285197,0.0406993,0.659311,-0.103568,0.252522,0.475156,0.553927,0.457096,0.400741,-0.0164084,-0.172474,-0.358245,0.643592,-0.527915,1.12787,0.801941,0.260887,-0.701974,-0.318151,0.897975,0.335025,0.350623,0.746769,-0.262233,0.208877,0.0544132,0.122729,-0.512341,0.304609,-0.687307,-1.00305,-0.505929,0.567693,-0.712783,0.630649,-0.321441,0.101159,-0.45528,1.02539,1.10928,0.0783376,-0.385499,1.23871,1.00277,-0.564222,0.812933,0.00681521,0.103996,0.736956,0.676899,-0.549919,-0.506117,-0.043807,-1.07314,0.453831,-0.636837,-0.196688,-0.526131,-0.0165274,-0.762836,-0.31734,-0.00277644,-0.0597678,-0.859565,0.10538,1.12106,-0.500656,-0.564928,-0.278082,0.792166,0.648698,-0.18969,0.884243,0.313051,-0.670269,0.623956,-0.314961,-0.120135,-0.693381,-0.536769,-0.339384,-0.518591,-0.407308,0.521809,-0.768569,-1.1176,0.178438,-0.0610785,-0.772838,-0.6591,0.668485,0.0123654,0.407021,-0.534637,0.0929486,1.33105,-0.463893,0.233293,0.881593,-0.6283,-0.449646,-0.0715856,-0.880543,0.66,-0.814,0.98726,-0.186697,-0.592416,-0.110411,0.109963,-0.69829,0.31622,0.363972,-0.325518,-0.847524,0.155563,-0.387302,0.766826,-0.242161,0.100283,-0.68883,-0.605481,-0.464642,0.434666,-0.353129,0.201007,0.333172,-0.68938,0.581899,-0.289173,0.656988,0.787,0.503,0.758281,-0.0651511,0.113852,0.612987,0.710186,0.182233,-0.340358,-0.0736413,0.368371,0.349031,-1.09646,-0.377349,-0.790469,0.523986,0.435724,0.683658,1.1425,-0.635807,1.03294,-0.749688,1.03044,0.047836,-0.435652,-0.421671,0.646321,-0.512981,0.857,-0.835505,-0.879698,0.149135,0.0785677,0.339995,-0.858955,-0.900537,0.326406,0.593514,0.155735,0.329781,-0.803835,-0.435285,0.0412481,-0.762935,0.154546,-0.149408,0.477107,-0.69107,-0.458289,0.325502,0.765778,0.652489,0.32422,0.797936,-0.725417,0.299031,-0.817,0.321544,0.762448,-0.997162,0.362451,0.425669,-0.139194,-0.573828,-0.472176,-0.469017,0.848124,0.700317,-0.684011,-0.164608,-0.333825,-0.561286,0.273569,0.202019,-0.736111,1.02854,0.953193,0.370174,0.821142,0.530304,-0.944353,0.704351,-0.0429499,0.40488,-0.029,-0.32339,-0.313685,0.0973117,0.90978,-0.96961,-0.1415,0.194562,0.0693304,0.538771,0.333929,0.516605,0.797033,-0.132264,-0.237121,1.0175,0.552481,0.237841,-0.664411,-0.694162,-0.697663,-0.767411,0.852853,0.367516,0.0244441,0.746924,-0.414418,0.059713,-0.074,0.0200846,-0.986872,0.851613,0.657513,-0.713975,-0.299352,0.816591,0.903668,-0.0208212,-0.179256,-0.0578293,-0.842212,0.713264,0.933639,0.826824,-0.591526,1.04239,0.676391,0.424895,0.147714,0.250315,0.29965,-0.370565,-0.125838,-0.323325,0.530769,0.798528,-0.674,0.629635,-0.58779,-0.210305,-0.380978,-0.561366,-0.660645,-0.578617,-0.249818,-0.523486,0.645094,-0.876366,0.400935,-0.637038,-0.52066,0.420654,0.515084,-0.70052,-0.295643,0.394792,-0.788182,0.699044,-0.471318,-0.327741,-0.168107,0.339804,-0.197094,0.620224,0.945,-0.681995,-0.0270815,0.829238,0.945282,0.381758,-0.796744,-0.841175,0.371349,-0.980304,-0.515022,0.59854,-0.557629,-0.916587,0.65989,0.349818,0.955588,-0.911074,-0.733871,0.40478,0.858219,-0.138492,-0.303489,0.533057,-0.498897,-0.244904,0.738427,0.293119,0.624,-0.461,-0.532,0.125,-0.586209,-0.00365908,-0.0481566,0.918986,-0.619281,-0.295051,-0.933088,0.299672,-0.281,-0.882,-0.101,0.162,0.756,-0.89,-0.496001,0.706,-0.808,-0.236,-0.335956,0.602136,0.176,-0.086,0.133,0.675,0.225,-0.572,-0.476,-0.595,-0.0320013,-0.451215,0.530356,-0.0600018,0.548503,-0.958192,-0.140967,0.926523,-0.254736,-0.0730011,0.225998,0.466228,-0.39354,0.685202,-0.817477,-0.64311,0.792723,-0.75631,0.619654,0.541977,-0.435,0.841,0.143,0.742,-0.246,0.833,-0.0270018,0.536496,-0.740815,0.497728,0.944424,-0.213738,-0.953444,0.0343862,0.737593,0.14999,0.0736846,-0.419334,0.0741664,0.372519,0.0751553,0.876939,-0.592283,0.680526,0.105391,-0.417575,-0.967098,-0.108165,-0.627101,0.646779,0.988708,-0.0586465,0.486987,-0.312,-0.759341,0.793905,-0.49333,-0.234236,-0.105219,-0.689534,0.78827,-0.599031,0.162722,0.891176,0.423827,-0.147,-0.410731,-0.932998,0.0435582,0.725159,0.481615,-0.900619,0.133732,0.83213,0.712255,0.699952,0.933969,0.785183,-0.789767,-0.675853,-0.0447007,-0.841,-0.180587,-1.0144,-0.194802,-0.415718,0.336268,-0.177232,0.216021,0.681108,0.198334,0.162572,-0.847203,-0.668973,-0.425097,0.112935,-0.253015,0.222862,0.231539,0.781751,-0.602478,-0.517977,0.647873,-0.108838,-0.607847,0.187229,-0.149951,-0.603503,-0.563708,-0.053,-0.736144,0.372467,-0.413587,0.00293964,-0.1394,0.348369,0.0493357,0.743015,-0.618182,-0.365133,0.591794,0.0538048,0.63911,0.630869,0.458913,-0.551918,0.0428638,-1.0422,0.19502,-0.933799,0.508752,0.482678,-0.647679,0.673478,-0.180019,-0.547846,-0.244451,0.546,-0.592125,-0.257054,-1.04539,-0.5027,-1.05101,-0.496232,0.158681,-0.373778,-0.787279,-0.384543,-0.543539,-1.04268,-0.0586476,-1.03109,0.341852,-0.329278,0.599339,-0.364016,-0.305716,-0.396065,-0.44487,-1.07004,-0.475224,-0.966408,0.746078,-0.485192,0.21093,-0.896,-0.0151456,0.520429,0.087999,0.173546,-0.968406,0.122862,0.637501,-0.493179,1.00284,-0.00471173,-0.396779,0.637649,0.0325706,0.128331,0.479156,-0.717392,0.146332,-0.649078,-0.493155,-0.503486,0.194372,0.483831,0.337534,0.458613,0.413482,0.325014,0.509,-0.178,0.859177,-0.285705,-0.195554,-0.370734,0.575549,-0.954704,0.822408,-0.890544,0.357564,0.402128,-0.963816,-0.108306,-0.55344,-0.323858,-0.901982,0.282431,0.447795,0.308421,0.161208,-0.324663,-0.615751,-0.65067,0.534402,0.150945,0.134337,-0.777027,-0.395,-0.345,0.125115,0.664645,-0.0815921,-0.238,0.662314,0.773675,0.275685,0.549993,0.367324,-0.0636724,0.702479,-0.499688,-0.418015,0.697835,0.282929,-0.71376,-0.838487,0.265468,0.396717,-1.02977,0.128884,-0.091237,-0.502708,0.46189,-0.443192,0.353204,-0.502743,0.721,0.591413,-0.350414,0.838333,-0.427279,0.74209,-0.172937,0.15339,0.600908,-0.85432,-0.582497,0.158207,-0.802039,0.289914,-0.218822,-0.427149,0.396241,-0.93782,0.402392,-1.12058,-0.641193,0.0055696,0.361938,-0.466834,-0.727167,-0.692612,-0.505297,0.0940451,-0.614,0.853076,0.110065,-1.01142,0.327252,0.818432,-0.868231,0.87472,0.224757,-0.666218,-0.21913,0.058457,-0.115702,-0.168004,0.536672,-0.383788,-0.509317,-0.837652,-0.247704,-1.27172,-0.645791,-0.901831,0.588974,0.155614,0.573884,0.286603,0.318243,0.218,0.124,0.387121,-0.679952,0.513042,0.282784,0.573445,0.870684,-0.0392845,-0.0791896,0.182302,0.887441,-1.08524,0.502389,-0.366974,-0.380695,-0.576707,0.679664,-0.560025,-0.144259,-1.26554,-0.653451,-1.18826,-0.87785,-0.0122417,-0.376873,-0.828995,0.813567,0.603,-0.039,-0.300575,-0.16842,-0.812842,-0.763927,-0.157957,0.351645,0.610962,0.927399,-0.156153,0.490431,-1.03236,0.341045,0.332846,-0.757428,0.0436211,-0.819024,-0.659294,-0.0740984,0.248852,-0.462115,-0.923618,0.234207,0.0673825,-0.909918,0.372142,-0.684705,-0.815034,0.002,-0.866338,0.762364,1.00828,-0.0337691,-0.675903,0.804419,0.231914,-0.410057,-0.17102,-0.745095,-0.868725,-0.0433458,0.307698,-0.625142,-0.18709,0.101094,0.84041,-0.180101,-0.597036,-0.832384,-0.927483,0.68297,-0.306605,-0.71652,0.481266,-0.863952,0.865,-0.25,-0.554324,-0.98796,0.772289,-0.847464,0.412026,0.364919,-0.266816,0.532917,-0.649995,0.382199,0.425754,0.0516816,0.339548,0.946033,1.12708,0.0785616,0.618658,-0.881969,0.332095,0.283037,-0.160266,0.333149,0.18024,0.461139,0.536706,-0.882503,0.123998,-0.557925,0.802762,-0.0978427,0.087197,0.649394,-0.155384,-0.57612,-0.947275,0.915141,0.192676,-0.573794,0.483825,0.770172,0.762169,-0.00240216,-0.105915,-0.0085226,-0.308696,-0.460245,0.366705,0.259003,0.748387,-0.98187,-0.906082,0.0188918,0.79594,-0.0124786,0.833,-0.257714,0.0919838,-0.165308,-0.0246211,-0.773642,0.265941,0.865895,-0.620252,-0.501626,0.998512,1.0054,-0.23918,0.549116,-0.630442,1.12046,0.155856,1.19348,-0.334722,-0.172029,-0.805414,-0.918825,-0.634039,-0.172309,-0.20447,-0.526521,-0.168012,0.113365,-0.0350046,-0.481872,0.648291,-0.309825,0.0918579,-0.370135,0.293847,-0.892198,0.0213007,-0.0120653,1.20329,0.52164,0.21338,1.14485,-0.107515,0.504714,0.412917,0.272765,-0.400185,0.0711845,0.842346,-1.09274,0.426369,0.460781,0.553511,-0.743328,-0.256667,-0.326536,-0.254001,0.0760132,0.350144,0.197322,0.496515,-0.0382204,-0.781427,-0.255573,0.629537,0.194035,-0.33509,-0.528103,0.515326,1.05591,0.200141,-0.323236,1.29561,0.43345,-0.0850797,-0.884127,0.57613,-0.262868,-0.110678,0.0198093,-0.0963887,-0.0891109,-0.0146423,-0.263548,-0.314,0.195,0.416936,-0.0352837,-0.848176,-0.758431,-0.57902,0.794248,0.642215,1.07157,0.494654,-0.670107,-0.126063,0.980643,-0.249147,1.01626,0.532746,0.032659,0.78581,-0.631045,0.62716,-1.10061,-0.514715,0.0317685,0.127823,0.668774,-0.362331,-0.790797,0.966,0.033,-0.496189,-0.352705,0.67039,0.364914,0.287541,-0.710078,0.932818,0.487543,0.0433219,-0.350397,0.347427,-0.503525,0.074784,0.91272,0.986936,0.0375755,0.307007,-0.155148,0.0711687,-0.415435,-0.0426054,0.0453876,0.0321651,-0.814999,-0.36544,-0.75887,0.623,-0.292014,-0.991432,0.139879,0.743574,-0.982274,0.812358,0.180132,0.618117,0.0394494,-0.283667,-0.14088,-1.08371,0.637066,0.510873,0.428595,0.929708,-0.739085,-0.274915,0.0638044,-0.582244,0.879733,0.482959,0.707487,-0.148301,-0.0122782,-0.345951,0.398783,-0.031,-0.20507,0.643615,-0.82499,0.646191,0.346865,0.359843,-0.176907,0.278554,-0.39323,0.709339,-0.900378,-0.0203296,-0.574877,0.181834,0.249791,1.07582,-0.348789,-0.70281,0.679459,-0.951207,-0.700057,-0.394219,-0.446534,-0.656611,-0.645394,0.86317,-0.430635,0.176,-0.491631,0.972241,0.745291,0.0261297,0.345122,0.45067,0.856463,0.814956,-0.919031,-0.540978,-0.488102,-0.261004,-0.851064,0.236952,0.780056,-0.495601,-0.326885,0.0589136,0.85205,-0.0412685,-0.400615,-0.100139,-0.465759,-0.0954916,0.120698,-0.485222,-0.46937,-0.137,-0.641901,-0.330309,-0.883348,-0.439444,-0.644891,0.354574,0.241532,-0.168625,-0.865799,0.055623,-0.197571,-0.524853,0.559079,0.893366,0.640013,0.435832,0.132785,-0.205369,0.134278,0.00072786,0.0698385,-0.212557,0.435721,0.675336,0.266844,0.857581,0.884509,-0.79,-0.674698,-0.57887,0.124618,-0.237778,-0.27797,-0.295414,-0.30072,-0.145208,0.934058,0.472568,0.798018,-0.741483,-0.204364,-0.16461,-0.145099,0.897983,-0.828046,0.836872,-0.391289,-0.418454,0.934573,0.607801,0.518211,0.0309855,0.976988,-0.097204,-0.875904,0.127,-0.719013,-0.992103,0.338724,-0.388073,0.98625,0.972073,-0.13979,-0.366632,-0.363109,0.516879,0.473792,-0.393229,-0.390601,-0.141979,-0.59868,-0.0995027,0.160032,-0.280072,-0.311077,0.195321,1.00193,-0.22321,0.731793,0.938857,-0.611733,-0.212324,-0.509144,0.889,0.239,-0.384,-0.428,0.519843,-0.377312,0.465883,-0.871979,-0.833862,0.43504,-0.461571,-0.649143,-0.928,0.622,0.830992,-0.765008,-0.776,-0.763,-0.813003,0.116,0.387,-0.108,0.344937,-0.423006,-0.552,-0.879,0.864,0.942,-0.936,-0.349,-0.567,0.953,0.889986,0.0476072,-0.478345,0.408224,0.229869,0.547698,0.0966576,0.39868,-0.0170336,0.634965,0.749029,0.0556679,-0.187939,0.136083,0.289998,0.0378297,0.373534,0.477825,-0.84703,-0.682895,0.927,0.0560002,-0.105,0.932,0.177,-0.685,0.873998,0.241142,-0.0327356,0.865282,-0.24643,-0.581447,-0.0806252,-0.157268,0.399473,0.71272,-0.616887,-0.964115,-0.338765,0.367359,0.225297,0.964067,0.981009,-0.955635,-0.342357,0.267047,0.0790762,-0.960973,-0.693367,-0.208209,-0.650148,0.78518,0.841,-0.202,0.716987,-0.423058,0.121856,0.161742,0.413722,0.672143,0.0567207,-0.781513,0.731944,0.600614,0.0372492,0.0498079,-0.188314,-0.0367418,0.065273,0.425099,0.852304,0.838205,0.40586,0.838329,0.892441,-0.916685,-0.326615,-0.480843,0.615857,-0.537117,-0.193001,0.499,-0.750601,-0.795853,0.851451,0.529571,-0.163152,-0.405161,-0.692689,-0.706201,-0.62715,0.0158495,0.990511,0.884887,0.940656,-0.568306,-0.636444,-0.375667,0.248298,-0.141947,0.936421,0.032422,-0.272246,-0.0582136,-0.531191,-0.843102,-0.535044,-0.021639,-0.467,0.588,0.445151,0.342417,-0.372718,0.222118,0.118164,-0.469026,-0.207403,0.942581,0.164564,0.170204,0.719179,-0.194514,0.399498,0.451989,-0.888116,0.239652,0.372628,-0.572629,0.747416,-0.521548,0.225082,0.240589,0.158869,0.568525,0.732489,0.495976,0.552,-0.883,-0.968091,0.660219,0.279869,0.446803,-0.498606,0.844279,-0.349319,0.627048,-0.519178,0.174034,0.175752,-0.0301887,0.556277,-0.822793,0.287973,-0.0187373,0.262065,0.506458,-0.728527,-0.464524,0.221558,0.740191,-0.463108,-0.844077,0.203193,0.706862,0.552001,-0.187,-0.245648,-0.290143,-0.44682,-0.204756,-0.725535,0.670269,-0.791249,-0.132393,0.304139,-0.41071,-0.975903,0.495976,0.416827,-0.0717781,-1.01558,0.143104,0.429723,0.698831,0.960739,-0.303894,-0.652684,0.718668,-0.0715465,0.674329,0.827852,0.15775,0.652,-0.591,-0.147296,0.25512,-0.176135,0.14103,0.388423,-0.254563,0.888402,0.752956,-0.844661,0.697212,-0.526481,0.183103,0.591224,-0.715105,-0.811957,0.239157,0.262581,-0.190752,-0.618134,-0.261921,0.619432,0.748736,-0.467176,0.981767,0.394951,0.261,0.104,-0.412,-0.590755,-0.170122,0.0622611,-0.128622,0.623235,0.448383,1.04254,-0.0154638,-0.82265,0.811845,-0.917617,0.730546,0.0591113,-0.423326,-0.0424656,-0.0612854,-0.0550641,0.745268,-0.831734,0.828583,0.829236,0.627726,0.769913,0.544154,0.316163,-0.380117,0.0730182,-0.418,0.436319,0.818818,-0.163133,0.539533,-0.303879,0.958589,-0.714085,0.55286,-0.443295,-1.01984,-1.1288,-0.691603,0.589944,-0.762894,-0.807741,-0.507758,-0.264225,0.511948,0.229739,0.221976,0.0474854,0.0304893,-0.149859,-0.401854,-0.512703,-0.201686,0.624004,0.712,-0.0194616,-0.681756,0.98017,-0.437628,1.17375,-0.259943,0.839415,-0.965093,0.815714,0.469447,0.560983,-0.927755,0.670603,0.626521,-0.668628,-0.0677425,1.03618,-0.24802,0.129852,-0.738925,0.445839,0.825149,0.185837,-0.849852,-0.0108904,-0.96693,-0.435,-0.044,-0.163811,-0.748762,-0.641501,0.488839,-0.436948,0.690805,0.794193,-0.569695,0.791296,0.199572,-0.4317,0.714618,-0.408858,0.507192,0.596717,0.944975,-0.145099,0.679299,-0.40388,-0.568012,0.665521,0.220923,-0.626731,0.194229,0.174449,0.51729,0.156,0.684,0.559478,0.327072,-0.301835,0.965133,-0.00266982,-0.553088,0.347506,0.472825,-0.861058,-0.142426,0.671019,0.977662,0.803156,0.558747,0.188707,-0.809969,-0.259887,-0.294221,0.559793,0.49149,0.749972,0.853036,0.698617,0.500693,-0.196311,-0.908521,-0.454,0.512,0.627653,0.281449,0.144238,-0.350714,-0.501433,0.424469,-0.315407,0.10298,0.847445,-0.68523,-0.0306344,0.72174,-0.142015,0.912731,0.659851,1.29426,-0.208572,-0.747907,0.462324,0.200879,-0.629306,-0.015239,-0.689927,-0.728891,-0.449009,-0.986055,0.223,0.351,0.686365,0.735529,-0.270372,-0.257702,-0.49073,0.515511,0.50483,-0.453669,-0.47916,-0.322899,1.31096,1.32908,1.17996,1.33465,0.837726,-0.529927,0.279131,-0.886494,0.496105,0.646221,-0.673581,0.120313,-0.418619,-0.661739,0.638748,-0.19366,-0.404001,-0.689995,-0.600331,0.725227,0.509023,0.529157,0.0284278,-1.09208,-0.686755,0.00979709,0.142556,-0.598384,1.35678,1.03609,1.15117,0.60702,1.14338,0.732948,0.374072,-0.442989,0.427885,-0.640416,-0.210513,-0.349537,0.607495,-0.403011,0.573,0.698905,0.0849998,0.49502,-0.920919,0.121395,0.198512,-1.08884,-0.637035,-0.335293,0.311728,0.344939,-0.488161,-0.639155,0.208076,0.911414,0.875698,-0.33855,0.435036,0.99482,0.804561,-0.557212,0.272618,-0.281043,-0.222353,-0.551819,-0.434374,0.378205,-0.176683,-0.792932,-0.720001,-0.708992,0.924628,-0.143868,0.185755,0.411433,-1.1114,-0.656633,0.265434,-0.543987,0.147908,0.304982,-0.946148,0.353208,-0.0799166,-0.417232,-0.104724,-0.12669,0.0312114,-0.945932,-0.171871,-0.369579,-0.669364,0.865634,0.355201,0.0132613,0.622303,0.980709,-0.703004,-0.705,0.759962,-0.443729,-0.626485,-0.0649562,-0.295981,0.588146,-0.43841,-0.00746449,-0.940588,-0.71946,0.785458,0.238111,0.0992612,0.476436,-0.561041,-0.792406,-0.947692,0.218576,0.221088,0.461091,0.73279,0.967291,-0.78398,0.530443,0.234334,0.20815,-0.12,0.077,0.194244,0.128564,0.128653,-0.890453,-0.12117,0.180551,0.574791,-0.796744,-0.118855,-1.02216,-0.0349641,0.0139618,-0.543707,-0.389324,-0.860633,0.230085,-0.916152,-0.505461,0.673072,-0.403353,-0.70513,0.297748,0.660711,0.435489,-0.241216,0.596163,0.28,-0.883,-0.193468,0.6531,-0.0264327,0.229558,-0.912919,-1.14232,-1.04895,0.229854,0.497001,0.161646,0.0518213,-0.427268,0.617997,-0.517314,0.829018,0.540448,-0.57735,0.418271,0.065319,0.0491673,-0.518994,-0.016074,0.0647706,-0.892588,0.863109,-0.0685247,0.301,-0.354,-0.469238,-0.456362,-0.353827,0.15875,0.668454,0.37081,-0.624487,-0.782545,0.452906,-0.691155,0.50949,0.322127,0.680382,0.00862635,0.975215,0.0604682,-0.267801,0.292099,-0.531596,0.638767,0.0372533,0.493575,-0.618022,-0.161463,-0.919535,0.549583,-0.027,0.895001,-0.96209,0.855928,-0.477293,-0.518347,0.883612,-0.203925,0.405686,0.748566,-0.752966,0.820711,0.679303,-0.898046,-0.772943,0.472818,-0.0224634,0.659034,0.811764,-0.0925554,-0.487279,-0.667891,0.723808,-0.324868,0.600313,-0.437352,-0.859974,0.483968,-0.16,-0.859,-0.417147,0.374016,0.602634,-0.357117,0.225481,0.703189,-0.204274,0.187427,-0.469145,-0.763523,0.0791551,-0.400199,-0.722614,-0.63785,-0.809404,0.873683,0.23416,0.0949561,0.661093,0.0792497,0.32846,0.265516,-0.00773144,-0.115767,0.835159,0.994528,-0.191,0.454999,0.471701,0.219515,0.201509,-0.859418,-0.34001,-0.152679,-0.61382,0.914957,1.11104,0.126174,-0.324236,-0.287582,0.34417,0.20799,-0.263855,0.0108938,0.400948,-0.636629,-0.125571,-0.407072,0.202236,0.643032,-0.192453,0.893479,-0.246211,0.184426,-0.871,-0.913,0.176589,-0.486096,0.569937,-0.308149,0.766748,-0.187746,-0.606662,-0.638554,0.082896,-0.423361,0.695456,-0.362087,0.556341,-0.797084,-0.274826,-0.279707,-0.200918,0.307478,0.152209,1.05744,0.446166,0.725209,0.920881,-0.943128,-0.180846,-0.382563,0.823,0.546,0.800167,0.512537,0.637883,-0.0217387,-0.990268,-0.257291,0.201115,0.712541,-0.0129519,0.440151,0.545112,0.54469,0.496712,0.158238,-0.910034,-0.0378507,-0.172709,-0.262769,0.15864,0.537255,0.958186,-0.771035,0.0760435,-0.0801327,0.489349,-0.0319634,-0.06,0.858,0.142,-0.68,0.402918,-0.0612566,0.827263,-0.407001,0.475153,0.833114,0.325285,-0.792945,0.096,0.866004,0.204031,-0.363968,0.404049,-0.306988,0.346003,0.489,0.207,0.724,-0.780003,-0.638,-0.186,0.734,-0.853,0.888,-0.349,0.193,-0.588,0.149,0.051,0.553998,0.468999,-0.989411,-0.946991,-0.144922,-0.396895,0.525065,-0.756006,0.48501,0.732083,0.340632,0.35126,-0.0643922,0.533283,-0.247371,0.186009,-0.121761,0.800253,-0.608,-0.399,-0.981,-0.246,-0.027,0.311,-0.542,-0.139995,0.961968,0.207839,-0.170714,-0.332278,-0.740228,-0.617448,-0.863403,0.833869,-0.558497,-0.00795217,0.987574,0.519203,0.234842,0.471313,0.247508,-0.872129,-0.621955,0.741956,0.66587,-0.309811,-0.0748822,-0.45956,-0.510672,0.32004,-0.300912,-0.936,0.629,0.229204,0.375524,0.639694,-0.926901,-0.11025,-0.58784,-0.0780013,0.564031,-0.763586,-0.122385,0.716737,-0.935177,-0.132473,-0.762595,-0.990767,-0.650382,0.0414924,0.0832389,0.627386,0.169704,0.442709,-0.0885779,-0.628369,-0.872472,0.398502,-0.517825,-0.379992,-0.727,-0.262469,-0.319969,0.442614,0.933604,-0.961317,-0.349492,-0.949323,-0.476404,0.1025,-0.445798,-0.906924,0.316523,-0.0322127,0.340004,0.356558,0.834741,0.609978,0.418599,-0.822783,-0.843728,-0.570927,0.308071,-0.157136,0.427938,0.806348,0.26316,0.580009,0.211,0.74331,0.747113,0.47141,-0.560628,-0.614234,-0.534138,-0.556362,-0.907061,0.195323,-0.924612,-0.421346,-0.755925,-0.812905,-0.759314,0.581834,0.166662,0.581254,-0.520179,-0.518403,0.0883964,0.320685,-0.447319,-0.27149,0.321771,0.50794,0.683565,-0.190999,0.332,-0.0574733,-0.637052,-0.939656,-0.38093,0.616755,0.087914,0.155772,-0.832764,0.660105,0.166033,0.746911,-0.188271,0.262618,0.914262,-0.381025,0.00127917,-0.873559,0.700007,-0.947584,0.563538,-1.0002,-1.06193,-0.838964,0.413586,-0.33712,0.0525913,-0.19467,0.739,-0.270836,0.140216,-0.422982,0.608637,0.0394836,-0.323585,0.883826,-0.206775,0.818166,-0.423369,-0.511878,0.0493222,0.774603,-0.784787,0.813697,-0.4059,0.695047,-0.998473,0.535635,0.733554,0.571541,0.00921861,-0.160799,0.667518,0.144845,0.199414,-0.248,0.395,0.806272,0.0916753,0.0929481,-0.959381,-0.765391,0.722837,0.287721,0.378018,-0.989609,0.205314,-0.814303,0.87137,0.330144,-0.412737,-0.607096,0.139976,-0.562665,0.845007,0.322784,-0.83192,0.852287,-0.153499,0.52762,0.532673,0.603992,-0.407922,-0.065,-0.176,0.34808,0.679095,-0.78698,0.140823,-0.649233,-0.102132,0.234513,-0.367771,-0.777569,-0.878859,0.556087,-0.813641,0.196385,0.145267,0.521841,-0.780905,0.515517,-0.841145,0.527319,-0.864633,-0.890191,-0.527304,-1.03363,-0.910417,0.0856106,0.708584,0.359419,-0.226,0.855095,-0.703719,0.623241,0.20592,0.553713,0.391585,0.939665,0.933509,-0.697654,-0.29894,-0.995649,-1.08391,-0.383909,0.410036,-0.895726,0.655775,-0.022727,-0.979424,-0.9218,-0.348779,0.780727,0.194409,-0.608939,-1.0097,0.887403,-0.415571,0.845257,-0.369,0.853663,0.198402,0.438693,0.73117,0.100157,-0.377692,-0.446059,-0.347689,0.479225,0.863527,-1.07565,0.199233,-0.552713,-1.09788,0.222185,-0.0160382,0.326479,0.697084,-0.222497,-1.09204,0.261166,-0.57231,-0.385781,0.144213,0.80257,-0.204126,0.37,0.397,-0.0456457,0.245082,-0.894517,-0.555299,1.07897,0.0927117,0.70391,0.0224494,0.481952,-1.01867,0.0572926,-0.502527,-1.05751,0.0948739,0.842007,-0.770801,-0.1458,0.329214,0.352799,-0.730146,-0.373859,0.71999,-0.722318,0.972666,-0.770218,-0.43709,0.24,-0.839,-0.0709353,-0.824569,0.169559,0.948825,-0.019148,0.193522,0.840724,-0.112136,-0.915049,0.3813,0.892028,0.20655,0.117395,0.126149,0.8725,0.220928,-0.576474,0.490048,0.15864,-0.0730649,-0.169048,-0.535085,-0.240648,-0.0701271,0.588094,-0.579076,-0.187,0.846,-0.0213357,0.580843,0.580568,0.454115,0.289543,-0.369756,-0.1422,-0.824638,0.285994,-0.285739,0.242766,0.594569,-0.72763,0.211664,-0.573775,0.467042,-0.532967,0.980506,-0.716173,-0.643108,0.312773,0.270624,-0.324296,0.389537,-0.124064,-0.0112726,-0.945,0.964992,0.401085,-0.581536,0.795115,0.85302,0.43309,0.222188,0.331248,-0.168807,0.520207,-0.661958,0.278621,0.106818,-0.280622,-0.543251,-0.369421,-0.0363414,0.222844,-0.451747,0.864565,0.0432256,-0.709706,0.490646,-0.278286,-0.253554,0.788511,-0.129489,0.84096,-0.411619,0.85944,0.459541,-0.409807,0.252552,0.369128,0.813091,-0.306496,-0.0270164,-0.202442,-0.790789,1.04106,-0.473908,-0.892613,-0.346068,0.406551,-0.234891,0.154755,0.548487,0.176269,0.794549,0.533329,-0.522396,-0.356153,0.49167,0.58142,0.0123297,0.605993,0.300561,0.879015,0.493211,0.562797,0.358996,-0.598706,0.454037,-0.971333,0.799509,0.37943,-0.155686,-0.553496,-0.727272,-0.475108,-0.721355,-0.766617,-0.239781,-0.234167,0.378147,0.0952644,0.880861,-0.0720514,0.796833,0.106896,-0.735718,-0.925018,0.594471,0.19699,0.568606,-0.848119,-0.151502,-0.0227134,-0.955407,0.721481,-0.794125,-0.227541,0.702016,0.741782,-0.107886,0.580991,-0.253697,0.701208,-0.989456,-0.337115,-0.930061,-0.764518,0.165888,-0.106028,-0.00506045,-0.454829,0.484485,-0.757736,-0.159176,0.143562,0.280811,-0.435097,-0.285926,-0.569148,0.791899,-0.647841,-0.40827,-0.920036,-0.362011,-0.883385,0.421794,-0.50735,-0.0476265,0.217744,0.896926,-1.10305,-0.136698,-0.243911,0.394235,-0.240514,0.659957,0.552928,-0.428482,-0.591145,0.965389,-0.0779997,-0.681221,0.362237,0.148901,0.097,-0.967,0.995316,0.695548,-0.221206,-0.58707,-0.082466,-0.508353,-0.494415,-0.36876,0.237652,-0.338859,-0.870843,0.838996,0.653729,0.297192,0.714061,0.239093,-1.01898,-0.725155,-0.22194,-0.643763,0.568008,0.894427,-0.194428,0.357595,0.792184,0.715725,0.661,-0.324,-0.57212,-0.667651,-0.743221,-0.654447,0.429966,-0.102315,-0.666888,-0.951012,0.101132,-0.0772965,-0.235062,-0.98833,0.142649,-0.237715,0.744488,-0.574573,0.831386,0.260155,0.844307,0.887566,0.125945,-0.424591,-0.85827,-0.837914,-0.51501,-0.45767,0.544,0.797064,-0.734869,0.214919,-0.564203,-0.844037,-0.0465751,-0.381543,-0.853798,-0.429749,0.260371,-0.398347,-0.262907,-0.94452,0.0671478,0.362901,-1.03197,0.822465,0.827414,0.460098,-0.623699,0.685304,-0.783509,-0.875833,0.055554,0.393315,-0.604981,-0.12925,0.587,-0.60267,0.415791,-0.302956,-0.860868,0.142884,0.770961,-0.911396,0.371295,-0.53346,-0.517342,0.680393,0.173108,0.410051,0.82271,0.818204,0.425419,-0.514867,-0.203051,0.026238,-0.652489,-0.841547,-0.592994,-0.349761,0.810739,-0.708246,-0.506079,-0.463719,0.696,-0.148995,0.405706,-0.183166,-0.262869,-0.271384,0.415853,-0.106165,-1.02391,-0.072694,-0.250119,0.0625402,0.528134,-0.11284,-0.225084,-0.76899,-0.718969,-0.861694,0.588747,0.238799,-0.399466,0.892508,0.740259,-0.103289,-0.980541,-0.790172,0.187257,0.441374,-0.51,0.656009,0.97801,0.726524,-0.982809,-0.131008,-0.945848,-0.188758,0.721745,0.197971,0.420387,0.387163,0.821697,-0.724947,-0.507489,-0.145715,-0.368638,-0.271748,0.00832505,-0.584857,-0.1644,-0.883561,0.608948,-0.0352527,0.974645,-0.0718823,0.887453,-0.991606,0.128,-0.376995,0.452124,0.170431,0.824194,-0.0418211,-0.554703,0.877452,0.909038,-0.386532,-0.224173,0.272623,0.444493,0.797459,-0.365973,0.162306,0.517143,-0.40316,0.970171,-0.868192,-0.138415,-0.48834,-0.463718,0.239441,-0.391451,0.705535,-0.78193,-0.40877,-0.368,0.662,-0.399947,0.316473,-0.716873,0.608032,-0.949032,-0.881358,-0.850965,-0.473143,0.578295,-0.92376,-0.301914,0.905695,-0.121589,-0.905431,0.65594,0.479233,-0.197305,0.164216,0.617867,-0.24208,-0.151985,-0.525624,0.267609,0.383674,0.722332,0.439019,-0.352,0.939,-0.971,0.28,0.157,-0.813999,-0.845998,0.441996,0.35144,-0.796907,0.119019,0.5,-0.716,-0.30499,0.133139,-0.0188622,-0.403876,0.56503,-0.370981,-0.752,0.041,0.427,-0.0299788,-0.785003,0.741,0.818,-0.753,-0.435,-0.242,0.526,-0.997,0.406,0.0219973,0.589908,-0.756029,-0.820165,0.333433,-0.599875,0.623988,-0.315068,-0.842876,-0.261856,0.741001,-0.557929,-0.0106664,-0.570864,-0.020842,0.587894,0.995847,0.165731,0.835585,-0.407914,-0.852,-0.196,-0.636,0.889,-0.822,-0.389,-0.988997,-0.0629106,-0.863043,-0.982869,-0.654916,-0.286421,0.16519,-0.849573,-0.0861686,-0.489084,-0.454625,-0.922648,-0.260313,-0.744454,-0.63558,-0.520241,-0.749049,0.358232,-0.541587,0.224308,-0.0487133,-0.530129,0.964075,-0.656627,-0.385996,-0.898604,-0.304,-0.031,0.547815,-0.125116,0.576381,0.556678,0.390845,0.293447,0.167583,0.784043,1.05785,-0.632382,0.941105,-0.0138345,-0.556958,1.01212,-0.460055,0.0988705,0.776289,-0.134184,0.029741,-1.04423,-0.691342,0.650448,-0.153087,-0.231999,-0.945879,-0.248345,0.0690776,-0.368,-0.587578,0.774296,0.574915,0.926572,-0.80062,-0.237915,0.547691,0.62082,-0.90922,-0.203949,0.00301289,0.753406,-0.31922,-0.64388,1.04778,-0.140251,0.738187,-0.56822,0.374347,0.431683,0.37403,-0.436197,0.072889,0.212269,-0.757394,0.879799,0.915018,0.738,-0.814167,-0.012857,0.897021,-0.41505,-0.693161,0.0951992,-0.880771,-0.924763,0.850512,0.670489,0.66627,0.458147,0.951272,-0.91335,0.0268549,0.92567,-0.803055,-0.15605,-0.827807,0.435862,-0.0962737,0.653929,-0.00690546,-0.59151,-0.572347,-0.849564,0.581975,-0.512,0.566506,0.513263,-0.747952,0.303155,-0.976257,0.722591,0.934658,-0.690027,-0.283925,-1.07693,0.8912,-0.380432,0.278633,0.275387,-0.872904,-0.339233,0.150645,-0.521528,-1.01426,-0.139306,-0.0895817,-0.819376,-0.603605,-0.979995,0.69712,0.125255,0.983826,0.955,-0.198912,0.59841,-0.954561,-0.670924,-0.439889,0.737489,0.573226,-0.514702,0.256141,-0.0532625,-0.55895,-0.688159,-0.20308,-0.742949,0.0730838,0.562915,0.297979,-0.446431,0.583611,-0.800745,-0.679461,0.359865,-0.49334,-0.0212317,0.539547,-0.109305,0.12,0.119,0.984265,-0.318979,0.0940281,-0.272308,-0.846653,-0.521245,-0.550174,-0.903868,-0.91839,0.659956,-0.560964,0.858021,-0.354911,-0.144326,0.987965,0.127453,-0.0407958,-0.687965,-0.752874,0.824317,-0.946541,0.142749,0.41905,-0.41534,-0.332859,-0.779878,0.852,-0.823,0.0880841,-0.470078,0.251797,-0.0573681,0.0263702,0.724836,0.16464,-0.237311,-1.15891,0.307678,-0.290527,-0.591968,0.0857523,0.613036,1.29597,0.647883,0.964201,0.819157,-0.828526,-0.940348,0.371103,-1.23071,0.2014,0.472933,0.499327,0.461048,-0.953781,0.816,0.231227,0.448982,0.916399,-0.823821,0.81148,-0.258745,-0.0942638,-0.212769,-0.729046,-0.847931,0.157826,-0.585192,0.632725,-0.668452,-0.213234,0.00441035,0.493312,-0.262502,-0.849127,0.0554976,0.726066,0.572782,-0.0779582,0.205436,0.875626,-0.195995,-0.39654,0.054,0.829908,-0.283539,-0.0413814,0.10415,-0.900502,-0.488474,-0.0101342,-0.944826,0.0784733,0.657536,-0.768861,0.151005,-0.705111,0.679827,0.754373,0.52064,0.544227,-0.677523,-0.819455,-0.393023,-0.758242,0.815188,0.336442,0.63397,0.612609,-0.59003,-0.576,0.026,-0.243349,0.164893,-0.728661,-0.722563,0.778505,-0.46466,0.0822492,0.125298,-0.287558,0.490708,-0.20447,-0.854964,0.623975,0.38436,0.439665,0.320916,-0.514323,-0.489398,-0.375479,0.703199,-0.81364,-0.440779,-0.686701,1.15174,-0.781093,0.251759,0.455,0.194,0.181452,0.663345,1.02317,1.05601,-0.504523,0.837801,-1.14259,0.315215,0.622137,-0.442832,-0.0767658,-0.18953,-0.545323,0.937882,-0.477491,0.776193,-0.154732,0.514154,-0.269158,0.114087,0.826568,0.61922,0.0634761,0.960127,0.618302,-0.181785,0.597022,0.106,-0.956012,0.298426,-0.388541,0.381718,-0.470029,-1.02189,-0.150749,-0.919037,0.0481121,-0.659212,0.534637,0.273684,-0.139743,-0.453707,0.654823,-0.0949685,-0.585252,-0.498004,-0.618259,-0.126882,0.638939,0.33556,-0.696303,0.657416,0.0914248,-0.0277989,0.134,-0.599998,0.788604,0.033005,0.835244,0.990704,0.377028,0.306555,-0.538385,0.0698213,-0.494113,-0.320194,0.104631,-1.06636,0.821632,0.147351,0.088553,-0.395431,1.14004,-0.142639,0.252498,0.562736,-0.37781,-0.982946,-0.268184,-0.109364,0.599815,-0.146503,0.696008,0.906671,0.402444,0.200397,1.24749,0.325024,0.72441,0.55868,-0.388641,-0.63591,-1.03342,-0.495473,0.485469,-0.228679,0.81924,0.453899,0.091276,0.794794,-0.424777,0.864423,0.446966,-1.16018,-0.769298,0.138111,0.441574,0.207645,0.310453,-0.83979,0.339001,-0.401565,-0.392415,0.397609,-0.0429288,1.17935,0.639158,-0.386398,0.222736,-0.36883,0.209412,-0.326417,-0.258526,0.164041,0.712866,-0.310715,1.1964,0.378562,0.235516,-0.182258,-0.68561,0.152219,-0.612403,-0.770896,0.406322,-0.281265,0.351867,-0.631376,0.243002,-0.956166,-0.420078,-0.156872,-0.0956095,0.256196,0.399077,0.0698159,0.356772,-0.606536,-0.364806,0.337537,-0.415978,0.547871,-0.672246,1.00355,-0.20801,0.75479,0.664882,-0.483963,-0.649981,-0.122045,0.109289,0.0196609,-0.759371,-0.0718486,-0.355602,0.0384474,0.481006,0.50116,0.445838,-0.592689,0.603207,0.942912,-0.33507,-0.398493,-0.00690517,0.449209,-0.444668,0.0693184,0.343283,0.240963,-0.129374,1.2771,-0.665473,-0.0863094,0.228914,-0.439133,0.731207,-0.239878,-0.18775,-0.559818,0.343679,0.442745,0.37895,0.453716,-0.745,0.539,-0.932161,0.385206,0.129586,0.5482,0.360394,-0.129709,0.217577,0.706602,-0.561177,0.186445,-0.139644,0.00564092,-0.536658,-0.737869,0.551268,0.013572,0.572734,0.428601,0.0459164,-0.791055,0.643266,0.12479,0.268152,-0.854403,0.491026,-0.939003,0.011,-0.602,0.100806,0.432502,1.18248,0.343801,-0.625236,-0.218796,-0.291881,0.281665,0.211715,0.212555,-0.523335,0.5452,-0.66658,0.261873,0.898441,-0.489292,-0.367647,0.0937719,-0.212716,0.621004,-0.86436,-0.929927,-0.925283,0.346829,-0.354288,-0.1744,0.031,-0.790839,-0.0802747,-0.724846,-0.512425,1.19967,0.014736,0.778949,0.104975,-0.0796023,-0.839782,0.257972,0.781311,0.29332,0.937018,-0.744064,-0.570697,-0.818165,-0.280561,-1.01655,-1.00962,-0.278704,-0.359843,-0.0696522,-0.432384,-0.645545,-0.441923,-0.2983,0.85,0.339826,0.109458,-0.367406,0.879375,1.33622,-0.193814,0.516492,0.636459,0.406533,-0.0468688,-0.840452,0.851171,0.0600137,0.367406,0.690154,1.04005,0.360007,0.364423,-0.77937,-0.13138,-1.05461,-0.795029,0.0337611,-0.501519,0.0285266,-0.859958,0.232158,0.554,-0.184953,0.506455,0.107428,0.983736,-0.557425,0.74335,0.49525,-0.662871,0.592559,-0.848528,0.202318,-0.286609,-0.0440126,0.420615,-0.67905,0.822466,-0.0913891,0.400308,0.542116,0.545002,-0.809711,0.786708,-0.848569,-1.09665,0.798944,0.447032,-0.372896,-0.46,0.231083,0.421509,-0.828392,0.730601,0.0556375,-0.196906,0.514954,-0.19421,0.73161,-0.754316,-0.161935,0.0662009,-0.707315,1.13564,0.521921,-0.0406579,0.0430928,0.51431,-0.623861,0.712241,-0.560535,-0.969481,0.00139378,-0.177963,0.620322,0.419616,-0.0514554,0.565,-0.511951,0.576959,-0.88469,0.751591,0.0589022,0.864725,-0.0258532,0.549623,1.02408,-0.705309,-0.828177,0.594378,0.971684,-0.496534,-0.39918,-0.813201,1.00033,0.385952,-0.581332,-0.0888349,-0.558747,-0.130759,-0.729735,0.000263104,-0.410686,-0.0195288,0.499964,-0.699,0.987,-0.551214,0.867175,-0.520739,0.603998,0.551047,0.75855,-0.85667,0.290021,-0.372541,0.161092,0.211703,-0.621,-0.202639,-0.749232,-0.743958,-0.246147,-0.698581,0.897589,-0.294534,0.663639,-0.679691,0.189345,-0.856888,-0.220614,0.0580065,-0.267992,0.4,0.602,0.79,0.701,0.588116,-0.762739,0.123569,-0.937996,0.379866,-0.347945,0.369582,0.0740081,0.492,0.997,-0.769997,-0.746998,0.928001,-0.419,-0.941958,-0.824,0.332,-0.651,0.627367,0.593051,0.571,0.505,-0.659,0.274,-0.713,0.399,-0.995,0.687,1.87154e-11,0.795127,-0.0546057,-0.855571,0.590498,0.626237,-0.793676,-0.472888,-0.722876,0.576158,0.601048,0.326186,0.129283,0.389089,0.136519,0.0578708,0.970329,0.19418,-0.209796,0.301,0.543,0.974,-0.106,0.114,0.479,0.235,-0.613002,0.323019,-0.809122,0.950071,-0.43229,-0.251652,0.301923,0.50523,-0.10949,-0.550095,-0.305486,-0.340893,-0.0216396,-0.0218506,0.796714,-0.417715,0.861031,-0.518236,0.967667,-0.0162302,0.531848,0.938176,-0.816546,0.873889,-0.205671,0.724062,0.85,0.244,-0.605847,-0.109154,-0.956701,-0.648934,-0.760716,-0.741302,-0.677032,-0.219377,-0.457107,0.185446,0.907422,0.532655,0.730452,-0.322036,0.755342,-0.304506,0.186995,0.501722,-0.26116,-0.0748478,0.474861,-0.801158,0.409209,-0.0405724,0.719247,0.635544,-0.590006,-0.488,-0.0835169,0.836682,0.363424,-0.0469954,-0.208163,0.407448,0.234816,-0.0834753,0.177985,0.17734,0.471982,1.01717,-0.381604,0.0561085,-0.0124215,0.667723,-0.037427,0.987128,0.584171,0.369671,-0.187194,-0.824863,0.781218,-0.723687,-0.56011,0.261408,-0.216027,0.687,-0.548793,0.219417,0.81984,0.497891,0.13193,0.104498,0.7569,0.672595,-0.533115,0.166351,-0.539661,0.951752,1.10008,0.46011,0.174669,1.1363,0.406209,0.132101,0.298431,0.974574,-0.147394,-0.316467,-0.149667,0.242418,-0.561591,-0.40681,0.382986,-0.664,0.848282,-0.821806,-0.908157,0.967822,0.425652,0.774226,-0.253292,0.952279,-0.0358841,-0.219607,0.881226,0.143842,0.921671,0.719019,1.26716,0.0238989,1.14087,-0.510457,-0.197497,0.261638,-0.0731536,0.403833,-0.375483,0.139416,0.444884,0.294429,-0.784999,0.35,0.886364,0.596804,0.673139,0.28308,0.69919,0.183863,-0.374818,-0.294656,-0.320337,0.59438,-0.327853,0.0567078,-0.869999,0.932123,0.506653,0.246288,-0.171676,0.454744,1.09499,-0.242296,0.284948,-0.813273,0.779094,0.805969,-0.260574,-0.785026,-0.075,-0.777,0.0718906,0.110082,0.00831942,-0.612452,-0.422178,-0.807607,0.55939,-1.10582,0.536311,-0.604072,-0.480062,0.464891,0.310685,-0.24428,-0.3744,0.502516,-0.711698,0.819403,-0.545007,0.0464307,0.10021,-0.732895,0.610758,-0.832098,0.790976,0.351619,0.977,-0.376,0.134399,-0.170199,-0.776562,0.497592,0.232386,0.135001,-1.09108,-0.952889,0.644363,0.284703,0.524456,-0.317185,0.374948,-1.01441,-0.804773,0.0915317,0.122151,-0.16069,-0.56078,0.355832,-0.598972,-0.316312,-0.493215,0.316169,-0.353472,0.657995,0.278106,-0.571,-0.4275,-0.27777,-0.194579,0.38821,-0.0183905,-0.305751,-0.282735,-0.426531,-0.824256,-0.0777579,-0.552038,-1.22084,-0.669365,-0.538691,-0.603204,-0.962006,-0.179538,-0.389296,0.0386967,-0.886998,0.438942,0.495569,0.284749,-0.733257,0.868299,0.12277,0.190199,-0.572,-0.219572,-1.02098,-0.277255,0.210959,-0.664266,0.346601,-0.571479,0.382747,-0.878315,0.304395,-0.691061,-0.509544,-0.539052,-0.441159,-1.23239,-0.189988,0.32149,-0.777263,-0.176474,-0.438131,0.146665,1.03321,-0.609706,-0.228547,-0.0485831,-0.140436,-0.835,-0.21,-0.998734,-0.135537,0.129163,-0.285326,-0.494553,0.633586,-0.923563,-0.349147,-0.66575,-0.993306,-0.617261,-0.320884,-1.09469,-0.59951,-0.0398538,-0.650925,0.333985,-0.088825,0.208098,-0.319544,0.571655,-0.670564,-0.110732,-0.403855,0.930106,-0.591047,-0.434,-0.048,0.300061,-0.800527,0.0919891,-0.305695,0.127246,-0.53386,0.118371,0.512266,0.565008,0.287924,-0.792699,-0.517717,0.299715,-0.273125,0.0588908,0.292575,-0.080271,0.93178,0.393226,0.960772,0.185536,-0.0717741,-0.300906,0.850218,-0.426952,-0.299625,0.841996,-0.829,0.11713,0.793624,-0.601857,0.77296,-0.930253,0.80058,-0.24309,-0.00660851,-0.814052,-0.75379,-0.579104,0.884407,0.156241,-0.315671,0.882715,-0.624763,-0.276858,-0.640382,0.0499222,0.550422,-0.484727,-0.232737,0.118054,-0.379565,-0.532706,0.448796,-0.496,0.172,0.702776,0.771672,-0.224672,-0.216972,0.698755,0.473851,-0.176092,-0.792462,0.376199,0.476009,-0.215352,-0.155154,0.493772,0.223006,-0.352568,1.05065,0.0962919,0.881999,-0.813467,0.624651,-0.71181,0.323813,-0.441855,0.580702,0.00119037,0.559321,-0.533999,0.67402,-0.43224,-0.483054,-0.563997,-0.749354,-0.698996,0.294972,0.249363,1.06566,-0.266278,0.756497,1.03832,0.223556,0.0583587,-0.630604,0.846289,0.805521,0.300333,1.03329,0.66365,-0.912939,0.705489,0.232642,0.389923,-0.0488041,0.94385,0.744547,0.00700012,0.126072,0.314991,0.0960714,-0.631604,0.743917,0.41237,-0.261236,0.929279,0.836585,1.00531,-0.174797,0.64254,0.921465,-0.654754,0.112382,-0.27972,-0.55493,0.171988,-0.333268,-0.678431,0.874864,-0.899055,0.346624,0.74793,0.0481049,-0.296191,0.0408872,-0.608041,-0.33706,-0.650347,0.048827,0.310432,0.435181,0.786225,0.687976,0.373931,0.48172,-0.0656961,0.253544,-0.512117,0.922538,0.524002,0.175483,0.0785463,-0.151393,0.489534,0.929004,0.520395,-0.163731,-0.746857,0.367813,-0.894022,0.669574,-0.242923,-0.932034,-0.13918,0.336963,-0.341704,-0.155225,0.631074,-0.0231841,0.629135,-0.0897423,-0.534726,0.639493,-0.0649454,0.0866101,1.05627,-0.302853,0.796071,0.602227,0.656459,-0.306062,-0.269753,-0.0112191,0.422906,-0.368542,-0.178069,0.0906806,-0.0718416,-0.573919,0.879973,-0.00796327,0.941,-0.576,-0.39349,-0.158853,0.414785,-0.102571,0.193641,-0.0722381,0.559111,-0.317393,0.873427,0.15247,0.764085,1.03489,-0.713589,0.36779,-0.950425,0.40285,-0.236647,0.683465,-0.732218,0.530376,0.13236,0.9064,0.714732,0.312879,-0.670541,-0.642614,0.415,0.988,-0.108352,0.38834,-0.535587,0.545469,0.752869,0.291713,0.944131,-0.0479239,-0.836695,0.223423,-0.0105745,0.701947,-0.23738,-0.132037,-0.052117,-0.550574,0.355333,-0.0599582,0.678748,-0.726317,-0.282033,-0.706778,0.439288,0.272335,0.446959,-0.213591,-0.72,0.631,-0.317561,0.258149,0.256398,0.639324,-0.371344,0.138448,-0.320945,0.925749,-0.549807,-0.444709,-0.487764,-0.1031,0.639909,0.424774,0.654138,0.335914,0.480838,-0.365851,0.627766,-0.1846,0.49873,0.552761,0.0588696,0.958822,0.404849,-0.818524,-0.013,-0.658999,-0.0459938,-0.145595,1.12332,0.351592,-0.843546,-0.265821,-0.178036,-0.733016,0.922174,0.50796,-0.648196,-0.378793,0.760421,1.17805,-0.455678,-0.534212,0.332829,-0.778063,0.916136,-0.502538,-0.528695,0.605851,0.246066,0.668245,-0.307297,0.97221,0.363,0.583996,0.705722,0.981209,1.07449,-0.718273,-0.747069,0.322807,0.312012,-0.707422,-0.8666,-0.744619,-0.265506,-0.790662,0.339349,-0.596128,0.925895,-0.700258,-0.634025,-0.583097,-0.244703,0.200672,-0.538954,-0.437129,0.580682,-0.310919,0.31357,-0.576483,-0.948,0.472993,0.950892,0.0326504,0.160857,0.629972,-0.6804,-0.643011,0.70758,-0.386287,0.517522,-0.117353,-0.254641,0.391557,-0.27424,-0.115008,0.312951,0.414727,0.130613,-0.244595,0.663487,-0.058667,-0.0281968,0.868687,1.08439,0.329895,-0.821063,-0.102257,0.336,-0.0270039,-0.123357,-0.0267832,-0.517235,-0.196008,0.376769,0.407408,-1.0612,0.845372,0.560088,0.463903,-0.751581,0.198717,-0.656063,-0.158972,-0.578828,-0.035675,0.658511,0.250195,-0.6801,-0.749375,0.888717,0.947871,0.225773,-0.146173,0.25965,-0.305998,0.607,-0.054,0.147024,-0.0557056,0.919508,-0.9796,0.440408,-0.644721,-0.605466,-0.0823435,0.418557,-0.575307,-0.167562,-0.421153,0.885597,-0.426805,0.716499,-0.79511,0.412984,0.679125,-0.29324,-0.391477,-0.0887329,0.0328356,-0.10809,-0.63504,-0.486761,0.62701,-0.264,0.76,0.878,-0.658,-0.295245,0.0244452,-0.159136,-0.820142,-0.397761,-0.715014,-0.456745,0.00304716,0.204,0.521007,0.430081,0.590081,-0.906919,-0.12798,-0.833999,0.809,0.074,0.579,0.0440376,0.781997,0.747,0.955,-0.631,-0.365,0.875,-0.118,0.82,-0.39,-0.800979,0.699293,-0.488299,-0.542164,-0.725705,0.346012,-0.359999,-0.118114,0.193001,-0.257994,0.884972,-0.605308,-0.741651,-0.134008,0.540195,-0.643511,0.743965,0.710318,0.721656,-0.626015,-0.154,-0.235,0.713,-0.408,-0.723,-0.918,-0.214998,-0.848518,-0.478572,-0.839277,-0.67818,-0.72597,0.414126,-0.172103,-0.263572,0.694051,0.736492,0.376827,-0.431102,-0.0799221,-0.886743,-0.990931,-0.11485,0.942238,-0.114957,-0.573564,-0.708325,-0.813136,0.694714,0.578841,-0.439204,-0.459815,0.900001,-0.726,-0.310379,-0.816015,-0.62988,0.035432,0.908647,-0.520319,-0.145019,-0.67492,-0.204589,-0.810194,-0.456516,0.368184,0.780649,-0.726647,-0.601323,1.02043,0.327545,-0.411171,-0.907237,-0.781803,-0.489156,-0.518665,-0.872416,-0.67695,-0.365146,0.815948,0.886261,0.199,0.909954,0.35675,0.532662,-0.761816,0.589191,0.480137,-0.104731,0.155456,0.926729,0.453891,-0.423343,-0.653631,0.531487,0.265313,0.969581,0.075289,0.707429,1.10013,0.349491,-0.301837,-0.378135,0.118042,-0.872637,-0.543145,0.519847,-0.743566,-0.682847,0.709,-0.932862,0.785374,0.0037547,0.669922,0.20758,0.987846,0.74119,-0.783746,0.348781,-0.616042,-0.00303851,-0.0477876,0.789152,0.363153,0.198261,0.160681,-0.109474,0.0527862,-0.401874,1.2471,-0.144432,0.221302,0.807238,-0.345249,0.88347,-0.953456,0.153976,-0.031,-0.695669,0.0742456,-0.163701,1.13216,-0.0953179,0.158039,0.00703438,0.883675,0.138929,-0.283926,-1.06567,-0.82157,-0.469413,-0.309235,0.0807555,-0.317884,-0.669194,1.13505,0.640021,-0.294355,-0.325979,0.314089,0.72275,-0.1494,-0.64836,0.831669,0.637684,-0.731,0.885796,-0.589145,-0.0069699,1.01821,0.570135,0.0352463,0.24368,0.856871,-0.681204,-0.749736,0.419811,-0.0618073,-0.677182,0.198132,0.250356,0.34054,1.18658,1.12746,0.711828,0.936193,0.768006,-0.400263,-0.836951,0.98949,0.819822,0.649831,-0.515,-0.795,0.485684,0.740303,-0.763466,0.262676,-0.731353,-0.181495,-0.709813,0.176259,0.951103,0.268248,-0.771414,-1.42514,0.0103881,-0.651579,0.0608567,0.58506,0.277363,-0.747695,-0.170118,-0.117296,0.547572,0.571185,-0.469822,-0.0419419,0.844476,-0.926544,-0.659,0.643,0.734982,-0.114919,1.03289,0.532191,-0.318304,0.800628,0.737231,-0.710195,-0.188232,0.664972,-0.482931,-1.32606,-0.231821,0.39732,-0.705327,0.912271,0.336132,-0.163056,0.497705,-0.374613,-0.227496,0.350904,0.113759,0.825273,-0.617169,0.216028,-0.601102,-0.898,-0.128887,-0.623686,1.00354,-0.0311152,-0.209201,0.47217,0.43991,0.371523,0.0834949,-0.184241,-0.629532,0.486445,-0.496866,0.88101,0.339215,0.14982,0.432435,0.958455,0.257571,1.3121,-0.665543,0.663661,-0.604636,-0.545615,-0.197416,0.00288303,0.408981,-0.433,0.786832,0.433992,-0.0357596,-0.404342,0.793278,-0.57167,0.0140521,-0.441882,0.571575,0.467293,-0.255459,-0.567127,-0.66842,0.761262,0.664169,0.0581467,0.598039,0.571455,-0.593778,-0.573235,-0.0275916,-0.516499,-0.851659,-0.313931,0.996051,-0.852016,-0.668,-0.751,-0.280712,0.701538,-0.00777398,-0.684014,0.228179,0.534371,-0.478883,0.0074594,0.54067,-0.481802,-0.534643,-0.146174,-1.07013,0.621439,0.529378,-0.417045,0.883263,0.62767,0.0490865,-0.415862,-0.390213,-0.56639,-0.277821,0.264562,0.10754,-0.232031,0.329,0.067,-0.520077,0.551402,-0.089412,0.342578,0.374472,0.156482,-0.0162377,-0.213688,-0.0755099,-0.34168,-0.363876,0.478219,0.168534,0.365956,-0.223715,0.570408,0.0133482,0.864288,0.204138,-1.2196,0.134207,-0.864456,-0.405774,0.760546,-0.060077,0.408964,0.0579983,-0.911,0.731839,0.855632,-0.257586,-0.663547,0.509018,0.0163046,0.0568704,0.221324,-0.391893,0.824882,-0.17057,-0.555332,-0.519238,0.4848,-0.433244,0.764675,-0.291361,0.119331,-0.822005,-0.505238,-0.6572,0.608659,-0.161028,-0.966691,-0.804099,0.602412,0.512,0.253997,-0.432354,-0.906612,-0.0906829,-0.69557,-1.11618,0.0282326,-0.882722,0.865928,-0.497261,-0.421253,-1.05808,-0.453369,-0.424594,0.0165231,0.546712,-0.104562,-0.461456,0.811233,0.583199,-0.804661,-0.641514,-0.951619,0.192336,0.200767,0.682621,-0.808041,-0.0640171,0.93795,0.345153,-0.648508,-0.315155,0.406404,-1.11591,0.0287089,0.41394,-0.491435,-0.389848,0.449175,0.672191,-0.393708,-0.666687,0.946686,0.6323,-0.497065,-0.294796,-0.586427,-0.437634,-0.598708,0.584818,0.766391,-0.17689,-0.636792,0.702824,0.587789,0.0409968,0.367885,0.340424,0.848259,-0.246941,-0.387957,0.663324,-0.03982,-0.696983,-0.683676,-0.610006,0.567709,0.768517,-0.783284,-0.198169,0.478574,-0.277,-0.451157,0.0658384,0.66013,-0.544714,0.0828415,0.705389,-0.245091,0.536971,0.711241,-0.219574,0.763218,0.318998,-0.984305,-0.0982293,-0.810092,0.331704,-0.860502,0.680987,-0.686577,0.199089,0.462635,-0.119066,-0.221636,0.505683,0.262352,0.896716,-0.105143,0.20372,-0.249627,-0.577349,1.0254,0.379608,0.291556,0.19366,0.463468,-0.528678,0.325203,0.97403,0.270099,-0.829017,-0.746026,-0.422895,0.376398,-0.71674,0.462977,0.169349,0.205238,0.828655,0.118763,-0.111065,-0.611305,-0.340675,0.84711,0.108101,0.736137,-0.225746,-0.307625,-0.0942225,-0.696443,0.62239,-0.368661,0.823919,-0.745069,1.13935,0.362929,0.276786,0.686661,0.784,-0.313,-0.0721056,0.91254,-0.442549,0.472619,0.13829,-0.830757,-0.477382,-0.377678,0.274659,-0.784356,0.430561,-0.638773,-0.683473,0.82517,-0.732408,-0.0210838,0.435491,0.581897,0.966724,0.63614,-0.00982871,0.0253228,-0.408312,0.187427,0.26447,-0.801374,0.643,0.922,0.412389,0.393877,-0.794093,-0.67455,-0.298927,-0.472608,0.380747,0.720042,-0.310153,-1.19856,-0.439391,-1.06003,-1.04292,-1.18962,-0.636643,-0.630196,-0.841416,-0.130477,0.669631,-0.16921,0.586785,0.279805,-0.0918253,0.0484209,-0.614404,0.0474485,0.319,-0.0180614,-0.229337,-0.076975,-0.0880645,-0.866047,0.713301,-0.521167,-0.934636,-0.225441,-0.346637,-0.10345,-0.8623,0.642231,0.0262407,-0.187745,0.567579,-0.225307,-0.190815,-0.88508,-0.0412573,-0.799912,-0.30565,-0.586007,0.545661,-0.213424,0.784645,-0.956103,-0.073,0.940684,-0.375542,-0.753779,-0.0210903,0.352928,-0.453043,0.272728,0.222297,-0.695276,-1.09368,0.0409777,-0.158222,-0.868349,-0.835829,-0.302731,-1.14559,0.104083,-0.822426,0.64322,0.774918,-0.557384,0.669999,-0.0715278,0.0348721,-0.631592,0.00671947,-0.710355,-0.206,-0.379842,0.882053,0.290709,-0.353795,-0.49455,0.40475,0.0673354,0.63893,-0.625416,-0.651991,-0.996973,-0.740321,0.712125,-0.192208,-0.065974,-0.900892,0.469559,-0.65472,-0.806153,-0.526044,-0.93184,0.411903,0.976978,-0.189132,0.361011,-0.459631,0.213562,0.096,0.48628,0.499634,0.461323,-0.827986,0.416317,-0.287471,-0.649904,1.05786,-0.726683,-0.324573,-0.257707,-1.10025,-0.342604,0.00847004,-1.00804,-0.439666,-0.755114,0.0788542,-0.271412,0.398833,-0.144891,-0.513155,0.60583,0.0986331,0.972834,0.558012,0.309816,-0.168,-0.872836,-0.480979,0.478174,0.185512,0.587772,-0.0625541,-0.0807485,0.0186487,0.60282,-0.0399714,-0.675194,0.833654,0.830609,-0.137091,0.464676,-0.420772,-0.899672,0.761205,-0.026826,0.937995,-0.678325,0.314536,0.498862,0.245159,0.340914,-0.390055,0.8372,-0.12,-0.786999,0.144906,0.269099,0.899885,0.226316,-0.242949,-0.361193,-0.631426,0.678264,0.448214,0.315179,0.33389,-0.931322,0.303588,-0.203497,0.496527,0.791864,0.905941,0.718179,0.909311,0.219976,-0.260945,0.4607,0.553708,0.603722,-0.0652979,-0.210814,-0.483,0.561,-0.375,0.397,0.332096,0.330155,-0.332721,-0.213999,-0.892395,-0.0220788,0.411072,-0.530961,-0.337,-0.574004,0.351997,0.560994,-0.503054,-0.342013,-0.639001,1,-0.546,-0.728,0.729671,0.926824,0.054,-0.971,0.384,-0.393,0.192,0.876,0.396,0.709,-0.00600018,0.577988,-0.337776,-0.676619,-0.537747,0.329921,-0.33225,-0.429579,-0.693942,0.635991,0.039071,-0.473995,-0.941337,-0.61375,-0.91599,-0.441968,-0.394763,-0.995698,-0.884867,-0.38399,0.834,0.846,-0.458,-0.113,0.433,0.484,0.494,-0.375901,0.359608,-0.554292,-0.66763,-0.645141,-0.969342,-0.443072,-0.767652,-0.51444,0.440414,-0.542334,-0.387598,0.297737,-0.910268,0.649918,0.82006,-0.851767,0.599449,0.911694,-0.730188,-0.795564,0.915522,-0.615174,-0.180768,0.749938,-0.767992,-0.082,-0.807963,0.226764,-0.591395,0.698785,0.869292,0.354536,-0.819739,0.795749,0.729511,0.767165,-0.662619,0.500324,0.773736,0.726253,0.902121,-0.664861,-0.0136014,-1.01388,-0.976518,-0.548277,0.78878,0.677568,0.883814,0.989149,0.381792,0.790923,-0.616349,-0.803,0.0973764,-0.82195,0.141309,0.352877,0.492264,0.204091,-0.309583,-0.0190106,-0.429285,-0.159383,-0.278554,0.800893,1.04531,-0.598118,0.0858306,0.693183,0.63209,-0.4441,-0.84309,-0.18569,-0.308926,0.697993,-0.379373,0.835318,-0.204603,-0.493208,0.846651,-0.812,0.859955,0.79834,0.974082,0.0104034,0.645138,-0.200098,1.01978,0.158848,0.953065,1.14349,0.525027,0.856836,-0.806019,0.751077,0.193937,-1.03891,0.654956,0.886546,0.324691,0.379655,-0.534912,-0.111921,0.567993,-0.457738,-0.512492,-0.7714,-0.581727,-0.104,-0.260941,0.820277,-0.347025,-0.370534,0.715979,-0.676144,0.342604,0.392352,0.0466565,-0.261243,0.811871,-0.897093,-0.728207,-0.354476,0.439927,-0.707667,-0.856148,-0.46253,-0.45089,0.861759,-0.754478,0.221654,0.239616,-0.674804,-0.829391,-0.152982,-0.0910025,-0.718,0.0742935,0.317764,-0.270585,0.83249,0.241043,0.518599,1.1665,-0.440562,0.830893,0.266555,0.468344,0.680578,0.160097,-0.923465,0.385167,0.484871,0.256742,0.0589263,0.833557,0.474073,0.376301,0.690381,0.392362,0.43352,0.181211,-0.740816,0.713,0.346,0.0985684,-0.41643,0.609429,0.731572,0.539775,-0.561659,0.211756,-0.638282,0.420586,0.105505,-0.553344,-0.889667,0.211847,-0.0367223,-1.25308,-0.146553,-1.01674,-0.849729,-0.33266,0.487302,-0.338374,-0.723345,-0.53947,-0.884965,-0.750811,0.559877,0.471,-0.053,0.809033,-0.306435,-0.748711,-0.554851,0.325762,0.416211,0.670382,-0.707304,0.248407,-0.299709,-0.545122,-1.06232,0.0082091,-0.306031,-0.697642,-0.0199909,-0.873935,-0.154748,0.983108,-0.713013,-0.576044,0.817631,0.05162,0.0225842,0.967792,0.341697,0.13902,0.74,-0.105337,-0.868223,-0.436004,-0.473395,-0.288898,-0.230936,-0.533022,0.564621,-1.18157,-0.668453,-0.873841,-0.232208,0.0526109,-0.305644,0.211289,-0.556907,0.579112,0.803373,0.122893,0.745275,-0.463306,-0.693236,0.461077,0.139272,-0.397367,-0.639,-0.883002,-0.57,0.697134,-0.219853,0.543552,-0.716908,-0.764357,-0.779935,-0.309348,0.294952,-0.113345,0.697936,-0.080416,-0.0906038,0.560623,0.170078,1.20317,-0.253857,0.995548,0.143293,-0.011029,0.120795,-0.515113,0.477446,-0.581931,0.306248,-0.787407,0.99147,0.821,-0.46,-0.667534,0.458405,-0.626698,0.359537,0.668963,-0.870537,-0.845492,-0.562881,-0.603022,-0.0952221,0.692926,0.26163,0.812363,-0.554545,1.01801,0.607472,0.39699,0.731016,1.10212,-0.0558658,-0.669835,-0.58641,0.860791,-0.579222,1.03207,-0.702233,0.125,-0.958,0.828003,-0.0652594,-0.87161,0.712786,0.984925,-0.772469,0.381315,0.919855,-0.794688,0.39951,-0.373744,-0.53514,0.796306,0.903404,0.181604,0.5068,0.955424,-0.173376,-0.406479,-0.00307899,0.910918,0.856074,0.621631,0.765224,-0.69524,-0.000161647,-0.934988,0.809,-0.140236,0.247609,0.584544,-0.0812415,0.925062,0.719246,-0.42329,0.747095,0.459526,0.544443,0.357908,0.54273,-0.536632,0.165177,0.372404,0.641223,-0.315261,-0.699299,-0.294697,-0.67548,-0.0650062,-0.178629,-0.548393,-0.61986,-0.302073,0.920746,0.897,-0.567998,-0.0665555,1.07682,1.07197,1.09328,-0.027325,0.405665,-0.793594,0.974474,-0.649209,-0.849651,0.840563,0.771848,0.392985,-0.513417,-0.247179,0.31306,0.221589,0.712065,-0.217204,0.533798,0.869023,0.127324,0.034968,-0.579542,0.606805,0.375997,-0.507988,0.668014,0.312606,1.05572,0.87883,0.999296,0.611844,0.559799,0.210937,-0.813057,-0.796544,0.243388,-0.65746,-0.323607,-0.140582,0.577092,0.955247,-0.832098,0.596508,0.776668,0.227484,-0.493952,0.494467,0.349813,0.765646,0.112749,-0.739714,-0.581548,-0.138998,0.689002,0.80865,0.00428746,0.481994,-0.239752,-0.0424698,-0.323721,-0.479814,-0.705855,-1.05114,0.186198,-0.299397,-0.554099,0.964911,-0.623253,-0.485741,-0.207432,0.135226,0.613308,-0.353643,-0.233957,0.373029,0.324329,-0.30425,-0.393473,-0.548944,-0.870999,0.592999,-0.377021,-0.43499,-0.91193,0.97674,-0.550876,-0.0370163,-0.179249,-0.0833186,0.555136,0.122458,-0.051675,-0.814949,0.482809,0.746484,-0.637651,0.352175,0.668918,0.954035,0.135276,-0.79556,0.0108915,-0.88134,-0.408631,0.130484,0.578263,0.648477,0.936105,0.769996,-0.88398,-0.929972,0.351979,-0.677054,-0.314504,-0.0265653,-0.825628,-0.608867,0.612881,-0.283855,0.0189253,0.691992,0.935691,0.657778,0.45024,0.419423,0.417637,0.449954,1.00353,-0.122417,0.273224,-0.555526,-0.204755,0.717993,-0.344408,0.140605,0.0145573,-0.592,-0.559,-0.0578659,0.674603,-0.864184,-0.267263,0.166416,-0.570371,-0.301349,0.472331,-0.872592,0.449962,0.711318,-0.162572,0.990781,0.212934,-0.346813,0.630994,-0.613886,0.286242,-0.685818,0.234708,-0.281031,0.114501,-0.904615,0.222347,0.533918,0.948952,-0.897,-0.624,-0.0365231,-0.94232,-0.145853,0.555508,0.819536,-0.0441134,-0.893143,-0.492499,0.0401244,0.0711409,-0.641365,0.244266,0.666551,0.509988,0.688302,0.529415,-0.935678,0.650729,-0.49781,0.94887,0.0247882,-0.0443681,-0.192729,0.650356,0.503299,-0.0204703,0.118,0.226,-0.502361,-0.173032,0.669574,0.0198359,-0.175311,1.00641,-0.376814,-0.682137,0.0846214,-0.200284,-0.129092,0.891643,-0.0949305,-0.786387,-0.676128,-0.982829,0.576801,0.457307,0.552275,0.337183,0.360652,0.785149,0.292276,0.791144,-0.863701,-0.838322,0.678,0.819998,-0.29368,-0.617954,-0.384386,0.0599034,0.0123945,0.763548,-0.617622,0.709709,0.952096,-0.510336,0.390653,-0.799445,-0.639526,0.834203,-1.1222,0.261826,0.650346,0.89133,0.547817,0.147873,0.725797,-0.155516,-0.53416,-0.527858,-0.990833,0.319284,-0.598,-0.735003,0.492906,-0.875795,-0.964209,0.603341,0.897741,-0.29615,-0.399087,-0.224336,-0.866386,-0.631504,0.774353,0.714061,-0.465292,-0.0537315,0.849199,0.0206874,-0.443566,0.557493,-0.890264,-0.498907,0.653976,0.286311,0.470472,-0.350615,0.863611,0.392705,0.138,0.920774,-0.286598,0.568027,0.728919,0.696143,0.141803,0.839228,0.553947,0.225608,-0.88389,0.548601,0.817908,-0.966444,0.813758,0.134513,0.799594,-0.933661,-0.693748,0.44689,0.234457,-0.490593,-0.0457352,-0.216207,-0.238528,0.878897,0.814827,0.670826,-0.497,0.230038,0.057425,0.637995,-0.307406,0.749251,0.154206,-0.562894,0.510454,-0.656959,0.802281,-0.458962,0.0801181,0.885474,-0.897287,-0.52221,0.521546,0.990293,0.687252,-0.044503,1.03034,0.900629,-0.793805,-0.371806,0.791917,-0.417383,-0.144882,-0.51111,-0.555,-0.344992,0.716799,-0.0512865,0.439818,-0.228799,-0.410917,0.703946,-0.916118,0.318392,0.700386,0.598834,0.684044,0.527423,-0.854174,-0.683168,-0.0293584,-0.750016,-0.207246,-0.516688,0.758218,-0.567164,-0.0861231,0.283917,0.855544,0.108469,0.903564,0.636987,0.689,-0.689,0.683,-0.867,-0.476974,0.397448,-0.361508,0.963998,-0.831942,-0.216054,0.222267,-0.740971,-0.891,-0.0769876,0.411153,0.347153,-0.996847,0.111037,0.661986,-0.03,-0.087,-0.548,0.00530763,-0.333216,-0.56,0.481,0.509,-0.706,-0.41,-0.031,0.488,0.836,0.28,0.169593,0.969931,0.807766,-0.428529,-0.832189,0.322949,-0.70602,-0.0510291,-0.456005,-0.891041,0.0589109,0.468637,0.0785551,0.962871,0.0259974,-0.81346,0.179669,0.554606,-0.343012,0.632,-0.882,0.324,0.629,0.599,-0.61,0.923007,-0.811466,0.359185,0.406721,-0.981383,-0.355751,-0.859743,0.555976,0.994577,-0.740545,0.264539,0.315927,-0.899416,-0.783496,0.865119,-0.783213,-0.1661,-0.118308,-0.159078,-0.208494,0.911831,-0.404384,0.968899,0.0235883,0.252531,0.167011,0.146,-0.864,-0.203397,-0.246245,-0.466965,-0.727323,-0.509892,0.453887,0.253617,-0.934304,-0.958196,0.307727,0.490091,0.476953,0.456378,-0.275586,-0.14228,0.703539,-0.342849,-0.631458,0.496665,0.526499,0.286078,-0.653224,0.781173,-0.293292,-0.480466,0.3983,0.771985,0.79,-0.433455,-0.0650224,0.938729,-0.0748623,0.238993,-0.977575,0.143606,0.632276,0.356842,-0.739753,0.485162,-0.251737,0.074427,0.194566,-0.371867,-0.00874385,0.942028,0.879944,-0.39807,-0.195912,-0.78816,0.85536,0.529403,-0.135567,0.769637,0.447247,0.18997,-0.684,-0.147425,-0.0245066,0.666144,-0.000920425,0.461204,0.606787,0.864298,-0.365478,0.615858,-0.413911,-0.833346,-0.633627,-0.547053,-0.95215,0.693902,-0.874693,0.361479,-0.0936779,0.229787,0.128292,1.00138,0.0185938,-0.392211,0.302146,-0.69142,-0.828735,-0.841012,0.644,0.190886,0.373174,0.522356,0.612581,0.808789,0.123934,-0.44847,0.355804,-0.537454,-0.872158,0.900013,0.324297,-0.940077,-0.836507,-1.01832,-0.586757,-0.816955,1.29942,0.156259,0.328495,1.20352,-0.166437,0.316233,0.424772,0.475473,0.76673,-0.341108,0.352,0.52,-0.581015,0.0243488,-0.762929,0.13978,-0.594791,0.855774,0.295862,0.418785,-0.785851,-0.497789,0.297357,0.136937,0.47865,-0.372096,0.567706,0.851713,-0.00881699,-0.345658,1.14715,-0.324072,-0.457281,-0.254068,-0.798252,-0.658156,0.27431,0.131,0.458,0.0637381,0.3729,-0.0913282,-0.76825,0.68384,0.364516,-0.520935,0.128571,0.531155,0.874014,0.55951,-0.819902,0.27449,-1.17854,-0.850365,-0.0030104,0.769931,-0.00362962,-0.00600025,0.702828,0.713814,-0.183255,0.0776729,0.579716,-0.562106,0.0323587,0.275,-0.144,-0.674387,-0.534332,-0.516539,0.0778405,0.771904,-0.244586,0.225043,0.130994,-0.879861,0.00245557,0.336442,-0.0259744,-0.522401,0.180057,-0.868035,-0.699355,0.0751276,1.07638,0.43545,-0.14643,-0.444993,0.871341,-0.664414,0.863569,0.702067,-0.292799,0.421431,-0.757,0.772671,-0.678214,-0.157648,-0.801247,-0.348598,-0.451544,0.127153,1.065,0.289746,0.727539,-0.523908,-0.419501,-0.877771,-1.02326,-0.951165,0.0539286,0.517873,1.14037,0.154137,-0.502074,0.569165,-0.442948,0.311146,0.790099,0.807001,-0.0319659,0.300898,0.26,0.699104,-0.751356,0.505033,0.0146656,-0.536117,0.644783,0.208991,-0.0935039,-0.556237,0.941049,-0.711326,-0.161342,-0.280084,-0.604858,0.353503,0.179636,0.110388,0.902067,-0.680636,-0.471625,0.185111,0.223863,-0.459389,-0.273526,0.475276,0.238343,-0.905,-0.117,0.769412,0.31489,-0.915015,0.0290984,0.099574,0.0419527,-1.00313,0.731903,-0.345944,0.478833,-0.8449,-0.759621,-0.625648,-0.945316,0.0697447,0.662306,0.532076,0.045432,0.180885,0.844434,0.816678,-0.38289,0.808579,0.199808,0.896083,-0.75369,0.719,-0.312,0.00955381,0.267013,0.0582762,-0.238447,-0.356976,-0.330905,0.821567,0.66058,0.874719,1.13874,0.281464,-1.07018,-0.50369,-0.171996,-0.537184,0.19062,0.744563,0.581242,-0.262402,-0.692282,0.498823,0.0101853,0.814388,0.426042,0.706028,0.062181,-0.74805,-0.236,-0.190477,0.490004,0.438037,0.796666,-0.195419,-0.476989,-0.669834,0.472089,0.81401,-0.797106,-0.425283,-0.357045,0.262594,0.682339,-0.168618,1.17192,-0.0513117,-0.085,-0.330417,0.764737,0.354569,-0.190187,0.028742,-0.196091,0.426483,-0.637512,0.808,-0.721998,0.374192,0.647069,0.129779,-0.887487,-0.460562,-0.5251,-0.91131,0.784667,0.0177708,0.77343,-0.991837,0.214778,0.257584,-0.190866,-0.662708,0.224639,1.25126,0.115888,-0.277512,-0.766448,-0.237757,-0.350312,0.333574,-0.906869,0.19248,-0.849219,-0.378992,0.82284,-0.545913,1.04152,-0.745306,0.612926,-0.288069,-0.0679024,1.00454,1.05748,0.48092,0.414467,-0.408286,0.168194,0.286918,0.488423,0.206352,0.0128599,0.991368,-0.0019971,0.495578,0.540544,-0.191697,0.0823238,-0.113981,0.724478,0.650028,-0.672206,0.825001,-0.798619,-0.558242,-0.945236,-0.862379,-0.324601,0.163554,0.512608,-0.163338,-0.0702012,-0.443111,-0.893746,-0.73742,-0.0611393,0.727813,0.56547,-0.406619,-0.10663,-0.241302,0.243371,0.109617,0.574429,0.465011,0.661326,-0.392628,-0.34854,0.269375,-0.85507,-0.50299,-0.561277,-0.521248,0.828265,-0.333218,-0.151371,0.84684,-0.698483,0.897273,0.40041,0.87212,-1.01355,0.451631,-0.931595,-0.799879,-0.906555,-0.144463,0.75892,0.550016,0.630577,-0.535251,0.262161,-0.646716,-0.128015,0.025499,0.772857,0.126695,0.758905,-0.491964,0.942935,0.904122,-0.578296,-0.696391,-0.692436,-0.509702,-0.193771,-0.0507943,0.805497,-0.16044,-0.266329,-0.245578,-0.929743,-0.426296,-0.676924,-1.07527,-0.379559,-0.593266,0.116283,-0.633684,0.502443,-1.02062,-0.686158,-0.28065,-0.770293,0.651511,0.688638,-0.975,-0.69,0.448123,-1.01959,0.64534,0.128161,-0.379739,-0.634728,0.490252,-0.258726,-0.54145,-0.67593,-0.995164,-0.577082,-0.80416,-0.338403,-0.306719,-0.306018,0.45363,-0.440169,0.358036,0.622212,0.550842,0.42717,0.174578,0.376267,-0.96735,-0.911776,0.618,0.276,0.329883,0.533716,-0.0412013,-0.473847,0.600538,-0.00123919,0.804185,1.0597,-0.172086,0.0740467,-1.04662,-0.861771,-0.269877,-1.25014,-0.127605,0.0231159,-0.412199,0.727361,-0.92507,-0.845902,-0.726761,0.171158,0.567045,0.522503,-0.175176,-0.482188,0.06,-0.494216,-0.420698,-0.864586,0.18145,0.660192,0.684181,-0.570193,-0.705085,0.234221,-0.0169226,-1.19482,-0.391355,-0.0197539,-0.702252,-0.891115,0.28821,0.472241,-0.108272,0.138251,-0.198648,0.790317,-0.66955,-0.153265,0.468811,-0.320148,-0.749758,-0.0699479,-0.952,0.171892,