0.69,0.633,-0.649,-0.975,0.408992,-0.677169,0.624413,-0.975742,-0.460528,-0.102238,-0.98303,0.119984,0.202025,0.0750015,0.825877,-0.339085,-0.710178,0.615924,0.200507,-0.665885,0.719669,-0.297904,0.290001,0.383001,0.634,0.235,0.571,-0.651,-0.984,-0.0990288,0.447294,0.259534,-0.474411,0.345614,-0.159805,0.492938,0.670913,-0.532455,0.0762315,-0.79056,-0.0797955,0.0942709,-0.107739,-0.880724,0.731458,-0.712666,-0.656357,-0.977467,0.456444,0.540473,0.906387,0.163074,0.799415,0.200056,-0.446036,0.44,0.994,0.681276,0.780372,0.531415,-0.483373,0.146819,-0.235557,0.0721392,-0.876461,0.213967,-0.849402,0.774515,0.222323,0.265589,0.641753,0.80779,1.03385,-0.313367,1.02007,0.716903,-0.655211,0.715982,0.115532,0.678764,-0.197774,-0.344138,-0.0468699,-0.323079,0.886,0.0641406,0.652151,0.805437,-0.349734,0.339402,0.307491,0.206322,-0.839427,0.765849,-1.03842,-0.645211,-0.358655,-0.737689,0.857505,0.94149,0.0621261,-0.0113797,0.600061,-0.136762,-0.0962003,-0.0690127,-1.06242,0.127405,-0.721806,-0.149892,0.112187,-0.209079,0.543,0.621317,0.0126009,-0.0702077,-0.377503,-0.406695,-0.751996,0.273725,0.608478,0.335664,-0.801457,0.838803,0.181782,-0.681245,0.922664,0.3939,-1.03316,0.121745,-0.34029,-0.635084,-0.96766,-1.05762,-0.0356031,0.0796772,-0.439595,0.10953,-0.897217,0.00998688,0.543,0.214166,0.315183,-0.00798042,-0.681185,-0.723885,-1.04759,0.00475376,0.053035,-0.546247,-1.01649,-0.280202,0.393702,0.840202,-0.773929,-0.849664,0.610151,0.550784,0.395069,0.465772,-0.273976,-0.612377,-1.07472,-0.266789,-0.531887,0.00815744,-0.916959,-0.152898,-0.809,0.745644,0.791864,0.170797,-0.553813,0.174729,-0.578754,0.0128095,0.237165,-0.95329,1.01879,-0.764083,-0.994368,0.496096,-0.568738,0.274595,0.315121,-0.771697,0.485247,-0.06344,-1.20035,0.259747,-0.272228,0.189138,0.40721,-0.255566,0.806774,0.883,0.908,0.890741,-0.320757,0.522399,0.595655,-0.782567,0.0935661,-0.648907,0.136859,0.0987861,-0.122212,-0.794543,-0.146043,-1.0025,0.590349,-0.796744,0.582846,-1.11844,-1.1909,-0.370099,-0.825523,0.136778,0.655655,-0.423292,-0.69624,-0.341775,0.701787,-0.857,0.102,0.501976,0.518833,-0.53314,-0.08327,0.999683,-0.633299,-0.686534,0.838375,0.0559376,1.08436,-0.963215,-0.0180495,-0.827056,-1.21516,0.260699,-0.603159,0.335955,-1.04959,-1.05985,0.34888,0.436499,-0.229348,0.399132,-0.107858,-0.125118,-0.656752,0.483715,0.135,0.593329,0.147248,-0.806904,0.0994193,-0.535405,-0.0878521,0.712188,-0.548219,-0.285474,0.652192,0.0161144,-0.500506,-0.179317,0.032461,-1.3684,0.319868,-0.192579,0.15041,0.937517,-0.424794,0.325898,-0.929203,0.601296,-0.160828,-0.423002,0.209343,0.490141,0.458,0.0948592,-0.00396039,-0.897853,-0.309421,0.762305,-0.67077,0.73897,-1.02996,-0.451965,-0.358491,0.448667,-0.392069,-0.513308,-0.191235,0.369724,0.574259,-1.04101,0.423172,0.346987,0.276351,-0.202897,0.372999,0.675455,0.358392,-0.238316,-0.218776,0.794,0.309,0.978489,0.303702,-0.729817,-0.00981124,0.762845,-1.06041,0.598347,0.254939,0.68996,-0.084644,-0.00345761,-0.291848,-0.972482,-0.627898,-0.0118672,-0.812375,0.216353,-0.271937,1.1123,0.492133,1.24872,0.373189,-0.552248,0.988843,0.705398,0.321949,-0.265,0.934,-0.909516,-0.488212,-0.291148,0.48283,0.33382,-0.388881,-0.472906,-0.0285387,-0.359584,1.08102,-0.592254,-0.170881,0.181457,0.485664,0.0740441,-0.163128,1.10361,-0.558813,-0.151008,0.274086,0.00934864,-0.250204,0.969682,1.08936,-0.139609,0.837746,0.331,0.997,-0.302118,-0.9602,0.85463,-0.315527,-0.798232,-0.271073,0.865468,0.402851,-0.0287078,-0.266898,-0.218569,0.720435,-0.705688,0.255737,-0.288288,0.239202,1.20232,0.682765,0.730041,0.484479,0.29481,1.3496,1.06954,0.290809,0.902386,0.480762,0.035,-0.381062,-0.140024,0.898884,-0.926721,0.41561,1.02691,-0.816009,0.888567,0.584895,-0.681385,0.842035,0.157438,0.441812,-0.613344,0.913597,0.491147,-0.208734,1.32402,0.223766,0.223086,0.952127,0.94777,-0.64575,0.357516,-0.53511,0.717397,0.0232994,0.460681,0.501848,-0.947752,-0.523493,0.581913,-0.1706,-0.461084,1.02662,-0.553632,0.809069,0.351588,0.849576,0.633862,1.09618,1.19006,-0.0622627,0.259892,0.867268,1.10472,0.490571,0.688069,0.830291,-0.658228,-0.554024,0.415526,0.759288,-0.408859,-0.873279,-0.960059,-0.802278,-0.29582,0.480977,0.207125,-0.201592,0.759692,0.102547,0.64585,0.449612,-0.237613,0.630734,0.486392,-0.516994,1.07321,0.282336,1.18523,0.243819,-0.183309,-0.436196,-0.701151,-0.590471,0.867857,0.762083,-0.893689,0.940739,-0.743891,0.456937,0.532998,-0.781684,0.131383,0.101656,-0.56381,0.923577,-0.196499,0.786706,-0.355079,0.884465,-0.78016,0.701011,0.233388,0.10002,0.851691,-0.261313,0.0749555,-0.216312,0.0634247,-0.488653,0.0640942,0.594547,-0.400142,0.285894,1.01039,-0.253283,0.0213065,-0.992407,-0.984998,-0.378953,0.0116186,0.576435,0.0198904,-0.628619,-0.141637,-0.126292,1.02983,0.0130458,-0.47468,-1.07015,-0.529324,-0.294175,1.03817,1.05768,0.305024,0.0540183,-0.733929,0.942284,0.0575383,-0.197451,-0.745696,-0.431628,-0.692346,-0.118033,0.515983,0.560902,-0.093,0.935,0.116348,-0.0304641,-0.213001,-0.593442,-0.803396,-0.0535148,0.795088,-0.743464,0.732602,0.203244,-0.381299,0.779842,-0.00319394,0.416552,-0.800539,0.0603254,-0.139515,-0.241645,0.299564,-0.43632,-0.511204,-0.217454,0.166272,-0.468781,-0.716639,-0.529106,-0.429,0.222,-0.975318,0.06156,0.289442,0.311256,1.04426,0.20401,-0.26367,0.45609,-0.782584,-0.789712,0.435429,0.551229,0.534477,-0.769449,0.132679,-0.293679,0.497307,-0.0273664,-0.0834925,0.745585,0.931035,-0.399873,-0.592937,1.07322,-0.775572,-0.516738,0.695,0.92302,-0.0383661,-0.66095,0.228149,0.00965618,0.28513,0.778662,0.592368,-0.231247,0.168011,-0.450793,0.99085,-0.00524565,-0.174589,0.540548,-0.76083,1.00494,0.53861,0.0236404,0.853415,-0.676012,0.607613,-0.0837906,1.00067,-0.290653,-0.529433,0.499922,0.978,-0.844898,0.548829,0.762747,-0.76827,-0.406735,0.526786,-0.223517,0.0588328,-0.628269,-0.350517,-0.728296,-0.199697,0.42026,-0.143301,-0.179638,-0.5561,0.19241,1.14959,0.945186,-0.690442,-0.106995,-0.161323,-0.853817,0.155633,0.722931,-0.710423,-0.568733,-0.802,-0.304048,0.493101,-0.792337,-0.520507,0.119983,0.407678,-0.556128,0.0767897,-0.12881,0.168747,0.559766,-0.240799,0.465042,0.97997,0.660882,-0.0574452,-0.584298,0.973033,0.160196,-0.257106,0.241552,-0.665452,-0.0948596,-0.963073,0.0542723,-0.491333,-0.38434,-0.788,-0.279085,-0.399388,-0.605141,-0.0430079,0.639767,-0.496327,0.227649,-0.96349,0.320237,0.207992,0.151093,-0.706836,-0.806976,0.02638,-0.113944,0.836995,-0.368126,-0.477345,-0.404561,-0.316453,-0.936351,-0.0500887,0.28031,-0.157972,0.361115,-0.7463,-0.101125,0.934,-0.29005,0.0692222,-0.875159,-0.0135884,0.684537,-0.92702,0.900813,-0.243513,-0.8842,-0.246978,-0.00335409,0.710226,-0.71185,-0.988417,-0.702366,-0.363,-0.365014,0.10262,0.849136,0.0468289,-0.0677923,0.817969,0.681703,-0.377074,-0.116169,0.0517502,0.505198,0.788,-0.16,0.961942,0.276154,0.105163,0.0322937,-0.0280768,-0.91144,-0.745552,0.0809496,0.592717,0.132647,0.345559,-0.481889,-0.725882,0.154225,-0.601288,-0.698885,-0.0284641,-0.465476,-0.110123,0.586811,-0.635789,0.502191,-0.429667,-0.77606,0.214389,-0.240993,-0.34,0.815,-0.736,-0.995,-0.78907,0.781061,0.283586,0.318994,-0.183904,-0.735155,-0.0330436,0.076944,0.36,-0.856,0.781003,-0.731997,-0.779998,0.616001,0.424016,-0.376,0.92,-0.612,0.160067,-0.633,0.536,0.083,0.871,-0.895,-0.136,-0.358,-0.579,0.525,-0.544004,-0.759366,0.525528,-0.338151,-0.980476,-0.633189,0.542976,-0.159851,-0.808035,-0.929031,0.473995,0.551681,-0.786032,-0.191322,0.817962,-0.566555,-0.574258,-0.199572,-0.382928,-0.655006,-0.252992,0.777004,-0.731,-0.718,-0.141,-0.86,0.944997,0.722616,-0.220724,-0.641239,-0.20747,-0.218723,-0.405987,0.875719,0.00500581,-0.377265,0.811184,-0.892974,0.0187323,-0.996696,-0.812555,-0.9433,0.551286,0.953704,-0.130189,-0.0640889,0.956135,0.295074,0.742446,-0.42078,0.202161,-0.957014,0.908,0.47,-0.675299,-0.68409,0.144611,-0.751463,0.549618,0.405892,-0.487233,0.852084,-0.815513,-0.307025,0.739529,0.179157,0.301301,0.571993,0.330979,-1.10462,0.0996859,0.0435851,-1.01899,-0.243035,-0.317336,-0.101344,0.258346,-0.30861,-0.725372,-0.405418,-0.200009,0.45,-0.364113,-0.298288,-0.530144,-0.047411,-0.458312,0.539911,-0.340253,-0.982684,-0.0957282,0.132234,-1.13216,0.156053,-1.03378,0.372402,-0.834012,0.0541638,-0.372199,0.140084,0.0779623,-1.00924,-0.967528,0.283253,-0.601359,-0.142208,0.873409,0.250393,0.456422,-0.933,0.837338,0.814157,0.0894609,-0.986626,-0.98316,0.461985,-0.556422,-0.499054,-0.463586,0.060137,-0.849111,0.658437,-0.435014,-1.01246,-0.17507,-0.540074,0.607712,-0.257326,0.258864,-1.01257,-0.901019,-0.43454,0.754878,-0.640171,0.496761,-0.971659,-0.0217323,0.226,-0.175664,1.0037,-0.131038,-0.367196,0.69509,0.307843,-0.940635,0.647035,-0.597265,-0.337662,-1.00086,0.248291,-0.925018,-0.516473,-0.250848,-0.597342,-0.362446,0.780809,-0.35072,0.930469,-0.437157,0.951713,0.66814,-0.599766,1.09653,0.111997,0.919896,0.364,-0.308846,-0.0756657,-0.812086,0.504493,-0.692338,-0.659817,0.511628,0.557835,-1.11283,0.976916,0.292305,-0.375049,-0.290588,0.260487,0.414765,-0.187083,0.324448,-0.706246,-0.039928,0.621024,-0.887331,0.60826,0.654104,-0.776319,0.438379,-0.476086,0.802,0.294,0.630468,0.724114,-0.748176,0.857951,-0.597394,0.634031,0.155991,-0.612256,-0.702537,0.0535783,-0.634264,-0.938803,-0.342514,0.605599,-0.84156,0.297033,-0.641537,0.608591,0.857388,0.956421,-0.88538,-0.153857,0.59336,0.649812,0.865423,-0.375891,0.299,0.226,0.151163,0.0842963,-0.919675,-0.723346,-0.36795,0.612419,-0.959585,-0.190831,0.160127,0.0505527,0.507189,0.768352,-0.57911,0.728178,0.544292,-0.393519,-0.224348,0.576057,1.02614,0.451763,0.416833,0.373827,-0.188798,-0.0654371,0.758092,-0.502754,-0.255262,0.758,0.143028,0.591419,-0.0519984,0.714124,-0.560243,-0.634018,-0.974444,0.316545,-0.730237,-0.751884,-0.997247,0.395654,0.382065,1.05663,0.532349,0.311407,-0.0355739,-0.861023,0.636237,0.720741,0.678431,-0.121079,-0.619073,-0.449722,-0.59984,0.512687,0.840734,-0.596,0.597789,-0.873843,-0.896639,-0.859134,0.458376,-0.5814,-1.09746,-1.20015,0.14274,-0.801112,0.0207676,0.455632,-0.26947,0.650948,0.0971708,0.755884,-0.519626,0.317254,-0.47408,0.283132,-0.106661,0.412579,-0.671191,-0.291353,-0.425922,0.0385388,0.128,0.214,-0.848172,-0.0643015,0.109689,0.625296,-0.535009,0.106367,-1.19798,0.753803,0.409799,0.627618,0.939916,-0.391495,-0.51241,-0.00877886,0.597101,-0.826446,0.785234,0.466519,-0.038818,-0.812961,-0.539387,0.0766697,0.442593,0.576457,-0.309409,0.426557,-0.627,-0.039,-0.500905,0.435929,-0.879068,-0.875731,-1.1242,-0.236466,0.838961,-0.869104,0.764858,0.587804,-0.691366,0.544901,0.545885,0.853089,0.935971,0.0789485,-0.685363,-0.375513,-0.594509,0.661199,-0.636657,0.62326,0.892534,-0.00942179,-0.637328,-0.138785,-0.527001,-0.398,-0.702605,-0.641336,0.543981,-0.73237,0.817971,0.296631,-0.360881,0.555369,-0.663057,-0.728747,0.935222,1.12584,0.24376,0.439279,-0.103053,-0.511757,-0.290582,-0.699729,0.0892952,-0.199241,0.194514,0.658136,-0.45002,0.752455,-0.0554524,0.901855,-0.998,0.195009,-0.227451,-0.576817,0.311837,-0.445956,-0.166634,0.0174646,0.189016,-0.484226,0.9333,0.301255,0.934915,0.552187,-0.28723,0.375535,0.29809,0.824805,-0.440101,-0.924301,-0.85917,0.550553,-0.503971,0.253747,-0.566102,0.819412,-0.0267401,-0.319567,-0.347953,0.727678,-0.420405,-0.368064,-0.52968,-0.153562,-0.333299,0.945863,0.728589,0.755121,-0.566211,-0.845549,0.495871,-0.961174,-0.317722,0.0516571,-0.101932,0.424396,-0.583933,-0.252774,0.166709,0.162158,-0.57324,0.304728,-0.733437,-0.108366,1.01481,-0.714277,0.790009,-0.254375,-0.502202,0.922031,-1.01785,-0.398548,-0.356861,-0.369203,0.300687,0.0108418,0.939793,-0.833054,-0.994025,-0.858963,-0.872385,0.179788,0.564626,-0.00966894,-0.187019,0.0831134,-0.696847,-0.167995,0.353927,-0.0612905,0.523592,0.687233,1.08813,0.401362,0.731984,0.892439,0.204802,0.409196,-0.860869,0.707374,0.450707,-0.744984,0.985086,0.745559,-0.669358,-0.373223,-0.806907,-0.790416,-0.253542,-1.03043,0.773585,0.079927,0.671781,0.766865,0.714641,-1.04649,-0.699814,0.492205,-0.181955,0.218491,-0.587477,-0.907713,-0.365074,0.91293,0.464066,0.837955,0.289036,-0.81389,-0.100353,0.474081,0.552882,-0.85935,0.45905,0.550312,0.772138,0.551659,-0.968099,0.444431,0.682924,-0.173682,0.638147,0.627596,0.366219,0.176998,-0.0601863,-0.15991,-0.0158923,0.478543,-0.475872,0.75765,-0.38,-0.13,0.38398,-0.326513,-0.843097,-0.763577,-0.460723,0.569688,-0.309688,0.318777,0.299736,-0.738835,0.334661,-0.894758,0.347692,-0.267292,0.667997,-0.129232,-0.895106,0.419912,0.721259,-1.18232,-0.203004,0.0580587,-0.0268499,-0.956098,-0.883742,-0.981335,0.142,-0.315,0.31793,0.165635,-0.150554,-0.529847,0.514391,0.357355,-0.294852,1.01379,-0.216641,0.497997,0.319155,1.03706,0.366473,-0.303169,0.661315,-0.388733,0.39526,0.38939,0.456857,0.509636,-0.565484,-0.0364178,0.091824,0.441295,0.797489,-0.729592,0.247,-0.93502,0.848459,0.900756,-0.854582,-0.00683177,0.187605,0.408526,0.55377,0.051241,-0.458175,-0.676198,0.0539663,0.263729,0.318409,-0.735798,-0.278678,-0.807137,0.0237388,-0.56315,-0.352557,0.705136,0.564567,0.584702,0.275945,0.790822,-0.571515,-0.258735,0.571,-0.586104,-0.420167,-0.600833,-0.580133,0.893147,-0.696989,-0.160514,0.266759,0.646337,0.847262,-0.596903,-0.73792,-0.707064,-0.991488,0.00605985,-0.0968768,-0.0569219,0.0540492,0.798085,0.0136211,0.295245,0.843202,-0.0928057,-0.126622,0.0520641,-0.245945,-0.481049,0.197,0.352995,-0.176308,-0.648358,0.731689,-0.10382,-0.305919,-0.706375,0.00377531,-0.430363,-0.395494,0.728,0.702704,-0.718868,0.785632,0.693224,-0.893402,0.66728,-0.360478,0.224077,-0.523165,-0.0997533,-0.82972,-0.368852,0.87724,0.829318,0.605931,0.0174643,-0.272,-0.509009,0.102463,0.523787,0.413948,0.418996,0.289095,-0.280521,-0.542233,0.589324,-0.576063,0.224634,-0.99544,-0.0897346,-0.138777,0.727643,-0.0087471,-0.354286,0.365572,0.1955,0.680096,0.763887,0.728679,0.384703,-0.631923,0.683427,-0.980959,0.971318,0.265,0.707995,-0.00765253,0.591191,0.78155,0.596552,-0.0724085,-0.347326,0.083282,-0.665893,0.330811,0.414722,-1.14268,0.823683,-0.645838,0.656239,-0.395804,0.558706,0.660647,0.658959,0.666932,-0.0412161,-0.662042,0.203391,-0.851192,-1.00682,-0.360943,-0.823272,0.778,-0.307,-0.852885,-0.398408,0.958067,-0.317421,-0.865172,0.27201,-0.661382,0.175139,0.529577,-0.000659225,0.115079,-0.031043,-0.448086,-0.308673,-0.505259,0.0448687,-0.535292,0.144182,-0.846691,0.691419,-0.195845,0.802025,-0.799438,-0.284057,0.0429375,-0.610969,-0.257,0.246,-0.878,-0.923,0.495867,0.827994,-0.766009,0.453003,-0.478937,-0.616848,-0.719363,-0.583971,0.121,0.82,0.429057,-0.747946,-0.646004,0.989999,-0.489,-0.589,-0.41,-0.024,0.551962,-0.700016,-0.772,0.918,-0.895,-0.568,-0.364,-0.293,-0.621,-0.064,0.510002,-0.498823,-0.431089,0.00308829,-0.675024,-0.197684,-0.542891,-0.593161,0.186964,-0.704967,-0.176983,0.865075,0.671222,0.80827,0.674777,0.583049,0.354974,-0.815325,0.993811,0.944999,-0.281,0.546,-0.756,-0.053,0.02,0.908,0.380001,0.213281,-0.828729,0.762658,-0.844505,0.681419,0.81436,-0.728568,-0.315174,-0.852672,0.0860564,-0.290868,-0.883251,0.832216,-0.443852,-0.513211,0.675568,-0.787969,-0.714002,0.353137,0.797035,0.649293,0.10352,0.355386,0.150719,0.824002,-0.540001,0.398,-0.228888,0.483852,-0.136616,-0.858255,-0.303767,-0.411223,0.901297,-0.624153,-0.727999,0.74746,-0.743233,-0.4546,0.467818,-0.100847,-0.209273,0.0884458,-0.371664,0.222467,0.44772,0.809188,0.466876,0.844325,-0.187492,-0.11382,0.527073,0.958659,0.830846,-0.317,0.783241,-0.714542,0.601204,-0.51318,0.753282,-0.889814,-0.664353,-0.933169,-0.310253,0.787698,1.03838,-0.438872,0.128826,0.87279,0.0443857,-0.560478,-0.474913,0.538665,-0.18955,-0.342888,-0.519781,-0.434183,-0.294532,0.715215,-0.886113,0.220392,-0.332901,0.19,0.182586,-0.519534,0.346543,-0.58269,-0.720165,0.0935963,-0.273143,0.758448,-0.242855,0.0040143,0.822289,0.0610205,-0.155249,0.417616,0.442375,0.591406,-0.22805,0.634371,0.399603,-0.0247064,0.0823206,-0.834661,-1.03869,0.836576,-0.0377651,-0.588606,0.613133,-0.405,0.637109,0.792208,0.632737,-0.819852,0.661272,0.120056,-0.107577,-0.774794,0.886541,0.179419,1.01705,-0.827397,0.695001,0.341924,0.0698693,-0.820887,0.930478,-0.603399,0.402122,-0.0683103,-0.845424,-0.557429,-0.98299,-0.0593444,-0.581117,0.718891,-0.148845,-0.137,-0.87898,-1.05868,0.23942,0.466874,0.561194,0.0317167,-1.0569,0.16501,-1.00697,-0.320891,0.626835,0.903682,0.764693,0.0435228,0.970956,0.297702,-0.788085,-0.467427,-0.0376971,-0.99747,-0.36268,0.806088,-0.498297,-0.619474,-1.04284,-0.728975,0.524,-0.614,0.977146,0.871098,0.0241188,-1.18936,0.691675,-1.00695,0.107843,0.131595,0.464524,0.239929,-0.213939,0.15371,0.773965,0.832269,-0.400963,0.096549,-0.122112,1.00141,0.736352,-0.560704,-0.651053,-0.603854,-0.882876,-0.0718406,-0.863543,-0.648345,0.269,0.84,-0.376273,-0.689929,0.554999,-1.07942,0.607923,-0.675678,0.569413,0.247914,-0.070973,0.422819,-0.0789678,1.11195,-0.427344,0.166903,0.183515,0.806183,-0.190582,0.514739,-0.391133,-0.0412783,0.372938,-0.47855,0.0691333,0.612489,-0.296866,0.308605,-0.388703,-0.352,0.680096,0.362268,-1.15409,0.63958,0.616211,0.752058,-0.954213,0.274147,-0.367268,0.66869,-0.161289,0.57099,-0.0841071,0.0304312,-0.104856,-0.357056,0.766681,0.72853,-0.769019,-1.04483,0.144868,-0.534738,-0.388446,-1.02084,-0.242747,0.771348,-0.883919,0.275,0.0993213,-0.816345,0.285651,-0.844899,0.571262,0.466334,-0.743975,0.179507,0.0808261,1.01475,-0.438487,0.136098,0.335404,-0.0794575,-0.753717,0.481083,0.666844,-0.497748,0.564319,-0.1058,-0.855294,0.668772,-0.159587,-0.285077,-1.06384,0.555487,0.226,-0.463,-0.103014,-0.196621,0.219585,-1.09496,0.178266,-0.138437,0.864129,-0.564425,0.932888,-0.768326,0.695258,-0.109531,0.373376,0.309171,0.731088,-0.719036,-0.674696,0.597749,0.206036,0.384534,0.969705,-0.499525,0.604986,0.410664,-1.0302,-0.796135,-0.367,0.753,0.305904,0.783589,-0.711808,-0.715211,-0.194334,0.164009,0.767387,0.525663,-0.888788,0.755498,1.02499,0.538027,0.300392,0.493207,0.948257,-0.12022,0.0931326,0.903044,-0.457064,-0.315448,-0.20515,0.463795,0.269051,-1.042,0.290374,0.0503299,0.752,0.066,-0.228462,-0.650675,-0.134163,-0.926829,0.546697,-0.521364,-0.599479,-0.270093,0.605937,-0.63625,-0.59936,0.710073,0.961528,-0.792389,-0.220881,0.297869,0.313744,-0.239843,0.493222,0.670748,1.06553,0.540074,1.05948,-0.545149,-0.768138,-0.155758,-0.912,0.648001,0.421438,0.816169,-0.29301,-0.946002,0.416395,-0.081989,-0.662913,0.631602,0.532318,0.0209493,-0.48575,0.135487,-0.374117,0.942714,0.99804,-0.713632,0.449455,-0.409172,-0.0676866,-0.338618,-0.130958,0.967341,1.07488,-0.597685,-0.0385932,0.371302,-0.276997,0.198092,0.75612,-0.234663,-0.693716,0.0070196,-0.969571,-0.452354,0.299102,0.88835,0.43352,1.00758,0.879142,-0.443005,1.23783,0.326752,-0.415704,-0.489103,0.167385,-0.524641,1.15638,1.19783,-0.320366,0.169691,-0.332351,-0.525683,-0.645856,0.710784,-0.369,-0.120671,-0.363921,-0.164247,-1.05432,-0.803412,0.124868,-1.15783,0.431426,0.366663,-0.286161,-0.273174,0.35298,-0.737937,-0.624354,-0.542866,-0.893218,-0.614353,0.495701,-0.216972,-0.595699,-0.275185,-0.0854892,-0.389016,1.19223,-0.613181,-0.119342,-0.789335,-0.295977,-0.125248,0.491904,0.267867,0.538077,0.386943,0.529798,0.0885435,-1.13121,-0.110842,0.255542,0.136122,-0.372537,0.683804,0.616169,0.261931,0.397913,0.55679,0.773203,0.529562,0.65998,0.398,-0.549357,1.06926,0.290419,-0.785076,-1.02513,0.0957777,-0.779883,-0.436942,-0.117719,-0.0756823,0.275876,-0.821583,0.636322,-0.498472,0.219545,0.26783,-1.13333,0.457206,-0.362136,-0.007603,-0.814662,-0.456152,-0.533243,0.536401,-0.458572,-0.726278,0.603808,1.06268,0.878104,0.212169,0.0646426,0.275976,-0.217324,0.686739,0.161,-0.572,-0.643976,0.450411,-0.0320938,0.185996,-0.659175,-0.658908,-0.202218,0.32212,-0.467386,-0.459633,0.266794,-0.740758,0.630246,0.295341,0.292624,0.660654,-0.436763,1.1577,0.741571,-0.2239,0.883802,-0.442662,-0.805386,0.0294788,0.304559,-0.38751,0.946,0.664,-0.701919,0.117562,0.586227,-0.295426,-0.753752,-0.297749,0.170358,-0.899476,-0.504477,-0.608643,0.511457,0.230601,-0.412182,-0.215017,0.74088,-0.822026,-0.279033,0.191868,1.14319,0.174844,-0.41918,0.33051,0.255027,0.837561,0.509245,-0.133042,-0.096,-0.67097,0.470817,-0.674737,0.430924,0.316161,0.226694,0.280318,0.423794,-0.0698296,0.220658,-0.255198,-0.0510811,-1.07022,-0.0761178,-0.347484,0.0431165,0.394852,0.77783,0.0438813,0.55956,0.813492,0.426525,0.237786,1.03643,0.521745,0.73484,0.0580676,0.253,-0.287845,0.460497,0.65251,-0.0629251,-0.134433,-0.843139,-0.786108,-0.695248,-0.34969,0.162324,0.470715,0.638498,-0.865815,-0.912695,-0.127774,-0.576296,-0.149648,0.731198,0.508421,1.11179,-0.168557,0.813687,0.296915,-0.81814,-0.703851,0.611636,0.876042,0.63,0.243907,-0.521468,-0.596821,0.794674,0.774904,-0.975598,-0.643791,-0.810807,0.447433,-0.715461,-0.686756,-1.12733,0.404309,0.83317,0.92777,0.95125,0.857939,-0.378813,0.979847,-0.42236,1.13611,-0.210106,0.87597,1.09713,0.735802,-0.198188,-0.995748,0.873,-0.665165,0.43105,0.481529,0.0290937,0.285639,0.250969,-0.734698,-0.0306237,-0.280862,-0.208694,0.519413,-0.642157,0.330596,-0.953263,-0.261554,0.15285,0.764149,-0.134516,-0.329099,0.035988,0.272536,0.952927,0.308961,-0.334563,-0.494443,0.0128389,-0.385573,-0.856,0.324903,-0.825726,0.561061,0.141103,0.0545665,-0.497278,0.670306,-0.640439,-1.15139,-0.657713,0.490686,0.254496,0.73919,0.0437588,0.963832,0.264889,0.193443,-0.290373,0.900129,-0.598064,-0.0168693,0.962299,0.268418,0.674827,0.835726,-0.92156,-0.718446,0.851,-0.370001,-0.545289,0.553356,0.952185,-0.377544,0.124127,-0.286859,0.772912,0.283055,-0.380191,0.981865,0.440432,0.201372,0.618487,-0.655057,-0.473906,-0.331708,0.835745,0.311659,0.386164,-0.939943,0.165084,0.292966,0.00709399,-0.333452,-0.448576,-0.333089,-0.957,-0.815,-0.493,0.451,-0.185331,-0.0380985,0.00222827,-0.672807,0.147589,0.684843,0.0568859,-0.0549986,0,0.255,-0.505001,-0.999001,-0.544,-0.889,-0.658002,-0.463,-0.666,0.732,0.846012,0.272002,0.789,-0.435,-0.435,-0.649,0.231,-0.327,-0.424,0.274,-0.142008,0.0819528,-0.27813,0.230537,0.601704,0.278871,0.555252,-0.24999,-0.0323059,-0.827956,0.253049,0.523859,-0.0171293,0.746777,0.0826741,-0.00276322,0.416972,0.425393,0.536087,0.750942,-0.285991,0.380004,0.023,-0.498,0.945,0.145,-0.589981,0.175055,0.818018,-0.0154325,-1.0014,-0.781594,0.612397,-0.722578,0.453841,0.218282,0.570616,-0.419445,0.537681,-0.907473,-0.694645,-0.208521,0.179117,0.291743,-0.908482,-0.748422,-0.714859,0.507694,0.235371,0.813541,0.260975,0.958001,0.203027,0.842,-0.987135,-0.298073,-0.0154177,-0.589336,0.823215,-0.710981,0.350634,0.377227,-0.493708,-0.502986,0.666496,0.579139,0.359099,-0.151724,-0.815942,-0.0713576,-0.0223874,-0.903111,0.277449,0.645812,0.279629,0.28613,0.851293,0.102211,-0.166157,0.18754,0.0224184,0.686,-0.309831,0.770597,0.0740499,-0.320935,-0.600525,0.515702,0.0596607,0.853455,0.868494,-1.04416,-0.205192,-0.494556,-0.769891,-0.329853,-0.766697,0.67762,0.103811,0.996028,-0.878923,0.511095,0.880261,0.210051,0.0834053,0.19604,-0.790152,-0.254269,-0.897269,-0.306,0.918724,0.109048,0.941058,-0.833104,-0.59563,-0.0358969,-0.138793,-0.548112,-0.455414,0.437224,0.885895,-0.38345,0.270808,-0.0248959,-0.126449,0.163918,0.233704,-0.353838,-0.29296,-0.880429,-0.657332,-0.826838,0.160435,-1.11164,0.555254,-0.502849,-0.0715346,0.467,0.234576,-0.00107077,-0.869457,-0.299314,-0.846954,0.72974,0.0237424,-0.809117,-0.415001,0.156825,-0.901523,-0.0697199,-0.430033,-0.665501,0.284213,0.441815,-0.179906,0.957229,-0.709503,0.6669,0.813926,-0.218597,0.297349,-0.71171,-0.403193,-0.374938,-0.58558,-0.691,-0.335837,0.296618,0.237821,0.77994,-0.682414,0.0789545,-0.670386,-0.872689,-0.434396,-0.619381,0.544373,0.258499,0.87471,1.00413,0.952982,1.0876,0.858091,0.00626295,0.197894,-0.660151,-0.681611,0.25936,0.431308,-0.818146,0.658704,-0.588772,-0.834,-0.651,-0.427001,-0.898812,-0.925109,0.0171857,-0.115205,0.0466024,-0.244059,0.418335,-0.955925,-0.679402,-0.123442,-0.277396,-0.0603966,-0.669756,0.837385,-0.331542,-0.373869,0.936281,-0.308241,1.1071,-0.913478,0.506691,0.770773,-0.605865,-0.572505,0.317007,-0.871,0.615,0.706566,-0.77091,0.305422,0.538251,-0.820864,0.113743,0.0633707,0.0834098,-0.587559,0.354263,0.905949,-0.566533,0.603575,-0.0747244,0.382859,-0.538023,0.184093,0.575035,0.243203,0.354901,-0.534008,0.396369,-0.315871,-0.676905,-0.631717,-0.829259,-0.645216,-0.616,0.478326,-0.616789,0.719791,-0.566316,-0.92579,0.339084,-0.412397,-0.605688,-0.617982,0.256087,0.336987,-0.310155,-0.89565,0.361408,0.310826,0.529404,1.16031,-0.335903,1.11811,-0.0788233,0.530987,-0.21791,0.45377,0.217215,0.590652,-1.00369,0.873061,-0.804,-0.817446,-0.880604,-0.723449,-0.124036,-1.01487,-1.05501,0.477345,-0.883595,0.165828,0.679002,-0.496491,0.564365,-0.426276,0.915407,-0.599071,-0.273466,-0.147508,0.446851,0.94192,-0.213277,0.633416,0.67471,-0.0634526,-0.0347941,-0.987149,-0.293138,-0.566,0.753,-0.736868,0.719457,0.150908,-0.942222,0.332018,-1.12613,0.132842,0.404561,0.759752,-0.17985,0.661016,-0.0243768,-0.464048,-0.846463,-0.87324,-0.104424,0.365994,-0.473453,0.355589,0.940977,0.834879,0.0626672,-0.496968,0.285883,-0.811126,0.0721851,0.77,-0.888,0.31169,0.626593,0.50193,0.130847,-0.176535,-0.32252,0.460174,-0.23665,-0.0036614,-0.0808466,0.865375,-0.693197,0.60452,0.380686,-0.313049,0.372936,0.335998,-0.0983062,-0.697207,-0.270099,0.18166,0.695153,-0.428855,-0.275934,-0.584347,-0.516024,0.52,-0.928,0.536445,-0.220167,-1.10049,-0.582587,-1.16231,0.413985,-0.66025,-0.170788,-0.57782,-1.11332,0.0646812,-0.102788,-0.72541,-0.148835,0.0605274,-1.31175,-0.65182,-0.781726,0.356243,0.736877,-0.0637181,0.661492,-0.670984,0.761927,0.0709789,-0.0801288,-0.713,0.0800641,-0.0488969,0.73351,-0.08496,-0.846226,-0.92882,-0.163268,0.226977,0.804255,-0.680765,0.0533353,-0.442891,-0.240218,-0.334469,-1.22207,0.252533,-0.0369382,0.0489415,-0.403979,-0.0115014,0.811269,-0.0656783,-0.791127,-0.110131,0.676055,-1.05898,0.668568,0.50233,-0.284378,-0.859771,0.735984,0.185247,-0.072325,0.145629,-0.929668,0.499634,0.341182,-0.0188053,-0.617204,0.0570655,-0.203024,0.139749,0.477182,0.331079,-0.951335,0.726838,0.197823,0.446247,-0.540453,-1.24594,-1.20535,-0.903555,-0.718167,-0.613657,0.736595,-0.868939,-0.880038,-0.0253253,0.649818,-0.618045,0.153421,0.59239,0.455816,0.84943,-0.221984,0.597063,-0.160834,0.319277,0.753102,0.210721,-0.598411,-0.045405,-0.864684,-0.944417,-0.572973,-0.881096,0.596282,0.560241,0.0673981,-1.27304,0.156708,0.349281,-0.896122,0.965943,0.539626,0.421917,-0.807572,0.39106,-0.428019,0.536161,0.394209,0.204103,-0.00198456,-0.298033,-0.19446,-0.207598,0.819281,0.249629,-0.543591,0.743794,0.938806,-0.371985,-0.93521,-1.10562,-0.412865,-0.38773,-0.777028,-0.982197,0.882491,0.506868,-0.844052,0.355743,-0.363047,-0.723033,-0.0791011,0.914288,0.927898,-0.215424,0.083413,0.759701,0.899769,0.654233,-0.391936,-0.421363,-0.720908,0.0519757,0.406651,0.501591,-0.936629,0.551288,-0.337962,-1.00064,0.927083,0.0644392,-0.82271,-0.366808,0.463359,0.783816,-0.655176,0.12,0.058,-0.480665,-0.478533,0.877086,-0.401842,0.135861,0.502698,0.586271,0.343204,0.762432,0.194189,0.46039,0.705257,0.82488,0.324445,0.225985,-0.759862,-0.895426,-0.257439,-0.582779,0.946611,0.650542,-0.906705,0.411191,-1.02128,-0.97944,-0.864386,0.644,0.992,-0.935864,-0.53983,0.205672,-0.790813,-0.568956,-0.678743,-0.55781,0.127259,0.222132,-0.863432,-0.12379,-0.190815,0.146119,0.516712,0.865844,-0.514371,-0.305159,0.0668357,-0.130728,0.0689763,-0.990806,-0.0927493,-0.459867,0.0779876,-0.0332513,-0.842086,0.3,0.146082,0.861857,-0.446062,-0.247993,0.928053,-0.164612,0.263587,0.494585,-0.336762,0.148547,-0.938412,1.07541,1.00778,0.565265,-0.316822,-0.253394,-0.742236,0.548646,-0.512853,-0.109408,-0.40588,0.486406,0.464519,0.685415,0.00953355,-0.524857,-0.510018,-0.629,0.14042,-0.790983,0.22139,0.808119,-0.919638,0.246489,-0.540822,0.490282,0.635431,0.359784,0.0804431,-0.578527,-0.451259,-0.315996,-0.558516,-0.874716,-0.826282,-0.526448,-0.25118,-0.840505,-0.574467,0.179924,-0.247241,0.0172434,-0.41908,-0.698853,-0.544302,0.841,-0.543728,-0.480378,0.790819,0.539058,-0.825482,-0.579079,0.324744,0.828482,0.79674,0.473109,0.328912,0.480745,-0.106881,-0.935008,0.948277,0.0216378,-0.858159,0.686107,-0.446125,-1.03831,-0.578087,0.520047,-0.780564,-0.579527,-0.764681,0.0452121,0.11252,-0.445,-0.000179246,0.590227,-0.612151,-0.0401581,0.522293,0.569104,-0.524318,0.831151,-0.783816,0.521713,0.723265,-0.908842,0.125043,-0.264623,0.163241,0.544715,-0.802585,-0.095189,-0.959319,-0.562096,-0.213749,-0.243433,-0.449895,-0.0960218,-1.01119,-0.0961583,-0.0267081,-0.662,0.574407,-0.91136,-0.130391,-0.93303,0.170788,-0.180088,0.119752,-0.602819,-0.446829,0.667721,-0.736502,-0.639916,0.264175,0.605159,-0.979751,0.943026,-0.695434,0.150698,0.06044,-0.366115,-0.744115,0.273431,0.236007,-0.238756,0.772005,0.468543,0.291706,0.819,0.966027,-0.730262,0.714997,0.528188,0.914669,-0.835792,0.664083,-0.312279,0.0133742,-0.218092,0.0989998,0.127774,-0.941049,0.403774,0.0850474,-0.0737196,0.0522872,0.14883,-0.531727,-0.00417246,-0.599598,0.62314,0.712608,-0.281124,-0.478943,-0.445973,0.0620512,-0.691,-0.966,0.911,0.685,0.557068,0.734646,0.398989,0.0920598,0.649389,0.563986,-0.695163,-0.663036,-0.87,-0.354999,0.435019,0.263019,-0.736989,-0.600997,-0.649999,0.194,0.457,0.508,0.228412,-0.984001,0.468,-0.147,0.731,-0.813,-0.068,0.842,-0.194,0.241,0.433,-0.284,-0.517343,-0.00935966,-0.546396,0.88682,0.642773,0.659107,0.00200314,0.501088,0.551092,0.133088,-0.854954,-0.0141442,0.953325,-0.591706,0.384,0.858905,0.159678,-0.603,0.366,-0.613,-0.587,-0.167,-0.203,0.701,-0.423002,0.728975,0.100044,-0.0600351,-0.474036,-0.910875,0.213297,0.0119207,0.0793753,0.218129,-0.55429,-0.72769,-0.123969,0.445805,0.771862,-0.571043,-0.862171,0.921947,-0.0295707,-0.91098,0.886378,0.912253,0.948747,-0.39688,0.867254,-0.130975,-0.455001,0.835,0.258993,0.343132,0.0926756,0.393942,-0.373506,-0.816068,0.882549,-0.29145,-0.722191,0.107587,0.282622,-0.0882878,-0.689111,0.269284,0.180835,-0.245382,-0.275644,-0.0426026,-0.264983,-0.576598,-0.5535,0.722613,-0.479145,-0.667503,0.184953,-0.984483,-0.0752066,0.042,-0.55903,0.0262132,-0.128478,0.698586,-0.629196,0.523416,-0.368281,-0.453595,0.710058,-0.468652,-0.171903,0.558605,0.202374,0.673436,-0.958179,0.530027,-0.0526117,0.208156,0.816889,0.660826,0.74686,-0.418416,-0.901851,-0.811285,0.848242,-0.838407,-0.937081,0.021,0.734826,-0.458395,0.610076,-0.82828,0.580831,-0.939298,0.419682,0.481391,0.554775,-0.936571,-0.944441,0.304886,-0.817111,-0.54843,-0.565646,0.381847,-0.903246,-0.5669,-0.555198,0.0259738,0.19591,-0.733573,-0.746999,-0.0425422,-0.143607,0.909025,0.143044,-0.298,0.62804,0.202412,0.274925,0.362709,0.763392,-0.0800786,0.532927,0.305665,-0.0677435,-0.494886,-0.638679,-0.47553,-0.826169,1.00612,0.389314,-0.679065,-0.592788,0.803199,0.270354,-0.933756,0.760645,0.682245,0.0856733,0.00325334,0.551105,-0.0840163,0.971571,-0.587,-0.174986,-0.333848,-0.337143,-0.552498,0.439545,0.976526,0.379575,-0.249698,-0.589918,-0.547889,-0.955451,0.342084,-0.0275021,0.978027,0.4129,-0.328632,0.9736,-0.155851,0.042284,-0.604952,-0.835038,0.836055,-0.552834,0.960495,0.133153,0.131877,-0.449,-0.305,-0.948419,-0.490018,0.0830287,-0.579924,-0.251419,0.359855,-0.0775067,-0.778451,0.323792,0.823993,-0.097666,0.659318,-0.771993,-0.516002,-0.444716,-0.214326,-0.468713,-0.928925,0.526718,-0.486501,-0.552431,-0.903402,-0.55281,-0.379844,-1.01364,-0.0348285,-0.802,0.145,0.660684,-0.265545,0.810556,0.697917,-0.180059,-0.480899,-0.820557,0.623669,0.894754,-0.383296,0.729484,-0.394515,-0.678915,-0.851336,0.87334,-0.799776,-0.252289,-0.906195,0.029518,-0.164604,-0.853678,-0.445804,0.38216,-0.35144,-0.25478,0.914533,-0.114042,-0.251,-0.562536,0.0660678,0.409808,-0.938707,0.800382,-0.160629,0.367893,-0.326226,0.360727,0.510811,0.735209,-0.34412,0.571937,0.0165027,0.351858,0.57111,0.271567,-0.16041,0.790787,0.619583,-0.0121568,-0.0846568,-0.405695,-0.180323,0.572362,-0.972408,0.059994,0.872,0.497827,0.915092,-0.885632,0.432082,-0.022843,0.596926,0.572087,-0.59009,-0.552137,-0.534002,-0.446922,0.309679,0.529582,-0.63207,-0.940553,0.192476,0.46463,0.0280069,-0.184889,-0.617967,0.549117,-0.692759,-0.826673,-0.312823,-0.122086,-0.197925,0.096,-0.992,-0.612712,-0.883626,0.80181,0.371499,-0.944634,-0.959458,-0.0770948,-0.337195,0.189913,-1.00828,0.0186002,0.667509,-0.409018,0.296126,-0.385241,-0.859677,0.675921,-0.71819,-0.0176294,-0.228054,-0.0556461,0.460059,-0.148193,-0.387056,0.853489,0.0905847,-0.074,-0.235,0.454819,-1.02118,-0.755668,0.325395,-0.857515,-0.803895,-0.599423,-0.744181,-0.807054,-0.238507,-0.608943,0.0119152,-0.0356455,0.608724,-0.692802,0.136971,-0.0783731,-0.0384771,-0.125563,-0.85697,0.222048,0.888141,-0.421286,-0.698496,0.0259857,0.549207,-0.418002,-0.058,-0.796738,0.458869,0.165363,0.142724,0.0540063,0.575857,-0.848624,0.216036,0.277348,-0.55061,-0.0363429,0.106033,0.0130749,0.621048,-0.757257,0.596981,-0.198789,-0.441463,-0.29057,0.231726,0.065835,0.194813,0.0582922,-0.558496,0.217451,0.74674,-0.615,-0.715041,-0.148873,-0.532826,-0.30709,-0.457354,-1.00693,0.581502,0.369238,-0.365867,-0.28894,0.0409961,0.837632,0.613674,0.270601,-0.386966,-0.136073,-0.663257,0.782593,-0.336887,0.896915,-0.457589,0.224924,-0.803382,0.384326,-0.644977,0.455708,-0.494764,-0.596212,-0.745256,0.800807,-0.712753,-0.999918,-0.420376,-0.179976,-0.58128,-0.158527,-0.556637,-1.00123,0.697861,0.0240791,-0.693107,-0.0912379,-0.382956,0.55809,-0.799855,0.223809,-0.567732,-0.514942,-0.0498939,0.0981015,-0.585592,0.0768478,0.890088,-0.805656,-0.491005,0.855961,0.67891,0.0123117,0.744954,0.80638,-0.277,-0.868469,-0.957879,0.05243,-0.445625,-0.599532,0.346789,-0.0413768,-0.967242,0.217996,0.720732,0.95904,-0.826443,-0.61207,0.576714,0.89515,0.114216,0.564566,-0.582246,0.629706,-0.791342,-0.593953,-0.243704,-0.843928,-0.379637,-0.178627,0.512425,0.752024,0.75884,0.357902,0.778048,-0.805509,0.041537,0.714218,-0.269376,0.620715,0.793373,-0.764116,-0.264672,0.914948,0.077156,-0.948078,0.446949,-0.237616,-0.61709,0.0142416,-0.326637,0.489904,-0.426772,-0.314694,0.193405,-0.159618,0.104079,0.498871,-0.480366,0.221627,-0.726344,-0.904473,0.102822,0.6451,-0.0326164,-0.176596,0.861407,-0.905169,-0.748221,-0.699551,0.850644,0.687217,-0.85951,-0.846246,0.155505,0.201195,-0.803151,-0.38014,-1.01838,-0.864094,0.201105,-0.731265,0.249125,0.819,-0.041,0.991724,-0.791914,0.599262,0.466357,-0.705296,-0.149315,0.301391,-0.637313,-1.02403,0.0167108,-0.000997597,-0.494699,-0.425542,0.215849,-0.640943,-0.108108,-0.358196,0.616853,0.0307145,-0.6186,-0.178998,0.813565,-0.42819,0.00564145,0.385596,-0.70054,-0.772,0.652,0.544704,0.594218,-0.418576,0.500357,0.325393,-0.82821,-0.469872,0.650037,-0.348551,0.909423,0.650535,-0.739183,-0.391683,-0.249811,-0.205547,0.178849,-1.01377,-0.278492,0.645698,-0.769436,-0.608079,-0.750553,-0.398415,-0.243576,0.620421,-0.258273,0.774,0.00791644,0.0422809,-0.994548,-0.34617,-0.869595,0.134154,-0.219396,0.63157,-0.509087,-0.419033,0.781985,-0.819131,-0.170203,0.344242,0.902751,0.106807,0.966457,-0.295549,0.496773,-0.258986,-0.709297,0.804955,0.9288,-0.492179,-0.811649,-0.814001,-0.324064,-0.042,0.371571,0.421645,-0.703167,-0.61347,-0.53852,-0.719012,-0.42853,-0.428112,0.426174,-0.0527703,0.801642,0.927708,0.0927143,0.639978,0.738971,-1.02113,0.0688527,0.730614,0.143534,-0.381701,-0.543539,-0.783067,0.354693,-0.69742,-0.967992,-0.137506,-0.17815,0.786,-0.394125,0.499946,-0.694646,0.984699,-0.523314,-0.419289,-0.660064,-0.066525,-0.565305,-0.505538,0.0640935,0.386775,0.4309,-0.533011,-0.0379476,-0.377971,0.774901,-0.221689,-0.36684,-0.600607,-0.494231,0.358564,0.0452046,-0.46442,0.585672,0.959805,-0.15787,0.622,-0.181222,0.220407,0.405726,-0.0169283,-0.720191,0.703085,-0.047625,-0.247992,0.85439,0.317607,0.67758,-0.73447,0.799967,-0.668413,0.721799,-0.138376,-0.582259,-0.293793,0.489606,-0.794724,0.500885,0.717133,-0.361632,0.584127,0.0825715,0.236801,-0.878978,-0.766,-0.24413,-0.48025,0.855415,0.136001,0.749646,-0.172975,-0.8813,-0.977919,-0.911704,0.0791053,-0.230958,0.929664,0.940087,-0.991709,-0.79073,0.325625,0.932104,0.501567,-0.805412,-0.631789,-0.761528,0.276008,-0.400361,0.314889,0.00233014,-0.203151,-0.104946,-0.914,0.592999,-0.427117,-0.680708,0.907243,0.0960346,0.736528,0.0417645,-0.164362,-0.888136,-0.287217,-0.588226,-0.808305,0.342602,0.178393,0.681188,0.292776,-0.235944,0.461907,-0.820169,-0.299378,-0.0231301,-0.613145,0.0792943,-0.222287,0.22272,0.234265,0.642991,-0.78,0.588,-0.463,0.864,-0.262999,-0.333014,0.741995,-0.356997,0.761088,0.474088,0.239323,-0.847995,0.14,0.507,-0.880304,-0.112286,-0.15,0.303,-0.429,0.699,0.624,0.592,0.880895,-0.674,-0.873,0.826,-0.038,-0.539,0.047,0.753,-0.897,-0.176,0.339999,-0.803092,-0.312718,0.633261,-0.138514,-0.573476,0.834139,-0.818005,0.459741,0.0740078,0.892032,-0.845305,-0.866385,-0.989523,0.0523933,-0.00671034,-0.128958,0.170935,-0.314589,-0.505038,-0.678992,-0.876996,-0.622,-0.552,0.95,0.34,-0.0910022,-0.446574,0.0955675,0.0142453,0.382256,1.00037,0.224525,0.645839,0.647374,0.648412,-0.935633,0.477483,0.823558,0.0762062,-0.899567,0.276526,0.237271,-0.751649,0.279948,0.836568,0.224831,0.714967,-0.439985,0.455189,-0.806722,-0.124084,0.58,-0.869,0.324178,0.0908644,0.498997,0.809057,0.698196,-0.328536,-0.0678384,-0.281728,-0.296748,0.701825,-0.651126,-0.698154,0.261553,0.779862,0.116372,-0.512779,-0.595679,0.316938,0.854742,0.233626,0.597718,-0.237151,0.106679,-0.698202,0.909048,0.147367,0.735084,0.666,-0.975615,-0.124146,0.804089,0.35188,1.01653,0.406361,-0.107863,0.352651,0.573373,0.649122,0.859512,0.961739,-0.417858,0.369766,0.520727,0.185212,0.160522,-0.676827,0.845086,0.236874,0.74739,0.369104,-0.453368,-0.194446,0.524465,0.065829,0.0494811,0.442,-0.776647,-0.657752,-0.335129,0.814444,0.256024,-0.433694,-0.0829356,-0.0853312,0.90661,0.549207,1.01908,0.219031,-0.413139,0.343053,-0.237222,0.101115,-0.392742,0.779278,-0.562451,0.541477,-0.62514,0.987093,-0.582967,0.613668,-0.189832,-0.216222,-0.688988,0.899,0.437138,-0.08842,-0.141747,0.156535,0.195872,0.535134,0.0667076,-0.944236,-0.861202,0.903929,0.0145962,0.609315,0.448263,-0.450581,1.2286,0.700766,0.335553,-0.900945,-0.651312,0.793576,-0.750349,-0.105266,-0.220941,0.8841,-0.804513,-0.060096,0.375332,-0.03,0.740002,0.66105,-0.615621,-0.339638,-0.519269,0.140783,0.844597,0.33654,-0.0844992,-0.274085,0.367965,-0.11601,-0.263102,0.874349,1.19855,0.206542,0.666288,0.384726,-0.26899,-0.191553,0.818352,-0.385607,0.773241,0.143228,-0.367721,-0.774346,-0.148,-0.299,0.157069,-0.806733,0.173488,-0.621158,0.750057,0.347281,-0.08337,-1.15953,-0.137089,-0.20341,0.264648,1.11323,0.543422,-0.373051,-0.0851399,1.00597,0.319953,0.809645,1.25009,-0.171451,0.213198,-0.570017,-0.156311,1.20238,-0.473573,-0.864527,-0.027,-0.046,0.890961,0.77127,0.550257,-0.114369,-1.18949,-0.890141,0.168541,0.224474,-1.04288,-0.768772,0.12367,0.0571736,0.132549,1.27555,0.100878,-0.334012,1.25275,-0.35957,0.426084,-0.0827586,1.08673,0.463968,0.263905,-0.187686,0.355965,-0.0387612,-0.546452,0.695,-0.359976,0.383028,-0.439156,-0.613232,-0.37079,0.614376,-0.164019,-0.456845,-0.88409,-0.573429,0.602001,-0.869858,-0.0643787,-0.0419697,0.411126,0.699278,-0.270385,0.337087,0.783011,0.829143,0.339615,-0.480642,0.0435509,0.269194,0.518829,0.125708,0.0374109,-0.653,0.653463,0.0322241,-0.993481,-0.777136,-0.640435,-0.900351,-0.750886,-0.333714,0.483555,0.281444,-0.0891737,0.639281,-0.898907,0.188005,0.877543,-0.539566,0.295071,-0.510955,-0.89814,0.724779,0.376504,0.272176,1.03857,-0.126896,0.546593,0.977254,0.084,-0.481,-0.350581,0.643555,-0.197469,-0.781896,-0.465899,-0.719334,-0.917673,-0.373704,-0.850132,-0.552978,0.425477,0.703778,-1.01367,-0.38053,0.47772,0.329635,0.244544,0.1846,-0.953007,0.0757047,0.836736,0.729788,0.275774,0.330744,-0.129264,-0.73331,0.096,0.781,-0.765633,-0.837579,-0.746408,-0.731113,0.525368,-0.554555,-0.358354,-0.895296,0.174215,-0.393909,-0.0249943,0.337434,-0.148591,-0.809503,0.0334851,-0.64481,0.214119,-0.20068,-0.459392,0.150625,-0.696794,-0.744602,0.988842,0.940797,0.845736,-0.285238,-0.363,-0.906,-0.47071,0.644519,0.764204,-0.83918,0.202614,0.548131,-0.219286,-0.0386822,-0.534209,0.181679,0.0969022,0.174544,0.485463,0.376962,-0.376248,-0.447844,-0.936455,0.587948,-0.293491,-0.00921818,1.07877,0.0924252,0.924879,1.11088,0.245596,0.397826,0.412,-0.138043,0.644104,0.487893,-0.157987,-0.878498,-0.103358,-0.517679,-0.38658,0.940355,-0.91355,0.439399,0.00198213,-0.307413,-0.612635,0.295548,0.237019,0.456326,-0.161182,0.926016,0.489258,-0.637156,0.0708447,-0.513602,0.650745,0.000909843,0.603818,0.141461,-0.545219,-0.921977,-0.955382,0.268271,-0.522212,0.72074,-0.437431,-0.00573348,0.844995,-0.0600299,0.426367,1.18887,0.143001,0.0662714,0.097569,0.103966,0.00211167,0.0379258,-0.385221,-0.57807,-0.91514,0.0806069,-0.897941,0.87927,0.768844,0.49126,-0.525184,-0.30972,0.897959,0.332287,0.311863,0.725311,-0.061363,0.327868,0.173795,0.348616,-0.318163,0.550411,-0.226527,-0.456391,-0.279167,0.434533,-0.957827,0.297847,-0.683932,-0.331368,-0.89978,0.516368,0.531672,-0.390146,-0.754583,0.946148,1.0217,-0.367886,0.941658,0.0102191,0.104001,0.732176,0.611803,-0.653468,-0.452557,-0.0508475,-1.14017,0.465306,-0.543226,0.091234,-0.042881,0.415212,-0.617059,-0.453073,-0.114941,-0.186337,-1.06745,-0.266261,0.68158,-0.914885,-1.01611,-0.658505,0.389613,0.351226,-0.263195,1.03626,0.428207,-0.674737,0.624006,-0.31527,-0.15872,-0.864356,-0.687163,-0.557933,-0.744508,-0.555494,0.365602,-0.596563,-0.651184,0.64706,0.186226,-0.766697,-0.667508,0.574921,-0.150062,0.0961867,-0.84545,-0.224912,0.879099,-0.847007,-0.120107,0.56688,-0.764173,-0.371616,-0.00984518,-0.887123,0.66,-0.814,0.976931,-0.308193,-0.820617,-0.365442,-0.18106,-0.98388,0.0326108,0.257191,-0.0500878,-0.486996,0.393556,-0.351364,0.722684,-0.344551,-0.0319224,-0.971988,-0.812519,-0.740996,0.0590357,-0.703341,-0.0967805,0.0271515,-0.803257,0.624092,-0.310463,0.652997,0.787,0.503,0.75261,-0.178518,-0.213383,0.272176,0.36789,-0.193678,-0.758246,-0.288427,0.592194,0.711917,-0.817271,-0.291187,-0.79667,0.471958,0.306665,0.429191,0.897731,-0.879682,0.728135,-1.08316,0.771008,-0.178667,-0.55454,-0.4329,0.61139,-0.518753,0.857,-0.83613,-0.888411,-0.00619751,-0.27124,0.0046189,-1.13553,-1.19134,0.0467317,0.495884,0.223392,0.475897,-0.615051,-0.381523,0.0641737,-0.793568,0.0586261,-0.412541,0.221366,-0.975211,-0.831563,0.035405,0.621289,0.530565,0.242737,0.7789,-0.75225,0.293885,-0.817,0.318332,0.755238,-1.15602,0.0569118,0.105859,-0.415592,-0.855199,-0.634332,-0.555226,0.761937,0.612093,-0.744617,-0.183908,-0.366617,-0.603781,0.0758335,-0.0730878,-1.06345,0.660229,0.592541,0.169044,0.697725,0.431924,-1.01908,0.684793,-0.0927592,0.399613,-0.029,-0.323949,-0.313278,0.0499354,0.742636,-1.23523,-0.467431,-0.197646,-0.197771,0.382466,0.175542,0.38925,0.723907,-0.150431,-0.283194,0.898221,0.433012,0.114566,-0.872268,-0.97226,-1.01841,-0.983679,0.683825,0.230157,-0.0813413,0.700235,-0.443897,0.0565184,-0.074,0.0190903,-0.98653,0.889397,0.598616,-0.906924,-0.623157,0.43117,0.618605,-0.196048,-0.263191,-0.0443349,-0.793911,0.735218,0.855179,0.734139,-0.624717,0.978848,0.549095,0.242096,-0.0600818,0.106888,0.195291,-0.447733,-0.17956,-0.369972,0.5082,0.795702,-0.674,0.629053,-0.585084,-0.180532,-0.387264,-0.633056,-0.793821,-0.701933,-0.307456,-0.508897,0.7269,-0.737538,0.540398,-0.545539,-0.468838,0.425825,0.528203,-0.71485,-0.354125,0.325464,-0.886411,0.645404,-0.482038,-0.343579,-0.211741,0.29782,-0.208659,0.617391,0.945,-0.682,-0.0275302,0.831188,0.945075,0.375085,-0.800266,-0.842555,0.370372,-0.967646,-0.481408,0.635209,-0.535732,-0.900459,0.675097,0.363634,0.970315,-0.905287,-0.730674,0.402375,0.851932,-0.144034,-0.303778,0.533197,-0.502911,-0.246274,0.739884,0.292961,0.624,-0.461,-0.532,0.125,-0.58494,-0.00134088,-0.0463962,0.918982,-0.620058,-0.294231,-0.922565,0.300133,-0.281,-0.881995,-0.100945,0.162055,0.756056,-0.889986,-0.496009,0.706,-0.808,-0.236,-0.33695,0.60199,0.176,-0.086,0.133,0.675,0.225,-0.572,-0.476,-0.595,-0.0319995,-0.450956,0.531633,-0.0600828,0.546164,-0.959394,-0.141321,0.927787,-0.254671,-0.0729386,0.226082,0.465444,-0.39829,0.674648,-0.826001,-0.645389,0.79346,-0.755459,0.620948,0.542016,-0.435019,0.840991,0.143,0.742,-0.246,0.833,-0.0269861,0.537386,-0.738502,0.494694,0.939705,-0.207015,-0.951742,0.0289525,0.722408,0.152107,0.0665056,-0.426595,0.067521,0.362018,0.053854,0.837113,-0.627194,0.655972,0.0913015,-0.428536,-0.970556,-0.115876,-0.62515,0.649508,0.991672,-0.0574855,0.486995,-0.312,-0.758594,0.807073,-0.459276,-0.191718,-0.0570343,-0.619189,0.792237,-0.667338,0.0759305,0.806197,0.303968,-0.300085,-0.563462,-1.10266,-0.182954,0.458201,0.223317,-1.09494,-0.0427659,0.760944,0.725901,0.715365,0.939312,0.779847,-0.813737,-0.679497,-0.0429712,-0.841,-0.17593,-0.972495,-0.0742188,-0.232813,0.540201,0.0431969,0.383622,0.760624,0.181882,0.0785195,-1.02908,-0.901835,-0.666066,-0.150744,-0.540105,-0.123641,-0.112237,0.535701,-0.68979,-0.412435,0.834328,0.0288421,-0.602134,0.0979411,-0.224931,-0.609911,-0.561591,-0.053,-0.726005,0.439063,-0.206524,0.302969,0.242799,0.730899,0.304356,0.849023,-0.615381,-0.496716,0.384569,-0.122152,0.463948,0.455985,0.258229,-0.814918,-0.167661,-1.08521,0.317613,-0.691946,0.776691,0.625273,-0.684466,0.466133,-0.2966,-0.541361,-0.243923,0.546,-0.583405,-0.184812,-0.778127,-0.0259051,-0.498771,-0.0569116,0.405707,-0.273613,-0.75894,-0.548286,-0.81829,-1.23069,-0.183503,-1.16564,0.194216,-0.486425,0.594558,-0.199719,-0.010098,-0.121856,-0.276903,-1.10124,-0.759733,-1.25489,0.682365,-0.479672,0.210279,-0.896,-0.00974716,0.563807,0.330359,0.684297,-0.453577,0.38405,0.697,-0.524331,0.923172,-0.289188,-0.863233,0.192039,-0.316221,-0.124295,0.336499,-0.720003,0.347433,-0.420302,-0.305286,-0.487503,0.0797816,0.182018,0.0190167,0.228884,0.415328,0.341042,0.509,-0.178,0.85619,-0.2869,-0.00247036,0.0498744,0.901593,-0.893608,0.774067,-0.950185,0.165631,0.0273131,-1.53122,-0.605085,-0.916238,-0.514304,-0.937192,0.325722,0.531608,0.435234,0.263578,-0.339411,-0.805733,-0.963337,0.226262,-0.0667427,0.0655063,-0.777298,-0.395,-0.345,0.121474,0.650186,0.0648687,0.0773491,0.927027,0.911175,0.3549,0.659009,0.43674,-0.24508,0.246415,-0.907221,-0.69264,0.654617,0.37361,-0.538994,-0.66346,0.447766,0.521623,-0.987813,0.0632294,-0.253054,-0.73108,0.21715,-0.578761,0.346897,-0.503898,0.721,0.591773,-0.335221,1.00056,-0.200485,0.840393,-0.0444026,0.271201,0.755477,-0.700334,-0.748754,-0.291453,-1.2308,0.061576,-0.20504,-0.304379,0.47034,-0.836984,0.52991,-0.957052,-0.396572,0.162329,0.365654,-0.546774,-0.936739,-0.791082,-0.51311,0.0938507,-0.614,0.858891,0.176312,-0.781499,0.550214,0.831645,-0.835256,0.906179,0.368478,-0.467157,-0.244441,-0.115986,-0.128149,-0.0221093,0.728108,-0.264297,-0.562856,-0.892459,-0.178259,-1.00072,-0.233892,-0.567594,0.703365,0.188056,0.495237,0.282525,0.323754,0.218,0.124,0.387651,-0.645718,0.658937,0.440163,0.59588,0.759634,-0.0496242,0.0838152,0.29908,0.886397,-0.953124,0.802083,0.00426879,-0.19876,-0.606265,0.546969,-0.732308,-0.12438,-1.00352,-0.261111,-0.807905,-0.768614,0.0570899,-0.346386,-0.840614,0.812573,0.603,-0.039,-0.294814,-0.173866,-0.770704,-0.689229,-0.127276,0.301532,0.607936,0.985778,-0.111598,0.599884,-0.823493,0.695553,0.758684,-0.665046,-0.058827,-1.03093,-0.864674,-0.118057,0.454758,-0.161547,-0.665967,0.368922,0.325261,-0.683284,0.441196,-0.684739,-0.815003,0.002,-0.865948,0.685049,0.927645,-0.048807,-0.690881,0.780086,0.201588,-0.352713,-0.0819735,-0.65729,-0.724226,0.283805,0.569615,-0.697267,-0.397304,-0.164672,0.599542,-0.319889,-0.612896,-0.685583,-0.755219,0.817716,-0.0797066,-0.535498,0.487725,-0.868774,0.865,-0.250012,-0.545741,-1.07308,0.731823,-0.745642,0.462334,0.414376,-0.162851,0.782014,-0.431677,0.598444,0.718091,0.383809,0.396188,0.619319,0.733361,-0.310873,0.352451,-1.11034,0.24875,0.363706,0.0630589,0.493641,0.340945,0.456039,0.454501,-0.888416,0.12394,-0.558339,0.807661,-0.134248,0.159219,0.912976,0.034728,-0.36904,-0.708617,1.16291,0.420551,-0.386021,0.639824,0.839175,0.553468,-0.436223,-0.529246,-0.49425,-0.685616,-0.633452,0.298866,0.334769,0.990746,-0.662094,-0.673362,0.0745963,0.730088,-0.0159884,0.832989,-0.259006,0.0869522,-0.178817,0.101116,-0.529043,0.396846,1.10277,-0.41084,-0.380127,0.915353,0.789644,-0.536571,0.335658,-0.950781,0.695143,-0.312603,0.708601,-0.630537,-0.217466,-0.741347,-0.738918,-0.297326,0.17453,0.0997994,-0.409488,-0.141621,0.118892,-0.0350026,-0.481502,0.637753,-0.340167,0.232513,-0.226807,0.330298,-0.641859,0.0928612,-0.175463,0.739206,-0.00221714,-0.174453,0.998989,-0.226873,0.166693,-0.0729566,-0.300513,-0.809442,-0.0396667,0.840472,-0.927577,0.753397,0.714887,0.764689,-0.676353,-0.279891,-0.318736,-0.254035,0.0759398,0.335729,0.201421,0.624295,0.139746,-0.739524,-0.215315,0.566264,-0.130553,-0.775616,-0.985487,0.216164,0.941543,0.0283574,-0.57175,1.04435,0.127942,-0.303197,-0.938948,0.683304,0.0144281,0.2009,0.214628,-0.0244814,-0.212149,-0.148654,-0.261824,-0.314,0.195,0.404523,-0.0147365,-0.582158,-0.508611,-0.543281,0.637033,0.313759,0.66858,0.160848,-0.989035,-0.33988,0.808409,-0.455664,0.838804,0.467313,-0.0812508,0.80722,-0.432661,0.958539,-0.704324,-0.17412,0.206106,0.0815461,0.417907,-0.51776,-0.794202,0.966,0.033,-0.51455,-0.397908,0.879742,0.554352,0.241668,-0.963522,0.568684,0.227699,-0.189191,-0.597439,0.107821,-0.651727,-0.076711,0.697883,0.846583,-0.0223835,0.451532,0.0846413,0.374083,-0.109808,0.18973,0.156359,-0.0963109,-1.06979,-0.497628,-0.760015,0.623,-0.29214,-1.00044,0.188473,0.90386,-0.846283,0.756003,0.00210334,0.402769,-0.109464,-0.416525,-0.324601,-1.18703,0.645792,0.53673,0.287509,0.720204,-0.850664,-0.265089,0.155096,-0.424508,1.01736,0.579655,0.669986,-0.348365,-0.233658,-0.44422,0.402304,-0.031,-0.205721,0.644942,-0.744794,0.777449,0.384735,0.254277,-0.31662,0.157494,-0.40044,0.84149,-0.744147,0.0903708,-0.482982,0.224193,0.14376,0.84971,-0.522264,-0.818934,0.653146,-0.929503,-0.723621,-0.396414,-0.581448,-0.876285,-0.840337,0.789316,-0.426261,0.176,-0.490587,0.98082,0.805711,0.145192,0.398157,0.381715,0.818176,0.869635,-0.801914,-0.364911,-0.370693,-0.265894,-0.957169,0.0664934,0.552008,-0.754449,-0.55662,-0.168191,0.68245,-0.108365,-0.463441,-0.164378,-0.617612,-0.324875,-0.0657939,-0.561906,-0.468435,-0.137,-0.640043,-0.330702,-0.866888,-0.335984,-0.554365,0.384934,0.337388,-0.0856627,-0.83725,0.0534899,-0.294389,-0.695436,0.308957,0.577061,0.258981,0.0517949,-0.200849,-0.470875,-0.0393304,-0.100139,0.0183794,-0.26082,0.323747,0.496882,0.109092,0.790841,0.883828,-0.79,-0.673611,-0.58251,0.116276,-0.194716,-0.222017,-0.252984,-0.255804,-0.187897,0.860262,0.410005,0.686653,-0.881092,-0.371193,-0.355193,-0.358522,0.676463,-1.05028,0.656174,-0.539382,-0.518013,0.905142,0.585322,0.461266,-0.0551837,0.8935,-0.130016,-0.875044,0.127,-0.719005,-0.991742,0.340071,-0.378697,0.999656,0.978115,-0.139673,-0.376332,-0.375993,0.518971,0.470926,-0.399626,-0.403604,-0.156955,-0.617932,-0.118742,0.13647,-0.300366,-0.334012,0.186425,0.996648,-0.227605,0.725084,0.933298,-0.618556,-0.214181,-0.509009,0.889,0.239,-0.384,-0.428,0.521807,-0.373805,0.467838,-0.872008,-0.833988,0.434965,-0.460943,-0.648868,-0.928,0.622,0.831009,-0.764992,-0.776,-0.763,-0.812997,0.116,0.387,-0.108,0.345135,-0.423,-0.552,-0.879,0.864,0.942,-0.936,-0.349,-0.567,0.953,0.889999,0.0493977,-0.474346,0.410061,0.231453,0.549316,0.0960922,0.39799,-0.0170899,0.634919,0.749002,0.0560885,-0.18683,0.136688,0.292361,0.0392783,0.37635,0.479407,-0.844969,-0.68289,0.927003,0.0560013,-0.105,0.932,0.177,-0.685,0.873998,0.241001,-0.0345968,0.86735,-0.249033,-0.596989,-0.0908141,-0.164133,0.378842,0.703616,-0.616012,-0.964257,-0.340563,0.365821,0.223645,0.959535,0.967837,-0.975495,-0.358432,0.258172,0.0714422,-0.966107,-0.700231,-0.214958,-0.655627,0.784942,0.841,-0.202,0.717125,-0.42533,0.112756,0.170557,0.409601,0.646088,0.0441173,-0.813007,0.639225,0.510918,0.0259559,0.0728486,-0.182309,-0.0490826,0.0584972,0.408642,0.791088,0.759254,0.300426,0.751162,0.82646,-0.957018,-0.378649,-0.533045,0.60208,-0.537169,-0.193002,0.499,-0.751176,-0.797972,0.839018,0.525947,-0.198642,-0.453749,-0.712919,-0.72611,-0.728605,-0.112166,0.974867,0.941204,1.00113,-0.506402,-0.54581,-0.292455,0.341304,-0.0523394,0.967266,0.0225238,-0.305423,-0.0856081,-0.601331,-0.943019,-0.561326,-0.019305,-0.467002,0.588,0.443635,0.332482,-0.386456,0.227547,0.0805446,-0.530061,-0.211403,0.966353,0.157346,0.126641,0.727228,-0.0909622,0.55896,0.616183,-0.720187,0.416339,0.524158,-0.465961,0.848421,-0.427275,0.285072,0.299536,0.150723,0.485507,0.694548,0.496386,0.552,-0.883,-0.970803,0.638711,0.231563,0.438318,-0.520186,0.834974,-0.319513,0.661677,-0.509152,0.154879,0.197681,0.139782,0.788664,-0.595401,0.497673,0.183544,0.375619,0.520863,-0.689257,-0.428408,0.310562,0.90589,-0.383458,-0.889253,0.175281,0.704472,0.552,-0.187,-0.247374,-0.338472,-0.540692,-0.274563,-0.769652,0.640625,-0.825931,-0.170472,0.264308,-0.358671,-0.827561,0.774735,0.772136,0.294544,-0.660193,0.373303,0.465518,0.598975,0.922069,-0.345224,-0.582155,0.923233,0.112718,0.693061,0.786687,0.151705,0.652,-0.591,-0.150858,0.187972,-0.266169,0.103598,0.37567,-0.270121,0.843272,0.679687,-0.824613,0.834671,-0.332716,0.481062,0.996182,-0.261032,-0.328975,0.601876,0.43512,-0.18437,-0.608838,-0.216594,0.782255,1.00896,-0.209237,1.07194,0.38766,0.25924,0.104,-0.412,-0.595259,-0.237672,-0.0149826,-0.198783,0.513452,0.276935,0.914177,-0.0550596,-0.773137,0.984675,-0.739538,0.889208,0.292423,-0.149908,0.274703,0.192311,0.073328,0.853858,-0.754283,0.921334,1.02475,0.890971,1.04627,0.704732,0.376854,-0.375783,0.0725852,-0.418,0.432641,0.740761,-0.276571,0.411137,-0.48521,0.745864,-0.739376,0.66976,-0.262003,-0.734669,-0.942411,-0.698646,0.614053,-0.742945,-0.823182,-0.600409,-0.402116,0.433518,0.143592,0.181215,0.0927864,0.137503,-0.00942864,-0.325835,-0.447927,-0.192167,0.623928,0.712,-0.0250413,-0.779963,0.829034,-0.571802,1.00679,-0.374546,0.934586,-0.774774,1.03196,0.671565,0.61,-1.0005,0.620978,0.539503,-0.740344,-0.226604,0.811391,-0.467431,-0.0773454,-0.883609,0.443459,0.918112,0.279752,-0.82113,0.0480412,-0.962776,-0.435,-0.044,-0.168608,-0.839618,-0.806053,0.372265,-0.528475,0.717044,0.951755,-0.360485,0.92412,0.215252,-0.527384,0.589957,-0.414022,0.450278,0.466304,0.809405,-0.218958,0.56667,-0.586722,-0.785333,0.547596,0.219524,-0.594378,0.188799,0.232803,0.534452,0.156,0.684,0.556738,0.240421,-0.428663,0.901644,0.032153,-0.474954,0.478901,0.656543,-0.757747,-0.248091,0.485169,0.795221,0.674008,0.334788,-0.141415,-1.0855,-0.364473,-0.380755,0.420245,0.256917,0.555019,0.801087,0.718787,0.456915,-0.189007,-0.888369,-0.454,0.512,0.626733,0.227834,0.124177,-0.302348,-0.414768,0.549178,-0.109012,0.296338,0.97962,-0.880456,-0.329138,0.447181,-0.389978,0.532829,0.167054,0.901877,-0.416591,-0.839764,0.373967,0.0125272,-0.819226,-0.151216,-0.810004,-0.777108,-0.412458,-0.966763,0.223,0.351002,0.696746,0.760722,-0.208585,-0.129583,-0.31678,0.796675,0.780364,-0.178958,-0.305371,-0.542666,0.929535,0.996304,0.872248,0.925589,0.290377,-1.04019,0.0145725,-0.92235,0.497805,0.586237,-0.789663,-0.0824165,-0.600279,-0.674164,0.74336,-0.174506,-0.403992,-0.690116,-0.590044,0.814006,0.650901,0.713657,0.276182,-0.763042,-0.405117,0.341802,0.375605,-0.725064,1.05793,0.828835,0.984937,0.272944,0.612697,0.2303,0.136413,-0.382848,0.457111,-0.679036,-0.281989,-0.541162,0.473032,-0.361819,0.719388,0.710246,0.0850015,0.494542,-0.91519,0.232171,0.397533,-0.853578,-0.273815,0.0891573,0.679179,0.755985,-0.236441,-0.691753,0.0614041,0.883255,0.896758,-0.536238,0.0743572,0.662202,0.755678,-0.441551,0.333251,-0.290325,-0.286828,-0.780009,-0.557644,0.480643,-0.0435878,-0.784431,-0.719994,-0.709177,0.927602,-0.0603688,0.422261,0.683126,-0.795956,-0.321445,0.530459,-0.262744,0.319226,0.332018,-0.934021,0.46957,0.0651257,-0.4263,-0.245841,-0.223315,0.116755,-0.799388,-0.100431,-0.407068,-0.784221,0.647585,0.232904,0.0894673,0.733507,0.988938,-0.702971,-0.705019,0.762187,-0.402316,-0.343115,0.304211,0.0601061,0.913919,-0.222596,0.226368,-0.779424,-0.576781,0.945438,0.406213,0.238741,0.458963,-0.733321,-0.870877,-0.878207,0.412202,0.386849,0.48044,0.633721,0.821836,-0.798589,0.681647,0.334394,0.215644,-0.12,0.077,0.204445,0.195945,0.43104,-0.467338,0.299878,0.561459,0.84703,-0.505552,0.130322,-0.788924,0.133725,0.09929,-0.579868,-0.600022,-1.14696,0.0955496,-0.902253,-0.32263,0.853,-0.360243,-0.760218,0.274506,0.7696,0.617997,-0.157383,0.604789,0.28,-0.883,-0.183676,0.758338,0.191245,0.506944,-0.603509,-0.813653,-0.741645,0.508304,0.77686,0.451763,0.179911,-0.543379,0.24594,-1.04934,0.382663,0.343527,-0.574841,0.539895,0.139008,0.0257942,-0.590817,0.0159377,0.191815,-0.749954,0.913119,-0.0654922,0.301,-0.354,-0.463364,-0.375574,-0.248754,0.211454,0.710833,0.455171,-0.497448,-0.647497,0.624888,-0.535206,0.473451,0.0582354,0.282415,-0.486492,0.537062,-0.187177,-0.318014,0.313838,-0.554756,0.550188,-0.028417,0.538703,-0.541939,-0.0778679,-0.87789,0.552171,-0.027,0.895,-0.962072,0.848886,-0.528911,-0.628701,0.737625,-0.332967,0.34035,0.741325,-0.729275,0.776094,0.511037,-1.18193,-1.18283,0.0360287,-0.375479,0.457766,0.723726,-0.148845,-0.572407,-0.783338,0.685261,-0.304204,0.604764,-0.422274,-0.841887,0.484373,-0.16,-0.859001,-0.415073,0.353637,0.509394,-0.513567,0.043289,0.498307,-0.430385,0.00520618,-0.614078,-0.945774,-0.146832,-0.653059,-0.970931,-0.810358,-0.963315,0.787839,0.158375,0.00301899,0.496722,-0.0898338,0.285773,0.266558,-0.034207,-0.170166,0.820864,0.99277,-0.191,0.454998,0.471153,0.200656,0.111375,-0.977098,-0.474995,-0.355491,-0.863625,0.685476,0.893171,-0.123551,-0.547499,-0.457023,0.217829,0.146557,-0.328869,-0.053284,0.362761,-0.732376,-0.32436,-0.632442,0.0986508,0.583501,-0.246347,0.83677,-0.253542,0.18346,-0.871,-0.913001,0.175564,-0.50255,0.53286,-0.36473,0.698742,-0.315012,-0.747853,-0.739962,-0.00465354,-0.499635,0.629461,-0.417782,0.507199,-0.845692,-0.334387,-0.33349,-0.245427,0.257682,0.0776716,0.967588,0.395618,0.710512,0.906145,-0.969046,-0.183795,-0.382566,0.823,0.546,0.800156,0.509505,0.63362,-0.0295005,-0.996001,-0.268909,0.175907,0.707817,-0.0128713,0.442388,0.543991,0.544943,0.49386,0.153241,-0.918502,-0.0444319,-0.174497,-0.270453,0.153914,0.529432,0.956303,-0.771859,0.0751275,-0.0817884,0.48924,-0.0319682,-0.06,0.858,0.142,-0.68,0.403014,-0.0588344,0.829038,-0.406999,0.472246,0.833051,0.326026,-0.792963,0.096,0.866,0.203977,-0.364022,0.403994,-0.307001,0.346004,0.489,0.207,0.724,-0.779951,-0.638,-0.186,0.734,-0.853,0.888,-0.349,0.193,-0.588,0.149,0.051,0.553999,0.469002,-0.989964,-0.948194,-0.146703,-0.397829,0.524574,-0.756,0.485021,0.732012,0.339697,0.349917,-0.0650157,0.533189,-0.246917,0.185998,-0.121993,0.799496,-0.608,-0.399,-0.981,-0.246,-0.027,0.311,-0.542,-0.139964,0.962127,0.207906,-0.169841,-0.332182,-0.741521,-0.613715,-0.862587,0.827488,-0.562112,-0.00826851,0.989388,0.517817,0.237172,0.47272,0.247152,-0.87072,-0.620693,0.741452,0.662961,-0.314431,-0.0764486,-0.460717,-0.514404,0.316892,-0.301041,-0.936,0.629,0.229297,0.377568,0.644206,-0.910411,-0.10117,-0.588493,-0.0619485,0.58397,-0.751293,-0.119458,0.712415,-0.938146,-0.140229,-0.748816,-0.961898,-0.622495,0.0426008,0.0722624,0.602011,0.142661,0.402116,-0.13232,-0.649696,-0.885802,0.393185,-0.519575,-0.379956,-0.727,-0.262256,-0.319165,0.45043,0.958683,-0.943892,-0.333256,-0.907665,-0.461904,0.0893708,-0.457624,-0.910782,0.306161,-0.0403458,0.325625,0.347665,0.820461,0.577923,0.35278,-0.89258,-0.907131,-0.634277,0.255404,-0.189078,0.399031,0.789357,0.258783,0.579949,0.211,0.742552,0.738363,0.461237,-0.538412,-0.571789,-0.489567,-0.514347,-0.920761,0.15762,-0.966042,-0.452938,-0.787479,-0.855441,-0.787141,0.556366,0.127788,0.518655,-0.60683,-0.613265,0.00534058,0.267829,-0.471534,-0.266275,0.326918,0.491209,0.677128,-0.191052,0.332,-0.0579375,-0.6305,-0.933984,-0.350576,0.676133,0.130922,0.175767,-0.875305,0.602254,0.112902,0.724461,-0.194744,0.276045,0.947752,-0.369748,-0.0630054,-0.970403,0.593726,-1.04368,0.518532,-0.983392,-0.981339,-0.75337,0.44767,-0.340237,0.0486858,-0.195126,0.739,-0.269967,0.164169,-0.396135,0.639214,0.0774564,-0.320582,0.877728,-0.236316,0.806007,-0.424369,-0.506132,0.0941392,0.904058,-0.646559,0.871459,-0.474156,0.604832,-1.09606,0.483608,0.751457,0.647048,0.157411,-0.0160161,0.769917,0.187456,0.203927,-0.248,0.395,0.807043,0.112629,0.108555,-0.940393,-0.767899,0.685129,0.250961,0.319853,-1.03938,0.162236,-0.822505,0.935366,0.511987,-0.245771,-0.49385,0.156485,-0.56933,0.872596,0.406417,-0.72658,0.955951,-0.00508474,0.667669,0.645982,0.682788,-0.400147,-0.065,-0.176,0.348786,0.681047,-0.820787,0.0908481,-0.744193,-0.209699,0.141652,-0.431834,-0.813245,-0.897546,0.583695,-0.717115,0.379786,0.357962,0.745429,-0.663627,0.620237,-0.718326,0.700144,-0.68339,-0.706407,-0.300806,-0.874541,-0.795177,0.147036,0.708421,0.35833,-0.226,0.858351,-0.699815,0.556084,0.126724,0.412014,0.23885,0.830918,0.851669,-0.714902,-0.273522,-0.906831,-0.921282,-0.107973,0.778778,-0.578238,0.831091,0.10434,-0.83,-0.721995,-0.137346,1.00058,0.437151,-0.46397,-0.915315,0.932885,-0.414526,0.844996,-0.369,0.857939,0.208308,0.351219,0.596308,-0.0998771,-0.602773,-0.60918,-0.473558,0.45088,0.882592,-0.999603,0.333142,-0.281474,-0.77618,0.485051,0.131315,0.437845,0.84314,-0.0171077,-0.87445,0.458472,-0.358866,-0.242582,0.218092,0.87153,-0.196369,0.37,0.397,-0.0467564,0.209371,-1.05688,-0.785946,0.810817,-0.182578,0.528997,-0.0548204,0.502917,-0.975415,0.121551,-0.354199,-0.865822,0.29738,1.02137,-0.626035,-0.0386488,0.437676,0.456226,-0.584969,-0.266986,0.834092,-0.673945,0.977011,-0.733604,-0.439937,0.24,-0.839,-0.0709531,-0.857298,0.00852598,0.720646,-0.262611,-0.00715582,0.731229,-0.127384,-0.914229,0.377377,0.906281,0.302717,0.23681,0.243451,0.957923,0.293181,-0.605926,0.420295,0.0678515,-0.131669,-0.253092,-0.601374,-0.342091,-0.153598,0.592946,-0.582163,-0.187,0.846,-0.0216769,0.599845,0.537375,0.368714,0.203424,-0.41602,-0.115823,-0.767123,0.291253,-0.340184,0.206762,0.607606,-0.66383,0.235617,-0.603568,0.368887,-0.709653,0.746464,-0.987702,-0.895495,0.0408705,0.0328533,-0.568096,0.222838,-0.161011,-0.0152177,-0.945,0.965012,0.399344,-0.556944,0.839319,0.932883,0.552649,0.339647,0.394601,-0.134334,0.535801,-0.68421,0.269647,0.178162,-0.150965,-0.511247,-0.458112,-0.152993,0.0854136,-0.667868,0.616405,-0.205693,-0.978563,0.231401,-0.501107,-0.361075,0.786595,-0.128452,0.841063,-0.411824,0.855427,0.496918,-0.346097,0.33485,0.452822,0.877281,-0.299463,-0.0794754,-0.247042,-0.788574,1.10422,-0.30991,-0.66503,-0.169004,0.512348,-0.162704,0.174616,0.523857,0.121396,0.703467,0.411399,-0.626343,-0.404884,0.509373,0.59625,0.00999524,0.606012,0.299394,0.86695,0.466085,0.541557,0.333016,-0.573355,0.457584,-1.03323,0.694101,0.32411,-0.130147,-0.407951,-0.462013,-0.168401,-0.465349,-0.606605,-0.168832,-0.214954,0.396004,0.118123,0.861623,-0.0887401,0.820739,0.18243,-0.661748,-0.911409,0.586865,0.196889,0.567811,-0.864076,-0.200861,-0.131957,-0.995231,0.735997,-0.812619,-0.313096,0.593397,0.696715,-0.0683436,0.796525,0.0583196,0.999239,-0.791677,-0.239268,-0.928867,-0.79245,0.149812,-0.102889,-0.0383915,-0.426719,0.595359,-0.578887,-0.0202599,0.218338,0.285668,-0.435531,-0.286106,-0.572548,0.767232,-0.725213,-0.452873,-0.937377,-0.42627,-1.04779,0.271816,-0.592639,-0.0347024,0.378851,1.15649,-0.848389,0.00341846,-0.160343,0.382598,-0.26623,0.656411,0.559891,-0.45382,-0.581081,1.04172,0.047828,-0.57297,0.430934,0.156734,0.097,-0.967,0.993743,0.659665,-0.26233,-0.613939,-0.085887,-0.5368,-0.597091,-0.476404,0.197643,-0.322375,-0.77696,1.02056,0.872512,0.416171,0.775708,0.259253,-0.979823,-0.658058,-0.144984,-0.601652,0.56935,0.878758,-0.192148,0.398384,0.812652,0.721446,0.661,-0.324,-0.572217,-0.685941,-0.759225,-0.644587,0.464365,-0.0814498,-0.725329,-1.02062,0.0934963,-0.0633336,-0.193993,-0.886993,0.294718,-0.139984,0.844475,-0.472031,0.898697,0.328464,0.901315,0.916942,0.103343,-0.457808,-0.855659,-0.813649,-0.525514,-0.457693,0.544,0.796975,-0.741237,0.199707,-0.556543,-0.809639,0.0118384,-0.321139,-0.855656,-0.452189,0.271677,-0.406237,-0.311845,-0.953711,0.135749,0.437605,-0.92104,0.893092,0.856085,0.468138,-0.631471,0.671764,-0.77338,-0.852447,0.0989973,0.418307,-0.614443,-0.129655,0.587,-0.603126,0.408575,-0.327545,-0.854456,0.177416,0.838297,-0.818172,0.425103,-0.518681,-0.537861,0.579279,0.0552041,0.373562,0.851823,0.853211,0.441996,-0.530886,-0.254181,-0.0427857,-0.724389,-0.887954,-0.59951,-0.332793,0.847649,-0.701233,-0.515489,-0.463592,0.696,-0.148973,0.407114,-0.186247,-0.274724,-0.265105,0.468804,-0.038139,-0.995299,-0.0979342,-0.33901,-0.0368154,0.4554,-0.115184,-0.212403,-0.778034,-0.742745,-0.890008,0.511746,0.159843,-0.460281,0.848759,0.724119,-0.108108,-0.968223,-0.799748,0.177659,0.441054,-0.51,0.656047,0.978197,0.729047,-0.992577,-0.140369,-0.940037,-0.204372,0.6876,0.127892,0.344975,0.355111,0.820223,-0.706891,-0.519533,-0.161669,-0.377125,-0.285497,-0.0170871,-0.607211,-0.184637,-0.899959,0.60362,-0.0333532,0.985869,-0.0740151,0.883746,-0.991743,0.128,-0.376972,0.451073,0.166723,0.810223,-0.0566458,-0.574895,0.84655,0.880903,-0.42476,-0.234736,0.280159,0.448224,0.801994,-0.359948,0.158985,0.50786,-0.410003,0.972593,-0.864241,-0.134668,-0.476791,-0.461028,0.248562,-0.379767,0.711512,-0.784355,-0.409284,-0.368,0.662,-0.399904,0.316764,-0.71876,0.603061,-0.953308,-0.881667,-0.854062,-0.477644,0.579458,-0.922194,-0.299506,0.905959,-0.120525,-0.90654,0.653912,0.477707,-0.200346,0.165203,0.618225,-0.241891,-0.152579,-0.524325,0.268771,0.384632,0.721721,0.43898,-0.352,0.939,-0.971,0.28,0.157,-0.814,-0.846,0.441992,0.350861,-0.797015,0.119115,0.5,-0.716,-0.305,0.133003,-0.0189973,-0.403996,0.565001,-0.371003,-0.752,0.041,0.427,-0.0301701,-0.785,0.741,0.818,-0.753,-0.435,-0.242,0.526,-0.997,0.406,0.022,0.590168,-0.757132,-0.82027,0.334304,-0.602903,0.620068,-0.316993,-0.842837,-0.2618,0.741042,-0.558779,-0.00917307,-0.566913,-0.0173873,0.588263,0.994881,0.164674,0.83541,-0.408008,-0.852,-0.196,-0.636,0.889,-0.822,-0.389,-0.988947,-0.062171,-0.861718,-0.983348,-0.652595,-0.278755,0.167679,-0.846821,-0.10064,-0.498838,-0.455563,-0.925587,-0.25931,-0.738566,-0.622625,-0.517489,-0.742944,0.369929,-0.534017,0.235008,-0.0466024,-0.535912,0.960004,-0.666114,-0.395654,-0.898969,-0.304001,-0.031,0.548881,-0.121483,0.574607,0.556186,0.389193,0.288604,0.140149,0.736351,1.02744,-0.640617,0.928283,-0.0301673,-0.581662,1.01983,-0.417785,0.163934,0.856785,-0.0547231,0.160016,-0.90914,-0.666335,0.632666,-0.180387,-0.259878,-0.974967,-0.246377,0.0688966,-0.368,-0.589031,0.758102,0.556088,0.894681,-0.857963,-0.295644,0.508325,0.572872,-0.95163,-0.274226,-0.0505912,0.687249,-0.359733,-0.631188,1.10673,-0.0315491,0.866615,-0.395027,0.540318,0.605291,0.534047,-0.319073,0.109566,0.211747,-0.812771,0.881976,0.915247,0.738,-0.817644,-0.0450265,0.843109,-0.499738,-0.800323,-0.0103931,-0.932406,-0.975711,0.794902,0.595809,0.65364,0.470821,0.94688,-0.876878,0.0607053,0.99905,-0.674964,0.020841,-0.665738,0.622417,0.120502,0.840324,0.112234,-0.513108,-0.580369,-0.85263,0.582202,-0.512,0.563426,0.475469,-0.84546,0.222625,-1.05916,0.637925,0.857798,-0.735623,-0.317489,-1.09696,0.910845,-0.358003,0.306662,0.286896,-0.885692,-0.344171,0.181537,-0.460339,-0.915785,0.00620164,0.0912414,-0.58191,-0.437607,-0.851899,0.720256,0.126961,0.983464,0.955,-0.206352,0.549738,-1.01178,-0.659031,-0.429292,0.784124,0.643353,-0.469634,0.337108,0.0214658,-0.461949,-0.587673,-0.120883,-0.784971,-0.0060274,0.469912,0.171104,-0.522384,0.616696,-0.613838,-0.422277,0.57827,-0.266461,0.119921,0.571048,-0.116672,0.12,0.119,0.977869,-0.354773,0.0573007,-0.232107,-0.800468,-0.353851,-0.346039,-0.726437,-0.762981,0.849839,-0.306689,1.0711,-0.262194,-0.243231,0.720124,-0.202865,-0.292529,-0.864635,-0.795203,0.875619,-0.797312,0.36612,0.618359,-0.287379,-0.278119,-0.780758,0.852,-0.823,0.084646,-0.482478,0.285423,0.0934328,0.156781,0.89433,0.354735,-0.0738405,-0.913825,0.72502,0.108654,-0.315378,0.218734,0.45599,0.826168,0.164088,0.59527,0.534343,-0.936402,-0.972633,0.443436,-1.05618,0.452303,0.683014,0.599004,0.469203,-0.955742,0.816,0.232556,0.464833,1.04093,-0.647964,0.903775,-0.204173,-0.0436969,-0.261249,-0.734723,-0.592721,0.420207,-0.452699,0.648324,-0.834648,-0.541046,-0.37641,0.146934,-0.533783,-0.9564,0.0399069,0.735609,0.680355,0.117824,0.349609,0.951081,-0.194738,-0.396808,0.054,0.826665,-0.282213,-0.00722895,0.133689,-0.909906,-0.523013,-0.0153289,-0.99492,0.0590228,0.797781,-0.608889,0.190816,-0.683789,0.643227,0.516122,0.297751,0.360981,-0.833313,-0.883112,-0.383135,-0.762173,0.733618,0.315045,0.658361,0.620908,-0.612135,-0.576,0.026,-0.248307,0.143821,-0.714908,-0.758794,0.723327,-0.370616,0.194701,0.214511,-0.250961,0.555901,-0.0136927,-0.816381,0.527199,0.302036,0.223596,0.230149,-0.560093,-0.542374,-0.42265,0.712836,-0.85907,-0.596466,-0.795917,1.16606,-0.790394,0.225852,0.455,0.194,0.180496,0.590755,0.939659,0.950761,-0.482116,0.969767,-0.971003,0.53776,0.868324,-0.0874636,0.242446,-0.0765809,-0.575311,0.928164,-0.487316,0.872116,-0.226399,0.351698,-0.407271,0.0517029,0.727362,0.480645,-0.0549727,0.954634,0.630203,-0.179586,0.597002,0.106,-0.956521,0.290688,-0.467385,0.324899,-0.430648,-0.830157,0.0966511,-0.623818,0.524634,-0.0367883,1.0238,0.536946,0.0263606,-0.231196,0.838374,-0.0128135,-0.749623,-0.626844,-0.596398,-0.0465343,0.628703,0.339018,-0.65116,0.770947,0.128734,-0.0202515,0.134,-0.599964,0.787962,0.0509973,0.857658,1.05236,0.493868,0.46721,-0.401296,0.304812,-0.000524022,0.292126,0.550613,-0.910296,0.872577,0.15737,0.0382171,-0.469326,1.03,-0.18664,0.403984,0.800904,-0.253976,-0.860493,-0.0293413,0.0651317,0.617068,-0.151205,0.696188,0.906282,0.386199,0.210647,1.3582,0.425275,0.692474,0.496098,-0.449637,-0.588687,-0.818848,-0.131251,0.792224,-0.236111,0.630522,0.153126,-0.235349,0.55956,-0.588791,0.813958,0.609309,-0.946859,-0.655404,0.300372,0.720499,0.404261,0.380075,-0.834022,0.339035,-0.403716,-0.407036,0.409424,-0.0470222,1.0823,0.459256,-0.611934,0.00622206,-0.595516,0.0105702,-0.244282,-0.198408,0.00306596,0.42997,-0.626239,0.93312,0.166979,0.11302,-0.23007,-0.567443,0.340677,-0.587375,-0.767009,0.516965,-0.103678,0.468397,-0.613251,0.243001,-0.956079,-0.431792,-0.0891825,-0.0581781,0.103276,0.122439,-0.344436,-0.070269,-1.0381,-0.681061,0.272195,-0.442528,0.432668,-0.86305,0.862226,-0.18913,0.725429,0.654565,-0.452999,-0.528357,-0.107941,-0.0441668,-0.1222,-0.757731,0.0401806,-0.271155,0.0446817,0.481001,0.501051,0.434492,-0.518227,0.741709,0.893355,-0.678699,-0.853768,-0.440317,0.0199429,-0.816525,-0.0875483,0.260797,0.0879348,-0.252874,1.21718,-0.564361,0.0113188,0.31974,-0.399098,0.781226,-0.289127,-0.326355,-0.714184,0.288174,0.433237,0.404389,0.456698,-0.745,0.539,-0.939476,0.404022,0.182714,0.445516,0.111149,-0.417994,-0.025988,0.46172,-0.836671,0.042702,-0.221328,-0.0866649,-0.543851,-0.725345,0.685238,0.120316,0.556097,0.302371,-0.0156195,-0.866419,0.501609,-0.0533442,0.129027,-0.910827,0.526094,-0.933678,0.011,-0.602,0.0919386,0.388885,1.09252,0.267523,-0.76163,-0.460815,-0.467254,0.181328,0.0433036,0.119645,-0.548007,0.609975,-0.624655,0.212112,0.897872,-0.464293,-0.406987,0.0609217,-0.208604,0.574872,-1.0009,-1.06545,-1.03739,0.363281,-0.296301,-0.166589,0.031,-0.79091,-0.0819516,-0.775478,-0.605724,1.1283,-0.041441,0.588808,-0.00919165,-0.073171,-0.778251,0.316843,0.87304,0.388822,0.931602,-0.798318,-0.605663,-0.824987,-0.203324,-0.904981,-0.911185,-0.253358,-0.428129,-0.178391,-0.487047,-0.597547,-0.409562,-0.29876,0.85,0.339464,0.105606,-0.396476,0.785209,1.16703,-0.431372,0.250791,0.452926,0.303182,-0.0511154,-0.802006,0.847987,0.0620332,0.380638,0.716866,1.10139,0.437189,0.51216,-0.583614,0.0808125,-0.950307,-0.766349,-0.0109593,-0.503915,0.0284427,-0.870953,0.228865,0.554,-0.185062,0.505131,0.0871201,0.921135,-0.645846,0.598284,0.396794,-0.798653,0.453992,-0.919925,0.208088,-0.299667,-0.0362904,0.461064,-0.642781,0.850998,-0.0222648,0.561821,0.754663,0.780967,-0.657447,0.872409,-0.81552,-1.06882,0.809843,0.434221,-0.374931,-0.46,0.230889,0.424522,-0.831936,0.75835,0.140727,-0.129208,0.521366,-0.267514,0.589991,-0.866482,-0.250701,-0.0121519,-0.755497,1.12227,0.526716,-0.0709818,0.0507988,0.551024,-0.53893,0.834724,-0.452456,-0.875371,0.0498099,-0.172334,0.605392,0.404672,-0.0491562,0.565,-0.512065,0.57925,-0.873687,0.788987,0.123049,0.932318,0.0121109,0.557237,0.987896,-0.757782,-0.918408,0.512417,0.925392,-0.515734,-0.419777,-0.841776,0.989298,0.367094,-0.578628,-0.0616351,-0.51797,-0.0893681,-0.70772,-0.0152626,-0.427839,-0.0250468,0.501415,-0.699,0.986999,-0.55131,0.866222,-0.517304,0.599733,0.545286,0.764942,-0.85129,0.285887,-0.368625,0.158435,0.206317,-0.623612,-0.201523,-0.746955,-0.74237,-0.245944,-0.700521,0.896416,-0.297833,0.665303,-0.674236,0.192597,-0.85687,-0.220216,0.0568112,-0.267939,0.4,0.602,0.79,0.701,0.588189,-0.76437,0.121896,-0.938009,0.380168,-0.347977,0.369369,0.0740048,0.492,0.997,-0.770004,-0.747004,0.928,-0.419,-0.941989,-0.824,0.332,-0.651,0.628036,0.593097,0.571,0.505,-0.659,0.274,-0.713,0.399,-0.995,0.687,1.14325e-10,0.795396,-0.0534491,-0.854895,0.591177,0.628076,-0.791867,-0.472451,-0.723154,0.575959,0.601007,0.327217,0.130602,0.389487,0.137524,0.057413,0.969972,0.193967,-0.21061,0.300999,0.542998,0.973999,-0.106,0.114,0.479,0.235,-0.613005,0.322808,-0.811411,0.948958,-0.440411,-0.258656,0.296084,0.503862,-0.114147,-0.556346,-0.315753,-0.352893,-0.0278739,-0.0350916,0.789119,-0.410816,0.867305,-0.520442,0.96913,-0.010286,0.52488,0.919103,-0.837147,0.870779,-0.209256,0.724059,0.85,0.244,-0.606013,-0.117814,-0.987223,-0.684823,-0.826191,-0.791246,-0.707392,-0.200153,-0.427616,0.170086,0.804335,0.379973,0.60744,-0.435083,0.680945,-0.36071,0.150627,0.498685,-0.217735,-0.0391411,0.44561,-0.839654,0.364779,-0.0610431,0.719071,0.637937,-0.590029,-0.488,-0.0853204,0.809275,0.281135,-0.156047,-0.315341,0.340154,0.255901,0.0402821,0.298603,0.173108,0.265355,0.679605,-0.744965,-0.262709,-0.253995,0.498962,-0.0973923,0.988349,0.66278,0.482849,-0.133579,-0.846959,0.734402,-0.78746,-0.590502,0.260402,-0.216241,0.687,-0.550593,0.186449,0.756233,0.357825,0.0187098,0.11223,0.909415,0.890563,-0.345071,0.206907,-0.69085,0.66265,0.741438,0.15401,-0.0629249,1.01022,0.415748,0.212274,0.421622,1.1557,-0.0121232,-0.250205,-0.223323,0.0316433,-0.696121,-0.417526,0.382863,-0.664,0.846291,-0.861658,-1.00829,0.826676,0.332251,0.838902,-0.0680502,1.15109,0.128659,-0.166391,0.832093,-0.00827972,0.71623,0.53881,1.13357,-0.0324369,1.24551,-0.323931,-0.0236645,0.423318,0.0587408,0.415784,-0.526582,-0.133152,0.309798,0.28276,-0.784985,0.35,0.879641,0.535369,0.567167,0.16249,0.672416,0.315079,-0.110386,-0.0760098,-0.141893,0.736969,-0.156269,0.192157,-0.804928,0.88064,0.532078,0.350983,0.0585218,0.719913,1.29845,-0.0183561,0.420371,-0.76262,0.662948,0.626075,-0.277699,-0.78131,-0.075,-0.777,0.0663263,0.0809108,-0.0413754,-0.705491,-0.394294,-0.647799,0.89173,-0.771232,0.782978,-0.380395,-0.219866,0.816667,0.524168,-0.123878,-0.122353,0.735508,-0.432323,1.11807,-0.266005,0.422025,0.371441,-0.541006,0.702823,-0.895134,0.822338,0.361328,0.977,-0.376,0.130192,-0.188525,-0.836164,0.500041,0.440428,0.459172,-0.704453,-0.5645,0.949937,0.6061,0.826924,0.0265755,0.640715,-0.816481,-0.595762,0.256506,0.308893,0.0752929,-0.252244,0.749225,-0.272754,-0.0741215,-0.396969,0.231044,-0.399638,0.649393,0.278501,-0.571,-0.432334,-0.319682,-0.209946,0.477805,0.181244,-0.0306278,0.0927994,-0.00485855,-0.381947,0.210649,-0.406725,-1.06688,-0.551136,-0.340837,-0.304765,-0.699935,0.0287876,-0.188236,0.140851,-0.722611,0.552653,0.557935,0.327231,-0.845902,0.800061,0.121732,0.190121,-0.572,-0.22419,-1.11224,-0.383322,0.18359,-0.629804,0.447388,-0.349004,0.726506,-0.556055,0.475766,-0.603955,-0.374673,-0.396579,-0.0611411,-0.770288,0.0486992,0.467833,-0.713083,-0.215789,-0.504188,0.00160752,0.904247,-0.588277,-0.232232,-0.0113507,-0.128734,-0.835,-0.21,-1.0069,-0.20004,-0.000772703,-0.394529,-0.572704,0.609691,-0.928463,-0.24479,-0.547858,-0.890514,-0.506945,-0.103254,-0.79422,-0.253216,0.308757,-0.493805,0.370877,-0.107421,0.0328291,-0.535947,0.344905,-0.876166,-0.140288,-0.382239,1.04558,-0.570334,-0.434,-0.048,0.289879,-0.867206,0.0470441,-0.35182,0.135814,-0.563677,0.0514302,0.490644,0.508352,0.215614,-0.798106,-0.419291,0.393964,-0.311375,0.00274079,0.237717,-0.140327,0.868725,0.330534,0.939442,-0.0196567,-0.26292,-0.268057,1.04854,-0.318698,-0.286255,0.841995,-0.829,0.112957,0.737751,-0.592811,0.73592,-0.949579,0.66346,-0.440347,-0.17612,-1.07045,-1.05717,-0.740033,0.817909,0.0122444,-0.570423,0.743604,-0.679605,-0.363208,-0.675827,0.115978,0.674054,-0.6268,-0.365435,0.237012,-0.113681,-0.400322,0.457373,-0.496,0.172,0.704716,0.740704,-0.26157,-0.422988,0.558741,0.209383,-0.400399,-1.01993,-0.0965058,-0.0535363,-0.541743,-0.309149,0.512103,0.114052,-0.476168,0.896486,-0.145315,0.807737,-0.625357,0.789995,-0.708248,0.413862,-0.169685,0.93101,0.176652,0.580773,-0.534002,0.674146,-0.42198,-0.537352,-0.658312,-0.847508,-0.698063,0.145713,0.00885896,0.756124,-0.777093,0.274945,0.815141,0.208175,0.130903,-0.530565,0.968082,0.743225,0.0900856,0.929832,0.845451,-0.713253,0.822712,0.538335,0.794052,0.268085,1.01681,0.75261,0.00699965,0.126545,0.320953,0.0767159,-0.537673,0.942903,0.518726,-0.301408,0.727725,0.565763,0.608109,-0.506482,0.482305,0.839852,-0.593461,0.20047,-0.0949921,-0.43682,0.15365,-0.357904,-0.621902,1.00687,-0.765959,0.608222,1.02585,0.105618,-0.407866,0.0342617,-0.60811,-0.33739,-0.638015,0.121319,0.608772,0.791006,0.95009,0.643338,0.210984,0.306168,-0.371122,0.0252633,-0.733222,0.724734,0.549124,0.229507,0.252751,0.101329,0.706479,1.09599,0.659587,-0.0382922,-0.656508,0.493012,-0.743254,0.522094,-0.466537,-0.954349,-0.139503,0.336906,-0.31234,0.00917193,0.844082,0.10222,0.700968,-0.0770998,-0.538734,0.580588,-0.277152,-0.156493,0.702385,-0.581204,0.779492,0.640265,0.709338,-0.0905602,0.0542184,0.27346,0.623612,-0.304572,-0.180552,0.0698654,-0.158138,-0.911574,0.605844,-0.0293649,0.941,-0.576,-0.379958,-0.08406,0.524553,-0.120645,0.115774,-0.104741,0.563663,-0.388267,0.642245,-0.23835,0.302435,0.567701,-0.996806,0.196592,-0.939126,0.652986,0.250562,1.16554,-0.438965,0.606615,0.132039,0.885955,0.537351,0.0188451,-0.858733,-0.655978,0.415,0.988,-0.104265,0.433909,-0.457549,0.513312,0.63814,0.310981,0.882021,-0.234175,-1.15997,-0.2424,-0.507595,0.245623,-0.570823,-0.284204,0.0388745,-0.196786,0.83205,0.331004,0.902298,-0.659599,-0.267886,-0.804772,0.23873,0.0531017,0.3465,-0.22394,-0.72,0.631003,-0.304275,0.362733,0.290579,0.590022,-0.448109,0.14587,-0.427691,0.648237,-0.914811,-0.852424,-0.913228,-0.451667,0.429097,0.253235,0.701119,0.549435,0.672679,-0.239705,0.709401,-0.118861,0.489309,0.410088,-0.0730529,0.797547,0.340934,-0.824918,-0.013,-0.658985,-0.039833,-0.12249,1.08825,0.310914,-0.869148,-0.266542,-0.198599,-0.883027,0.657003,0.257001,-0.978714,-0.775429,0.442075,0.956694,-0.473258,-0.457496,0.396959,-0.720646,0.997106,-0.43588,-0.491245,0.485553,0.0718291,0.469936,-0.394312,0.965899,0.363,0.583982,0.699569,0.850054,0.930725,-0.666378,-0.629539,0.419706,0.37136,-0.694047,-1.00249,-0.986107,-0.594503,-1.22159,0.00459546,-0.806751,0.897004,-0.643039,-0.562015,-0.52548,-0.155568,0.312407,-0.446223,-0.51347,0.404319,-0.489268,0.247848,-0.581529,-0.948,0.472968,0.941275,-0.0664548,0.0617316,0.697481,-0.576972,-0.552594,0.75791,-0.435454,0.274834,-0.462445,-0.649489,0.000819743,-0.593158,-0.354318,0.21721,0.410063,0.153867,-0.228415,0.74805,0.0749457,0.0200368,0.78828,0.963415,0.224531,-0.870218,-0.106321,0.336,-0.0270185,-0.125495,-0.0680153,-0.553486,-0.176607,0.448696,0.446448,-1.04041,0.783721,0.426475,0.275983,-0.966495,0.00170169,-0.813609,-0.259477,-0.647812,-0.0676444,0.637997,0.219203,-0.639218,-0.668449,0.908171,0.910549,0.174188,-0.195186,0.247241,-0.306388,0.607,-0.0540001,0.147122,-0.0600073,0.921708,-0.982386,0.441567,-0.642204,-0.608103,-0.0841526,0.413765,-0.592739,-0.181797,-0.43592,0.879291,-0.426005,0.711194,-0.797103,0.416379,0.67321,-0.297537,-0.390882,-0.0901259,0.0322119,-0.110629,-0.638731,-0.486877,0.626987,-0.264,0.76,0.878,-0.658,-0.296347,0.018463,-0.164454,-0.820292,-0.395659,-0.714848,-0.456791,0.00302221,0.204,0.521,0.43,0.59,-0.907,-0.128,-0.834,0.809,0.074,0.579,0.0437972,0.782,0.747,0.955,-0.631,-0.365,0.875,-0.118,0.82,-0.39,-0.800989,0.697913,-0.491025,-0.539213,-0.723311,0.351361,-0.357901,-0.117711,0.19301,-0.257995,0.885,-0.602626,-0.736675,-0.128255,0.54573,-0.643235,0.744023,0.711554,0.723124,-0.626001,-0.154002,-0.235001,0.713,-0.408,-0.723,-0.918,-0.215014,-0.849531,-0.479534,-0.840455,-0.684668,-0.725842,0.412367,-0.180276,-0.276316,0.691156,0.731884,0.374852,-0.433751,-0.0763768,-0.876575,-0.987411,-0.134004,0.930206,-0.114659,-0.581831,-0.714852,-0.82133,0.691269,0.574831,-0.440067,-0.460127,0.899998,-0.726,-0.311596,-0.827068,-0.639597,0.044443,0.906249,-0.528445,-0.22225,-0.826661,-0.339554,-0.887431,-0.456423,0.37569,0.821384,-0.661895,-0.581034,0.975043,0.158864,-0.579682,-1.05569,-0.913586,-0.550715,-0.511236,-0.829282,-0.670513,-0.358219,0.81472,0.885568,0.199,0.910265,0.3403,0.477592,-0.814018,0.565915,0.477665,-0.192972,-0.0951465,0.71538,0.424248,-0.340407,-0.53186,0.669805,0.352442,1.0345,0.0699387,0.592325,0.940955,0.143143,-0.412775,-0.38916,0.224217,-0.72786,-0.456349,0.546481,-0.743183,-0.683578,0.709,-0.933198,0.751123,-0.10011,0.551988,0.146542,0.984438,0.656648,-0.905887,0.252142,-0.559755,0.169607,0.154659,1.03616,0.563782,0.394879,0.257657,-0.117115,0.0544714,-0.487355,1.19172,-0.0795439,0.411994,1.05882,-0.170122,0.944361,-0.951539,0.153838,-0.031,-0.696097,0.0270943,-0.318865,0.938461,-0.227303,0.105628,-0.0573328,0.804541,0.111311,-0.141905,-0.83309,-0.51891,-0.150915,-0.0692759,0.260819,-0.208228,-0.654505,1.09338,0.554211,-0.313265,-0.1681,0.637554,1.05056,0.0350724,-0.601974,0.830803,0.638346,-0.731,0.886363,-0.617662,-0.137813,0.756801,0.333369,-0.0215898,0.225256,0.798787,-0.688798,-0.516378,0.788388,0.350832,-0.401903,0.306252,0.326048,0.317012,1.01945,0.941014,0.561642,0.845017,0.798023,-0.185842,-0.641634,1.05908,0.796644,0.647809,-0.515,-0.795,0.48974,0.717523,-0.901874,-0.0426088,-1.01464,-0.197984,-0.680089,0.098344,1.0179,0.754595,-0.0444353,-0.71514,0.470218,-0.594053,-0.0115788,0.428583,0.188086,-0.733526,-0.148296,-0.148301,0.536415,0.59315,-0.504499,-0.201041,0.761503,-0.914765,-0.659,0.643,0.736983,-0.179299,0.815149,0.153096,-0.588437,0.831095,0.746245,-0.743851,-0.0386614,1.28078,0.349678,-0.613513,0.209848,0.526432,-0.610007,0.985737,0.468067,0.0264479,0.620268,-0.388853,-0.281311,0.149356,-0.134694,0.596354,-0.744553,0.223785,-0.601096,-0.898,-0.125722,-0.682666,0.726931,-0.372733,-0.325401,0.547441,0.379249,0.432388,0.330605,0.370833,0.062898,1.00077,-0.139256,1.1989,0.759831,0.462919,0.622679,1.0729,0.329529,1.15039,-0.864388,0.395219,-0.952364,-0.916444,-0.46764,-0.00241656,0.408981,-0.433,0.792432,0.379066,-0.209338,-0.564645,0.689712,-0.722259,-0.094894,-0.295827,0.880602,0.968882,0.259801,-0.149986,-0.327577,1.15828,1.16544,0.305416,0.69903,0.633205,-0.651931,-0.763777,-0.13931,-0.587544,-1.05329,-0.696191,0.738483,-0.862968,-0.668,-0.751,-0.277041,0.705358,-0.0806214,-0.732033,0.0602811,0.265944,-0.625107,0.0430458,0.779453,-0.0975023,-0.0908378,0.223279,-0.801528,0.894412,0.788741,-0.385869,0.788955,0.516662,-0.10569,-0.481903,-0.361865,-0.504508,-0.379218,0.0109839,-0.10078,-0.241838,0.329,0.067,-0.51747,0.60227,-0.0349347,0.354599,0.276067,-0.032524,-0.138883,-0.319743,-0.0319023,-0.110434,-0.0344942,0.786667,0.459273,0.519222,-0.230302,0.342308,-0.422818,0.498768,-0.0385488,-1.20427,0.205326,-0.881057,-0.525018,0.60816,-0.174082,0.398286,0.0580012,-0.911,0.737946,0.91522,-0.128012,-0.577894,0.531997,-0.0451694,0.167829,0.296265,-0.374275,0.901907,0.0795729,-0.217249,-0.327033,0.356521,-0.746161,0.27318,-0.935401,-0.391117,-0.996933,-0.228695,-0.414523,0.655784,-0.23658,-1.03581,-0.828792,0.596959,0.512,0.254001,-0.43734,-0.841143,0.152591,-0.475026,-0.92133,0.142732,-0.66352,1.04148,-0.371479,-0.236429,-0.74856,-0.179321,-0.31758,-0.200775,0.199847,-0.657665,-1.18706,0.344197,0.547654,-0.504825,-0.461254,-0.935438,0.184212,0.171001,0.689675,-0.798619,-0.0639925,0.93798,0.3439,-0.57541,-0.125344,0.644566,-0.88575,0.0836164,0.487843,-0.446374,-0.294564,0.617039,0.848862,-0.344834,-0.754711,0.555493,0.115893,-1.02906,-0.851791,-0.82706,-0.32309,-0.338656,0.682522,0.816429,-0.134424,-0.687473,0.670207,0.595845,0.0410014,0.367896,0.343485,0.927304,-0.0972508,-0.289909,0.695087,-0.130831,-0.792021,-0.678943,-0.408431,0.65374,0.74125,-0.844166,-0.424423,-0.00717624,-0.866894,-0.986213,-0.405978,0.484249,-0.397623,0.324682,0.787187,-0.0882476,0.618953,0.581278,-0.280057,0.765216,0.319024,-0.984356,-0.0841285,-0.689502,0.375363,-0.848908,0.552685,-1.01187,-0.0404593,0.468647,0.00696191,-0.24524,0.350035,0.0985398,0.684609,-0.463179,-0.264759,-0.749533,-1.05095,0.750249,0.248866,0.157838,0.0329138,0.475921,-0.599111,0.118951,0.847295,0.263351,-0.8289,-0.745984,-0.400772,0.467768,-0.720987,0.419389,0.144493,0.0663735,0.750301,0.227094,-0.0686888,-0.691032,-0.408285,0.741035,0.024633,0.545548,-0.512624,-0.606259,-0.408043,-0.980875,0.362346,-0.72829,0.534839,-0.910492,0.856572,0.0870392,0.103082,0.675919,0.784,-0.313,-0.0405409,0.962158,-0.482846,0.551382,0.397754,-0.628,-0.352487,-0.267104,0.377982,-0.624044,0.618689,-0.54302,-0.650125,0.694128,-0.899702,-0.111802,0.250648,0.429976,0.899608,0.520293,-0.0527206,-0.0220094,-0.633436,-0.0961858,0.112689,-0.808401,0.643,0.922,0.431455,0.407167,-0.736622,-0.479913,0.0827038,-0.1333,0.598706,0.842624,-0.156249,-0.893086,-0.200226,-0.856165,-0.867224,-1.21344,-0.681336,-0.583795,-0.976168,-0.234349,0.668641,-0.176641,0.652212,0.303924,-0.201773,-0.129463,-0.728872,0.0373914,0.319,-0.0179327,-0.213089,-0.132636,-0.0948951,-0.749302,1.01053,-0.160508,-0.576496,0.0537018,-0.105269,0.294174,-0.475842,0.866914,0.143036,-0.185158,0.5791,-0.195903,-0.299246,-0.895332,0.0682575,-0.625325,-0.119794,-0.553612,0.41693,-0.375162,0.674506,-0.96567,-0.073,0.941346,-0.372349,-0.87807,-0.166486,0.386669,-0.24512,0.460596,0.505962,-0.340535,-0.666351,0.60051,0.2579,-0.606123,-0.66037,-0.208828,-1.0809,0.123384,-0.887534,0.637454,0.886247,-0.410034,0.807236,-0.0391127,-0.0722754,-0.771545,-0.0657018,-0.715252,-0.206,-0.380261,0.880457,0.213416,-0.507535,-0.552791,0.470215,0.0572966,0.657491,-0.415738,-0.276622,-0.575314,-0.448514,0.82137,-0.150573,-0.0982834,-0.961571,0.347437,-0.811102,-0.907099,-0.506605,-0.914557,0.395731,0.912621,-0.35529,0.258288,-0.489508,0.209149,0.096,0.485536,0.50024,0.437172,-0.952318,0.306647,-0.333653,-0.770201,0.940393,-0.690383,-0.106207,-0.0667658,-1.03167,-0.439343,-0.136957,-1.16426,-0.546528,-0.908782,-0.0917615,-0.403905,0.369273,-0.152171,-0.562256,0.515875,-0.000940933,0.920032,0.563377,0.307587,-0.168,-0.873272,-0.476873,0.489912,0.121845,0.498078,-0.124341,-0.197939,-0.0858679,0.589496,-0.0115421,-0.636847,0.831861,0.781581,-0.238821,0.345136,-0.500792,-0.999326,0.662707,-0.100412,0.921568,-0.696139,0.306122,0.475099,0.232073,0.338508,-0.383608,0.834815,-0.12,-0.787002,0.144916,0.270095,0.891971,0.213939,-0.247387,-0.374844,-0.645054,0.671428,0.45605,0.321646,0.333474,-0.934893,0.292785,-0.217179,0.48728,0.786043,0.904754,0.723688,0.910614,0.219144,-0.258651,0.457582,0.553167,0.603329,-0.0660593,-0.211051,-0.483,0.561,-0.375,0.397,0.332416,0.329297,-0.332589,-0.214029,-0.892309,-0.0219562,0.412401,-0.530921,-0.337,-0.574,0.351972,0.560973,-0.503002,-0.342,-0.638999,1,-0.546,-0.728,0.730715,0.926927,0.054,-0.971,0.384,-0.393,0.192,0.876,0.396,0.709,-0.00600118,0.577813,-0.338248,-0.676332,-0.540153,0.323298,-0.337998,-0.432323,-0.694235,0.636017,0.0390502,-0.476042,-0.940654,-0.610572,-0.91359,-0.440846,-0.396511,-0.997373,-0.886326,-0.384063,0.834,0.846,-0.458,-0.113,0.433,0.484,0.494,-0.375689,0.359565,-0.553979,-0.670172,-0.646182,-0.971201,-0.454262,-0.773013,-0.518187,0.435767,-0.544469,-0.38921,0.297297,-0.90557,0.65621,0.828497,-0.845819,0.59706,0.923291,-0.719181,-0.789999,0.920565,-0.610334,-0.181002,0.749158,-0.767999,-0.082,-0.806793,0.22838,-0.602418,0.694306,0.862407,0.337816,-0.858528,0.718039,0.640508,0.683287,-0.746233,0.417427,0.721371,0.707291,0.916591,-0.627669,0.0354489,-0.954986,-0.927839,-0.509223,0.80842,0.673225,0.88829,0.99676,0.38049,0.792271,-0.617783,-0.803,0.0978061,-0.821297,0.0895504,0.279733,0.420508,0.0985442,-0.462243,-0.224612,-0.669605,-0.408461,-0.52873,0.566752,0.899283,-0.624754,0.122139,0.776234,0.756324,-0.316654,-0.812508,-0.179807,-0.332629,0.682707,-0.376131,0.843662,-0.172993,-0.487658,0.845214,-0.812,0.857613,0.775172,0.890309,-0.129588,0.468667,-0.409525,0.744339,-0.191828,0.546561,0.756096,0.155551,0.580731,-0.928642,0.829754,0.35984,-0.831795,0.809878,1.00676,0.395951,0.513455,-0.436272,-0.0482382,0.617492,-0.401274,-0.448561,-0.766587,-0.581966,-0.104,-0.260964,0.796383,-0.440369,-0.547075,0.460431,-1.00301,-0.0809431,-0.119703,-0.494074,-0.734793,0.478024,-1.01694,-0.617603,-0.0501134,0.806074,-0.406697,-0.65095,-0.376137,-0.403954,1.01735,-0.557845,0.357662,0.259633,-0.631501,-0.760404,-0.148658,-0.0909753,-0.718,0.0707664,0.2669,-0.397103,0.604222,-0.0751264,0.139291,0.675974,-1.01842,0.243665,-0.132181,0.353431,0.884883,0.602575,-0.345184,0.941342,0.943375,0.550259,0.180657,0.9436,0.631308,0.496414,0.783357,0.345013,0.364716,0.210204,-0.740342,0.713,0.346,0.100489,-0.427784,0.499388,0.560852,0.322697,-0.89054,-0.270634,-1.18387,-0.00957518,-0.114559,-0.452356,-0.447202,0.828142,0.559874,-0.715531,0.307758,-0.79225,-0.848208,-0.400388,0.414157,-0.396763,-0.748989,-0.634766,-0.961553,-0.726643,0.571856,0.471,-0.053,0.819433,-0.238506,-0.748412,-0.60458,0.276711,0.277826,0.488535,-0.877134,0.222379,-0.12166,-0.158295,-0.511294,0.614652,0.251336,-0.203078,0.36337,-0.625027,-0.0683815,0.849079,-0.810315,-0.612732,0.806452,-0.031814,-0.0875341,0.900928,0.335951,0.139202,0.74,-0.0959631,-0.794265,-0.305968,-0.254021,-0.0859291,-0.0596557,-0.36102,0.721255,-0.992841,-0.407124,-0.619146,0.0362603,0.40947,0.00556767,0.412398,-0.374383,0.763594,0.926423,0.055261,0.734868,-0.441742,-0.74934,0.282387,-0.058641,-0.537311,-0.637014,-0.882115,-0.57,0.702955,-0.1732,0.730403,-0.392275,-0.482215,-0.561303,-0.098636,0.484729,-0.0325131,0.620338,-0.20178,-0.183949,0.502579,0.137236,1.02961,-0.335974,1.01605,0.170226,-0.106266,0.0626945,-0.548517,0.360914,-0.785663,0.156835,-0.859921,1.00053,0.821,-0.46,-0.655103,0.529746,-0.493555,0.481385,0.812102,-0.699627,-0.75584,-0.554071,-0.810639,-0.477655,0.343902,0.0261712,0.614989,-0.774523,0.722597,0.412144,0.355928,0.672632,0.956759,-0.165561,-0.721784,-0.701343,0.766959,-0.633209,1.03931,-0.684646,0.125,-0.958,0.852849,0.0133216,-0.84341,0.683814,1.02474,-0.646831,0.331428,0.763041,-1.12242,0.0168238,-0.618874,-0.684758,0.687679,0.72913,0.0855866,0.433471,1.01487,-0.159895,-0.536802,-0.143687,0.840849,0.762782,0.519733,0.672961,-0.686206,0.014381,-0.935009,0.809,-0.123101,0.288766,0.53084,-0.176345,0.889592,0.763793,-0.54561,0.530554,0.122026,0.316205,0.352904,0.537272,-0.51372,0.158826,0.429793,0.659797,-0.303003,-0.669648,-0.331406,-0.806781,-0.175619,-0.251378,-0.617492,-0.727506,-0.319003,0.934938,0.897,-0.568056,-0.0606895,1.09734,1.0363,1.04058,0.0281747,0.509179,-0.907763,0.840957,-0.789644,-0.972531,0.801809,0.87312,0.584434,-0.39912,-0.206186,0.290492,0.244942,0.747847,-0.220901,0.407644,0.815468,0.0921564,0.00633982,-0.666572,0.577842,0.397396,-0.508289,0.667671,0.310036,1.11528,0.97789,1.17343,0.840335,0.691762,0.13305,-0.865346,-0.845895,0.209665,-0.644094,-0.228567,-0.0188582,0.582387,0.872493,-0.939859,0.559876,0.780796,0.266888,-0.475256,0.62564,0.494417,0.823822,0.0263559,-0.76742,-0.568875,-0.139054,0.688951,0.812288,0.0380146,0.653087,-0.0561857,0.039806,-0.326505,-0.492037,-0.673681,-1.039,0.181448,-0.334565,-0.610994,0.968852,-0.72356,-0.636663,-0.381923,0.108841,0.712042,-0.162724,-0.068046,0.597461,0.454563,-0.281951,-0.466742,-0.550277,-0.865095,0.592997,-0.377008,-0.431746,-0.882557,1.10178,-0.51099,-0.0366432,-0.0851888,0.0470113,0.726847,0.283739,0.0097548,-0.88163,0.378107,0.703653,-0.834423,0.154879,0.54778,0.971447,0.221622,-0.683343,0.123508,-0.689901,-0.253187,0.213041,0.623927,0.687061,0.941642,0.769987,-0.884002,-0.928916,0.426801,-0.550154,-0.249037,0.0823332,-0.721627,-0.504044,0.788137,-0.240652,-0.0808377,0.46645,0.726675,0.538923,0.254823,0.215761,0.349759,0.501081,1.03923,-0.133933,0.365099,-0.401127,-0.0693251,0.831689,-0.212885,0.219551,0.0237913,-0.592,-0.559,-0.0420672,0.73563,-0.865904,-0.40879,0.11644,-0.552684,-0.217718,0.536,-1.06166,0.0493602,0.314054,-0.375472,0.888938,0.0858715,-0.463272,0.562324,-0.562257,0.34576,-0.623239,0.348015,-0.168835,0.250234,-0.729962,0.433882,0.654127,0.960821,-0.897,-0.624,-0.00230611,-0.860203,-0.188755,0.348729,0.700795,-0.0388742,-0.866801,-0.554392,-0.236465,-0.363527,-0.998513,0.0635822,0.660231,0.534712,0.766128,0.645165,-0.75205,0.87091,-0.333951,1.06001,0.0873342,-0.00218487,-0.056281,0.887305,0.650992,-0.0118961,0.118,0.226005,-0.471933,-0.110436,0.576247,-0.153836,-0.340244,0.884998,-0.519901,-0.878535,-0.211734,-0.517634,-0.334288,0.826887,-0.0129636,-0.668589,-0.506174,-0.719381,0.897473,0.775568,0.79073,0.501103,0.483924,0.879507,0.448374,0.993299,-0.748657,-0.832507,0.678,0.820025,-0.284661,-0.576226,-0.468043,0.0118901,-0.0681916,0.668442,-0.81393,0.495841,0.691225,-0.703971,0.282843,-0.815987,-0.562747,0.974173,-0.926522,0.524274,0.903869,1.10381,0.702983,0.197884,0.737637,-0.146296,-0.499731,-0.454738,-0.93021,0.320195,-0.598,-0.735869,0.496424,-0.862313,-0.946024,0.63208,0.912088,-0.322954,-0.480678,-0.308613,-0.991829,-0.727778,0.725666,0.692432,-0.454527,0.0265004,0.975071,0.141556,-0.321994,0.630557,-0.851171,-0.54502,0.579959,0.206555,0.446199,-0.345555,0.881518,0.390364,0.138,0.919233,-0.287158,0.57908,0.744864,0.73426,0.215032,0.884788,0.544507,0.183371,-0.955749,0.510011,0.817968,-0.965284,0.809626,0.133339,0.788399,-0.961562,-0.737237,0.361442,0.134525,-0.605051,-0.1428,-0.281066,-0.265273,0.876823,0.808449,0.670765,-0.497,0.229136,0.0576731,0.652938,-0.300162,0.761585,0.23106,-0.506181,0.536203,-0.633153,0.827742,-0.448346,0.0729845,0.879165,-0.920514,-0.557348,0.48213,0.934694,0.613386,-0.138093,0.961489,0.848482,-0.81719,-0.373451,0.79048,-0.418374,-0.147516,-0.510683,-0.555,-0.344999,0.716178,-0.0511187,0.442431,-0.22692,-0.40601,0.712755,-0.900923,0.328798,0.701346,0.592912,0.682398,0.525818,-0.854247,-0.684048,-0.0302825,-0.754238,-0.211819,-0.525019,0.752248,-0.572157,-0.0851587,0.284773,0.855028,0.110011,0.903814,0.637015,0.689,-0.689,0.683,-0.867,-0.477548,0.396402,-0.36229,0.96399,-0.830369,-0.215903,0.221577,-0.741013,-0.891,-0.0769996,0.411085,0.34708,-0.996995,0.111001,0.661997,-0.03,-0.087,-0.548,0.00763217,-0.332926,-0.56,0.481,0.509,-0.706,-0.41,-0.031,0.488,0.836,0.28001,0.169689,0.96686,0.800032,-0.43676,-0.838292,0.321931,-0.706618,-0.0509926,-0.456001,-0.890993,0.0578687,0.467427,0.0768619,0.958735,0.0240841,-0.813064,0.179851,0.555645,-0.343026,0.631999,-0.882001,0.324,0.629,0.599,-0.61,0.92297,-0.81149,0.361564,0.407724,-0.982578,-0.366518,-0.869214,0.550697,1.00551,-0.735613,0.272055,0.319544,-0.897981,-0.786756,0.859358,-0.783619,-0.166586,-0.112035,-0.144346,-0.194386,0.927399,-0.402715,0.981175,0.0348453,0.255946,0.166759,0.146,-0.864,-0.204119,-0.254612,-0.461153,-0.705258,-0.460775,0.510988,0.303705,-0.856839,-0.862558,0.393506,0.571002,0.539113,0.486839,-0.263887,-0.186872,0.639504,-0.396945,-0.646309,0.574596,0.594401,0.344225,-0.59507,0.897967,-0.203674,-0.452429,0.395567,0.771971,0.79,-0.433674,-0.0768238,0.937143,-0.0198674,0.325555,-0.876672,0.272515,0.7954,0.482948,-0.611055,0.630928,-0.168302,0.0755617,0.11473,-0.53656,-0.193972,0.717472,0.614517,-0.586864,-0.321489,-0.810763,0.929624,0.636317,-0.0410092,0.802224,0.450439,0.189981,-0.684,-0.147078,-0.0300068,0.681483,0.062672,0.565913,0.695371,0.893685,-0.328397,0.619732,-0.40567,-0.842689,-0.722829,-0.693417,-1.16039,0.450567,-1.13023,0.0397382,-0.510655,-0.195783,-0.197858,0.900719,0.0797516,-0.310252,0.349813,-0.666194,-0.822135,-0.840999,0.644,0.192491,0.367188,0.563803,0.727477,1.00068,0.226635,-0.426514,0.370564,-0.601795,-0.916385,0.811984,0.208999,-1.07869,-1.01297,-1.21418,-0.755269,-1.07562,0.85358,-0.321523,-0.00733131,1.06689,-0.207041,0.294196,0.449084,0.535697,0.781566,-0.341772,0.352,0.517017,-0.595162,0.108812,-0.518846,0.440259,-0.436094,0.895053,0.236956,0.36533,-0.848402,-0.593963,0.33522,0.190857,0.528854,-0.385618,0.469881,0.606091,-0.358556,-0.653207,1.00259,-0.366076,-0.512379,-0.339221,-0.82599,-0.619889,0.276514,0.131,0.458,0.0612843,0.373353,-0.0267965,-0.576297,0.87546,0.390018,-0.617687,0.0140537,0.470591,0.857179,0.581668,-0.602817,0.510965,-1.18739,-1.05641,-0.24961,0.489969,-0.170966,-0.0726145,0.659029,0.735648,-0.20414,-0.0167595,0.49393,-0.630883,0.0289929,0.275,-0.144,-0.677093,-0.571328,-0.500404,0.200693,0.861609,-0.333936,-0.0103298,-0.0867412,-0.981363,0.0111175,0.411664,0.241963,-0.238109,0.251368,-0.944305,-0.881454,-0.107625,0.954906,0.346321,-0.187956,-0.512999,0.683401,-0.823939,0.820691,0.745082,-0.280975,0.420951,-0.757,0.773028,-0.710984,-0.0824861,-0.567126,-0.192564,-0.558778,-0.133765,0.765062,0.182379,0.683286,-0.603967,-0.408798,-0.811795,-0.930576,-0.787425,0.016719,0.264406,0.912752,0.123572,-0.438019,0.458426,-0.731131,0.145287,0.930519,0.955599,-0.0253913,0.300353,0.26,0.710554,-0.691294,0.722108,0.293967,-0.377484,0.622259,0.126659,-0.131144,-0.458751,0.90405,-0.804683,-0.304761,-0.277897,-0.479764,0.555482,0.103251,-0.173171,0.537607,-0.918304,-0.5661,0.106724,0.092729,-0.39468,-0.0764507,0.514908,0.239505,-0.905,-0.117,0.778724,0.388204,-0.747694,0.160992,0.144291,0.0141997,-0.928495,0.944479,-0.237518,0.421822,-0.953528,-1.01464,-0.749713,-0.929845,0.0493313,0.36637,0.0699171,-0.32272,0.00679074,0.823866,0.881201,-0.340833,0.924349,0.372225,0.827985,-0.775339,0.719,-0.312,0.0172485,0.275186,0.0988434,-0.253508,-0.469408,-0.428347,0.758009,0.664094,0.78473,0.943179,0.0792879,-1.30553,-0.543952,-0.202317,-0.751152,-0.182514,0.307834,0.320202,-0.451711,-0.824344,0.462019,0.0256558,0.853153,0.525752,0.652459,0.0360675,-0.748,-0.236,-0.194784,0.38288,0.35097,0.67859,-0.347923,-0.567092,-0.69129,0.473078,0.643445,-0.993888,-0.519477,-0.383626,0.333195,0.47443,-0.484962,0.878768,-0.328864,-0.372123,-0.577669,0.590055,0.336152,-0.12448,0.188858,-0.0447326,0.377102,-0.662348,0.808,-0.722131,0.352066,0.514445,0.0417633,-0.96592,-0.500688,-0.493488,-0.701941,0.974106,-0.153953,0.67883,-0.894777,0.249116,0.130883,-0.460141,-0.960396,0.032052,1.07033,-0.0614603,-0.365891,-0.727699,-0.084774,-0.161757,0.639302,-0.692565,0.182285,-0.872073,-0.379671,0.821945,-0.568869,0.921897,-0.84015,0.687746,-0.0783838,0.163461,1.189,1.08384,0.27141,0.439424,-0.249318,0.0794652,0.127888,0.222026,-0.151576,-0.221484,0.749436,-0.13298,0.471831,0.753972,0.0908966,0.335906,0.204929,0.984817,0.729747,-0.668723,0.824876,-0.799181,-0.583784,-1.0062,-0.861502,-0.197593,0.275714,0.638916,-0.22624,-0.172068,-0.62343,-0.929059,-0.742502,-0.099747,0.71057,0.41624,-0.681428,-0.296695,-0.351899,0.220037,0.243196,0.981268,0.877261,0.993475,-0.156341,-0.205166,0.372893,-0.83304,-0.503,-0.561403,-0.549555,0.844079,-0.280613,-0.203159,0.682408,-0.812812,0.735288,0.358375,0.74503,-1.09499,0.500103,-0.759754,-0.682195,-0.898858,-0.182654,0.710218,0.619113,0.776858,-0.255077,0.781751,-0.226657,0.219887,0.249841,0.887836,0.204843,0.77183,-0.492032,0.942888,0.900294,-0.51045,-0.547458,-0.650799,-0.734706,-0.412895,-0.0941031,0.902734,-0.148651,-0.1812,-0.00823125,-0.60753,-0.182931,-0.513606,-0.911001,-0.195027,-0.278091,0.48521,-0.206783,1.06046,-0.65233,-0.461398,-0.128916,-0.716298,0.727681,0.702523,-0.975,-0.69,0.445025,-0.927582,0.838463,0.281881,-0.461127,-0.666431,0.481993,-0.230755,-0.466609,-0.515381,-0.730087,-0.217251,-0.499213,-0.0587191,0.0579506,0.10842,0.934464,0.0596192,0.924025,1.13861,0.846954,0.510179,0.181405,0.442153,-0.873225,-0.905427,0.618,0.276,0.329732,0.667496,0.196298,-0.260353,0.731158,0.139709,0.800764,1.00618,-0.128354,0.182699,-0.827469,-0.459448,0.27047,-0.719699,0.45534,0.628149,0.151115,1.16697,-0.519584,-0.547829,-0.584614,0.200623,0.61246,0.647433,-0.107117,-0.480376,0.06,-0.494345,-0.401435,-0.705088,0.461672,0.931253,0.841363,-0.464376,-0.733045,0.177421,-0.0101235,