0.69,0.633,-0.649,-0.974994,0.409317,-0.682263,0.618166,-0.982886,-0.467573,-0.109104,-0.984932,0.119994,0.201986,0.0749632,0.824919,-0.339523,-0.711694,0.61393,0.200058,-0.666038,0.718182,-0.298364,0.28997,0.383,0.634,0.235,0.571,-0.651,-0.984,-0.099006,0.447925,0.261318,-0.466794,0.347265,-0.162978,0.495632,0.674262,-0.538716,0.0730382,-0.78695,-0.0800061,0.0967771,-0.105706,-0.874484,0.735813,-0.712821,-0.651136,-0.971308,0.452629,0.535448,0.898699,0.158616,0.796652,0.199818,-0.445902,0.44,0.994,0.681678,0.785514,0.55375,-0.439233,0.158312,-0.244201,0.0611079,-0.885962,0.190534,-0.867724,0.811606,0.249641,0.281405,0.639008,0.810812,1.00536,-0.405731,0.944796,0.69097,-0.650566,0.725546,0.118053,0.699959,-0.191264,-0.33515,-0.0453669,-0.322933,0.886,0.0645107,0.672386,0.865653,-0.297406,0.354184,0.341822,0.213628,-0.856442,0.745328,-1.05665,-0.601283,-0.33801,-0.729224,0.853131,0.883069,-0.00769276,-0.0778837,0.572218,-0.129999,-0.0199789,-0.0203339,-1.0268,0.20497,-0.727646,-0.182479,0.109379,-0.208933,0.543,0.621202,0.0245274,-0.01508,-0.338869,-0.356573,-0.6315,0.328932,0.619835,0.339393,-0.83883,0.876562,0.183902,-0.708835,0.881036,0.3179,-1.03644,0.198413,-0.275956,-0.546416,-0.966159,-1.12389,-0.0696228,0.0981147,-0.419406,0.0797537,-0.901491,0.0100109,0.543,0.211688,0.316844,0.0426409,-0.619912,-0.607441,-0.906607,0.152625,0.201681,-0.498861,-1.04717,-0.355277,0.29843,0.75142,-0.880296,-0.902845,0.72098,0.699992,0.51907,0.608349,-0.270218,-0.707136,-1.21557,-0.352167,-0.455859,0.0544654,-0.911896,-0.15242,-0.809,0.748044,0.826172,0.233526,-0.488389,0.256116,-0.520309,0.136631,0.469841,-0.840919,1.02066,-0.815767,-1.04126,0.429026,-0.649772,0.299651,0.389119,-0.707233,0.54261,0.0685635,-1.06237,0.254779,-0.452101,0.08436,0.514996,-0.202975,0.805198,0.883,0.908,0.889896,-0.317336,0.565944,0.562786,-0.885372,0.0903657,-0.575075,0.26995,0.203977,-0.109026,-0.749672,-0.032898,-0.876354,0.690518,-0.709142,0.669044,-1.11097,-1.12275,-0.219155,-0.671966,0.248279,0.572682,-0.595612,-0.660043,-0.276439,0.700014,-0.857,0.102,0.500704,0.530714,-0.51784,-0.17104,0.823432,-0.593195,-0.495484,0.950445,0.0761821,1.13994,-0.866035,0.175731,-0.546262,-1.06749,0.296412,-0.577755,0.27877,-1.11365,-1.08945,0.400356,0.484889,-0.285293,0.233787,-0.0720484,-0.107068,-0.667111,0.482409,0.135,0.591792,0.14905,-0.877133,-0.0516813,-0.705378,0.00333605,0.939795,-0.451368,-0.21089,0.838355,0.302337,-0.207188,0.0931008,0.18615,-1.21345,0.367689,-0.358737,-0.0431786,0.814435,-0.503289,0.271708,-0.975108,0.580282,-0.0570224,-0.379356,0.207989,0.48989,0.458,0.0887099,-0.0654654,-0.987122,-0.448814,0.744115,-0.458808,0.953351,-0.838816,-0.239894,-0.179149,0.641821,-0.194286,-0.284655,0.0625622,0.690331,0.677218,-1.24443,0.322202,0.201054,0.038213,-0.399279,0.35581,0.72117,0.454017,-0.166468,-0.218606,0.794,0.309,0.973849,0.22722,-0.806793,-0.0261193,0.918968,-0.797144,0.805131,0.456378,0.844978,-0.049919,0.105756,-0.129343,-0.816646,-0.454773,0.252734,-0.646163,0.124638,-0.300699,1.03346,0.282328,1.01173,0.230328,-0.663988,1.00335,0.768279,0.326589,-0.265,0.934,-0.911997,-0.501634,-0.28294,0.620057,0.532613,-0.176888,-0.377262,0.0585858,-0.412247,0.942978,-0.525409,0.0172914,0.273229,0.499569,0.117108,-0.217022,0.97997,-0.558555,-0.185716,0.170849,-0.188429,-0.462567,0.807322,1.08195,-0.0553429,0.845876,0.331,0.997,-0.297766,-0.927036,0.888592,-0.232575,-0.725983,-0.228175,0.801671,0.346635,-0.151287,-0.261534,-0.10376,0.833347,-0.721204,0.0120459,-0.463036,-0.0680327,1.05729,0.611191,0.632082,0.354569,0.0290379,1.09824,0.960055,0.317727,1.02102,0.491737,0.035,-0.380975,-0.138575,0.892614,-0.955582,0.418645,1.01081,-0.845959,0.840044,0.615904,-0.528437,1.0852,0.393193,0.429595,-0.877508,0.564941,0.145982,-0.637808,1.16694,0.215315,0.230163,0.868405,0.742577,-0.886558,0.214132,-0.535076,0.827841,0.033536,0.46113,0.501972,-0.954645,-0.544397,0.551463,-0.286288,-0.628185,0.955975,-0.458758,1.01181,0.627065,1.03983,0.671765,0.83848,0.77941,-0.455093,-0.0374738,0.571131,0.955784,0.500102,0.792637,0.832704,-0.729768,-0.678753,0.234761,0.680456,-0.375402,-0.86844,-0.959976,-0.803625,-0.307878,0.532639,0.269534,-0.310592,0.571565,0.0553562,0.808369,0.642977,-0.0811043,0.665306,0.425445,-0.802874,0.534434,-0.204334,0.854564,-0.0194895,-0.259903,-0.321571,-0.514069,-0.469726,0.80099,0.53725,-1.11703,0.805907,-0.79156,0.450851,0.532972,-0.782289,0.126133,0.208394,-0.448268,0.893879,-0.294669,0.811356,-0.272185,0.994301,-0.644703,0.718404,0.191265,-0.098067,0.371464,-0.727218,-0.306014,-0.548644,-0.0112907,-0.317611,0.247649,0.700262,-0.417047,0.00670476,0.746784,-0.418034,-0.0281803,-0.998125,-0.985118,-0.379047,0.0132616,0.653704,0.0600606,-0.687865,-0.149727,0.0080778,1.1848,0.196768,-0.339157,-0.929514,-0.462889,-0.476784,0.564322,0.598432,-0.144178,-0.34126,-0.866939,1.00304,0.181638,-0.121725,-0.854576,-0.758772,-0.958122,-0.281558,0.482115,0.559287,-0.093,0.935,0.118864,0.0284468,-0.176516,-0.604852,-0.768725,0.0784499,1.00036,-0.50149,0.891988,0.276158,-0.420086,0.535867,-0.428935,-0.0981656,-1.32782,-0.360537,-0.360561,-0.325589,0.323901,-0.414706,-0.603227,-0.476265,-0.105089,-0.720494,-0.790366,-0.533584,-0.429,0.222,-0.979017,0.117567,0.354341,0.275479,0.994404,0.206521,-0.0969388,0.734621,-0.651811,-0.82233,0.28416,0.382094,0.273678,-1.19682,-0.399603,-0.821121,0.148216,-0.221669,-0.0831207,0.739014,0.79918,-0.634337,-0.834461,0.833664,-0.857318,-0.518542,0.695,0.923113,-0.0519063,-0.631749,0.315694,0.0642027,0.234866,0.791277,0.68854,-0.0890954,0.229273,-0.527717,0.845242,-0.148132,-0.427419,0.114641,-1.28056,0.425597,0.133384,-0.244899,0.731551,-0.755709,0.459638,-0.218812,0.874397,-0.45382,-0.577991,0.502904,0.978,-0.84442,0.543548,0.785315,-0.726884,-0.38142,0.513752,-0.252497,0.0149674,-0.665574,-0.392848,-0.761703,-0.246917,0.378049,-0.281628,-0.438216,-0.906537,-0.172281,0.803253,0.666685,-0.860002,-0.247424,-0.322142,-1.027,0.0139806,0.604958,-0.778064,-0.570547,-0.802,-0.303959,0.493724,-0.740144,-0.448202,0.148582,0.45014,-0.632363,-0.0986936,-0.283434,0.1551,0.623917,-0.142316,0.503358,0.855279,0.41924,-0.362406,-0.882749,0.682873,-0.045527,-0.333618,0.203313,-0.738625,-0.167426,-0.993877,0.00581827,-0.53429,-0.386745,-0.788,-0.278928,-0.395139,-0.538128,0.0522127,0.651696,-0.516315,0.0974321,-1.05613,0.308733,0.303515,0.238448,-0.579182,-0.763595,-0.0859489,-0.304737,0.600731,-0.594882,-0.707548,-0.547132,-0.361239,-0.958134,-0.0857198,0.248954,-0.160117,0.349629,-0.74452,-0.0994871,0.934,-0.289958,0.0722991,-0.846227,-0.00203819,0.685599,-0.933827,0.835548,-0.270216,-0.879881,-0.191731,0.0710552,0.764662,-0.705029,-1.04574,-0.79974,-0.46045,-0.462247,0.0403261,0.808459,0.0354497,-0.0520172,0.810277,0.668679,-0.386838,-0.110127,0.0606448,0.505827,0.788,-0.16,0.962088,0.278128,0.102119,0.0316287,-0.02404,-0.908918,-0.76219,0.0707385,0.597052,0.138844,0.346607,-0.489894,-0.736272,0.148348,-0.594176,-0.701054,-0.0271614,-0.461846,-0.110909,0.589286,-0.632422,0.5011,-0.430924,-0.773811,0.215624,-0.240886,-0.34,0.815,-0.736,-0.995,-0.789169,0.777821,0.279505,0.318981,-0.187473,-0.735451,-0.0330532,0.0768951,0.36,-0.856005,0.780935,-0.732065,-0.780065,0.615984,0.424023,-0.376,0.92,-0.612,0.161461,-0.632833,0.536,0.083,0.871,-0.895,-0.136,-0.358,-0.579,0.525,-0.544003,-0.758339,0.529523,-0.3335,-0.975357,-0.627285,0.545548,-0.159856,-0.807461,-0.928947,0.47393,0.553067,-0.782571,-0.185634,0.821644,-0.56395,-0.573945,-0.199531,-0.383023,-0.654998,-0.252996,0.777002,-0.731,-0.718,-0.141,-0.86,0.944999,0.723253,-0.217822,-0.636202,-0.197464,-0.204463,-0.386506,0.900169,0.0245616,-0.364448,0.82275,-0.882355,0.0310268,-0.98364,-0.805985,-0.933089,0.570332,0.970011,-0.110336,-0.0378772,0.966658,0.298252,0.735297,-0.428625,0.20262,-0.957052,0.907998,0.47,-0.674827,-0.674902,0.166697,-0.742282,0.590285,0.533432,-0.306852,1.03317,-0.637373,-0.157282,0.887839,0.350064,0.463902,0.704085,0.459345,-0.95728,0.28262,0.248759,-0.819212,-0.0695704,-0.187281,-0.0114465,0.289465,-0.322204,-0.724976,-0.40511,-0.200331,0.45,-0.364136,-0.30505,-0.556375,-0.0899869,-0.452536,0.671855,-0.122813,-0.709955,0.255772,0.537587,-0.715664,0.582168,-0.653856,0.676401,-0.569419,0.319043,-0.0907106,0.422222,0.378269,-0.740033,-0.686882,0.443277,-0.575003,-0.1925,0.850517,0.248014,0.455763,-0.933,0.837642,0.791602,0.0306168,-1.0447,-1.00602,0.538985,-0.398388,-0.238007,-0.103333,0.472435,-0.418528,1.11276,-0.0152394,-0.68479,0.066819,-0.305256,0.771973,-0.161611,0.429009,-0.714958,-0.576035,-0.261566,0.73555,-0.718268,0.446013,-0.975033,-0.0219963,0.226,-0.176865,0.964369,-0.201577,-0.443485,0.672514,0.396338,-0.777822,0.914127,-0.297139,-0.0411652,-0.671783,0.562387,-0.644693,-0.281167,-0.0414571,-0.452464,-0.362671,0.754782,-0.308125,1.12477,-0.18829,1.15297,0.773837,-0.602383,1.03534,0.116418,0.919724,0.364,-0.312437,-0.129993,-0.893061,0.45172,-0.670387,-0.534742,0.706768,0.835703,-0.930072,1.07359,0.39317,-0.263184,-0.0778682,0.456889,0.588264,-0.0733569,0.432905,-0.613496,0.0433961,0.854195,-0.59745,0.945914,0.97414,-0.56142,0.469877,-0.471788,0.802,0.294,0.629735,0.684721,-0.829709,0.842149,-0.45788,0.871836,0.416466,-0.402158,-0.596021,0.112085,-0.59255,-0.981254,-0.317991,0.683757,-0.638362,0.697218,-0.181551,1.02032,1.21627,1.39157,-0.422894,0.402481,1.13348,1.06684,1.03014,-0.362599,0.299,0.226,0.153199,0.101595,-0.881532,-0.627942,-0.156083,0.921494,-0.707146,-0.0409595,0.342272,0.224191,0.536708,0.629619,-0.816124,0.60078,0.62028,-0.0869929,0.20125,1.0465,1.36859,0.836719,0.889902,0.947293,0.422012,0.432942,0.969675,-0.481266,-0.254312,0.758,0.142709,0.643671,0.0770565,0.935588,-0.144165,-0.239116,-0.682842,0.552302,-0.487183,-0.498914,-1.01769,0.170259,0.0110159,0.694768,0.391616,0.439518,0.246608,-0.505837,0.894201,0.983398,1.02004,0.391409,-0.00832543,0.0687459,-0.348127,0.537881,0.840917,-0.596,0.592123,-0.866587,-0.85952,-0.681311,0.859056,-0.203043,-0.68506,-0.942422,0.391492,-0.672409,-0.0846718,0.159122,-0.750065,0.239675,-0.09879,0.878209,-0.244493,0.666423,-0.299039,0.364008,0.102219,0.750637,-0.253884,0.0641453,-0.21698,0.065542,0.128,0.214,-0.859715,-0.101738,0.0457065,0.719456,-0.259243,0.398383,-0.901948,0.933075,0.598987,0.652233,0.829206,-0.63246,-0.863908,-0.236798,0.532143,-0.727089,0.952311,0.712696,0.125837,-0.837614,-0.459453,0.170854,0.575909,0.757567,-0.226334,0.438774,-0.627,-0.039,-0.512628,0.350524,-0.979429,-0.814361,-0.923962,-0.0759196,0.995577,-0.734867,0.770289,0.49006,-0.772347,0.44606,0.407884,0.790072,0.80645,-0.0399867,-0.672214,-0.29601,-0.496607,0.595864,-0.654743,0.614657,0.923186,0.026824,-0.641483,-0.14754,-0.527017,-0.398,-0.711379,-0.799817,0.450244,-0.570165,0.950049,0.309813,-0.362353,0.409649,-0.879866,-0.90982,0.784543,1.08634,0.188493,0.36644,-0.267624,-0.604875,-0.236587,-0.755964,-0.00529967,-0.339775,0.138659,0.732909,-0.41636,0.738729,-0.0473379,0.901636,-0.998,0.19496,-0.246752,-0.683429,0.289859,-0.270678,-0.105332,-0.0720488,-0.0186046,-0.721359,0.739883,0.130432,0.886672,0.641073,-0.316262,0.294757,0.23729,0.829346,-0.454942,-1.0367,-1.00027,0.380132,-0.607443,0.28032,-0.614807,0.736436,-0.0775084,-0.324483,-0.348207,0.727671,-0.434447,-0.458589,-0.463411,0.0187331,-0.316253,0.76586,0.370253,0.427974,-0.718381,-0.881954,0.602509,-0.786053,-0.258364,0.0487053,-0.153929,0.390611,-0.661142,-0.313099,0.109344,0.0946253,-0.640575,0.30415,-0.801141,-0.235629,0.918626,-0.722097,0.789962,-0.253378,-0.50033,0.971773,-0.800268,-0.239998,-0.338103,-0.527737,-0.0730879,-0.252401,0.834579,-0.746049,-0.785567,-0.579136,-0.577333,0.422136,0.645332,-0.0168137,-0.187749,0.0792309,-0.677199,-0.107829,0.376934,-0.0357166,0.370287,0.449531,0.946303,0.391367,0.732005,0.892089,0.219057,0.529161,-0.665136,0.750842,0.393829,-0.942401,0.662659,0.562612,-0.733825,-0.260468,-0.623805,-0.49651,0.0462033,-0.763347,0.877334,0.0605433,0.649541,0.747205,0.791802,-0.926038,-0.557778,0.544534,-0.352653,-0.0426217,-0.747272,-0.919681,-0.364996,0.912978,0.476637,0.943319,0.497862,-0.746582,-0.159129,0.376407,0.323835,-1.03092,0.380948,0.545678,0.906242,0.884424,-0.657656,0.640709,0.75948,-0.208253,0.443412,0.446521,0.37204,0.345039,0.172467,-0.0107295,-0.119777,0.306017,-0.593079,0.755288,-0.38,-0.13,0.393832,-0.138803,-0.496547,-0.518888,-0.360442,0.562898,-0.408784,0.305078,0.307039,-0.771818,0.365638,-0.680824,0.60542,-0.0628573,0.815435,-0.0562418,-0.912319,0.33832,0.677619,-1.08961,-0.049274,0.140487,-0.115153,-1.06959,-0.963359,-0.984746,0.142,-0.315,0.332028,0.392791,0.266054,-0.266398,0.559728,0.332316,-0.315059,0.984553,-0.358455,0.353056,0.311103,1.16621,0.517351,-0.16621,0.706207,-0.448437,0.274119,0.315041,0.499299,0.66484,-0.347213,0.0907309,0.116137,0.38297,0.721743,-0.734987,0.247,-0.935054,0.857835,1.02639,-0.549688,0.190564,0.14233,0.294323,0.395516,-0.154632,-0.657354,-0.858256,-0.056802,0.239347,0.36143,-0.726089,-0.329814,-1.00681,-0.189061,-0.744739,-0.337313,0.92151,0.880374,0.825263,0.406014,0.785741,-0.632327,-0.266542,0.571,-0.586276,-0.41488,-0.526147,-0.436333,0.976362,-0.762564,-0.305924,0.0814875,0.435738,0.641234,-0.921684,-1.06389,-0.86273,-1.062,-0.0514735,-0.159142,-0.219305,-0.208559,0.559143,-0.118454,0.310225,0.93707,-0.00900641,-0.0340315,0.0784032,-0.258661,-0.484443,0.197,0.3528,-0.171488,-0.613928,0.774441,-0.111775,-0.319713,-0.784751,-0.0695911,-0.570717,-0.631585,0.451095,0.490898,-0.824846,0.760595,0.687727,-0.933505,0.514646,-0.595531,0.0155779,-0.697446,-0.239674,-0.947149,-0.447372,0.872563,0.828328,0.610399,0.0162212,-0.272,-0.509355,0.102106,0.519876,0.393204,0.414036,0.372069,-0.229452,-0.588991,0.450966,-0.708392,0.16668,-0.958956,0.0216278,-0.0238173,0.826266,0.0270465,-0.398087,0.299703,0.168544,0.606682,0.635585,0.613069,0.303516,-0.682167,0.635196,-0.985688,0.971126,0.265,0.707792,-0.00992006,0.56623,0.769776,0.635885,0.0520577,-0.224209,0.0914877,-0.710489,0.325278,0.459117,-1.03286,0.936755,-0.547976,0.727547,-0.359979,0.577509,0.684119,0.683219,0.652743,-0.0620822,-0.657297,0.204077,-0.877269,-1.04599,-0.371009,-0.824256,0.778,-0.307002,-0.853286,-0.400454,0.95942,-0.307571,-0.837798,0.289694,-0.668568,0.170315,0.533056,0.00736046,0.128745,-0.0210869,-0.445338,-0.304672,-0.501502,0.0428691,-0.537749,0.137701,-0.851148,0.692079,-0.195977,0.802909,-0.803443,-0.286403,0.0446132,-0.610983,-0.257,0.246,-0.878,-0.923,0.496006,0.828171,-0.765588,0.453026,-0.480576,-0.617311,-0.721155,-0.584041,0.121,0.819991,0.428888,-0.748112,-0.646112,0.989973,-0.48901,-0.589,-0.41,-0.024,0.551997,-0.7,-0.772,0.918,-0.895,-0.568,-0.364,-0.293,-0.621,-0.064,0.51,-0.499028,-0.430185,0.0051918,-0.6724,-0.197055,-0.54337,-0.593629,0.187054,-0.705036,-0.176989,0.864772,0.672364,0.80887,0.674256,0.582397,0.356379,-0.813485,0.99532,0.945056,-0.281,0.546,-0.756,-0.053,0.02,0.908,0.380003,0.212891,-0.830068,0.758566,-0.852763,0.684447,0.820031,-0.721326,-0.30574,-0.855177,0.0822987,-0.300557,-0.892803,0.823248,-0.440695,-0.506293,0.690439,-0.771574,-0.701512,0.360304,0.79845,0.638002,0.0928397,0.352889,0.151179,0.823798,-0.540002,0.398,-0.228672,0.482776,-0.154204,-0.8537,-0.278599,-0.35092,0.959538,-0.537571,-0.662979,0.753283,-0.758289,-0.486254,0.453015,-0.0697648,-0.136158,0.197552,-0.215756,0.379796,0.632373,0.943278,0.512845,0.758452,-0.284346,-0.171515,0.512801,0.960118,0.830691,-0.317,0.784347,-0.705683,0.621692,-0.428664,0.856157,-0.807662,-0.615647,-0.871926,-0.274388,0.749346,0.96887,-0.470313,0.155234,0.954869,0.175745,-0.353315,-0.179599,0.886403,0.177046,-0.0916091,-0.379444,-0.470799,-0.411471,0.590414,-0.935558,0.221634,-0.333277,0.19,0.181329,-0.531309,0.391885,-0.442532,-0.537261,0.209993,-0.250705,0.790823,-0.216381,-0.0586007,0.696469,-0.0223256,-0.195853,0.447547,0.536272,0.782006,0.120487,0.990135,0.691802,0.232179,0.288485,-0.770845,-1.09931,0.669294,-0.140857,-0.588432,0.612969,-0.405,0.637308,0.808411,0.760623,-0.564245,1.03498,0.373317,0.0451402,-0.593144,1.00702,0.1722,0.849258,-1.02643,0.45262,0.129579,-0.0842186,-0.903415,0.943087,-0.63356,0.524311,0.157009,-0.547264,-0.327714,-0.868838,-0.124426,-0.706012,0.703477,-0.147237,-0.137,-0.876957,-0.990856,0.479875,0.882336,1.02499,0.434854,-0.643744,0.550584,-0.744177,-0.270026,0.472061,0.659545,0.457014,-0.223179,0.683173,0.0808761,-0.877288,-0.469321,0.216461,-0.551687,0.146202,1.21611,-0.193963,-0.453897,-0.985352,-0.728711,0.524,-0.614,0.973269,0.931225,0.34192,-0.736033,1.02293,-0.69163,0.537309,0.477662,0.648509,0.204269,-0.390822,-0.120495,0.454387,0.455363,-0.754881,-0.0472038,-0.180263,1.05511,0.987667,-0.216956,-0.241341,-0.40621,-0.687963,0.203159,-0.708972,-0.641168,0.269,0.84,-0.382381,-0.620044,0.958367,-0.663188,0.854966,-0.46021,0.755108,0.336124,-0.0342515,0.367714,-0.241496,0.791143,-0.863918,-0.285921,-0.127209,0.725832,-0.186065,0.598675,-0.178025,0.268217,0.680816,-0.39246,0.234716,0.863236,-0.185495,0.334126,-0.390121,-0.352,0.675517,0.51825,-0.697009,1.06117,0.835623,0.737216,-1.07393,0.179588,-0.455926,0.522204,-0.443105,0.166676,-0.504301,-0.283958,-0.2454,-0.423295,0.67257,0.723055,-0.680233,-0.821846,0.39859,-0.466471,-0.276155,-0.680601,-0.0589247,0.776042,-0.88423,0.275,0.101872,-0.641197,0.674993,-0.442767,0.825424,0.552873,-0.711664,0.190406,0.0949742,0.85512,-0.735356,-0.286789,0.0320766,-0.224338,-0.929289,0.222057,0.381391,-0.622193,0.500816,-0.00393893,-0.694316,0.773559,-0.0044164,0.0510253,-0.892171,0.561051,0.226,-0.463,-0.101095,-0.0482251,0.526783,-0.72937,0.33884,-0.0560793,0.984393,-0.511013,0.939065,-0.945818,0.489019,-0.303061,0.31559,0.319759,0.533409,-1.09712,-1.08245,0.379251,0.0381537,0.228711,0.841222,-0.566286,0.689249,0.634685,-0.848712,-0.802845,-0.367,0.753,0.31032,0.829284,-0.61503,-0.545757,-0.0895968,0.316731,0.903019,0.658511,-0.763244,0.778245,1.00492,0.544898,0.210943,0.327064,0.628601,-0.653344,-0.494685,0.493353,-0.72276,-0.642325,-0.473878,0.285166,0.190669,-0.977721,0.394178,0.0263226,0.751999,0.066,-0.222624,-0.75928,-0.188872,-0.736245,0.896645,-0.182969,-0.400769,-0.115165,0.728343,-0.726564,-0.904285,0.477154,0.606519,-1.21821,-0.745861,-0.267249,-0.246614,-0.647888,0.247945,0.303669,0.638856,0.0701814,0.66858,-0.754482,-0.799403,-0.174543,-0.912,0.648009,0.418858,0.614744,-0.462671,-0.781085,0.809222,0.311129,-0.329546,0.950608,0.561648,-0.203198,-0.852189,-0.343365,-0.948682,0.412148,0.437999,-1.23967,0.0847232,-0.735594,-0.359666,-0.648008,-0.553738,0.413105,0.532455,-0.906966,-0.0911936,0.355951,-0.276952,0.197701,0.740975,-0.469404,-0.981854,0.0256016,-0.73092,0.00390189,0.794323,1.37548,0.567007,0.811045,0.475,-0.850001,0.781085,-0.0191659,-0.732897,-0.845527,-0.140458,-0.806769,0.905831,0.866076,-0.84258,-0.515032,-0.970934,-0.802556,-0.637539,0.706384,-0.368991,-0.12229,-0.398165,-0.3264,-1.34606,-0.859988,0.380157,-0.530041,0.996802,0.798336,-0.191905,-0.460004,0.0449453,-0.83777,-0.571969,-0.460368,-0.802122,-0.575944,0.420698,-0.32111,-0.799436,-0.667046,-0.676698,-1.03895,0.639374,-0.710273,-0.0224421,-0.794559,-0.296051,-0.126493,0.45522,0.168345,0.436026,0.45897,0.909086,0.711939,-0.688876,0.242942,0.432151,0.170892,-0.329029,0.9377,0.902222,0.579672,0.784044,0.867865,0.878875,0.560479,0.505177,-0.058322,-1.09211,0.578175,-0.00493125,-0.708534,-0.912474,0.0936861,-0.78023,-0.437016,-0.142822,-0.176181,0.325827,-0.602683,0.995698,0.00743009,0.639198,0.607727,-0.935948,0.5352,-0.263015,0.234128,-0.594949,-0.164331,-0.115572,0.883672,-0.394748,-0.796221,0.29346,0.571199,0.361925,-0.216154,-0.220743,0.258259,-0.225669,0.683757,0.161,-0.572,-0.648281,0.416458,-0.00658926,0.304229,-0.473015,-0.369845,0.0743955,0.639678,-0.291594,-0.387667,0.369695,-0.466265,0.835021,0.539388,0.54668,0.905747,-0.395016,1.0355,0.403481,-0.701239,0.383031,-0.823918,-1.01499,-0.0413395,0.177012,-0.402613,0.946,0.664,-0.70201,0.193823,0.687263,-0.305435,-0.879127,-0.35549,0.293227,-0.70599,-0.363477,-0.449032,0.750338,0.516634,-0.200071,-0.0218497,0.893212,-0.716255,-0.313108,0.0266567,0.7879,-0.207663,-0.771901,0.0387521,0.0624075,0.677032,0.338415,-0.152426,-0.096,-0.670657,0.476215,-0.484255,0.566896,0.317569,0.0540751,0.188353,0.428202,0.0772124,0.394603,-0.0938535,0.18571,-0.726725,0.186612,-0.207077,0.13199,0.446789,0.752463,-0.141912,0.262517,0.465847,0.107984,-0.0538969,0.792387,0.282358,0.55207,0.0421009,0.253,-0.286237,0.481182,0.811184,-0.00342963,-0.132704,-0.963608,-0.905634,-0.817306,-0.339112,0.253789,0.729786,1.02376,-0.409986,-0.572897,0.025742,-0.49916,-0.0999776,0.712946,0.419568,0.918988,-0.433938,0.569695,0.0370883,-1.05634,-0.915301,0.497055,0.869427,0.63,0.243813,-0.510141,-0.49381,0.855223,0.820057,-0.953295,-0.517744,-0.653512,0.69337,-0.387943,-0.336687,-0.731162,0.819809,1.14054,1.11311,1.06205,0.898993,-0.366727,0.971817,-0.496558,0.992684,-0.350474,0.754808,0.913975,0.552641,-0.273159,-0.998718,0.873,-0.665332,0.435876,0.523091,0.102696,0.389734,0.407247,-0.462947,0.230602,-0.0422508,0.0479803,0.783838,-0.369299,0.544553,-0.813568,-0.160634,0.21401,0.791474,-0.12292,-0.317895,0.0167327,0.223184,0.893474,0.277899,-0.439013,-0.6051,-0.0320195,-0.38614,-0.856,0.324806,-0.832853,0.553598,0.191097,0.139553,-0.435453,0.840001,-0.467598,-1.01955,-0.529395,0.584957,0.339293,0.796836,0.0795872,0.97392,0.280921,0.222824,-0.259078,0.929324,-0.610477,-0.0488292,0.929764,0.255072,0.639756,0.792264,-0.941456,-0.717782,0.851,-0.370002,-0.546333,0.545967,0.950235,-0.371926,0.118233,-0.2745,0.789609,0.300328,-0.362296,0.989682,0.445579,0.201763,0.611742,-0.660388,-0.479685,-0.333328,0.835475,0.313931,0.384895,-0.941787,0.161272,0.292269,0.00649811,-0.336065,-0.451786,-0.333104,-0.957,-0.815,-0.493,0.451,-0.184326,-0.039742,0.000139736,-0.673034,0.148663,0.684861,0.0563241,-0.0549721,0,0.255004,-0.504957,-0.998957,-0.543955,-0.888989,-0.658003,-0.463,-0.666,0.732,0.845982,0.272,0.789,-0.435,-0.435,-0.649,0.231,-0.327,-0.424,0.274,-0.142,0.0829106,-0.274834,0.238006,0.602469,0.280945,0.556407,-0.248461,-0.0319801,-0.828027,0.252955,0.52468,-0.0156564,0.749612,0.0840634,-0.00207286,0.416999,0.425235,0.536146,0.750999,-0.285999,0.38,0.023,-0.498,0.945,0.145,-0.589977,0.17499,0.816852,-0.018895,-0.994727,-0.772899,0.617208,-0.722048,0.463347,0.233805,0.564286,-0.42148,0.533567,-0.909566,-0.693563,-0.207088,0.191043,0.299552,-0.905433,-0.75093,-0.716307,0.504044,0.228883,0.814326,0.258968,0.955073,0.203001,0.842,-0.987225,-0.304941,-0.033146,-0.618902,0.80118,-0.744536,0.332215,0.384359,-0.429767,-0.427361,0.697582,0.599758,0.376479,-0.148736,-0.771837,-0.00975469,0.0581499,-0.828821,0.315129,0.654283,0.276083,0.271996,0.815828,0.099592,-0.164776,0.178517,0.0172208,0.686,-0.310183,0.758759,0.0639372,-0.335605,-0.602903,0.494632,0.0119933,0.864123,0.930628,-0.986084,-0.165883,-0.493438,-0.784834,-0.340731,-0.727176,0.748111,0.211591,1.14775,-0.752687,0.608379,0.927886,0.238818,0.109988,0.240515,-0.776229,-0.265955,-0.901979,-0.306,0.920132,0.125161,0.964351,-0.763221,-0.483816,0.063552,-0.0596234,-0.426872,-0.35794,0.487478,0.895289,-0.358939,0.319458,0.00833086,-0.100055,0.163094,0.239717,-0.280941,-0.231093,-0.838395,-0.592245,-0.71377,0.309066,-1.01111,0.63526,-0.508584,-0.0720886,0.467,0.236684,0.0329737,-0.816039,-0.193678,-0.704321,0.857801,0.112404,-0.570042,-0.147095,0.344016,-0.74734,0.0756796,-0.310628,-0.643701,0.199799,0.225367,-0.421076,0.825017,-0.871038,0.573252,0.820747,-0.161125,0.439656,-0.600866,-0.325435,-0.384756,-0.58911,-0.691,-0.334183,0.332549,0.291979,0.892796,-0.584515,0.191206,-0.57963,-0.635435,-0.112506,-0.408009,0.707276,0.388878,0.948924,0.922785,0.711195,0.732966,0.435318,-0.33295,-0.00947685,-0.718476,-0.602427,0.350569,0.52346,-0.789318,0.645047,-0.58383,-0.834,-0.651,-0.424215,-0.866088,-0.87729,0.104483,-0.0632737,0.0368279,-0.245758,0.48674,-0.821542,-0.65149,-0.112763,-0.236762,-0.0563585,-0.705533,0.79496,-0.507048,-0.756789,0.562496,-0.442641,1.26149,-0.660511,0.649256,0.84197,-0.638175,-0.603936,0.321104,-0.871,0.615,0.711294,-0.73667,0.376487,0.675864,-0.68246,0.177593,0.0590393,0.0854727,-0.613482,0.224703,0.771692,-0.638291,0.630994,-0.0493655,0.375001,-0.595455,-0.062875,0.260663,0.172765,0.608061,-0.359695,0.46699,-0.226476,-0.600348,-0.565757,-0.827691,-0.647038,-0.616,0.485834,-0.568781,0.84141,-0.372307,-0.672433,0.432059,-0.466346,-0.552916,-0.531124,0.198461,0.255247,-0.326945,-1.01773,0.128703,0.174887,0.432415,0.97059,-0.511145,1.14733,0.0624042,0.654526,-0.0599633,0.630591,0.359607,0.671401,-1.00134,0.872813,-0.804,-0.813646,-0.881234,-0.611146,0.130748,-0.718172,-0.947415,0.541486,-0.749962,0.194356,0.656391,-0.528719,0.539964,-0.56221,0.82476,-0.574655,-0.325588,-0.246346,0.295257,0.821297,-0.193698,0.754973,0.864425,0.145474,0.0378835,-1.01821,-0.296717,-0.566,0.753,-0.737986,0.725811,0.291072,-0.654662,0.62014,-1.00237,0.129017,0.426252,0.718098,-0.267905,0.572936,-0.0103105,-0.38975,-0.639088,-0.66297,-0.0543642,0.197646,-0.751949,0.169737,0.950848,0.988595,0.339208,-0.183874,0.490331,-0.784204,0.0763378,0.77,-0.888,0.311831,0.675231,0.680982,0.472667,0.168404,-0.0810926,0.517753,-0.218387,0.0295889,-0.075621,0.952689,-0.512886,0.828598,0.705555,-0.0952301,0.456677,0.269555,-0.184749,-0.716875,-0.202289,0.34006,0.912764,-0.123403,0.0573306,-0.46222,-0.508576,0.52,-0.928,0.534322,-0.152968,-0.845675,-0.139282,-0.746276,0.662232,-0.60058,-0.115561,-0.395706,-0.799722,0.454567,0.22917,-0.509552,0.0951616,0.177745,-1.12707,-0.532915,-0.699406,0.318267,0.646018,-0.110311,0.736857,-0.414181,1.09163,0.153775,-0.0848328,-0.713,0.0800406,-0.0543248,0.830078,0.163622,-0.554588,-0.777555,-0.0872503,0.26094,0.916492,-0.478158,0.401951,-0.0772751,-0.000477057,-0.268848,-1.04216,0.506781,0.270004,0.242934,-0.302714,-0.0950125,0.667901,-0.201228,-0.791795,0.115918,0.868848,-1.01486,0.665213,0.502209,-0.285072,-0.852834,0.83517,0.388281,0.0573698,0.214863,-0.851235,0.502389,0.404253,0.0224579,-0.499766,0.197821,-0.292922,-0.102609,0.532241,0.592182,-0.692882,0.841319,0.22698,0.27252,-0.754908,-1.40858,-1.30096,-0.822544,-0.654544,-0.595241,0.737663,-0.868961,-0.882103,-0.0151845,0.741822,-0.43104,0.255912,0.589233,0.354054,0.676701,-0.388346,0.467249,-0.148738,0.309939,0.587287,0.0313528,-0.585893,0.0560922,-0.73223,-1.00868,-0.68437,-1.08842,0.338898,0.285399,-0.198644,-1.41175,0.0189054,0.280566,-0.904072,0.966,0.540068,0.425973,-0.783009,0.389344,-0.451985,0.42211,0.23831,0.0223652,-0.243025,-0.487347,-0.375467,-0.375696,0.614237,0.0968893,-0.566036,0.680773,0.801769,-0.617203,-1.16752,-1.39216,-0.771321,-0.839429,-1.18025,-1.25954,0.66221,0.398696,-0.856905,0.355991,-0.363162,-0.711628,-0.093386,0.755342,0.688741,-0.424415,-0.0394453,0.589791,0.746403,0.548346,-0.486264,-0.437083,-0.717648,0.0313299,0.293672,0.347177,-1.17086,0.298262,-0.647324,-1.42632,0.433078,-0.520914,-1.2977,-0.632726,0.273704,0.711632,-0.664333,0.12,0.058,-0.475211,-0.453582,0.755716,-0.55889,0.0268887,0.423271,0.520978,0.316235,0.742474,0.2389,0.536441,0.825525,0.739709,0.0691032,0.0532929,-0.932931,-1.19127,-0.66225,-1.06856,0.449542,0.207407,-1.25766,0.229576,-1.14451,-1.01632,-0.870233,0.644,0.992,-0.923698,-0.48637,0.250683,-0.749805,-0.553769,-0.69364,-0.597966,0.144113,0.191135,-0.87748,-0.20953,-0.242083,0.0352211,0.311876,0.736755,-0.668867,-0.536514,-0.208562,-0.437041,-0.208929,-1.23765,-0.278225,-0.590655,-0.0055285,-0.0805476,-0.852668,0.3,0.145394,0.856153,-0.394633,-0.0832676,1.1258,-0.0262436,0.356142,0.574951,-0.331171,0.0734333,-0.993816,0.960791,0.942824,0.513187,-0.379595,-0.278968,-0.771409,0.424354,-0.692291,-0.322116,-0.573089,0.284988,0.28912,0.520447,-0.0787571,-0.573528,-0.518399,-0.629,0.13689,-0.798532,0.248348,1.00756,-0.663785,0.484971,-0.347819,0.609347,0.623089,0.272349,0.0486514,-0.545446,-0.381494,-0.200524,-0.455624,-0.755688,-0.750331,-0.61326,-0.467494,-1.12691,-0.822611,-0.067461,-0.423733,-0.138401,-0.485112,-0.724181,-0.549544,0.841,-0.546867,-0.489062,0.792884,0.63168,-0.585798,-0.315973,0.517294,0.874045,0.822778,0.513733,0.462893,0.668565,0.124107,-0.694342,1.11483,0.159308,-0.79773,0.62863,-0.594146,-1.23136,-0.788228,0.322305,-0.937311,-0.722939,-0.819195,0.0232939,0.108438,-0.445,-0.0057628,0.574763,-0.570243,-0.0292465,0.606549,0.724334,-0.402023,0.882673,-0.697525,0.668292,0.888893,-0.74258,0.31499,-0.0572885,0.270272,0.629246,-0.757151,-0.060421,-0.960312,-0.588155,-0.272266,-0.311522,-0.518186,-0.158847,-1.04095,-0.113241,-0.0290414,-0.662,0.571139,-0.910412,-0.106331,-0.918255,0.184545,-0.183538,0.121525,-0.593208,-0.400356,0.759121,-0.656002,-0.563869,0.362181,0.677648,-0.941229,0.981367,-0.662182,0.186744,0.0991688,-0.343605,-0.762931,0.243283,0.222351,-0.255815,0.762867,0.465986,0.29001,0.819,0.966001,-0.732903,0.713946,0.529454,0.913374,-0.843147,0.663698,-0.305912,0.0138184,-0.215149,0.0973956,0.132039,-0.94347,0.403271,0.0869559,-0.0696132,0.0521653,0.152704,-0.528952,-0.00423417,-0.602919,0.621063,0.713032,-0.282053,-0.479061,-0.446915,0.061812,-0.691,-0.966,0.911,0.685,0.556986,0.734891,0.39901,0.0921064,0.650197,0.564215,-0.693905,-0.662744,-0.87,-0.355002,0.434986,0.262986,-0.737023,-0.601006,-0.649999,0.194,0.457,0.508,0.228382,-0.984,0.468,-0.147,0.731,-0.813,-0.068,0.842,-0.194,0.241,0.433,-0.283999,-0.518089,-0.01112,-0.548792,0.881962,0.637631,0.656988,0.00201762,0.500994,0.550986,0.132029,-0.855056,-0.0116128,0.962311,-0.584918,0.383996,0.858943,0.160422,-0.603,0.366001,-0.613,-0.587,-0.167,-0.203,0.701,-0.423,0.728999,0.10108,-0.0591825,-0.472107,-0.910461,0.215444,0.0133907,0.079948,0.224467,-0.549118,-0.721436,-0.120774,0.449899,0.785301,-0.556971,-0.857742,0.932555,-0.0258294,-0.905974,0.890372,0.910635,0.947322,-0.39896,0.864793,-0.131054,-0.455,0.835,0.259176,0.345245,0.101406,0.397054,-0.372264,-0.803543,0.902935,-0.268385,-0.694412,0.142241,0.307481,-0.0467441,-0.646793,0.305051,0.227416,-0.203196,-0.239565,-0.00186023,-0.215124,-0.519079,-0.519226,0.722997,-0.477538,-0.673583,0.177716,-0.985377,-0.0750969,0.042,-0.558693,0.0318732,-0.107925,0.716956,-0.618143,0.538217,-0.342661,-0.434479,0.729273,-0.431416,-0.141149,0.601214,0.23614,0.696676,-0.933072,0.560037,-0.00775966,0.290695,0.917475,0.748397,0.79725,-0.405814,-0.881166,-0.807215,0.845604,-0.839021,-0.937104,0.021,0.734462,-0.453577,0.629311,-0.808065,0.596651,-0.926227,0.42543,0.482907,0.56888,-0.91664,-0.942591,0.306706,-0.803952,-0.538088,-0.534884,0.431462,-0.854536,-0.503623,-0.503997,0.0688346,0.247196,-0.717953,-0.738751,-0.0352888,-0.144233,0.905858,0.142979,-0.298,0.626985,0.192558,0.268561,0.348132,0.75167,-0.102706,0.516321,0.307218,-0.0576354,-0.472418,-0.60969,-0.442584,-0.798203,1.05026,0.447337,-0.621614,-0.566163,0.817639,0.268498,-0.964111,0.765172,0.692157,0.093886,0.0110444,0.546532,-0.0850525,0.970777,-0.587,-0.17378,-0.336016,-0.336125,-0.575167,0.394567,0.940098,0.366991,-0.254977,-0.57593,-0.488113,-0.871244,0.413884,0.0335595,1.03067,0.463926,-0.341413,0.947038,-0.17777,0.00952858,-0.658833,-0.870705,0.847901,-0.513673,1.01276,0.169299,0.13909,-0.449,-0.305,-0.946909,-0.483216,0.101731,-0.591314,-0.277669,0.361033,-0.0899577,-0.770991,0.359395,0.912035,0.0187571,0.75779,-0.702599,-0.497845,-0.45225,-0.271735,-0.510337,-0.960785,0.499966,-0.527439,-0.568355,-0.860511,-0.476064,-0.301581,-0.957606,-0.0256231,-0.802,0.145,0.663825,-0.243686,0.843621,0.696341,-0.178686,-0.475054,-0.837112,0.590398,0.880078,-0.368969,0.758378,-0.370584,-0.70969,-0.928732,0.809758,-0.85124,-0.268959,-0.909628,0.0488704,-0.160946,-0.811969,-0.35767,0.470572,-0.278498,-0.19945,0.922976,-0.114115,-0.251,-0.559428,0.106857,0.471305,-0.894208,0.867392,-0.079891,0.437058,-0.294495,0.395164,0.532034,0.728921,-0.397565,0.474316,-0.0903361,0.27478,0.526867,0.266746,-0.112953,0.870814,0.70069,0.0974263,0.0156119,-0.320262,-0.0915086,0.634704,-0.961877,0.0599701,0.872,0.499458,0.962047,-0.804687,0.531816,0.0863199,0.725048,0.714621,-0.441067,-0.421201,-0.456468,-0.434245,0.222843,0.420917,-0.675198,-0.930241,0.240893,0.508618,0.0943373,-0.102315,-0.52433,0.634612,-0.59166,-0.728043,-0.221334,-0.0482728,-0.181827,0.096,-0.992,-0.608746,-0.835621,0.890863,0.464244,-0.881849,-0.866361,0.0498986,-0.160133,0.360379,-0.894117,0.0664271,0.667321,-0.404923,0.378388,-0.266988,-0.755546,0.737726,-0.679403,-0.0101714,-0.18147,0.0315349,0.573958,-0.0115401,-0.257242,0.947452,0.107446,-0.074,-0.235,0.45801,-0.979669,-0.680486,0.373275,-0.858508,-0.771173,-0.533525,-0.662287,-0.697353,-0.137457,-0.543123,0.0650116,0.0806235,0.809991,-0.521674,0.235579,-0.0672856,-0.0783029,-0.192157,-0.864561,0.291053,0.981901,-0.284373,-0.571906,0.109457,0.560846,-0.41801,-0.058,-0.794972,0.493202,0.202477,0.146577,0.0276872,0.568557,-0.825056,0.259049,0.35604,-0.451673,0.0311438,0.238546,0.221773,0.844788,-0.602656,0.635891,-0.240554,-0.55543,-0.385409,0.181648,0.0296949,0.186499,0.0904108,-0.490805,0.276935,0.752886,-0.615,-0.715052,-0.14418,-0.497842,-0.285058,-0.45145,-1.01845,0.569464,0.383774,-0.327192,-0.250774,0.0954841,0.890326,0.742017,0.432282,-0.251155,-0.0848698,-0.707894,0.69975,-0.445069,0.786943,-0.554102,0.162742,-0.830796,0.393328,-0.592279,0.505651,-0.488185,-0.596266,-0.745339,0.808629,-0.682236,-0.968225,-0.394606,-0.172588,-0.560534,-0.128948,-0.523487,-0.973085,0.712673,0.0451789,-0.630458,-0.0282565,-0.333304,0.611837,-0.760774,0.244445,-0.504411,-0.474315,-0.0252267,0.145559,-0.529846,0.110891,0.946589,-0.743765,-0.484499,0.855951,0.678821,0.00798926,0.783122,0.898679,-0.174396,-0.818626,-0.923687,0.0787581,-0.43121,-0.598854,0.324778,-0.0838312,-0.991025,0.218387,0.751099,1.01836,-0.770767,-0.530333,0.668669,1.0048,0.239436,0.671403,-0.495653,0.693404,-0.740581,-0.545189,-0.241551,-0.843981,-0.380055,-0.173714,0.589994,0.867777,0.892528,0.475951,0.843432,-0.770427,0.0163214,0.641267,-0.381097,0.518342,0.753248,-0.743188,-0.223064,0.97065,0.161391,-0.849709,0.543226,-0.128678,-0.520193,0.0674268,-0.26217,0.520234,-0.406262,-0.293365,0.195241,-0.159952,0.103971,0.501572,-0.443133,0.30263,-0.59075,-0.772737,0.157224,0.65219,-0.0768068,-0.270234,0.744898,-0.951207,-0.732211,-0.650253,0.944065,0.788087,-0.813369,-0.786494,0.222062,0.242842,-0.792387,-0.389285,-1.01765,-0.867454,0.208886,-0.726709,0.250781,0.819,-0.041,1.00077,-0.764809,0.660802,0.545937,-0.640061,-0.136401,0.262425,-0.701259,-1.12054,-0.0541909,-0.0076429,-0.495836,-0.382654,0.341186,-0.528935,-0.0856076,-0.306594,0.680593,0.0337776,-0.6474,-0.211556,0.789338,-0.446618,-0.00410704,0.379465,-0.700123,-0.772,0.652,0.554,0.655194,-0.374584,0.49696,0.295041,-0.872782,-0.505365,0.587335,-0.457884,0.851727,0.616649,-0.754752,-0.36494,-0.118953,-0.104778,0.223879,-0.974352,-0.249683,0.613818,-0.807327,-0.633196,-0.758391,-0.405233,-0.246418,0.6131,-0.259266,0.774,0.0077618,0.0428001,-0.957596,-0.307775,-0.881055,0.0879827,-0.260869,0.597456,-0.547444,-0.466855,0.79063,-0.81211,-0.183434,0.372706,1.00039,0.184567,0.9838,-0.30278,0.45227,-0.32875,-0.755995,0.796827,0.936131,-0.491007,-0.800223,-0.812534,-0.323268,-0.042,0.370777,0.420345,-0.693356,-0.590204,-0.526357,-0.719387,-0.435093,-0.444641,0.411901,-0.045765,0.807759,0.932585,0.0989855,0.667283,0.772373,-1.02998,0.027729,0.656342,0.0606672,-0.449411,-0.577647,-0.774253,0.36476,-0.696807,-0.961307,-0.14006,-0.178006,0.786,-0.394059,0.50068,-0.689884,1.01089,-0.484115,-0.387775,-0.621021,-0.0461721,-0.542641,-0.515622,0.0518747,0.391743,0.445332,-0.518691,-0.0593641,-0.418818,0.713332,-0.301148,-0.408567,-0.630272,-0.505254,0.369255,0.0437552,-0.465096,0.595024,0.958655,-0.159005,0.622,-0.181104,0.221689,0.418602,0.0170601,-0.679936,0.732689,-0.000623206,-0.171975,0.919276,0.34983,0.713431,-0.715439,0.800888,-0.679721,0.711456,-0.153686,-0.60081,-0.305237,0.504655,-0.793569,0.500785,0.719164,-0.364367,0.586348,0.0891903,0.238519,-0.879018,-0.766,-0.244061,-0.478993,0.860995,0.146523,0.757002,-0.170474,-0.862678,-0.95106,-0.872306,0.115521,-0.16905,0.994971,0.976199,-0.983752,-0.802788,0.305347,0.917336,0.508181,-0.785684,-0.618631,-0.758223,0.276115,-0.403001,0.30818,-0.00369033,-0.206409,-0.105215,-0.914,0.593,-0.42688,-0.679561,0.907378,0.0936263,0.730946,0.0392812,-0.164243,-0.87736,-0.27372,-0.576627,-0.799669,0.34719,0.180827,0.679637,0.287586,-0.238748,0.463012,-0.815699,-0.297679,-0.0212199,-0.611539,0.0796257,-0.222335,0.221852,0.233859,0.642969,-0.78,0.588,-0.463,0.864,-0.262996,-0.332762,0.742232,-0.356976,0.761275,0.474783,0.247624,-0.847883,0.14,0.507,-0.880034,-0.112032,-0.149998,0.303001,-0.429,0.699,0.624,0.592,0.881212,-0.673991,-0.873,0.826,-0.038,-0.539,0.047,0.753,-0.897,-0.176,0.339996,-0.803114,-0.308064,0.638349,-0.137638,-0.573288,0.83569,-0.818633,0.459536,0.0740011,0.892094,-0.845917,-0.865394,-0.991078,0.047804,-0.00945716,-0.129971,0.17032,-0.316024,-0.505024,-0.679,-0.877,-0.622,-0.552,0.95,0.34,-0.0909985,-0.446896,0.0940941,0.0160254,0.383971,0.986931,0.207812,0.630969,0.631207,0.637256,-0.941082,0.471546,0.817624,0.0624194,-0.918167,0.265478,0.233415,-0.756835,0.284414,0.836397,0.219696,0.710429,-0.441241,0.450369,-0.808071,-0.124027,0.580001,-0.869,0.324375,0.0933263,0.500727,0.828122,0.696005,-0.354608,-0.0656859,-0.269361,-0.304024,0.706284,-0.693845,-0.730832,0.199638,0.769675,0.175564,-0.406176,-0.490476,0.421689,0.967769,0.30963,0.579862,-0.263989,0.114346,-0.733345,0.874966,0.144692,0.735135,0.666,-0.973662,-0.0972141,0.855033,0.416246,1.05822,0.392034,-0.0858888,0.390315,0.578222,0.650912,0.829877,0.92631,-0.507553,0.366955,0.576565,0.322755,0.298844,-0.474986,1.01056,0.276205,0.671775,0.289713,-0.513738,-0.263304,0.459708,0.0652088,0.050824,0.442,-0.775442,-0.623027,-0.271864,0.853208,0.269999,-0.456646,-0.107887,-0.0862552,0.83538,0.463186,0.959837,0.143573,-0.493399,0.309731,-0.250167,0.135657,-0.371885,0.884967,-0.498468,0.526814,-0.690984,0.929249,-0.670615,0.543,-0.215728,-0.203365,-0.688172,0.899,0.437929,-0.0424532,-0.0486002,0.269747,0.304135,0.593889,0.0964291,-0.875342,-0.914175,0.801858,-0.0579991,0.557074,0.493049,-0.363058,1.35104,0.787789,0.351041,-0.938379,-0.807152,0.667583,-0.813566,-0.206928,-0.363262,0.839139,-0.842767,-0.0687471,0.376145,-0.03,0.743629,0.703042,-0.498703,-0.17666,-0.290883,0.344791,0.963882,0.447595,-0.0725722,-0.377133,0.272077,-0.178061,-0.31618,0.893632,1.34213,0.377117,0.645581,0.250281,-0.492242,-0.448652,0.682822,-0.48074,0.653978,0.0799231,-0.447444,-0.793693,-0.148,-0.299,0.154438,-0.773504,0.308244,-0.446825,1.10205,0.809419,0.267896,-0.869166,-0.0137275,-0.308931,0.121113,0.981305,0.436844,-0.563128,-0.262184,0.79849,-0.0426445,0.461215,0.830366,-0.639651,-0.0773749,-0.801467,-0.324335,1.09742,-0.532643,-0.875118,-0.027,-0.046,0.889165,0.814791,0.66821,0.117671,-0.809746,-0.517359,0.447522,0.495446,-0.912536,-0.827395,0.0565698,-0.0244613,-0.045469,0.917328,-0.247279,-0.651424,0.861704,-0.70631,0.0364277,-0.437521,0.860598,0.269295,0.090016,-0.298977,0.306326,-0.0440754,-0.542409,0.695,-0.355355,0.386411,-0.411161,-0.452762,-0.19558,0.701222,-0.0582378,-0.30142,-0.913997,-0.723358,0.553625,-0.853971,-0.213345,-0.34131,0.119662,0.445313,-0.463882,0.161056,0.492402,0.687233,0.357134,-0.58828,-0.115576,0.177412,0.511912,0.112732,0.0384251,-0.653,0.651539,-0.0322639,-1.10173,-0.865118,-0.715132,-0.975702,-0.781843,-0.36254,0.265391,-0.0316839,-0.279157,0.591088,-1.08238,0.0584707,0.835361,-0.40287,0.560774,-0.381239,-0.956329,0.757578,0.513,0.179447,0.811393,-0.266875,0.543492,0.972086,0.084,-0.481,-0.355171,0.553294,-0.425626,-1.05868,-0.667631,-0.861433,-1.13044,-0.535914,-1.15449,-0.942851,0.0931482,0.583418,-1.09627,-0.300207,0.806758,0.820991,0.79486,0.54848,-0.83673,0.0969783,0.889914,0.616796,-0.00280209,0.184561,-0.0981814,-0.723595,0.096,0.781,-0.772236,-0.976976,-1.02143,-0.97515,0.365801,-0.776686,-0.648898,-1.11634,0.0245975,-0.717032,-0.352738,0.231193,-0.0891164,-0.612402,0.373355,-0.208328,0.629876,0.119362,-0.209139,0.233385,-0.656626,-0.82075,0.773183,0.886911,0.988183,-0.274315,-0.363001,-0.906,-0.46962,0.63591,0.670995,-0.920158,0.126112,0.375128,-0.564862,-0.41439,-0.743986,-0.0472845,-0.0753832,0.0326303,0.437039,0.425402,-0.251484,-0.284576,-0.828181,0.75731,-0.0438744,0.140356,1.21706,0.186063,0.866824,1.14223,0.425764,0.412612,0.412,-0.138095,0.65411,0.618614,-0.105514,-0.984836,-0.285521,-0.803525,-0.818578,0.546313,-1.22066,0.0181906,-0.315567,-0.410241,-0.537899,0.376069,0.438328,0.581362,-0.150161,0.876476,0.444538,-0.564913,0.233474,-0.325972,0.767838,0.183319,0.815697,0.153187,-0.545488,-0.921067,-0.942223,0.467574,-0.445343,0.63272,-0.531515,-0.17285,0.571326,-0.378126,0.0501349,0.890467,0.101706,0.310232,0.386605,0.298035,0.170607,0.110526,-0.46288,-0.756033,-1.03651,0.0523022,-0.935098,0.954292,0.949924,0.805337,-0.289986,-0.296092,0.89791,0.336717,0.346969,0.880872,0.0674963,0.388048,0.271549,0.373436,-0.419743,0.369214,-0.476348,-0.619325,-0.237335,0.559038,-0.841596,0.428475,-0.512337,-0.181664,-0.791225,0.523622,0.500673,-0.456051,-0.798058,1.01825,1.16191,-0.0304227,1.14477,0.0179356,0.103996,0.736996,0.675937,-0.449897,-0.185579,0.207176,-0.840307,0.702322,-0.466055,0.0428626,-0.114148,0.498255,-0.450578,-0.292509,-0.0371939,-0.0408921,-0.865547,0.0318828,0.928603,-0.867576,-1.03877,-0.686411,0.443493,0.485731,-0.0393998,1.31637,0.549263,-0.671238,0.623997,-0.314994,-0.133594,-0.630442,-0.155132,-0.0305111,-0.353401,-0.323367,0.558753,-0.576348,-0.671906,0.84357,0.365849,-0.6671,-0.615674,0.821775,0.169403,0.42954,-0.583089,-0.0171205,1.09265,-0.74536,-0.0565403,0.776992,-0.495313,-0.197643,0.0670143,-0.884085,0.66,-0.814,0.964926,-0.136615,-0.26347,0.123086,0.101406,-0.795039,0.196857,0.314394,0.0105325,-0.356104,0.405652,-0.411482,0.662435,-0.16504,0.194706,-0.710812,-0.681598,-0.494096,0.335211,-0.5027,0.025082,0.244433,-0.571288,0.730905,-0.262857,0.651128,0.787,0.503,0.740727,-0.0648589,0.208504,0.664942,0.645721,0.032462,-0.535147,-0.133643,0.603243,0.653611,-0.975693,-0.429468,-0.773132,0.66226,0.465895,0.573125,0.983644,-0.707851,0.96378,-0.85601,0.882806,-0.0518039,-0.436078,-0.415639,0.633036,-0.523248,0.857,-0.835972,-0.893156,0.106478,0.104815,0.390979,-0.75505,-0.957398,0.211869,0.598834,0.273081,0.439856,-0.820195,-0.541828,0.0373248,-0.756631,0.091063,-0.338415,0.242608,-0.901186,-0.636236,0.189844,0.653618,0.651084,0.388162,0.862773,-0.706907,0.291717,-0.817,0.319145,0.753035,-1.04393,0.358454,0.446524,-0.0572715,-0.605589,-0.547125,-0.515166,0.769081,0.558952,-0.837447,-0.295791,-0.443781,-0.667518,0.0850687,-0.122709,-1.08027,0.753785,0.697209,0.189835,0.657308,0.500009,-0.872296,0.803138,-0.0308981,0.400621,-0.029,-0.323919,-0.310703,0.0935273,0.851182,-1.03145,-0.22338,0.021115,-0.139092,0.423981,0.209201,0.364377,0.629333,-0.287419,-0.398225,0.868855,0.45182,0.0716595,-0.88128,-0.944149,-0.954797,-1.01337,0.607314,0.239037,0.00485082,0.788456,-0.39849,0.0576573,-0.074,0.0191449,-0.992527,0.856099,0.610683,-0.755538,-0.376734,0.592489,0.746896,-0.0657858,-0.195877,-0.057538,-0.924081,0.613834,0.810963,0.752128,-0.584377,0.99082,0.530529,0.21245,-0.0542519,0.0187088,0.0710722,-0.492329,-0.16282,-0.325872,0.53544,0.797131,-0.674,0.629085,-0.592366,-0.202342,-0.346444,-0.515302,-0.687792,-0.650459,-0.278875,-0.484518,0.717627,-0.812432,0.422627,-0.623737,-0.555111,0.398238,0.516805,-0.723086,-0.381834,0.307732,-0.898635,0.592164,-0.539631,-0.364824,-0.199771,0.310471,-0.201822,0.61863,0.945,-0.681999,-0.0278303,0.830744,0.951597,0.388373,-0.802047,-0.848896,0.364828,-0.974309,-0.4973,0.614165,-0.5423,-0.908069,0.663923,0.350392,0.961802,-0.91603,-0.741786,0.393226,0.850442,-0.151969,-0.314442,0.531959,-0.501915,-0.245273,0.740645,0.293001,0.624,-0.461,-0.532,0.125,-0.584741,-9.63816e-05,-0.0453001,0.918544,-0.619125,-0.294378,-0.92602,0.300075,-0.281,-0.881989,-0.100868,0.162132,0.756132,-0.889968,-0.496,0.706,-0.808,-0.236,-0.344167,0.601067,0.176,-0.086,0.133,0.675,0.225,-0.572,-0.476,-0.595,-0.0319999,-0.451112,0.530496,-0.0608783,0.546861,-0.959554,-0.141657,0.926816,-0.255185,-0.0732767,0.225991,0.465582,-0.396489,0.682962,-0.817077,-0.643286,0.792455,-0.756255,0.618902,0.541954,-0.435,0.841,0.143,0.742,-0.246,0.833,-0.0270107,0.536989,-0.740367,0.49785,0.942674,-0.214346,-0.955754,0.0255957,0.728231,0.147102,0.0664252,-0.419827,0.076991,0.37492,0.0710244,0.85723,-0.609335,0.670183,0.0938337,-0.424463,-0.972704,-0.112822,-0.624543,0.642652,0.985398,-0.0574427,0.486997,-0.312,-0.758929,0.804862,-0.466864,-0.18275,-0.0680833,-0.64585,0.807872,-0.635182,0.11901,0.837778,0.34994,-0.206985,-0.464455,-0.982022,-0.0517146,0.600061,0.373657,-0.981375,0.0384133,0.795939,0.74675,0.742239,0.960543,0.724644,-0.836791,-0.678353,-0.0426633,-0.841,-0.17798,-0.978934,-0.0871765,-0.252641,0.471912,-0.024818,0.375009,0.785753,0.230089,0.162286,-0.928816,-0.785022,-0.523439,-0.016015,-0.39319,0.0507892,0.106005,0.703412,-0.62826,-0.378727,0.832463,-0.00369326,-0.592856,0.0975494,-0.221328,-0.604823,-0.561703,-0.053,-0.72838,0.435649,-0.240755,0.242464,0.112544,0.589921,0.223569,0.808643,-0.605696,-0.400495,0.494768,-0.00106549,0.615395,0.584562,0.364304,-0.679137,-0.0678209,-1.04337,0.294363,-0.727661,0.725187,0.57934,-0.671706,0.58846,-0.214635,-0.535408,-0.244134,0.546,-0.587062,-0.201823,-0.821676,-0.12875,-0.646091,-0.213082,0.283955,-0.446845,-0.881357,-0.50012,-0.670599,-1.03875,0.0528279,-0.912885,0.361545,-0.387258,0.574069,-0.29377,-0.140814,-0.279472,-0.386596,-1.09891,-0.617617,-0.987619,0.807918,-0.472361,0.211019,-0.896,-0.0109149,0.580768,0.327872,0.596278,-0.526179,0.328198,0.577903,-0.7142,0.782756,-0.219836,-0.600307,0.546965,0.0189363,0.154439,0.473147,-0.667154,0.300974,-0.519769,-0.41368,-0.509187,0.171017,0.387311,0.230283,0.494128,0.541314,0.339808,0.509,-0.178,0.856143,-0.229476,-0.000956203,-0.0248642,0.915995,-0.834826,0.736618,-1.07058,0.185603,0.274392,-1.15456,-0.226628,-0.586372,-0.281078,-0.773326,0.504839,0.669762,0.436468,0.287934,-0.196466,-0.575974,-0.720337,0.4702,0.259461,0.29469,-0.765396,-0.395,-0.345,0.121735,0.712693,0.105748,0.0828229,0.958955,0.893623,0.239193,0.561584,0.449079,-0.00361584,0.632594,-0.485836,-0.382717,0.849198,0.534729,-0.357862,-0.562932,0.518308,0.675412,-0.816428,0.300018,0.0123772,-0.500559,0.509023,-0.333115,0.366025,-0.501704,0.721,0.592541,-0.265313,1.08432,-0.167992,0.881772,-0.138145,0.127301,0.657642,-0.69092,-0.567684,-0.0115391,-0.925102,0.331193,-0.0206722,-0.110481,0.697739,-0.658562,0.62614,-0.916509,-0.285185,0.367284,0.597435,-0.375365,-0.728547,-0.664488,-0.496491,0.0941963,-0.614,0.862164,0.212371,-0.724915,0.570042,0.810884,-0.9682,0.722158,0.157306,-0.598433,-0.18875,-0.051715,-0.0934932,0.0460144,0.788545,-0.126935,-0.291743,-0.645926,-0.0823297,-1.0168,-0.241388,-0.492411,0.822137,0.149576,0.450012,0.239785,0.306798,0.218,0.124,0.396652,-0.612502,0.648806,0.325536,0.532912,0.712057,-0.160214,-0.0926657,0.29527,0.96794,-0.976689,0.707591,-0.140592,-0.254205,-0.496613,0.727311,-0.507764,0.0284101,-0.959802,-0.306448,-0.833261,-0.716155,-0.0504016,-0.533126,-0.931607,0.800525,0.603,-0.039,-0.287848,-0.128723,-0.822655,-0.812524,-0.222137,0.25726,0.504839,0.865098,-0.0572706,0.710318,-0.833523,0.557157,0.562129,-0.740995,0.0954469,-0.70004,-0.487755,0.159148,0.567722,-0.172827,-0.635611,0.4361,0.176817,-0.905879,0.35771,-0.687727,-0.815006,0.002,-0.851664,0.7849,0.990845,-0.0725037,-0.812993,0.698623,0.123375,-0.46668,-0.0672531,-0.491249,-0.695739,0.174768,0.602254,-0.508798,-0.0654311,0.272762,0.990494,-0.145384,-0.596526,-0.765494,-0.754141,0.85264,-0.206022,-0.719064,0.495068,-0.850532,0.865,-0.249967,-0.533902,-0.947178,0.76048,-0.83886,0.296691,0.298133,-0.278382,0.676503,-0.378277,0.697522,0.681423,0.305918,0.56769,0.941372,1.11162,-0.0907857,0.36994,-1.25629,0.0514031,0.156341,-0.103386,0.378846,0.162923,0.34223,0.493121,-0.871249,0.124168,-0.557409,0.834932,-0.0310895,0.100207,0.71799,-0.13234,-0.516125,-0.86399,1.07473,0.363069,-0.356835,0.651797,0.957955,0.90236,-0.0983523,-0.30432,-0.393696,-0.844652,-0.961934,0.0481117,0.0914276,0.746929,-0.921415,-0.896727,-0.0101163,0.792372,-0.00652074,0.833031,-0.256502,0.113715,-0.0793385,0.0971408,-0.678806,0.345844,0.950386,-0.561606,-0.461633,0.929609,1.00325,-0.231326,0.653301,-0.548333,0.985884,-0.135727,0.712758,-0.881779,-0.613264,-1.00176,-0.941175,-0.454074,0.00117947,-0.115158,-0.444063,-0.122827,0.11974,-0.0349789,-0.481499,0.659064,-0.227825,0.245941,-0.272672,0.301204,-0.915508,-0.153742,-0.26798,0.929129,0.277533,0.0598096,1.18705,0.0209185,0.352989,0.0711056,-0.244941,-1.02007,-0.345811,0.659857,-1.04746,0.629636,0.56999,0.678102,-0.645517,-0.234596,-0.32122,-0.254,0.0760606,0.348987,0.250568,0.598847,0.0713544,-0.866637,-0.507068,0.271598,-0.22852,-0.692018,-0.903943,0.293847,1.05568,0.214006,-0.434337,1.19411,0.211361,-0.350242,-1.07143,0.537053,-0.207395,0.0210584,0.194173,0.0578876,-0.0481396,-0.0872098,-0.263867,-0.314,0.195,0.4075,0.0118696,-0.675277,-0.679718,-0.688982,0.429944,0.124321,0.502542,0.0532434,-0.9515,-0.241537,0.885624,-0.347773,0.986266,0.599548,0.0609786,0.901929,-0.473886,0.79354,-0.970991,-0.356582,0.178329,0.14133,0.526316,-0.489731,-0.799125,0.966,0.033,-0.502881,-0.334768,0.796011,0.440019,0.173492,-1.01671,0.516773,0.0730723,-0.309282,-0.527117,0.207767,-0.57986,0.0353965,0.9333,1.10931,0.204475,0.578647,0.146322,0.315213,-0.272703,0.141494,0.195303,-0.0539946,-1.02439,-0.485162,-0.761836,0.623,-0.291996,-0.992958,0.174221,0.754983,-1.00127,0.693695,-0.0431187,0.357208,-0.248099,-0.5449,-0.340228,-1.19972,0.635806,0.616508,0.592433,1.16346,-0.460503,0.0119336,0.310297,-0.388951,0.95593,0.608927,0.735575,-0.308137,-0.245212,-0.471924,0.399542,-0.031,-0.204981,0.656303,-0.751213,0.682131,0.23759,0.284076,-0.243209,0.197554,-0.43285,0.716992,-0.833262,-0.00330966,-0.577899,0.231701,0.360875,1.25291,-0.159766,-0.538671,0.768588,-0.896446,-0.753772,-0.444215,-0.588179,-0.902734,-0.857779,0.7796,-0.427351,0.176,-0.490401,0.984498,0.789254,0.0688143,0.349859,0.506274,0.963187,0.981678,-0.744757,-0.368386,-0.331796,-0.227648,-0.933732,0.155224,0.737866,-0.466906,-0.271271,0.100126,0.857182,-0.0720626,-0.500225,-0.242404,-0.695677,-0.361835,-0.0397769,-0.535618,-0.46798,-0.137,-0.639713,-0.33194,-0.917499,-0.466735,-0.608828,0.487763,0.492721,0.118919,-0.676048,0.15005,-0.215924,-0.598893,0.444354,0.752965,0.491669,0.325518,0.0764102,-0.210062,0.156978,0.0148041,0.069449,-0.272522,0.279617,0.480291,0.129556,0.821434,0.884169,-0.79,-0.673417,-0.581603,0.0841133,-0.287865,-0.258573,-0.171532,-0.149553,-0.0155925,1.01145,0.484082,0.753464,-0.800053,-0.260045,-0.232319,-0.20932,0.829013,-0.911162,0.801839,-0.401071,-0.426992,0.956643,0.602041,0.455105,-0.0472916,0.914246,-0.11715,-0.876326,0.127,-0.719003,-0.991493,0.337276,-0.396189,0.993049,0.989503,-0.125634,-0.363083,-0.360426,0.518747,0.474717,-0.394674,-0.398559,-0.150069,-0.605343,-0.106758,0.151927,-0.290503,-0.324906,0.194644,1.00252,-0.224447,0.727107,0.933924,-0.616708,-0.213779,-0.50908,0.889,0.239,-0.384,-0.428,0.520793,-0.375602,0.466366,-0.872055,-0.834015,0.435032,-0.461068,-0.649049,-0.928,0.622,0.831007,-0.764994,-0.776,-0.763,-0.812991,0.116,0.387,-0.108,0.344647,-0.423002,-0.552,-0.879,0.864,0.942,-0.936,-0.349,-0.567,0.953,0.890005,0.0496081,-0.474595,0.411466,0.232602,0.550118,0.0969591,0.39809,-0.0167157,0.635322,0.749065,0.0560741,-0.187091,0.13759,0.29359,0.0400078,0.374821,0.477526,-0.847288,-0.682933,0.926997,0.0559986,-0.105,0.932,0.177,-0.685,0.873978,0.240599,-0.0327478,0.866303,-0.244688,-0.588627,-0.0857246,-0.156634,0.391337,0.705593,-0.614802,-0.959889,-0.338401,0.369981,0.233837,0.974098,0.986074,-0.955356,-0.333194,0.275916,0.073292,-0.964987,-0.696669,-0.218952,-0.655742,0.785046,0.841,-0.202,0.716624,-0.426461,0.12664,0.168905,0.412136,0.668339,0.0650072,-0.789185,0.669707,0.52356,0.0119135,0.0483812,-0.206339,-0.0491579,0.0986705,0.470787,0.866614,0.837429,0.399634,0.838567,0.890873,-0.925796,-0.357171,-0.535201,0.596673,-0.535544,-0.193,0.499,-0.751472,-0.794501,0.863475,0.542048,-0.178938,-0.463165,-0.724718,-0.786625,-0.795565,-0.147172,0.919325,0.875249,0.93733,-0.536556,-0.529847,-0.288596,0.330142,-0.0893946,0.951559,0.0560948,-0.285856,-0.096422,-0.609541,-0.951865,-0.578832,-0.0198538,-0.467,0.588,0.44385,0.336956,-0.371501,0.235982,0.0875042,-0.543752,-0.248224,0.862958,0.0089787,0.00462284,0.65278,-0.167765,0.458295,0.540693,-0.770906,0.33862,0.391308,-0.620439,0.728183,-0.440464,0.265154,0.262242,0.146826,0.492753,0.694878,0.495796,0.552,-0.883,-0.970132,0.643856,0.232655,0.432636,-0.506145,0.834155,-0.333625,0.603649,-0.618393,0.0473429,0.0957448,-0.0253142,0.61012,-0.7248,0.376951,0.0543101,0.214296,0.324079,-0.863523,-0.460784,0.314624,0.891345,-0.377792,-0.868226,0.174574,0.704909,0.552,-0.187,-0.25015,-0.33565,-0.535646,-0.263339,-0.722934,0.701544,-0.764703,-0.151787,0.220412,-0.456983,-0.968311,0.572462,0.581281,0.151283,-0.784513,0.269204,0.376585,0.47639,0.802622,-0.341041,-0.557464,0.911778,0.102895,0.69022,0.797311,0.154346,0.652,-0.591,-0.151273,0.214403,-0.226009,0.143246,0.440165,-0.1541,0.953141,0.730548,-0.851206,0.755828,-0.494237,0.281128,0.813737,-0.360196,-0.379911,0.545655,0.32552,-0.2631,-0.653046,-0.183625,0.772318,0.991822,-0.186091,1.09727,0.400531,0.264156,0.104,-0.412,-0.599954,-0.241123,0.0183893,-0.14291,0.600128,0.419517,1.052,0.0398948,-0.726803,1.02811,-0.698161,0.833197,0.161655,-0.216778,0.219706,0.12133,0.0193703,0.874428,-0.684851,1.00033,1.0197,0.86031,1.05223,0.715552,0.389535,-0.368731,0.0730721,-0.418,0.429818,0.732674,-0.256138,0.484057,-0.359263,0.874217,-0.630185,0.765144,-0.142738,-0.569826,-0.76863,-0.641859,0.608766,-0.804969,-0.920838,-0.637434,-0.346908,0.538075,0.250477,0.253554,0.0870767,0.0961263,-0.0270291,-0.305053,-0.419441,-0.18293,0.624013,0.712,-0.0259123,-0.769078,0.849052,-0.49866,1.13375,-0.2619,1.01258,-0.728532,1.19366,0.88483,0.859342,-0.850368,0.722486,0.564307,-0.783457,-0.215439,0.883942,-0.356645,0.0122121,-0.850045,0.411742,0.865389,0.281153,-0.775502,0.0845781,-0.957393,-0.435,-0.044,-0.167497,-0.828238,-0.776419,0.432196,-0.457931,0.745489,0.941474,-0.367843,1.04496,0.429914,-0.279974,0.76207,-0.319948,0.522782,0.504424,0.869266,-0.191888,0.638182,-0.560937,-0.76161,0.533138,0.16482,-0.595674,0.236462,0.251555,0.531577,0.156,0.684,0.559353,0.264409,-0.379523,0.938845,0.0458276,-0.515414,0.427065,0.645928,-0.684486,-0.0956155,0.676594,0.902127,0.744879,0.414662,-0.0721556,-1.02234,-0.338178,-0.358556,0.391854,0.246041,0.522989,0.706415,0.714273,0.513497,-0.192879,-0.898834,-0.454,0.512,0.631548,0.241174,0.154141,-0.280976,-0.449779,0.442836,-0.208274,0.301391,1.02706,-0.786189,-0.29524,0.389656,-0.415716,0.585108,0.266444,1.03736,-0.302958,-0.768492,0.367692,-0.005982,-0.884349,-0.169479,-0.777386,-0.748435,-0.428389,-0.973608,0.223,0.350997,0.691648,0.7521,-0.187765,-0.141396,-0.402331,0.672966,0.723778,-0.135493,-0.241684,-0.476356,0.9069,0.891991,0.81516,0.975524,0.421198,-0.855478,0.19525,-0.812293,0.439856,0.465204,-0.886446,-0.0717282,-0.560549,-0.670866,0.732625,-0.1771,-0.404016,-0.689997,-0.594574,0.803877,0.626585,0.639159,0.180651,-0.812261,-0.344291,0.44705,0.430465,-0.69231,1.04571,0.792473,1.01713,0.380307,0.784942,0.409417,0.253613,-0.35486,0.351144,-0.807768,-0.360148,-0.512107,0.541475,-0.336687,0.741956,0.71691,0.084997,0.495077,-0.909438,0.24007,0.353206,-0.963215,-0.352703,0.0832266,0.769642,0.829715,-0.227409,-0.68115,0.0801028,0.895401,0.948452,-0.406953,0.247424,0.801308,0.810828,-0.426649,0.262786,-0.385394,-0.301642,-0.78636,-0.505757,0.509717,-0.0241601,-0.777472,-0.719952,-0.70892,0.928907,-0.0705643,0.340929,0.543542,-0.83702,-0.270881,0.67391,-0.110737,0.420582,0.405714,-0.916959,0.469433,0.0728608,-0.39007,-0.166904,-0.117623,0.218784,-0.746648,-0.130965,-0.415553,-0.749044,0.623385,0.23676,0.0910551,0.729436,0.990752,-0.702785,-0.704948,0.767505,-0.409672,-0.417676,0.208143,0.0177819,0.919011,-0.117585,0.351622,-0.651185,-0.479244,0.945741,0.359133,0.145241,0.4234,-0.678637,-0.725443,-0.694713,0.499707,0.335974,0.471863,0.649099,0.820148,-0.818503,0.65485,0.312785,0.212755,-0.12,0.077,0.201085,0.168024,0.335614,-0.520965,0.284625,0.572967,0.884651,-0.466212,0.149363,-0.79802,0.0871158,0.0310729,-0.646558,-0.578485,-1.02739,0.275508,-0.704537,-0.282563,0.781121,-0.368957,-0.744948,0.302806,0.762528,0.576596,-0.199796,0.599317,0.28,-0.883,-0.191186,0.692841,0.121455,0.526639,-0.594901,-0.837429,-0.799872,0.426143,0.712225,0.422455,0.183596,-0.494317,0.326406,-0.871696,0.58177,0.479424,-0.466574,0.542773,0.115602,0.00769436,-0.561386,0.0507837,0.166208,-0.820522,0.870019,-0.0701806,0.301,-0.354,-0.466402,-0.425618,-0.330668,0.228863,0.717856,0.416162,-0.535622,-0.695089,0.573283,-0.57075,0.465396,0.0851794,0.373172,-0.342769,0.650347,-0.106696,-0.280151,0.258634,-0.603639,0.534632,0.0194243,0.560022,-0.579083,-0.163169,-0.928441,0.547503,-0.027,0.895,-0.958507,0.842401,-0.563286,-0.629812,0.717801,-0.352934,0.319319,0.679546,-0.801992,0.688058,0.418469,-1.20893,-1.11803,0.160542,-0.31649,0.477337,0.683201,-0.252168,-0.675653,-0.825154,0.678486,-0.330699,0.571739,-0.487888,-0.884904,0.481546,-0.16,-0.859,-0.412579,0.374907,0.523762,-0.520226,0.00617485,0.477685,-0.477746,-0.0999146,-0.739723,-1.08153,-0.253318,-0.694546,-0.958804,-0.811662,-0.97692,0.767738,0.105902,-0.107123,0.387497,-0.153665,0.232832,0.229608,-0.049245,-0.211666,0.801615,0.992051,-0.191,0.455,0.477412,0.242097,0.176738,-0.964342,-0.505146,-0.412165,-0.97983,0.534648,0.77541,-0.190547,-0.596321,-0.497988,0.191742,0.122638,-0.336152,-0.0420095,0.333903,-0.792691,-0.369939,-0.644113,0.0886413,0.580244,-0.257666,0.800104,-0.265269,0.183125,-0.871,-0.913,0.176712,-0.481429,0.565141,-0.336612,0.687495,-0.335706,-0.797671,-0.800992,-0.0598073,-0.543117,0.58721,-0.434475,0.518176,-0.826595,-0.288857,-0.298098,-0.231435,0.252582,0.0844122,0.997829,0.421913,0.714935,0.893453,-0.982923,-0.186334,-0.382707,0.823,0.546,0.800203,0.510507,0.637476,-0.027542,-0.992388,-0.261298,0.178549,0.703735,-0.0189421,0.437416,0.539493,0.54297,0.494634,0.155097,-0.912075,-0.0416346,-0.17079,-0.265618,0.157843,0.534556,0.957899,-0.770464,0.074108,-0.0826946,0.489356,-0.0319857,-0.06,0.858,0.142,-0.68,0.403174,-0.0589863,0.829066,-0.40699,0.471362,0.833054,0.326739,-0.792961,0.096,0.866009,0.204104,-0.363896,0.404112,-0.306973,0.346018,0.489,0.207,0.724,-0.780023,-0.638,-0.186,0.734,-0.853,0.888,-0.349,0.193,-0.588,0.149,0.051,0.554004,0.469052,-0.989721,-0.948091,-0.146312,-0.396852,0.525492,-0.755997,0.485011,0.732157,0.339826,0.349678,-0.0651767,0.532949,-0.246996,0.186007,-0.121868,0.800098,-0.608,-0.399,-0.981,-0.246,-0.027,0.311,-0.542,-0.139991,0.962155,0.20787,-0.170336,-0.333094,-0.739982,-0.616322,-0.8679,0.83403,-0.558508,-0.00874557,0.986676,0.518803,0.233051,0.470796,0.248134,-0.86359,-0.617354,0.744452,0.669263,-0.308258,-0.0732198,-0.455686,-0.511077,0.318317,-0.300952,-0.936,0.629,0.229549,0.377651,0.643264,-0.91939,-0.120456,-0.592604,-0.0759459,0.559096,-0.761376,-0.121605,0.713471,-0.947786,-0.160362,-0.773557,-0.983091,-0.638685,0.0438394,0.0736937,0.624466,0.170477,0.45481,-0.0808356,-0.606088,-0.863807,0.401926,-0.51845,-0.379965,-0.727,-0.260929,-0.309677,0.461303,0.959471,-0.955296,-0.337872,-0.935763,-0.488143,0.108974,-0.438023,-0.912611,0.297239,-0.0668203,0.294759,0.298986,0.767603,0.587004,0.414528,-0.818705,-0.848656,-0.582144,0.279048,-0.187411,0.404764,0.808422,0.262735,0.580026,0.211,0.745417,0.762494,0.486632,-0.527801,-0.570337,-0.491845,-0.523775,-0.927987,0.205497,-0.875837,-0.41083,-0.760292,-0.839525,-0.809266,0.492817,0.0778168,0.526273,-0.587162,-0.592143,0.0138285,0.251739,-0.506721,-0.321456,0.280854,0.512409,0.687894,-0.191,0.332,-0.0541673,-0.615347,-0.917044,-0.348056,0.653272,0.11294,0.1628,-0.867013,0.648103,0.189047,0.75496,-0.18961,0.275191,0.939744,-0.408027,-0.0682037,-0.939899,0.603774,-1.06866,0.465652,-1.04234,-1.07024,-0.863037,0.357921,-0.345219,0.0540441,-0.198389,0.739,-0.268352,0.150201,-0.426239,0.588644,0.0251008,-0.319722,0.902978,-0.186512,0.878425,-0.35122,-0.490439,0.0795852,0.862187,-0.673986,0.869765,-0.45699,0.627109,-1.11542,0.38049,0.642115,0.539043,-0.0187514,-0.178199,0.669291,0.161314,0.208931,-0.248,0.395,0.806777,0.0898936,0.0513056,-1.02973,-0.789281,0.750689,0.316468,0.425241,-0.919884,0.26363,-0.757567,0.921879,0.424259,-0.321193,-0.55523,0.110812,-0.586672,0.749802,0.210762,-0.865334,0.856822,-0.163507,0.526511,0.549558,0.631562,-0.400957,-0.065,-0.176,0.347908,0.660089,-0.860207,0.0394962,-0.706613,-0.114103,0.222766,-0.369835,-0.766234,-0.856503,0.620486,-0.715037,0.330108,0.259478,0.627072,-0.739537,0.555304,-0.862356,0.513247,-0.826324,-0.818663,-0.444566,-1.00432,-0.864329,0.110055,0.70526,0.357982,-0.226,0.857503,-0.713531,0.541755,0.1244,0.492678,0.36466,0.908319,0.881823,-0.727278,-0.263939,-0.861851,-0.891997,-0.202056,0.587009,-0.757352,0.777479,0.122892,-0.867864,-0.772008,-0.219638,0.884577,0.312323,-0.540985,-0.907297,0.949099,-0.415566,0.84491,-0.369,0.861618,0.193001,0.351819,0.642515,0.000967936,-0.437276,-0.551086,-0.445353,0.489307,0.997716,-0.890793,0.407002,-0.343219,-0.91967,0.398568,0.189003,0.562072,0.893357,-0.046178,-0.924206,0.323209,-0.52229,-0.357958,0.210514,0.88252,-0.18616,0.37,0.397,-0.0422305,0.204524,-1.03918,-0.761879,0.87953,-0.0470982,0.618083,0.019743,0.620459,-0.799345,0.237463,-0.335064,-0.857021,0.282888,1.0447,-0.579981,0.0103192,0.366236,0.318986,-0.74437,-0.449056,0.661558,-0.762072,0.9671,-0.75716,-0.436373,0.24,-0.839,-0.0668336,-0.844055,0.0220704,0.707862,-0.177196,0.0692348,0.821326,-0.0329467,-0.761681,0.549189,0.988062,0.336376,0.287852,0.276326,0.947369,0.235559,-0.658002,0.290671,-0.103636,-0.294898,-0.404157,-0.741559,-0.43243,-0.199764,0.531708,-0.585485,-0.186998,0.846,-0.00851582,0.604076,0.476832,0.311316,0.246204,-0.358676,-0.0202736,-0.640181,0.480274,-0.151183,0.274398,0.661481,-0.633324,0.219287,-0.661929,0.305632,-0.792377,0.623404,-1.05668,-0.972524,-0.06066,-0.0871202,-0.625196,0.200013,-0.206954,-0.0169893,-0.945,0.965046,0.414666,-0.565964,0.770448,0.845834,0.534751,0.380269,0.520937,0.0510853,0.717682,-0.584115,0.232497,0.0541329,-0.315247,-0.625972,-0.520004,-0.170596,0.0334332,-0.772147,0.526282,-0.276238,-1.08492,0.11056,-0.577861,-0.419108,0.716186,-0.13155,0.841238,-0.411722,0.861155,0.509509,-0.432497,0.206419,0.344039,0.900145,-0.167277,0.123124,-0.036065,-0.728143,0.981889,-0.536223,-0.901693,-0.292958,0.435908,-0.234228,0.0618264,0.338196,-0.0602917,0.569342,0.2858,-0.780599,-0.522677,0.382728,0.501997,-0.00115781,0.606044,0.299068,0.881462,0.478754,0.439492,0.223956,-0.625528,0.489838,-0.869259,0.994693,0.629051,0.0341179,-0.435136,-0.637534,-0.340756,-0.543893,-0.653112,-0.227447,-0.28752,0.217751,-0.0745473,0.713359,-0.241584,0.659396,0.0502746,-0.816445,-0.989291,0.583534,0.197008,0.567991,-0.851326,-0.197697,-0.167214,-1.04742,0.741259,-0.702222,-0.0602394,0.91574,0.969907,0.0647909,0.743776,-0.122975,0.867741,-0.813623,-0.246268,-0.897744,-0.810345,0.0241562,-0.252549,-0.128406,-0.55757,0.437055,-0.775485,-0.214999,0.139408,0.285226,-0.434971,-0.286098,-0.578237,0.753777,-0.763231,-0.503449,-0.891832,-0.267775,-0.797311,0.554706,-0.32904,0.0958966,0.323167,0.971152,-0.991881,-0.00286866,-0.115574,0.480636,-0.244015,0.585711,0.475994,-0.47893,-0.645288,0.954223,-0.0970041,-0.727125,0.361561,0.153895,0.097,-0.967,0.986733,0.663737,-0.301301,-0.64713,-0.0554696,-0.415599,-0.430825,-0.290668,0.359957,-0.234362,-0.850435,0.855318,0.749644,0.472923,0.902941,0.373703,-0.974726,-0.705066,-0.16342,-0.567107,0.595521,0.907488,-0.198729,0.389709,0.794197,0.719456,0.661,-0.324,-0.57178,-0.672644,-0.769296,-0.62666,0.510914,0.010017,-0.619339,-0.905621,0.200793,-0.0364278,-0.257017,-0.961919,0.241966,-0.0909828,0.924967,-0.430873,0.911929,0.32053,0.929881,0.981456,0.218053,-0.315602,-0.763345,-0.773015,-0.531409,-0.457815,0.544,0.79634,-0.747026,0.181502,-0.530008,-0.753262,0.101383,-0.223672,-0.78496,-0.397933,0.311783,-0.402337,-0.306536,-0.958771,0.12591,0.460105,-0.926752,0.885768,0.857396,0.48491,-0.55466,0.786176,-0.638938,-0.716876,0.180511,0.421094,-0.643784,-0.131887,0.587,-0.606389,0.407476,-0.332323,-0.825249,0.214164,0.920138,-0.70091,0.51218,-0.461192,-0.460601,0.683029,0.133105,0.381044,0.838564,0.799609,0.398041,-0.560116,-0.235422,0.0227794,-0.61494,-0.7766,-0.481126,-0.2206,0.901531,-0.70761,-0.544441,-0.465604,0.696,-0.148979,0.405978,-0.183667,-0.22595,-0.217029,0.522264,0.0402069,-0.90649,-0.00408818,-0.201848,0.0454159,0.45272,-0.207764,-0.315118,-0.876566,-0.805428,-0.935344,0.49747,0.181576,-0.402635,0.917233,0.806788,-0.0422852,-0.953797,-0.800378,0.173793,0.441618,-0.51,0.656038,0.976224,0.714477,-0.971438,-0.0988828,-0.870864,-0.0959524,0.806489,0.26335,0.458949,0.346056,0.721906,-0.857282,-0.62084,-0.225183,-0.410399,-0.318658,-0.0650638,-0.619855,-0.182359,-0.879727,0.657952,-0.00657553,0.973348,-0.0815664,0.883072,-0.991101,0.128,-0.376978,0.449975,0.156854,0.814576,-0.0356216,-0.520413,0.941027,0.970162,-0.334241,-0.179053,0.255275,0.411158,0.742709,-0.410849,0.138342,0.50777,-0.425751,0.944003,-0.876723,-0.152169,-0.484849,-0.445154,0.250426,-0.393712,0.700061,-0.787963,-0.409335,-0.368,0.662,-0.400002,0.315149,-0.719097,0.606042,-0.948671,-0.875087,-0.842147,-0.467543,0.587559,-0.924119,-0.301376,0.90294,-0.123089,-0.909293,0.655557,0.479312,-0.200926,0.163186,0.618417,-0.242256,-0.150635,-0.523761,0.269103,0.384338,0.721226,0.438951,-0.352,0.939,-0.971,0.28,0.157,-0.813998,-0.84596,0.441931,0.353415,-0.796783,0.119267,0.500057,-0.716,-0.304979,0.133252,-0.0187475,-0.40374,0.565063,-0.370995,-0.752,0.041,0.427,-0.0301059,-0.785015,0.741,0.818,-0.753,-0.435,-0.242,0.526,-0.997,0.406,0.0219942,0.589482,-0.756718,-0.819997,0.333465,-0.602747,0.62013,-0.316953,-0.842923,-0.261923,0.741094,-0.559332,-0.010694,-0.568087,-0.0123068,0.593378,0.995128,0.165062,0.834888,-0.408004,-0.852005,-0.196002,-0.636,0.889,-0.822,-0.389,-0.988993,-0.0626146,-0.862831,-0.98379,-0.654183,-0.272482,0.176839,-0.839158,-0.0842728,-0.483794,-0.449978,-0.918586,-0.252349,-0.722395,-0.614071,-0.511938,-0.742679,0.368536,-0.531398,0.249278,-0.0369023,-0.521637,0.967221,-0.666302,-0.394918,-0.898922,-0.304,-0.031,0.54848,-0.126964,0.550525,0.526056,0.357707,0.313424,0.182667,0.759429,1.06257,-0.619068,0.942463,-0.0283523,-0.553431,1.08123,-0.391134,0.11818,0.763102,-0.128515,0.128283,-0.863588,-0.614414,0.68087,-0.178381,-0.291718,-0.994476,-0.243453,0.0689917,-0.368,-0.588432,0.756318,0.537587,0.859912,-0.901883,-0.311503,0.528296,0.574022,-0.976697,-0.33678,-0.152057,0.579764,-0.486167,-0.752297,0.956885,-0.233801,0.712659,-0.510915,0.418016,0.5296,0.479615,-0.36805,0.0537233,0.184249,-0.820188,0.882566,0.914733,0.738,-0.814982,-0.00897105,0.904129,-0.514036,-0.826572,-0.0126892,-0.915082,-1.00681,0.676075,0.49419,0.505709,0.298079,0.772009,-1.09992,-0.16477,0.850276,-0.746329,-0.0891159,-0.797931,0.438162,-0.0755565,0.659335,0.0756871,-0.445087,-0.528879,-0.853635,0.581837,-0.512,0.566895,0.524142,-0.748394,0.25082,-1.05045,0.634402,0.87545,-0.778696,-0.403867,-1.15873,0.862452,-0.437272,0.194726,0.114732,-1.0304,-0.378674,0.198598,-0.43101,-0.992192,-0.149958,-0.126069,-0.782578,-0.462231,-0.785106,0.770153,0.124271,0.982742,0.955,-0.197983,0.600368,-0.945384,-0.6271,-0.343757,0.827415,0.739111,-0.425242,0.354516,-0.0369848,-0.514644,-0.666794,-0.177433,-0.888706,-0.174689,0.295967,-0.0046857,-0.690477,0.462215,-0.696577,-0.490784,0.47253,-0.316798,0.141067,0.597347,-0.114775,0.12,0.119,0.984788,-0.312929,0.0947852,-0.203569,-0.68924,-0.21692,-0.132012,-0.533014,-0.501946,0.895507,-0.425875,0.932495,-0.412818,-0.478008,0.41811,-0.549049,-0.613462,-1.03039,-0.778325,0.998631,-0.799768,0.262267,0.528635,-0.407461,-0.28805,-0.77558,0.852,-0.823,0.0884168,-0.471894,0.275986,0.068975,0.18349,0.993703,0.550999,0.100289,-0.806148,0.587747,-0.255622,-0.702437,-0.18539,0.118818,0.623017,0.0175545,0.499994,0.561393,-0.794743,-0.806895,0.488018,-1.09236,0.317318,0.557917,0.584849,0.467136,-0.955997,0.816,0.24251,0.51474,1.01718,-0.681269,1.00722,-0.0851845,0.054757,-0.158479,-0.654258,-0.807643,0.0588919,-0.778512,0.297789,-1.03241,-0.530416,-0.233554,0.176239,-0.593348,-0.914283,0.144657,0.783839,0.672937,-0.0829382,0.151944,0.925531,-0.19494,-0.396998,0.054,0.835496,-0.203019,0.068909,0.168415,-0.913857,-0.576447,-0.0606217,-0.924879,0.183887,0.751173,-0.625715,0.270301,-0.629103,0.712649,0.709458,0.331938,0.18859,-0.916916,-0.746948,-0.229939,-0.744334,0.689625,0.138462,0.425774,0.549353,-0.611689,-0.576,0.026,-0.241778,0.210718,-0.628238,-0.792297,0.626103,-0.464079,0.21665,0.390521,-0.0564043,0.84476,0.404428,-0.271031,1.01383,0.667568,0.568804,0.365864,-0.5318,-0.400192,-0.00213739,1.18203,-0.621761,-0.49103,-0.834577,0.879543,-0.920925,0.229232,0.455,0.194,0.186464,0.62567,1.03661,0.999273,-0.450038,1.08188,-0.72811,0.880804,1.07093,0.173123,0.752998,0.64369,-0.0309748,1.34349,-0.143839,1.1659,0.00101183,0.765722,0.245209,0.722345,1.22726,0.804034,0.0553766,0.748688,0.449407,-0.193929,0.597,0.106,-0.94872,0.312423,-0.371977,0.427974,-0.194295,-0.553936,0.409615,-0.316355,0.633721,0.138027,1.41265,1.06395,0.422893,0.0330135,1.11008,0.259016,-0.431709,-0.215027,-0.0507912,0.586093,1.2526,0.803299,-0.482398,0.586086,-0.0457926,-0.0347282,0.134,-0.600002,0.785734,0.0344327,0.909525,1.17316,0.742292,0.766673,-0.162355,0.527469,0.0604933,0.465539,0.813744,-0.629823,1.05433,0.279209,0.167899,-0.324933,1.27423,0.147289,0.783804,1.1446,0.167996,-0.486209,0.0478044,-0.0982758,0.475312,-0.157467,0.695989,0.905988,0.378676,0.128286,1.24821,0.440389,0.933959,0.731246,-0.306116,-0.504394,-0.812022,-0.0110604,0.967614,-0.0629693,0.60333,0.0701638,-0.248986,0.654407,-0.408726,0.921558,0.760498,-0.748702,-0.319686,0.608093,0.779425,0.239232,0.291981,-0.829759,0.338998,-0.404,-0.425546,0.283681,-0.186286,1.09074,0.646742,-0.341047,0.184161,-0.462587,0.0764377,-0.209067,-0.0730035,0.0523215,0.352758,-0.855699,0.648684,0.067885,0.148764,-0.160042,-0.403661,0.579876,-0.245087,-0.452768,0.54591,-0.272389,0.407737,-0.612449,0.243002,-0.957603,-0.447783,-0.281216,-0.215027,0.0919525,0.278077,-0.0479208,0.155385,-0.846175,-0.576913,0.209789,-0.493809,0.320385,-1.01159,0.560485,-0.623379,0.402428,0.537962,-0.382447,-0.371321,0.149429,0.294936,0.1657,-0.752611,-0.0314399,-0.280064,0.0489059,0.481008,0.50098,0.425659,-0.677097,0.442915,0.710446,-0.605043,-0.689174,-0.287269,0.156365,-0.753242,-0.142429,0.16491,-0.00452927,-0.315953,1.00612,-0.901268,-0.331748,0.140891,-0.407242,0.874171,-0.0619678,-0.122019,-0.564978,0.221963,0.352579,0.407292,0.459825,-0.745,0.539,-0.950934,0.233115,-0.281029,-0.0134717,-0.0825501,-0.535551,-0.0231327,0.557752,-0.745127,0.0347528,-0.221944,-0.0921804,-0.568472,-0.783368,0.523847,-0.0833156,0.49887,0.282578,0.0121747,-0.757174,0.67498,0.212716,0.154022,-0.961337,0.561001,-0.931219,0.011,-0.602,0.0817168,0.20766,0.620845,-0.326484,-1.19491,-0.695878,-0.450538,0.273317,0.200583,0.320301,-0.42513,0.651729,-0.604262,0.234644,0.938725,-0.415041,-0.315748,0.111136,-0.134717,0.680489,-0.789983,-0.775844,-0.910475,0.445583,-0.228485,-0.167943,0.031,-0.79105,-0.0843393,-0.907444,-0.966869,0.706638,-0.49188,0.356933,-0.0423155,-0.0111052,-0.714244,0.348752,0.756616,0.288803,0.862037,-0.821189,-0.481852,-0.664452,-0.0984999,-0.853374,-0.841411,-0.102517,-0.185556,0.104603,-0.312898,-0.388959,-0.220351,-0.290774,0.85,0.338742,0.106162,-0.447314,0.617307,0.92825,-0.710009,0.100386,0.517355,0.473466,0.0618226,-0.766772,0.767356,0.0245702,0.413098,0.784705,1.20916,0.546895,0.51366,-0.680313,-0.0229945,-0.954534,-0.665794,0.172289,-0.367902,0.218595,-0.702175,0.236554,0.554,-0.185005,0.502866,0.0647081,0.780553,-0.791183,0.424696,0.311609,-0.702508,0.620885,-0.745712,0.267378,-0.199336,0.094595,0.529564,-0.646162,0.884792,0.0193426,0.549761,0.676651,0.640577,-0.691323,0.921689,-0.6709,-0.961586,0.901868,0.520313,-0.369763,-0.46,0.230991,0.426766,-0.849325,0.590046,-0.0954841,-0.375562,0.432705,-0.119349,0.883718,-0.583761,0.0325825,0.322265,-0.4755,1.22718,0.527988,0.00143285,0.150646,0.661108,-0.490622,0.821435,-0.445301,-0.860866,0.134399,-0.157101,0.628733,0.441639,-0.0465276,0.565,-0.512005,0.580257,-0.88064,0.699096,-0.00777412,0.807028,-0.0143402,0.650877,1.15752,-0.5866,-0.687887,0.719486,1.08834,-0.416619,-0.354786,-0.748385,1.09555,0.476934,-0.510952,-0.0395896,-0.491301,-0.0779446,-0.687345,-0.00544497,-0.408233,-0.0160951,0.501606,-0.699,0.987,-0.550586,0.867678,-0.52709,0.582313,0.531951,0.751906,-0.852617,0.306836,-0.349024,0.181392,0.22053,-0.608185,-0.182741,-0.72709,-0.728239,-0.228055,-0.696411,0.89949,-0.291417,0.672064,-0.674301,0.187084,-0.856832,-0.218596,0.0576491,-0.268008,0.4,0.602,0.79,0.701,0.587877,-0.769989,0.116812,-0.938113,0.377607,-0.347607,0.376465,0.0741518,0.492,0.997014,-0.769832,-0.746831,0.928172,-0.418958,-0.941979,-0.824,0.332,-0.651,0.629858,0.593377,0.571,0.505,-0.659,0.274,-0.713,0.399,-0.995,0.687,9.22187e-11,0.794941,-0.0575809,-0.857643,0.591778,0.629022,-0.79389,-0.473307,-0.722253,0.576074,0.600769,0.328784,0.134472,0.391317,0.129717,0.0516089,0.970209,0.194097,-0.210085,0.301002,0.543,0.974,-0.106,0.114,0.479,0.235,-0.612997,0.323095,-0.810317,0.949355,-0.431493,-0.242518,0.307794,0.505184,-0.119658,-0.5644,-0.31696,-0.358566,-0.0361739,-0.0311474,0.790969,-0.425853,0.849828,-0.548008,0.953902,-0.0231705,0.509025,0.910515,-0.833811,0.873118,-0.205426,0.724209,0.85,0.244,-0.605961,-0.118446,-0.982273,-0.671804,-0.787869,-0.784651,-0.751683,-0.320416,-0.590252,0.000687921,0.712354,0.339561,0.587466,-0.395722,0.742418,-0.332688,0.152673,0.443102,-0.337253,-0.17627,0.294123,-0.975395,0.341007,-0.0480352,0.728663,0.636259,-0.589946,-0.488,-0.0852431,0.806022,0.284726,-0.171851,-0.336984,0.270755,0.0990581,-0.215323,-0.0460337,-0.109317,0.150173,0.707659,-0.645935,-0.125311,-0.154643,0.507209,-0.175907,0.870219,0.471545,0.27327,-0.293339,-0.956554,0.670939,-0.791105,-0.587471,0.261716,-0.215708,0.687,-0.549617,0.174008,0.717018,0.326119,0.000640282,0.0441743,0.759125,0.729758,-0.578253,0.0129917,-0.676972,0.77421,0.828858,0.179849,-0.0869168,0.94573,0.340588,0.0946261,0.256843,0.884733,-0.218797,-0.373372,-0.275295,0.0524867,-0.654231,-0.411483,0.383158,-0.664,0.848423,-0.85729,-1.00127,0.883224,0.429881,0.895049,-0.0755138,1.1674,0.0606323,-0.221463,0.785806,-0.119397,0.514386,0.283742,0.859153,-0.252655,1.0395,-0.587549,-0.322119,0.0810203,-0.310142,0.163959,-0.585834,-0.0499186,0.351382,0.286531,-0.784959,0.35,0.887226,0.574297,0.622468,0.310921,0.861466,0.452308,-0.0399294,0.0236043,-0.125389,0.687887,-0.371361,-0.139907,-1.21469,0.459609,0.0322431,0.0290715,-0.19882,0.476907,1.07727,-0.347048,0.0199116,-1.05861,0.587557,0.726625,-0.258502,-0.783051,-0.075,-0.777,0.075583,0.111773,0.0925103,-0.432877,-0.147322,-0.416659,1.0484,-0.731836,0.714516,-0.479101,-0.332319,0.622936,0.29878,-0.430309,-0.551699,0.426467,-0.722585,0.841797,-0.531004,0.0406892,-0.0229338,-0.821645,0.484581,-0.971807,0.804217,0.360492,0.977,-0.376,0.136681,-0.150109,-0.634164,0.847568,0.78592,0.766035,-0.436766,-0.422669,0.99812,0.592935,0.845069,-0.0520119,0.554115,-0.992523,-0.848562,0.0583777,0.139398,-0.122947,-0.469134,0.427798,-0.587858,-0.29944,-0.577254,0.212947,-0.387515,0.665407,0.276693,-0.571,-0.424617,-0.225228,-0.0227964,0.763343,0.414634,0.195555,0.297946,0.228941,-0.179718,0.467851,-0.177975,-0.983251,-0.468865,-0.377431,-0.391387,-0.782338,-0.112999,-0.402565,0.0132992,-0.875851,0.45494,0.518563,0.254846,-0.749171,0.884112,0.132819,0.189838,-0.572,-0.221355,-0.990984,-0.158725,0.427135,-0.480327,0.590224,-0.195475,0.900412,-0.281914,0.847377,-0.313145,-0.283361,-0.292779,-0.0488317,-0.789301,0.00906144,0.28862,-0.938676,-0.416833,-0.593274,0.0394526,1.03977,-0.614236,-0.290247,-0.0014721,-0.118797,-0.835,-0.21,-0.994272,-0.0363738,0.319102,-0.0348945,-0.324177,0.817095,-0.672001,0.0215823,-0.187965,-0.51097,-0.20871,-0.0493289,-0.764653,-0.241635,0.282579,-0.632292,0.0523447,-0.462491,-0.140347,-0.605231,0.337465,-0.816096,-0.23029,-0.541344,0.982061,-0.572569,-0.434,-0.048,0.311109,-0.653907,0.427704,0.0531387,0.407059,-0.271189,0.360909,0.862029,0.861733,0.397897,-0.701187,-0.399186,0.389606,-0.26161,0.00111644,0.0165616,-0.553647,0.509154,0.0872715,0.697327,-0.175102,-0.367866,-0.483892,0.731395,-0.451317,-0.286751,0.841985,-0.829,0.135399,0.992742,-0.263824,1.11686,-0.578905,1.10734,0.00733954,0.229364,-0.767905,-0.935291,-0.719741,0.792894,0.0526479,-0.522787,0.660077,-0.814327,-0.408194,-0.696073,-0.0395022,0.364243,-0.816887,-0.560625,-0.0834987,-0.511122,-0.563281,0.459908,-0.496,0.172,0.721147,0.89278,-0.0602934,0.00114351,1.00849,0.653468,-0.0177958,-0.717356,0.217371,0.204736,-0.422381,-0.325362,0.386949,0.113987,-0.403913,0.96444,0.034283,0.857305,-0.835318,0.552214,-0.866185,0.238508,-0.42954,0.705206,0.0930462,0.579387,-0.533998,0.673604,-0.417028,-0.473083,-0.583114,-0.593027,-0.4811,0.332196,0.221646,0.887858,-0.602338,0.439496,0.806722,0.167957,0.0811175,-0.419431,1.18083,0.834624,0.215867,0.960806,0.751599,-0.785247,0.744009,0.359104,0.570689,0.171589,1.01281,0.753403,0.00700038,0.124537,0.329163,0.0764987,-0.613788,0.968289,0.567558,-0.245987,0.818101,0.636987,0.710292,-0.536326,0.344387,0.743502,-0.602157,0.37465,0.0950802,-0.442491,0.155384,-0.386593,-0.60575,1.00896,-0.884859,0.370681,0.80682,0.0719196,-0.352719,0.0492431,-0.608007,-0.337035,-0.638876,0.0423519,0.416839,0.752009,0.980775,0.797067,0.351459,0.474297,-0.292047,-0.055502,-0.728093,0.888909,0.634193,0.365882,0.412235,0.0303826,0.554036,0.98381,0.61877,-0.133707,-0.890802,0.208877,-0.969542,0.451639,-0.411246,-0.938442,-0.139029,0.336928,-0.329068,-0.17018,0.613725,0.123095,0.77287,0.096339,-0.36028,0.749799,-0.211357,-0.0509515,1.01216,-0.238358,0.843459,0.680433,0.740879,-0.245566,-0.230328,-0.0205236,0.415289,-0.478827,-0.381469,-0.11379,-0.343469,-0.978538,0.653258,-0.0167998,0.941,-0.576,-0.394012,-0.225048,0.389486,-0.0187329,0.307973,0.111327,0.73263,-0.162538,0.875868,0.181324,0.761297,0.922036,-0.941354,0.184013,-1.00253,0.432389,-0.140555,0.704601,-0.815209,0.366298,-0.00363314,0.740086,0.398227,-0.09035,-0.872241,-0.650454,0.415,0.988,-0.10906,0.365152,-0.465228,0.699237,0.913131,0.478805,1.16125,0.152848,-0.804083,0.134987,-0.268914,0.368824,-0.618805,-0.379459,-0.157226,-0.535821,0.380504,-0.126679,0.632924,-0.775691,-0.342098,-0.903175,0.109261,-0.0672924,0.310287,-0.224391,-0.72,0.631008,-0.315011,0.243639,0.227811,0.669439,-0.265101,0.323495,-0.129786,1.0463,-0.577077,-0.626581,-0.851092,-0.502867,0.298721,0.185682,0.560464,0.310771,0.421964,-0.417646,0.671406,-0.102398,0.395802,0.324655,-0.170663,0.752651,0.339865,-0.821287,-0.013,-0.658959,-0.0401432,-0.175299,0.969093,0.247516,-0.762513,-0.135117,-0.060504,-0.65637,0.815762,0.288373,-1.04542,-0.829545,0.426457,0.927899,-0.604726,-0.579839,0.319199,-0.748648,1.04996,-0.410805,-0.627369,0.397864,0.0231244,0.479951,-0.367494,0.968503,0.363,0.584033,0.700593,0.877961,0.880507,-0.746831,-0.546328,0.531909,0.46785,-0.544685,-0.86053,-0.903459,-0.569275,-1.16817,0.0603765,-0.796048,0.76806,-0.804308,-0.708014,-0.570367,-0.167288,0.211952,-0.645893,-0.586085,0.410781,-0.447006,0.277497,-0.578528,-0.948,0.473058,0.947029,-0.0593118,0.0176475,0.613237,-0.570325,-0.560133,0.754233,-0.340919,0.463237,-0.291297,-0.531125,0.0379682,-0.581837,-0.403059,0.0340252,0.209713,0.0523242,-0.266685,0.669457,-0.102336,-0.116291,0.782949,0.984054,0.251059,-0.838713,-0.100965,0.336,-0.0269658,-0.124377,-0.0666955,-0.576118,-0.231278,0.396716,0.403759,-1.06875,0.821717,0.53065,0.360685,-0.959745,-0.0517936,-0.864421,-0.322882,-0.74673,-0.166096,0.569918,0.193939,-0.696527,-0.762196,0.850806,0.920878,0.192185,-0.16676,0.262742,-0.303905,0.607,-0.0539997,0.146944,-0.0578314,0.918184,-0.978129,0.428475,-0.651262,-0.610379,-0.0854897,0.412054,-0.594432,-0.189984,-0.447754,0.860143,-0.445972,0.691646,-0.815682,0.402341,0.676489,-0.289808,-0.39405,-0.0955624,0.030149,-0.110081,-0.635157,-0.486115,0.627072,-0.264,0.76,0.878,-0.658,-0.295036,0.0230044,-0.160797,-0.819877,-0.398597,-0.715563,-0.462454,0.00290844,0.204,0.520967,0.42959,0.58959,-0.90741,-0.1281,-0.834001,0.809,0.074,0.579,0.0439449,0.781998,0.747,0.955,-0.631,-0.365,0.875,-0.118,0.82,-0.39,-0.800979,0.698451,-0.492325,-0.538392,-0.722117,0.351235,-0.35796,-0.117337,0.193023,-0.258022,0.884996,-0.602973,-0.737139,-0.129055,0.543031,-0.644753,0.743953,0.712491,0.722918,-0.625976,-0.153996,-0.234998,0.713,-0.408,-0.723,-0.918,-0.215003,-0.848966,-0.478961,-0.848256,-0.694187,-0.73814,0.404217,-0.17786,-0.266232,0.696711,0.731924,0.371053,-0.443698,-0.0935076,-0.89365,-1.00191,-0.142718,0.919744,-0.128984,-0.579459,-0.705218,-0.811425,0.700551,0.583361,-0.438124,-0.460442,0.899997,-0.726,-0.311212,-0.822226,-0.630001,0.032256,0.867763,-0.596978,-0.292665,-0.823153,-0.33772,-0.921027,-0.515394,0.326596,0.726707,-0.79491,-0.709415,0.857076,0.0890724,-0.643149,-1.07551,-0.886322,-0.540045,-0.490216,-0.792255,-0.605891,-0.339234,0.811931,0.88533,0.199,0.90978,0.340542,0.483098,-0.819277,0.527877,0.36874,-0.320953,-0.115976,0.662889,0.2698,-0.503735,-0.675563,0.481868,0.150547,0.89133,-0.0412995,0.523571,0.889729,0.106856,-0.449973,-0.437962,0.165768,-0.82111,-0.523036,0.505023,-0.750766,-0.683797,0.709,-0.932102,0.750498,-0.112572,0.533636,0.102703,0.942889,0.619102,-0.941971,0.146493,-0.765114,-0.0415179,-0.011068,0.830547,0.34038,0.232277,0.170371,-0.155513,0.00256661,-0.550974,1.15504,-0.109196,0.345474,0.861973,-0.388436,0.856437,-0.954295,0.15381,-0.031,-0.69626,0.0165544,-0.346263,0.967416,-0.188046,0.114657,-0.0636755,0.750487,-0.0450553,-0.361136,-0.962805,-0.633317,-0.308786,-0.182633,0.286033,-0.117201,-0.543438,1.22257,0.628066,-0.331912,-0.167594,0.542293,0.8522,-0.173303,-0.694095,0.833396,0.640049,-0.731,0.884448,-0.637016,-0.160946,0.865834,0.483912,0.0316586,0.178296,0.658303,-0.854302,-0.767041,0.659275,0.230502,-0.457153,0.357739,0.444211,0.446495,1.21212,1.03685,0.53879,0.758219,0.707418,-0.30532,-0.800559,0.883766,0.715121,0.637129,-0.515,-0.795,0.484316,0.693894,-0.866712,0.102036,-0.865898,-0.202728,-0.809175,-0.0378726,0.848626,0.511499,-0.304604,-1.00279,0.341978,-0.459562,0.139574,0.513026,0.157891,-0.938785,-0.428354,-0.425531,0.379362,0.494408,-0.604418,-0.29065,0.640544,-0.931147,-0.659,0.643,0.735975,-0.160001,0.903576,0.301446,-0.455439,0.851457,0.713836,-0.864594,-0.218625,0.929218,-0.00141387,-1.00673,0.0483307,0.624277,-0.520046,0.916304,0.145573,-0.364164,0.245878,-0.699207,-0.456789,0.120557,-0.182864,0.494552,-0.85859,0.205776,-0.600988,-0.898,-0.132806,-0.736373,0.711786,-0.373358,-0.319995,0.552484,0.386105,0.199478,0.0142605,-0.0270638,-0.32189,0.592559,-0.372127,1.0631,0.57881,0.156721,0.340147,0.863717,0.199877,1.06102,-0.875815,0.471156,-0.901747,-0.906655,-0.45196,-0.00884537,0.409002,-0.433,0.774537,0.239226,-0.514581,-0.855356,0.603495,-0.679248,-0.118964,-0.523937,0.630102,0.684675,-0.00943889,-0.487308,-0.570823,0.950799,0.871464,0.101911,0.566756,0.60033,-0.558205,-0.624811,-0.113633,-0.571591,-0.996738,-0.58457,0.812633,-0.857818,-0.668,-0.751,-0.286982,0.547012,-0.515261,-1.10503,-0.0344757,0.334577,-0.664199,-0.0257701,0.598975,-0.289494,-0.235074,0.15765,-0.834114,0.845226,0.706048,-0.405769,0.942457,0.821168,0.210129,-0.215656,-0.204147,-0.473787,-0.344588,0.116333,-0.0381357,-0.239851,0.329,0.067,-0.525171,0.375437,-0.56605,-0.100093,0.146004,0.0344786,-0.0764191,-0.229017,-0.0811844,-0.245593,-0.130135,0.82112,0.664577,0.75992,-0.0999756,0.545709,0.0309114,1.13633,0.4984,-0.821175,0.495462,-0.700891,-0.426089,0.758805,-0.0712929,0.402699,0.0580002,-0.911,0.727174,0.675814,-0.692941,-1.10722,0.368905,0.109979,0.225168,0.282346,-0.482145,0.795372,0.0801614,-0.153829,-0.103019,0.661742,-0.449862,0.609641,-0.362956,0.19406,-0.524723,0.0289916,-0.191922,0.869881,-0.150688,-0.941691,-0.796245,0.598357,0.512,0.253969,-0.430798,-1.03064,-0.334065,-0.881028,-0.974574,0.276008,-0.707287,0.877521,-0.608225,-0.356697,-0.664147,-0.0829417,-0.217904,-0.000264774,0.40525,-0.370164,-0.782459,0.66947,0.756242,-0.463885,-0.356594,-0.810699,0.128551,0.0423059,0.581552,-0.808282,-0.0641574,0.937824,0.351654,-0.651478,-0.375296,0.352102,-0.997375,0.0954686,0.488516,-0.590566,-0.530448,0.456926,0.905622,-0.270195,-0.615117,0.752893,0.358906,-0.776387,-0.572388,-0.658706,-0.259026,-0.397813,0.769365,0.868295,-0.220283,-0.856766,0.637095,0.594824,0.0409709,0.367987,0.327752,0.816984,-0.321517,-0.467107,0.69276,-0.00800672,-0.571604,-0.573625,-0.471523,0.657878,0.896427,-0.603821,-0.0718764,0.392041,-0.525551,-0.685453,-0.216846,0.494574,-0.528287,0.177386,0.908127,0.0225828,0.583657,0.544959,-0.267414,0.77013,0.319013,-0.984282,-0.102551,-0.927504,0.102043,-1.07106,0.572222,-0.826152,0.122066,0.542521,-0.0486038,-0.252565,0.438103,0.302712,1.07582,-0.0283644,0.153813,-0.358071,-0.815974,0.795762,0.245747,0.327425,0.375934,0.692014,-0.565103,0.129033,0.868834,0.260264,-0.829001,-0.745957,-0.425152,0.262052,-0.995501,0.251224,0.223659,0.183283,0.785251,0.153406,-0.179151,-0.714784,-0.440012,0.803965,0.197908,0.840959,-0.0879181,-0.181224,-0.124819,-0.747097,0.605603,-0.302202,0.935801,-0.645874,0.978552,0.130167,0.146843,0.672281,0.784,-0.313,-0.0553218,0.853636,-0.625292,0.383326,0.338701,-0.710623,-0.496523,-0.410281,0.310387,-0.704765,0.479593,-0.701814,-0.686471,0.851317,-0.551345,0.15449,0.448536,0.67011,1.08043,0.718924,0.0811907,0.0450192,-0.547027,-0.0314792,0.113228,-0.812181,0.643,0.922,0.421741,0.405563,-0.943453,-0.822579,-0.168133,-0.340008,0.396301,0.759572,-0.206145,-0.993176,-0.341534,-1.09892,-0.947736,-1.12557,-0.496386,-0.464165,-0.874259,-0.140504,0.66449,-0.175744,0.621934,0.285776,-0.15277,-0.115162,-0.749201,0.0411557,0.319,-0.017601,-0.216142,-0.10876,-0.278419,-1.05431,0.742205,-0.441323,-0.914894,-0.206104,-0.287946,0.0317628,-0.870426,0.636675,0.125022,-0.0297159,0.7362,-0.125009,-0.205746,-0.813345,0.0775188,-0.664574,-0.201839,-0.535184,0.483896,-0.366137,0.685778,-0.959372,-0.073,0.943049,-0.366248,-0.844382,-0.281126,0.128042,-0.500962,0.156261,0.0290568,-0.776775,-0.996546,0.198008,-0.132054,-0.849534,-0.724091,-0.124446,-0.96784,0.181935,-0.830866,0.763475,0.97887,-0.354573,0.841998,0.00417144,-0.0405898,-0.805409,-0.101312,-0.714674,-0.206,-0.380404,0.879639,0.22602,-0.587742,-0.669369,0.300942,-0.242269,0.227379,-0.883709,-0.716577,-0.951595,-0.738126,0.698194,-0.101654,0.0768187,-0.766608,0.495719,-0.703704,-0.742096,-0.390826,-0.838564,0.485554,0.943829,-0.369944,0.17487,-0.535999,0.209575,0.096,0.485281,0.495096,0.414656,-0.938868,0.335789,-0.317882,-0.873957,0.744152,-1.03394,-0.480885,-0.362047,-1.26701,-0.480066,0.00653535,-0.934674,-0.271959,-0.699139,-0.00622445,-0.283438,0.44487,-0.116236,-0.517875,0.540563,-0.0103925,0.860377,0.5387,0.308817,-0.168,-0.873421,-0.478937,0.48863,0.152453,0.555657,-0.0369036,-0.175505,-0.11733,0.436087,-0.169955,-0.79605,0.693168,0.746113,-0.155809,0.464409,-0.396968,-0.920325,0.690961,-0.0371964,0.948582,-0.671026,0.297784,0.479767,0.212044,0.292841,-0.389872,0.835807,-0.12,-0.787003,0.144634,0.270393,0.897324,0.214303,-0.244841,-0.37475,-0.641978,0.660731,0.438886,0.307431,0.319397,-0.933441,0.298907,-0.210878,0.496999,0.791703,0.9094,0.725665,0.910954,0.221323,-0.261012,0.458952,0.551545,0.598942,-0.0656093,-0.210956,-0.483,0.561,-0.375,0.397,0.331178,0.327376,-0.333804,-0.213995,-0.891742,-0.0219366,0.411815,-0.53088,-0.337,-0.574001,0.351989,0.560989,-0.503009,-0.342002,-0.639,1,-0.546,-0.728,0.72904,0.926743,0.054,-0.971,0.384,-0.393,0.192,0.876,0.396,0.709,-0.00599812,0.57819,-0.337349,-0.674775,-0.537352,0.329496,-0.331519,-0.429266,-0.694117,0.636033,0.0392013,-0.474277,-0.940118,-0.610286,-0.911526,-0.439067,-0.395417,-0.996337,-0.885361,-0.384017,0.834,0.846,-0.458,-0.113,0.433,0.484,0.494003,-0.375925,0.359822,-0.552814,-0.666437,-0.641227,-0.966738,-0.44608,-0.756413,-0.505343,0.438539,-0.542376,-0.384716,0.304689,-0.90158,0.657511,0.835167,-0.833601,0.609706,0.928353,-0.722836,-0.787804,0.918102,-0.617938,-0.184102,0.749124,-0.767999,-0.082,-0.807518,0.22883,-0.587351,0.696136,0.881579,0.403115,-0.77955,0.802313,0.728027,0.757013,-0.710671,0.433036,0.7429,0.715544,0.902863,-0.617267,0.0806099,-0.879746,-0.873676,-0.480087,0.835384,0.692574,0.898728,0.993502,0.381041,0.790013,-0.617776,-0.803,0.0955767,-0.824386,0.116444,0.300299,0.472928,0.245997,-0.318476,-0.0855906,-0.518117,-0.310326,-0.532291,0.507868,0.855367,-0.687951,0.0336254,0.691322,0.717969,-0.264059,-0.723697,-0.151533,-0.264661,0.752426,-0.300314,0.888686,-0.172839,-0.492608,0.845212,-0.812,0.853526,0.747556,0.882983,-0.0743863,0.597643,-0.198268,0.944967,0.0128563,0.710806,0.779761,0.0658038,0.450451,-1.02664,0.666515,0.159065,-1.03165,0.759599,1.07129,0.559789,0.621538,-0.408242,-0.0604543,0.609099,-0.388529,-0.422503,-0.770277,-0.58197,-0.104,-0.264337,0.764161,-0.458127,-0.462993,0.677663,-0.729858,0.141437,0.0736896,-0.40794,-0.807807,0.291249,-1.24198,-0.826012,-0.30861,0.492333,-0.681488,-0.82412,-0.313269,-0.141245,1.26453,-0.543337,0.24594,0.201474,-0.621185,-0.734238,-0.151275,-0.0909943,-0.718,0.0724691,0.252371,-0.409924,0.7166,0.218017,0.479389,0.923268,-0.843377,0.264486,-0.270252,0.0808769,0.524764,0.240023,-0.771804,0.484139,0.490814,0.138577,-0.0131373,0.887806,0.661357,0.440515,0.660222,0.303679,0.385372,0.224712,-0.738919,0.713,0.346,0.102049,-0.419861,0.535324,0.709815,0.581206,-0.56421,0.0098649,-1.00822,0.0262689,-0.242607,-0.737879,-0.837213,0.370629,0.132628,-1.15682,-0.116801,-1.1264,-1.02867,-0.459686,0.465785,-0.370133,-0.705822,-0.570866,-0.869069,-0.670885,0.57024,0.471,-0.053,0.814865,-0.251688,-0.70238,-0.495069,0.361868,0.420065,0.552283,-0.894474,0.120951,-0.352467,-0.515636,-0.916185,0.21939,-0.0951338,-0.497423,0.1154,-0.860802,-0.261975,0.853007,-0.672418,-0.449606,1.00343,0.0991005,-0.0237589,0.931606,0.336543,0.139294,0.74,-0.0976907,-0.819071,-0.297178,-0.264031,-0.156241,-0.15701,-0.486192,0.548859,-1.16883,-0.608393,-0.843666,-0.111492,0.261238,-0.211657,0.271137,-0.541275,0.513045,0.657071,-0.051957,0.832695,-0.248679,-0.542051,0.463029,-0.0183334,-0.500338,-0.6381,-0.882956,-0.57,0.709522,-0.17089,0.705362,-0.491352,-0.607244,-0.761334,-0.319283,0.226462,-0.218414,0.468461,-0.196128,-0.0145616,0.748892,0.242969,1.09076,-0.341269,0.916441,0.0277871,-0.156103,0.12117,-0.428626,0.482455,-0.692506,0.0565043,-0.964263,0.98558,0.821,-0.46,-0.663052,0.504077,-0.482932,0.46884,0.722204,-0.813752,-0.85461,-0.705331,-0.875859,-0.478359,0.49625,0.379346,1.01333,-0.532059,0.920389,0.530814,0.375389,0.63293,0.936622,-0.111295,-0.712562,-0.774639,0.615465,-0.839779,0.898051,-0.700722,0.125,-0.958,0.841055,-0.0351122,-0.870007,0.604333,0.861821,-0.803164,0.285142,0.73284,-1.07906,0.0535946,-0.513792,-0.474564,0.899302,0.875168,0.191891,0.581358,1.02339,-0.23934,-0.568788,-0.102317,0.777332,0.615579,0.350612,0.549435,-0.782119,0.0094169,-0.934998,0.809,-0.123614,0.212989,0.360032,-0.421036,0.616452,0.593425,-0.546951,0.508849,0.158671,0.330871,0.348309,0.555207,-0.501083,0.12655,0.425231,0.762598,-0.257608,-0.807685,-0.470797,-0.876329,-0.226909,-0.363679,-0.68848,-0.784703,-0.360886,0.93943,0.897,-0.568006,-0.0554856,0.991253,0.762056,0.75772,-0.269264,0.308968,-0.957706,0.767215,-0.898937,-1.06574,0.785598,0.876123,0.581329,-0.451904,-0.213302,0.411917,0.370624,0.687644,-0.346816,0.364292,0.744476,-0.00547691,-0.0206527,-0.650512,0.556569,0.390275,-0.508028,0.668058,0.313542,0.960287,0.610819,0.772355,0.555398,0.535718,0.091376,-0.963548,-0.98627,0.0565469,-0.663588,-0.146071,0.0706822,0.479971,0.900304,-0.75194,0.752132,0.830121,0.166482,-0.582888,0.486042,0.366986,0.775887,0.0548687,-0.758819,-0.577821,-0.139005,0.689326,0.81012,-0.0947101,0.264806,-0.400808,-0.0484254,-0.307369,-0.481325,-0.724554,-1.2165,0.0250968,-0.309418,-0.452153,1.12332,-0.712314,-0.531702,-0.208023,0.197234,0.738961,-0.21908,-0.108255,0.544792,0.452595,-0.34179,-0.487917,-0.582054,-0.872792,0.593007,-0.37689,-0.440321,-0.987814,0.877946,-0.637707,0.00117924,-0.0297828,0.0994831,0.608488,0.058591,-0.0521139,-0.765512,0.59388,0.841773,-0.77971,0.306898,0.714643,1.05268,0.30331,-0.614895,0.202098,-0.603866,-0.133555,0.259096,0.60249,0.643765,0.934548,0.770028,-0.88398,-0.921116,0.360411,-0.63267,-0.240276,0.0298483,-0.693526,-0.484799,0.610793,-0.360334,-0.0347364,0.697172,1.0368,0.710973,0.399666,0.454911,0.571954,0.653591,1.19614,0.0520278,0.497915,-0.226991,0.12925,0.962882,-0.192177,0.184049,0.0190776,-0.592,-0.559,-0.0402476,0.712454,-0.778453,-0.264486,0.187331,-0.498458,-0.2411,0.46683,-0.998886,0.202724,0.53991,-0.142322,1.04361,0.281446,-0.206305,0.826651,-0.368591,0.50539,-0.456719,0.436023,-0.0431885,0.375802,-0.701899,0.388635,0.61797,0.956857,-0.897,-0.624,-0.019087,-0.887533,-0.0702357,0.564045,0.784496,-0.0351038,-0.896176,-0.582605,-0.138762,-0.190098,-0.815124,0.221426,0.74827,0.646423,0.897298,0.693826,-0.769691,0.832047,-0.305286,1.06446,0.1203,0.0200746,-0.0740782,0.808006,0.602851,-0.0129136,0.118,0.226001,-0.483189,-0.0744573,0.674477,-0.0691868,-0.377416,0.815312,-0.515659,-0.795923,-0.0326477,-0.33389,-0.178254,0.992001,0.0937571,-0.610988,-0.47371,-0.852071,0.690857,0.613587,0.730989,0.463924,0.461952,0.802211,0.350605,0.867734,-0.811846,-0.833133,0.678,0.820006,-0.289275,-0.520721,-0.331856,0.0991706,-0.110866,0.508076,-0.921339,0.496475,0.818283,-0.5636,0.397862,-0.702578,-0.492836,0.99437,-0.947495,0.379906,0.747918,1.02256,0.694855,0.257693,0.813082,-0.136459,-0.524917,-0.48651,-0.952397,0.320266,-0.598,-0.735865,0.489292,-0.826127,-0.840141,0.739324,0.87708,-0.486098,-0.59086,-0.378258,-1.0052,-0.693315,0.746259,0.73886,-0.422837,0.0262407,0.98138,0.117662,-0.327688,0.678888,-0.737581,-0.384989,0.740563,0.320446,0.500538,-0.323715,0.868371,0.388976,0.138,0.91924,-0.289318,0.606594,0.821441,0.816634,0.199915,0.78812,0.468254,0.103892,-0.963511,0.533692,0.850969,-0.887665,0.870966,0.213387,0.915502,-0.840383,-0.610622,0.506285,0.300678,-0.418894,0.025988,-0.195473,-0.224031,0.895767,0.807205,0.67014,-0.497,0.229141,0.0590192,0.662609,-0.276967,0.791592,0.203626,-0.539838,0.528671,-0.629158,0.876648,-0.384513,0.152759,0.947837,-0.844852,-0.455583,0.577186,1.03111,0.746407,-0.0188593,1.06254,0.948454,-0.73772,-0.350414,0.802776,-0.414318,-0.144963,-0.510802,-0.555,-0.344999,0.716113,-0.051148,0.437041,-0.232215,-0.409249,0.70497,-0.903156,0.330144,0.71629,0.604682,0.691681,0.533185,-0.847666,-0.677557,-0.0264634,-0.746848,-0.198169,-0.514221,0.763612,-0.563739,-0.07928,0.284783,0.854973,0.109471,0.904211,0.637003,0.689,-0.689,0.683,-0.867,-0.47728,0.397595,-0.361296,0.963996,-0.828582,-0.215707,0.223961,-0.741005,-0.891,-0.0769757,0.4113,0.3473,-0.9967,0.111073,0.662013,-0.03,-0.087,-0.548,0.0078767,-0.332885,-0.56,0.481,0.509,-0.706,-0.41,-0.031,0.488,0.836,0.280003,0.169969,0.967579,0.795959,-0.441422,-0.839408,0.32029,-0.708072,-0.0514292,-0.456327,-0.89101,0.0566532,0.465011,0.0727209,0.956059,0.0234918,-0.813631,0.180873,0.55589,-0.343018,0.632007,-0.881997,0.324,0.629,0.599,-0.61,0.922971,-0.812761,0.356991,0.407026,-0.980275,-0.371014,-0.874918,0.54123,0.998715,-0.738772,0.278274,0.323094,-0.899775,-0.792105,0.851754,-0.796681,-0.1798,-0.128118,-0.152425,-0.196848,0.921999,-0.399763,0.978528,0.0309983,0.254543,0.166937,0.146,-0.864,-0.204526,-0.257656,-0.477263,-0.731899,-0.499791,0.483254,0.285517,-0.893995,-0.862276,0.41566,0.608036,0.539926,0.476037,-0.289555,-0.213765,0.61268,-0.429909,-0.716439,0.449919,0.481592,0.245596,-0.660979,0.838058,-0.233216,-0.453408,0.396267,0.772019,0.79,-0.434354,-0.0901013,0.890686,-0.111739,0.230362,-0.90854,0.276431,0.801428,0.51458,-0.567398,0.661569,-0.147911,0.0388971,0.0555155,-0.557331,-0.192189,0.687425,0.529459,-0.733499,-0.392076,-0.806906,0.874758,0.573809,-0.0841244,0.779669,0.447569,0.190002,-0.684,-0.148178,-0.0871877,0.559689,-0.139169,0.373128,0.628799,0.9874,-0.195376,0.699114,-0.373208,-0.772047,-0.650322,-0.738428,-1.27126,0.366481,-1.21832,-0.0427643,-0.581738,-0.258878,-0.209112,0.947866,0.0324248,-0.35938,0.36954,-0.676696,-0.824265,-0.841007,0.644,0.187732,0.279723,0.373831,0.456524,0.761983,0.134322,-0.398932,0.467588,-0.458238,-0.812933,0.960345,0.286356,-1.15569,-1.14642,-1.36118,-0.902593,-1.10773,1.00389,-0.0917327,0.178293,1.13254,-0.197286,0.377209,0.529837,0.542463,0.783255,-0.339064,0.352,0.514664,-0.671635,-0.110714,-0.860386,0.146036,-0.593672,0.834819,0.319955,0.486778,-0.748495,-0.456468,0.343211,0.106905,0.339116,-0.598721,0.32104,0.660677,-0.0968918,-0.280133,1.34452,-0.162678,-0.4486,-0.271059,-0.782949,-0.623857,0.281009,0.131,0.458,0.0642412,0.30434,-0.218523,-0.958875,0.510929,0.191659,-0.675256,0.109751,0.536821,0.97006,0.692461,-0.624028,0.346585,-1.34879,-1.23495,-0.354992,0.561459,-0.0318633,0.111446,0.890417,0.821225,-0.209804,-0.00775421,0.434646,-0.649923,0.0307563,0.275,-0.144,-0.674593,-0.598731,-0.687225,-0.197918,0.510243,-0.459043,-0.00505858,0.00665357,-0.919231,0.0795328,0.464704,0.21001,-0.462514,-0.0118069,-1.06994,-0.829694,-0.0313613,1.01169,0.402913,-0.0872254,-0.452735,0.743523,-0.683731,0.769893,0.641965,-0.284898,0.421515,-0.757,0.77093,-0.735334,-0.355904,-1.02453,-0.410154,-0.447052,0.0643629,1.01558,0.310216,0.813107,-0.51699,-0.415652,-0.992028,-1.07225,-0.82828,0.106511,0.370901,0.93818,0.0793322,-0.345753,0.696879,-0.500459,0.285819,0.721323,0.670827,-0.0428165,0.3007,0.26,0.703395,-0.781401,0.338206,-0.240477,-0.610745,0.749025,0.343922,-0.0394086,-0.483321,0.941393,-0.825884,-0.362002,-0.354596,-0.429248,0.593319,0.320299,0.0649401,0.76464,-0.747948,-0.333143,0.254925,0.127165,-0.554219,-0.475454,0.239556,0.216108,-0.905,-0.117,0.768843,0.236162,-1.14166,-0.284803,0.0471448,0.189637,-0.797932,0.957548,-0.301915,0.352853,-0.974694,-0.966828,-0.741502,-0.903584,0.174211,0.702976,0.426087,-0.0083096,0.264416,0.980132,0.901024,-0.518796,0.620989,-0.0828788,0.567069,-0.7912,0.719,-0.312,0.0104251,0.106788,-0.230317,-0.506232,-0.433664,-0.306239,0.876353,0.773691,0.817556,1.07343,0.305611,-1.09558,-0.465523,-0.125988,-0.605911,0.0644928,0.629421,0.570083,-0.215865,-0.710187,0.510582,-0.127728,0.6569,0.27187,0.459122,0.0239305,-0.748011,-0.236,-0.204961,0.22238,0.0700429,0.539205,-0.266677,-0.45705,-0.62144,0.560321,0.784343,-0.745499,-0.22158,-0.277028,0.366355,0.60007,-0.315139,1.09404,-0.064176,-0.144489,-0.459896,0.705521,0.437994,-0.163076,0.104232,-0.20205,0.270457,-0.655877,0.808,-0.722064,0.352811,0.357145,-0.257018,-1.0306,-0.384476,-0.466356,-0.776913,0.930304,-0.0172527,0.930084,-0.683997,0.351264,0.216137,-0.388739,-0.905687,0.0980482,1.06727,-0.123357,-0.385887,-0.669598,0.0304956,-0.15886,0.614747,-0.765353,0.111629,-0.873894,-0.379328,0.822498,-0.563563,0.774013,-1.12666,0.520958,-0.0517689,0.0993707,1.09648,0.912892,0.309855,0.583628,-0.0402645,0.216997,0.246049,0.339909,-0.0756325,-0.0996174,0.755451,-0.340807,0.310663,0.645355,0.0961825,0.389626,0.255356,0.964019,0.694804,-0.665589,0.824939,-0.798525,-0.593763,-1.21114,-1.18001,-0.359779,0.27169,0.598735,-0.217054,-0.392807,-0.769379,-0.904958,-0.595977,0.0340173,0.920073,0.649634,-0.569651,-0.199976,-0.343618,0.0797288,-0.00817102,0.689921,0.706502,0.985829,-0.0721316,-0.163089,0.324748,-0.838904,-0.503004,-0.561235,-0.562829,0.681179,-0.510161,-0.245161,0.685988,-0.891236,0.752877,0.157246,0.597782,-1.13775,0.589751,-0.531582,-0.42637,-0.661944,-0.0978737,0.749296,0.620875,0.641372,-0.554712,0.426228,-0.489984,0.0920458,0.215286,0.795009,0.0983707,0.765077,-0.492053,0.942966,0.869683,-0.670283,-0.787036,-0.691289,-0.662061,-0.493442,-0.269942,0.59628,-0.419693,-0.362427,0.0164202,-0.472087,-0.0383549,-0.306246,-0.862923,-0.222743,-0.380092,0.286907,-0.456551,0.770216,-0.884541,-0.544249,-0.211915,-0.858014,0.603837,0.691765,-0.975,-0.69,0.422652,-1.12429,0.549458,0.116127,-0.52804,-0.901291,0.202422,-0.443006,-0.629407,-0.601595,-0.736252,-0.257576,-0.485921,-0.0828056,-0.112629,-0.114583,0.699769,-0.191277,0.673161,0.871312,0.555111,0.386171,0.102627,0.253047,-1.01124,-0.910299,0.618,0.276,0.321771,0.468571,-0.188448,-0.606297,0.420874,-0.178199,0.706124,0.989494,-0.0980288,0.209227,-0.928193,-0.615052,0.0689552,-0.957591,0.0991595,0.266844,-0.145026,0.925395,-0.669722,-0.69798,-0.707145,0.1258,0.523576,0.441766,-0.226816,