0.69,0.633,-0.649,-0.975,0.409269,-0.677169,0.624252,-0.975376,-0.458634,-0.101012,-0.98318,0.120059,0.202103,0.074997,0.82619,-0.338177,-0.703218,0.629229,0.207963,-0.665752,0.718779,-0.298418,0.290007,0.383,0.634,0.235,0.571,-0.651,-0.984,-0.0989871,0.447837,0.260433,-0.466055,0.354058,-0.153183,0.505976,0.686496,-0.516825,0.0857238,-0.773858,-0.0718653,0.0982109,-0.100251,-0.860825,0.751016,-0.689834,-0.63265,-0.968242,0.464592,0.557258,0.918213,0.173487,0.807219,0.202451,-0.445971,0.44,0.994,0.681879,0.789227,0.567055,-0.405287,0.260367,-0.163077,0.0971225,-0.875088,0.242443,-0.790933,0.857202,0.302543,0.30155,0.656262,0.822667,1.03817,-0.331838,1.02748,0.777771,-0.543615,0.877024,0.315642,0.856423,-0.106879,-0.319119,-0.0469006,-0.323016,0.886,0.0646283,0.675722,0.886234,-0.212379,0.528369,0.444069,0.232903,-0.927774,0.704726,-1.08798,-0.675791,-0.386631,-0.77807,0.840142,0.947584,0.141762,0.160461,0.84276,0.0820938,0.183916,0.23982,-0.690292,0.513171,-0.509516,-0.109925,0.110742,-0.209016,0.543,0.622119,0.0342228,0.00457,-0.240725,-0.208794,-0.583602,0.327316,0.550205,0.240323,-0.867737,0.812003,0.16457,-0.689071,0.950543,0.471264,-0.859487,0.349444,-0.0444926,-0.254737,-0.525871,-0.657255,0.321455,0.453558,-0.174091,0.195659,-0.893406,0.00999734,0.543,0.21618,0.354055,0.08942,-0.524333,-0.470021,-0.854348,0.0672077,0.0634506,-0.525793,-1.00622,-0.270853,0.426289,0.909459,-0.648783,-0.718094,0.792966,0.719756,0.655255,0.88266,0.283938,-0.147055,-0.749018,0.0659667,-0.194544,0.138252,-0.906253,-0.153,-0.809,0.750856,0.844931,0.256126,-0.450726,0.298054,-0.537039,-0.013931,0.284673,-0.897676,1.05459,-0.726245,-0.925619,0.564178,-0.459246,0.456092,0.500694,-0.594572,0.764468,0.36669,-0.603136,0.700775,-0.05538,0.462353,0.764495,-0.109628,0.807477,0.883,0.908,0.893344,-0.318964,0.57728,0.633409,-0.802858,0.0390705,-0.722646,0.130284,0.0607788,-0.184931,-0.837914,-0.10991,-0.881106,0.805065,-0.56697,0.773811,-0.956325,-0.926642,-0.0301007,-0.483519,0.390849,0.876162,-0.274418,-0.535997,-0.273859,0.700606,-0.857,0.102,0.506574,0.528487,-0.533707,-0.104031,0.923434,-0.69726,-0.741699,0.739526,-0.183722,0.895351,-0.991106,0.0587852,-0.634019,-0.995766,0.510497,-0.362545,0.565331,-0.906015,-0.997634,0.435313,0.579128,-0.0350092,0.479971,-0.0372956,-0.120158,-0.66645,0.482963,0.135,0.595704,0.149392,-0.847805,0.0135162,-0.66434,-0.172052,0.652474,-0.778746,-0.504321,0.637749,0.197074,-0.202868,0.161709,0.288208,-1.12348,0.546949,-0.0207068,0.122741,0.819814,-0.593081,0.226918,-0.953288,0.613244,-0.139438,-0.470229,0.196334,0.489992,0.458,0.0949682,-0.0374123,-0.92072,-0.387001,0.733317,-0.594925,0.728925,-1.0603,-0.371736,-0.12477,0.797426,0.0135092,-0.126578,0.141632,0.71842,0.923543,-0.872885,0.373857,0.108839,-0.0634797,-0.500023,0.170898,0.597717,0.30731,-0.369249,-0.235884,0.794,0.309,0.976481,0.263085,-0.745174,0.000667622,0.844058,-0.927705,0.704078,0.477931,0.955751,0.156755,0.337963,-0.0276573,-0.776839,-0.413359,0.339496,-0.534565,0.334975,-0.382397,0.807228,0.112037,0.767889,-0.0293054,-0.795713,0.824857,0.553608,0.302104,-0.265,0.934,-0.910742,-0.490124,-0.247486,0.58803,0.430927,-0.330888,-0.413082,0.116813,-0.196982,1.19267,-0.431424,-0.0575719,0.237892,0.587328,0.256967,-0.0343681,1.16477,-0.66918,-0.417397,-0.0295421,-0.410625,-0.644401,0.696188,0.886943,-0.299254,0.820457,0.331,0.997,-0.298409,-0.923596,0.914363,-0.178504,-0.753881,-0.267739,0.901074,0.516417,0.0843457,-0.143399,-0.124823,0.772023,-0.665249,0.242411,-0.281321,0.230749,1.26052,0.573376,0.608265,0.403766,0.0615955,1.11074,0.881919,0.0744088,0.72243,0.461588,0.035,-0.380999,-0.13906,0.917762,-0.807126,0.666091,1.09134,-0.921846,0.817042,0.709945,-0.534864,0.923324,0.223972,0.345842,-0.785271,0.787543,0.4214,-0.291163,1.34188,0.210022,0.288753,1.03088,0.965714,-0.713058,0.258439,-0.7005,0.568752,0.0096272,0.461004,0.501994,-0.953747,-0.519848,0.708719,0.0201629,-0.514618,0.802916,-0.611246,0.959731,0.477105,0.851249,0.579241,0.869396,0.908802,-0.276169,0.162229,0.844765,1.27037,0.694025,0.999774,1.08299,-0.536048,-0.493045,0.361609,0.635464,-0.567383,-0.882552,-0.959999,-0.80304,-0.308857,0.481169,0.302339,-0.158806,0.600341,-0.107209,0.651955,0.552331,-0.249723,0.570687,0.400016,-0.785778,0.601891,-0.131209,1.00106,0.297084,-0.0297055,-0.217259,-0.358682,-0.274291,0.979238,0.693215,-1.02677,0.761666,-0.917814,0.447802,0.532998,-0.782017,0.126821,0.143878,-0.52544,0.929123,-0.340398,0.678499,-0.392966,0.761663,-0.872595,0.701322,0.154407,-0.288203,0.28263,-0.663331,-0.0580991,-0.156023,0.195367,-0.280685,0.382507,0.893527,-0.283582,0.0849744,0.709107,-0.527215,-0.14907,-1.00378,-0.985005,-0.379003,0.00331547,0.595947,-0.00116814,-0.716513,-0.238544,-0.175031,0.965292,-0.0825576,-0.409506,-0.790854,-0.360353,-0.517499,0.725456,0.844976,0.228865,0.0193853,-0.754149,0.974279,0.14022,-0.157991,-0.921792,-0.827322,-1.04837,-0.38023,0.397895,0.548477,-0.093,0.935,0.113512,-0.0227651,-0.260547,-0.664512,-0.833722,-0.0236687,0.800278,-0.715275,0.878149,0.491786,-0.232088,0.697751,-0.113369,0.282632,-0.909539,-0.0615344,-0.33661,-0.428321,0.177959,-0.66325,-0.90367,-0.721817,-0.262112,-0.785586,-0.7792,-0.534251,-0.429,0.222,-0.97874,0.0966802,0.309127,0.34881,1.15129,0.370557,-0.0952455,0.606542,-0.682756,-0.728151,0.415954,0.502746,0.466005,-0.93964,-0.0220606,-0.547045,0.0954481,-0.453358,-0.50263,0.202775,0.317322,-0.995783,-1.01303,0.831481,-0.808732,-0.515708,0.695,0.923,-0.0495852,-0.648701,0.305865,0.181955,0.523001,1.02406,0.830902,-0.0569715,0.210257,-0.436367,1.0009,-0.0380833,-0.353302,0.220357,-1.09519,0.468411,-0.109915,-0.594152,0.228487,-1.29608,0.00708018,-0.537931,0.713807,-0.39793,-0.486695,0.504872,0.978,-0.845,0.546057,0.740196,-0.727086,-0.250484,0.782767,0.0887911,0.258527,-0.500729,-0.320334,-0.712583,-0.180541,0.395352,-0.297197,-0.491199,-0.990989,-0.385526,0.523611,0.381316,-1.17112,-0.524061,-0.526163,-1.10737,0.0418543,0.763372,-0.653454,-0.566331,-0.802,-0.304009,0.491682,-0.777046,-0.407748,0.30805,0.67119,-0.271206,0.294219,0.00652115,0.253611,0.631134,-0.235911,0.368427,0.741752,0.291332,-0.525339,-1.15433,0.408766,-0.320189,-0.598612,0.0370734,-0.742782,-0.114654,-0.895849,0.16162,-0.458827,-0.382563,-0.788,-0.279017,-0.399404,-0.555214,0.0925294,0.838336,-0.223787,0.554912,-0.587989,0.672222,0.497938,0.394597,-0.557102,-0.807856,-0.0624579,-0.234604,0.635742,-0.648702,-0.768754,-0.668815,-0.461074,-0.964079,0.0282317,0.376492,-0.0546394,0.419677,-0.731974,-0.0974531,0.934,-0.29001,0.0700685,-0.83959,0.0341366,0.733487,-0.816835,1.02694,-0.0326782,-0.653489,-0.0339516,0.198966,0.856313,-0.617029,-0.893134,-0.656222,-0.33799,-0.34599,0.119979,0.835486,0.047473,0.00466434,0.87803,0.755526,-0.313134,-0.0918308,0.0529385,0.505401,0.788,-0.16,0.961896,0.279427,0.110134,0.0363744,-0.0122799,-0.901946,-0.729784,0.105684,0.62415,0.154879,0.357544,-0.476577,-0.71206,0.166002,-0.591904,-0.684925,-0.0180489,-0.453527,-0.107064,0.596691,-0.632723,0.505694,-0.425004,-0.772963,0.214721,-0.24102,-0.34,0.815,-0.736,-0.995,-0.788995,0.782989,0.284032,0.319034,-0.183758,-0.734659,-0.0264368,0.0769313,0.36,-0.856,0.780995,-0.732005,-0.780005,0.615999,0.42401,-0.376,0.92,-0.612,0.160092,-0.632996,0.536,0.083,0.871,-0.895,-0.136,-0.358,-0.579,0.525,-0.544,-0.758175,0.529463,-0.330872,-0.970716,-0.62416,0.546941,-0.159486,-0.807345,-0.928993,0.473524,0.553982,-0.78203,-0.190777,0.816209,-0.565593,-0.57405,-0.199289,-0.383961,-0.655001,-0.253003,0.776999,-0.731,-0.718,-0.141,-0.86,0.944991,0.723191,-0.214426,-0.636572,-0.203209,-0.210616,-0.39787,0.886111,0.0174333,-0.366862,0.817132,-0.884775,0.017249,-1.00657,-0.825613,-0.957074,0.551736,0.961921,-0.135017,-0.0677035,0.950468,0.289627,0.73737,-0.424081,0.202441,-0.957111,0.907999,0.47,-0.674761,-0.6673,0.206381,-0.698368,0.605398,0.477188,-0.391576,0.95035,-0.745228,-0.316204,0.708243,0.16298,0.280424,0.543663,0.347126,-1.05586,0.18153,0.162687,-0.91297,-0.239853,-0.36521,-0.117236,0.28643,-0.305494,-0.729833,-0.405687,-0.200153,0.45,-0.363552,-0.275304,-0.464665,0.0367292,-0.364493,0.658144,-0.216399,-0.792802,0.0679846,0.202801,-1.11223,0.196792,-0.959034,0.460251,-0.733829,0.221305,-0.172543,0.420673,0.393212,-0.823897,-0.808855,0.377482,-0.561608,-0.187979,0.821234,0.245542,0.455975,-0.933,0.838286,0.814417,0.12104,-0.895822,-0.914894,0.545394,-0.472675,-0.331209,-0.367193,0.0705677,-0.845145,0.736336,-0.333714,-0.909326,-0.0728376,-0.386772,0.855264,0.0986385,0.669805,-0.617585,-0.573935,-0.242139,0.732973,-0.764772,0.417945,-0.975289,-0.0219455,0.226,-0.174621,0.99128,-0.0860698,-0.286653,0.756162,0.375569,-0.837198,0.803917,-0.546303,-0.371858,-1.05172,0.24482,-0.951684,-0.494926,-0.132573,-0.397619,-0.0930705,1.09066,-0.00580845,1.29921,-0.1337,1.0821,0.576621,-0.796769,0.958192,0.11165,0.920048,0.364,-0.310926,-0.0664647,-0.775059,0.52803,-0.659353,-0.634018,0.532439,0.610463,-1.18909,0.758362,-0.00444957,-0.620024,-0.364606,0.330238,0.692084,0.211139,0.726628,-0.418314,0.166441,0.889179,-0.755404,0.602737,0.578726,-0.900572,0.323968,-0.477601,0.802,0.294,0.630068,0.757633,-0.728688,0.837651,-0.580464,0.662059,0.190129,-0.614991,-0.847436,-0.177351,-0.869849,-1.15013,-0.357655,0.805259,-0.503778,0.751356,-0.194993,0.887069,0.995434,1.0856,-0.858034,-0.0920102,0.670976,0.694402,0.879988,-0.368284,0.299,0.226,0.151555,0.144116,-0.882296,-0.722964,-0.341761,0.658978,-0.949424,-0.234889,0.119953,0.0565359,0.475779,0.827229,-0.515889,0.854863,0.703612,-0.167577,0.00398995,0.746416,0.966853,0.383825,0.407396,0.474567,-0.00887884,0.07038,0.828874,-0.486329,-0.253991,0.758,0.142789,0.641635,0.00789698,0.767398,-0.538611,-0.634863,-1.00312,0.347974,-0.583748,-0.507944,-0.835817,0.544194,0.376169,0.955868,0.378134,0.349453,0.142351,-0.698257,0.598432,0.669902,0.805158,0.164833,-0.302926,-0.278999,-0.482874,0.534586,0.840998,-0.596,0.596778,-0.859723,-0.858066,-0.886781,0.389272,-0.604429,-1.01143,-1.03961,0.397844,-0.566051,0.101133,0.449254,-0.558961,0.30058,-0.170448,0.735501,-0.259249,0.663884,-0.349446,0.361402,0.171772,0.796485,-0.343309,-0.115662,-0.241462,0.0795641,0.128,0.214,-0.852793,-0.055565,0.10137,0.502467,-0.735997,-0.023914,-1.19387,0.865794,0.589045,0.70112,0.847509,-0.580455,-0.882392,-0.292458,0.483279,-0.828921,1.01885,0.846004,0.177265,-0.785699,-0.478853,0.143099,0.497604,0.579258,-0.203459,0.455746,-0.627,-0.039,-0.491301,0.506025,-0.873885,-1.02567,-1.35681,-0.474304,0.723152,-0.826274,0.749567,0.42901,-1.03512,0.110558,0.104816,0.574955,0.75255,0.037787,-0.526331,-0.118309,-0.436048,0.616836,-0.756121,0.524803,0.879889,-0.0946529,-0.662948,-0.134767,-0.527001,-0.398,-0.691858,-0.651102,0.458263,-0.915882,0.516456,-0.00464233,-0.528577,0.432574,-0.868101,-1.00579,0.588498,0.785227,-0.0518688,0.176482,-0.303352,-0.530643,-0.11203,-0.503355,0.216685,-0.22839,0.0604977,0.565202,-0.548521,0.538688,-0.146613,0.90432,-0.998,0.194993,-0.230078,-0.599565,0.241,-0.621923,-0.424985,-0.277394,-0.0727576,-0.755004,0.718141,0.0595983,0.771487,0.478566,-0.298544,0.294712,0.205573,0.885297,-0.243438,-0.728263,-0.690407,0.593849,-0.556576,0.115465,-0.806098,0.524916,-0.171521,-0.320843,-0.348036,0.727961,-0.4166,-0.437516,-0.706744,-0.338577,-0.550297,0.683668,0.506158,0.524415,-0.65985,-0.835816,0.532299,-0.857798,-0.258809,0.000961277,-0.181132,0.361667,-0.558415,-0.120186,0.28148,0.189168,-0.647108,0.16047,-0.904495,-0.296729,0.896844,-0.723944,0.789993,-0.252996,-0.495346,0.84522,-1.23118,-0.606627,-0.479169,-0.480982,0.185393,-0.060573,0.986521,-0.651427,-0.790347,-0.592755,-0.655842,0.293412,0.549287,-0.121363,-0.2244,0.180913,-0.600761,-0.0935137,0.289961,-0.207317,0.339463,0.5167,0.965256,0.390732,0.732002,0.892305,0.217859,0.40136,-0.954184,0.620737,0.507742,-0.694887,1.07104,0.848239,-0.549143,-0.140399,-0.527277,-0.554472,-0.0548723,-0.905455,0.743078,0.0363107,0.667422,0.874496,0.854315,-0.945769,-0.678715,0.357188,-0.284469,0.151564,-0.666263,-0.916871,-0.365003,0.913009,0.480792,0.881683,0.332052,-0.685449,0.134484,0.685039,0.73374,-0.691505,0.603653,0.811941,1.08358,0.838192,-0.712234,0.56873,0.692011,-0.198735,0.571195,0.57242,0.467229,0.290683,-0.011884,-0.205912,-0.0722632,0.50559,-0.510075,0.757027,-0.38,-0.13,0.4043,-0.189443,-0.651785,-0.464296,-0.0535682,1.0135,0.0616705,0.623146,0.556155,-0.366645,0.628883,-0.68267,0.471342,-0.217723,0.745681,-0.0502586,-0.86861,0.376239,0.670708,-1.23371,-0.258359,-0.0165781,-0.0968834,-0.961859,-0.890127,-0.975416,0.142,-0.315,0.338634,0.323549,0.0783002,-0.346065,0.771254,0.793217,0.129111,1.32902,-0.0373661,0.625425,0.33406,0.969076,0.29935,-0.368493,0.661477,-0.332194,0.434969,0.366691,0.388984,0.371011,-0.642863,-0.0883566,0.075686,0.435788,0.815094,-0.721752,0.247,-0.934991,0.856885,0.901488,-0.812768,0.02418,0.22474,0.617809,0.778312,0.210876,-0.466792,-0.860632,-0.197843,0.00542758,0.128146,-0.879266,-0.315791,-0.841494,-0.0179392,-0.634201,-0.417292,0.613639,0.583573,0.569619,0.27098,0.76716,-0.591529,-0.260677,0.571,-0.585952,-0.421446,-0.659457,-0.637371,0.848282,-0.688176,-0.102972,0.33838,0.715778,0.76326,-0.935606,-1.16595,-1.09594,-1.20403,-0.124448,-0.186131,-0.17638,-0.133973,0.610865,-0.140006,0.173662,0.80304,-0.123348,-0.128668,0.0080746,-0.287729,-0.486225,0.197,0.352908,-0.181444,-0.714358,0.661303,-0.146247,-0.256285,-0.597665,0.0753183,-0.346209,-0.435607,0.487986,0.379683,-1.01158,0.642558,0.631573,-0.939506,0.548699,-0.545857,0.0792459,-0.649568,-0.227583,-0.935105,-0.417707,0.911577,0.832829,0.570024,0.010823,-0.272,-0.509164,0.0956197,0.458379,0.355112,0.423076,0.411192,-0.135813,-0.500258,0.600968,-0.614897,0.0733242,-1.2114,-0.276706,-0.234939,0.69908,-0.0391396,-0.377904,0.343642,0.162409,0.606277,0.691138,0.674785,0.369711,-0.586678,0.711344,-0.993814,0.967961,0.265,0.707904,-0.00919333,0.562747,0.759987,0.619361,0.0559604,-0.240894,0.100962,-0.698097,0.26653,0.318653,-1.22504,0.763405,-0.651257,0.6722,-0.398202,0.556531,0.690313,0.685752,0.659957,-0.0124077,-0.636748,0.220847,-0.829634,-1.00635,-0.365866,-0.824607,0.778,-0.307001,-0.852938,-0.398489,0.958986,-0.307272,-0.851349,0.26999,-0.667054,0.169441,0.522204,-0.00703226,0.108279,-0.0442075,-0.457804,-0.315544,-0.508312,0.03691,-0.535639,0.140253,-0.845049,0.700213,-0.194535,0.80394,-0.796034,-0.284685,0.0431824,-0.610988,-0.257,0.246,-0.878,-0.923,0.496094,0.830949,-0.763552,0.453402,-0.478879,-0.616983,-0.721068,-0.584019,0.121,0.819931,0.428102,-0.748895,-0.646847,0.989794,-0.489007,-0.589,-0.41,-0.024,0.550934,-0.7001,-0.772,0.918,-0.895,-0.568,-0.364,-0.293,-0.621,-0.064,0.51,-0.499148,-0.429959,0.00534043,-0.673211,-0.193007,-0.537041,-0.591157,0.186883,-0.705187,-0.177059,0.8664,0.671539,0.809303,0.674709,0.582579,0.356084,-0.813662,0.995311,0.945058,-0.281,0.546,-0.756,-0.053,0.02,0.908,0.380001,0.212863,-0.830196,0.75709,-0.861808,0.671461,0.804521,-0.733167,-0.318005,-0.857343,0.0839697,-0.294729,-0.884523,0.830523,-0.442191,-0.510744,0.688244,-0.77871,-0.703869,0.364709,0.806529,0.648782,0.102617,0.35534,0.151317,0.824014,-0.54,0.398,-0.228617,0.477182,-0.144517,-0.847112,-0.31052,-0.431349,0.889468,-0.616771,-0.711844,0.756432,-0.715915,-0.419632,0.506208,-0.034751,-0.140175,0.158993,-0.269957,0.335917,0.586352,0.957333,0.56197,0.863826,-0.174074,-0.107991,0.516911,0.959307,0.831001,-0.317,0.784298,-0.712945,0.632899,-0.413623,0.835655,-0.874321,-0.685789,-0.953428,-0.314176,0.750522,1.03722,-0.38428,0.213755,0.993887,0.1922,-0.436925,-0.31997,0.775593,0.108779,-0.0643322,-0.279052,-0.311181,-0.26445,0.678537,-0.938609,0.219521,-0.332988,0.19,0.183272,-0.515936,0.412174,-0.438017,-0.589862,0.129616,-0.305802,0.68768,-0.365136,-0.171227,0.723229,0.0377236,-0.133914,0.487695,0.550162,0.735514,0.0222742,0.931956,0.663747,0.262355,0.352025,-0.620274,-0.964604,0.765203,-0.122908,-0.590515,0.613007,-0.405,0.639989,0.834769,0.766986,-0.629513,0.856909,0.184118,-0.129733,-0.845407,0.675122,-0.0776637,0.846861,-0.865142,0.740858,0.400514,0.165207,-0.690903,1.07423,-0.603184,0.378209,-0.0361133,-0.63989,-0.268033,-0.819001,-0.0870878,-0.69072,0.701599,-0.149011,-0.137,-0.873134,-0.977557,0.408176,0.713815,0.777684,0.110439,-1.02458,0.100101,-1.19371,-0.532198,0.520418,0.954483,0.934246,0.27161,1.18551,0.447978,-0.72126,-0.487878,0.0101754,-0.862803,-0.0542065,1.14466,-0.20857,-0.498361,-1.07122,-0.73549,0.524,-0.614,0.979417,0.918631,0.170474,-0.993688,0.829251,-0.9246,0.198436,0.130603,0.331773,0.105844,-0.245752,0.265351,0.951285,1.02039,-0.209877,0.156234,-0.153185,0.982393,0.773451,-0.489053,-0.439406,-0.435572,-0.667539,0.150491,-0.847679,-0.652292,0.269,0.84,-0.376127,-0.686947,0.711957,-0.902165,0.695731,-0.597908,0.632051,0.196791,-0.242274,0.347297,-0.0846619,1.21374,-0.323397,0.23665,0.265575,0.827491,-0.15493,0.503452,-0.351947,0.119099,0.573516,-0.428838,0.163543,0.83108,-0.247363,0.314719,-0.389027,-0.352,0.679998,0.417548,-0.965725,0.87084,0.773421,0.811439,-0.967757,0.176777,-0.657531,0.389786,-0.47512,0.412004,-0.110637,0.0179991,-0.125267,-0.350611,0.788496,0.744086,-0.73498,-0.842205,0.458896,-0.397999,-0.297348,-0.715281,-0.0483608,0.783392,-0.884037,0.275,0.104859,-0.736003,0.464954,-0.58156,0.817621,0.610289,-0.700729,0.0803099,-0.176233,0.669048,-0.846891,-0.081544,0.259982,-0.168281,-0.769293,0.392025,0.548392,-0.627839,0.495482,0.0820846,-0.504609,0.878826,0.0595236,0.121188,-0.838531,0.567699,0.226,-0.463,-0.10832,-0.173299,0.288617,-0.956371,0.179712,-0.160017,0.949704,-0.537812,0.776304,-1.10154,0.30579,-0.257385,0.40216,0.384648,0.832689,-0.847986,-0.901105,0.427918,0.0773278,0.406477,1.06308,-0.436817,0.762148,0.718694,-0.813354,-0.805233,-0.367,0.753,0.307148,0.717883,-0.862041,-0.836583,-0.323963,0.135159,0.770771,0.501019,-0.999379,0.489544,0.701002,0.372784,0.307053,0.549703,0.959943,-0.366176,-0.276351,0.61619,-0.647564,-0.535742,-0.397527,0.297833,0.252299,-0.851411,0.478027,0.0487844,0.751998,0.066,-0.223297,-0.738525,-0.345399,-0.995064,0.677284,-0.290496,-0.402711,-0.22922,0.45055,-1.00662,-1.13617,0.349507,0.810454,-0.920944,-0.500758,-0.0578207,-0.0878932,-0.658234,0.12116,0.213083,0.553517,0.0762474,0.83366,-0.518701,-0.66161,-0.158405,-0.912,0.648003,0.422262,0.7497,-0.500111,-0.956261,0.706776,0.276463,-0.31109,0.825853,0.433464,-0.305306,-0.975991,-0.325007,-0.605311,0.815794,0.690722,-1.11568,0.00554399,-0.920359,-0.550694,-0.880832,-0.700807,0.512875,0.861153,-0.58668,0.0317894,0.367638,-0.276985,0.19801,0.736801,-0.321219,-0.806624,0.0771727,-0.73813,-0.0859078,0.769953,1.2628,0.46758,0.770487,0.444909,-0.845656,1.11623,0.3409,-0.610515,-0.934651,-0.288034,-0.968995,0.786272,0.714707,-0.7954,-0.202091,-0.490341,-0.478686,-0.537539,0.718796,-0.368997,-0.121023,-0.393547,-0.242743,-1.07938,-0.6942,0.3722,-0.783415,0.842641,0.714399,-0.170862,-0.463697,-0.0814417,-1.04711,-0.541816,-0.342882,-0.82095,-0.73022,0.334716,-0.329308,-0.722481,-0.503526,-0.3637,-0.624058,1.09722,-0.544381,0.00109966,-0.784598,-0.295977,-0.125962,0.456508,0.199167,0.608602,0.534393,0.788129,0.48479,-0.824981,0.0798166,0.327448,-0.00474203,-0.662983,0.515399,0.834821,0.657064,0.750011,0.763502,0.816586,0.546696,0.644743,0.245669,-0.717577,0.97145,0.353371,-0.582537,-0.8777,0.1001,-0.779897,-0.436975,-0.138231,-0.166004,0.270267,-0.772487,0.758735,-0.271782,0.396269,0.40585,-1.04926,0.362578,-0.503799,0.0263611,-0.54677,-0.0399649,-0.0692461,0.807048,-0.525946,-0.923488,0.356613,0.709462,0.639569,0.107659,0.118122,0.517918,-0.102194,0.690979,0.161,-0.572,-0.651642,0.350006,-0.172098,0.16778,-0.726397,-0.74962,-0.157909,0.539912,-0.297621,-0.458232,0.230714,-0.538586,0.894231,0.667663,0.621436,0.763011,-0.609002,0.87019,0.402149,-0.633207,0.582007,-0.5801,-0.712659,0.298912,0.389823,-0.387042,0.946,0.664,-0.711503,0.0529584,0.562825,-0.346735,-0.962313,-0.511163,0.256014,-0.653118,-0.301507,-0.48154,0.660997,0.497951,-0.156568,0.0135354,0.79546,-0.962129,-0.584758,-0.174298,0.693894,-0.239661,-0.707203,0.196494,0.327282,1.00534,0.552757,-0.136835,-0.096,-0.671002,0.463046,-0.658095,0.466003,0.283587,0.0321869,0.10913,0.379573,0.0628077,0.408159,-0.0405315,0.148259,-0.817878,0.179653,-0.176022,0.0129568,0.145755,0.393059,-0.333533,0.174304,0.436201,0.140346,0.0685189,1.0089,0.549003,0.729714,0.0537994,0.253,-0.288011,0.465356,0.648731,-0.119134,-0.173702,-0.978098,-0.937853,-0.874422,-0.33449,0.299824,0.777164,0.984267,-0.440813,-0.486547,0.0945208,-0.611715,-0.375215,0.39005,0.163119,0.721739,-0.482034,0.573868,0.150773,-0.841834,-0.684185,0.647148,0.878859,0.63,0.244001,-0.520681,-0.6138,0.777242,0.744736,-1.03552,-0.675516,-0.822536,0.619365,-0.449529,-0.326983,-0.762289,0.800211,1.14527,1.06863,0.908898,0.666771,-0.614643,0.729775,-0.709573,0.908074,-0.39604,0.780413,1.06063,0.756003,-0.175421,-0.995801,0.873,-0.664999,0.435663,0.50491,0.0817747,0.3339,0.328549,-0.625767,0.0969617,-0.0518341,0.0421145,0.836667,-0.366938,0.521292,-0.854502,-0.260958,0.0467223,0.613634,-0.304899,-0.494443,-0.13339,0.132951,0.880932,0.298916,-0.3348,-0.473392,0.0131999,-0.386096,-0.856,0.325001,-0.822959,0.582014,0.197614,0.105517,-0.511545,0.713967,-0.541462,-1.02887,-0.526688,0.61988,0.350475,0.77751,0.063626,0.944546,0.227012,0.159722,-0.362681,0.822822,-0.693525,-0.0870121,0.944206,0.274487,0.689201,0.847232,-0.917295,-0.71721,0.851,-0.37,-0.545035,0.55084,0.952121,-0.376909,0.110535,-0.292025,0.771259,0.294492,-0.369013,0.992541,0.446476,0.203263,0.621923,-0.654848,-0.474974,-0.334002,0.826454,0.305509,0.37907,-0.943897,0.164181,0.294459,0.00968012,-0.332934,-0.44886,-0.333064,-0.957,-0.815,-0.493,0.451,-0.18514,-0.0392748,1.03313e-05,-0.67301,0.149249,0.68499,0.0562125,-0.0551163,0,0.255,-0.505,-0.999,-0.544,-0.889,-0.658014,-0.463,-0.666,0.732,0.845988,0.272,0.789,-0.435,-0.435,-0.649,0.231,-0.327,-0.424,0.274,-0.142001,0.0829449,-0.275829,0.233897,0.605643,0.284003,0.558793,-0.248362,-0.0320047,-0.828,0.252875,0.525207,-0.0159531,0.748081,0.0828349,-0.00203855,0.41696,0.425072,0.536513,0.751001,-0.286,0.38,0.023,-0.498,0.945,0.145,-0.589982,0.174556,0.81386,-0.0197126,-0.999167,-0.77557,0.614981,-0.72185,0.456277,0.228333,0.566569,-0.425753,0.535944,-0.906751,-0.691169,-0.212396,0.16932,0.287848,-0.911014,-0.758382,-0.724395,0.50054,0.23257,0.817334,0.260232,0.954834,0.203,0.842,-0.987105,-0.303225,-0.0386755,-0.612054,0.822007,-0.70789,0.337145,0.383439,-0.477148,-0.473485,0.676138,0.60214,0.405321,-0.11946,-0.767882,-0.0801409,-0.0490577,-0.93273,0.222344,0.591606,0.256847,0.259468,0.860073,0.104279,-0.172363,0.177448,0.0170566,0.686,-0.309582,0.770569,0.0841507,-0.293413,-0.556371,0.564078,0.0877071,0.922187,0.957063,-0.969513,-0.117952,-0.418721,-0.716186,-0.331671,-0.755358,0.642276,0.0780012,0.93863,-0.949821,0.480915,0.89044,0.256773,0.094033,0.186763,-0.802162,-0.260235,-0.901909,-0.306,0.919587,0.121784,0.977847,-0.74316,-0.515573,0.0414123,-0.0556708,-0.366298,-0.289901,0.555097,0.980056,-0.270759,0.357762,-0.024819,-0.157452,0.064306,0.120972,-0.423716,-0.275002,-0.816097,-0.585961,-0.724638,0.228342,-1.14303,0.543238,-0.503512,-0.0719692,0.467,0.234451,0.000193989,-0.846053,-0.20805,-0.776191,0.717557,0.023164,-0.602989,-0.137475,0.442874,-0.685963,0.0666239,-0.387568,-0.798328,0.0851874,0.161244,-0.401199,0.84448,-0.743769,0.703613,0.885748,-0.168077,0.463946,-0.675478,-0.404988,-0.388219,-0.586151,-0.691,-0.334861,0.306878,0.274916,0.916497,-0.60577,0.0335929,-0.728227,-0.756301,-0.202224,-0.396684,0.725222,0.350775,0.832137,0.845678,0.730179,0.826493,0.562547,-0.184809,0.135792,-0.650946,-0.606089,0.447902,0.714771,-0.659413,0.693647,-0.58966,-0.834,-0.651,-0.424889,-0.866309,-0.793008,0.257846,0.00278415,0.034376,-0.261849,0.484189,-0.841769,-0.642349,-0.158102,-0.355072,-0.163109,-0.770052,0.749176,-0.53743,-0.705747,0.67249,-0.403615,1.20627,-0.735429,0.711323,0.989694,-0.453012,-0.542068,0.311972,-0.871,0.615,0.709696,-0.70962,0.498927,0.839735,-0.649065,0.2156,0.123074,0.156278,-0.612534,0.23357,0.801213,-0.601557,0.615546,-0.101271,0.300548,-0.788952,-0.174338,0.232719,0.0675139,0.398381,-0.559939,0.506374,-0.0131137,-0.445771,-0.497137,-0.823688,-0.646021,-0.616,0.484358,-0.495899,0.996781,-0.227967,-0.731524,0.392842,-0.353733,-0.445558,-0.581819,0.194323,0.327182,-0.214305,-0.872854,0.2,0.121033,0.279316,0.8433,-0.648187,0.977724,-0.107644,0.573941,-0.016735,0.829441,0.529322,0.808459,-0.980812,0.872983,-0.804,-0.808965,-0.773896,-0.398565,0.267626,-0.721414,-0.913793,0.520343,-0.844729,0.0295129,0.546718,-0.532786,0.66834,-0.425635,0.815314,-0.676534,-0.393606,-0.267617,0.25998,0.742689,-0.384557,0.613195,0.816707,0.346918,0.28712,-0.85733,-0.287518,-0.566,0.753,-0.72686,0.806818,0.427677,-0.597434,0.590732,-0.988163,0.138101,0.342055,0.61648,-0.332279,0.58148,0.0533676,-0.302523,-0.70282,-0.732658,-0.0112304,0.293362,-0.680779,0.08342,0.703849,0.858406,0.357973,-0.0510504,0.586146,-0.731836,0.0750894,0.77,-0.888,0.310826,0.624267,0.66922,0.433002,0.0647051,-0.143848,0.550982,-0.147133,0.0157137,-0.197156,0.743249,-0.670695,0.761961,0.578159,-0.0491304,0.629803,0.354728,-0.242807,-0.983201,-0.611442,0.0142669,0.81457,-0.0560485,0.0917633,-0.460327,-0.515035,0.519975,-0.928,0.524653,-0.286176,-1.01261,-0.222845,-0.79247,0.653546,-0.48359,-0.0216399,-0.44421,-1.02853,0.128507,0.0242405,-0.504372,0.187391,0.472824,-0.884653,-0.521755,-0.872143,0.0423678,0.373138,-0.346009,0.69304,-0.329826,1.10428,0.166046,-0.0836928,-0.713,0.0800008,-0.0654228,0.681673,-0.0095379,-0.540628,-0.669143,-0.0329979,0.399742,0.979176,-0.488719,0.311848,-0.251539,-0.100956,-0.161257,-0.895375,0.74814,0.394969,0.18753,-0.529397,-0.352544,0.507263,-0.256547,-0.663869,0.209021,0.865304,-1.08287,0.659672,0.502004,-0.285003,-0.872648,0.650081,0.262314,0.101855,0.253169,-0.860765,0.54047,0.396824,0.0614284,-0.535127,0.176139,-0.204412,0.115609,0.636962,0.62521,-0.832806,0.573773,-0.114435,0.109789,-0.690835,-1.29313,-1.12294,-0.645825,-0.623264,-0.657442,0.73326,-0.868999,-0.881028,-0.0310263,0.616328,-0.595597,0.187655,0.530582,0.335065,0.714369,-0.436387,0.337315,-0.279742,0.303542,0.661599,0.126932,-0.613092,-0.0775638,-1.07277,-1.36849,-0.937167,-1.04811,0.661155,0.558353,0.13226,-1.13626,0.0898141,0.28271,-0.89408,0.966016,0.541084,0.423232,-0.877974,0.248733,-0.579686,0.280048,0.185124,0.11014,-0.267406,-0.574005,-0.321122,-0.236978,0.777733,0.155683,-0.689733,0.518001,0.495143,-0.8977,-1.32453,-1.22338,-0.385141,-0.470123,-0.78383,-0.991559,0.720056,0.416797,-0.848136,0.356071,-0.36298,-0.714246,-0.0843366,0.770704,0.756909,-0.374188,0.100452,0.687886,0.760855,0.627542,-0.363132,-0.301099,-0.648776,0.0292931,0.211677,0.184434,-1.46163,0.0806235,-0.672725,-1.14716,0.814808,-0.184748,-0.951303,-0.454551,0.306311,0.699747,-0.661005,0.12,0.058,-0.474409,-0.427354,0.829162,-0.379392,0.329182,0.704227,0.621228,0.34025,0.87062,0.309719,0.560376,0.754713,0.752383,0.06929,-0.120427,-1.17927,-1.31462,-0.598218,-0.831236,0.729196,0.430416,-1.00146,0.378246,-1.11896,-1.03632,-0.872719,0.644,0.992,-0.943476,-0.481354,0.285969,-0.565961,-0.311526,-0.566159,-0.570417,0.213973,0.280203,-0.848096,-0.148925,-0.160569,0.175763,0.331334,0.568883,-0.894698,-0.71017,-0.242556,-0.444679,-0.158576,-1.08583,-0.047732,-0.400293,0.0619533,-0.0803614,-0.85239,0.3,0.145971,0.85869,-0.355485,-0.150714,1.04623,-0.0471477,0.331382,0.549869,-0.260807,0.0749683,-1.00048,1.00943,1.08185,0.634723,-0.367548,-0.533394,-1.13985,0.163202,-0.795989,-0.391101,-0.597732,0.410727,0.512966,0.734778,0.0475212,-0.53231,-0.514552,-0.629,0.139849,-0.796334,0.238299,0.865193,-0.889841,0.272782,-0.520188,0.473782,0.559974,0.246055,0.00905633,-0.515467,-0.271754,-0.214986,-0.587123,-1.10951,-1.13497,-0.824235,-0.51295,-1.08966,-0.785932,0.0617604,-0.244467,0.0533109,-0.352036,-0.687826,-0.547081,0.841,-0.546966,-0.491089,0.817812,0.579619,-0.763342,-0.530702,0.319161,0.757516,0.764242,0.471045,0.45681,0.638918,0.0631692,-0.879085,0.852837,-0.218463,-1.11493,0.482397,-0.601786,-1.20688,-0.761923,0.433702,-0.799857,-0.569163,-0.723302,0.0514482,0.11147,-0.445,-0.00593924,0.571529,-0.613391,-0.047002,0.570167,0.625197,-0.501658,0.834396,-0.714522,0.643853,0.868016,-0.845337,0.132933,-0.309584,0.0392731,0.364928,-0.95647,-0.187184,-1.04028,-0.664739,-0.315675,-0.263596,-0.428998,-0.0725124,-1.00155,-0.0943292,-0.0267632,-0.662,0.571036,-0.912257,-0.149332,-0.939537,0.196211,-0.16876,0.120156,-0.590847,-0.444854,0.749465,-0.65359,-0.604979,0.271979,0.591324,-1.01394,0.884613,-0.733221,0.129242,0.0432365,-0.392207,-0.789181,0.263971,0.246374,-0.22623,0.779123,0.476564,0.291718,0.819,0.966,-0.732979,0.711177,0.529116,0.913909,-0.847325,0.657258,-0.328367,-0.000731865,-0.216217,0.102256,0.129898,-0.94547,0.404096,0.0789959,-0.0813274,0.0484311,0.150288,-0.528454,-0.00411034,-0.602217,0.624663,0.713994,-0.279396,-0.478191,-0.445811,0.0619816,-0.691,-0.966,0.911,0.685,0.556981,0.734786,0.398942,0.0918485,0.650026,0.564161,-0.694856,-0.662966,-0.87,-0.355018,0.434796,0.262795,-0.737221,-0.601054,-0.649997,0.194,0.457,0.508,0.228493,-0.984003,0.468,-0.147,0.731,-0.813,-0.068,0.842,-0.194,0.241,0.433,-0.284071,-0.518261,-0.0100739,-0.548744,0.881682,0.637997,0.656495,0.00188571,0.500982,0.550994,0.131827,-0.855475,-0.0160593,0.949884,-0.593353,0.38395,0.858758,0.160474,-0.603017,0.365984,-0.613008,-0.587,-0.167,-0.203,0.701,-0.423001,0.729008,0.101386,-0.0569756,-0.462623,-0.898353,0.220541,0.0195288,0.090496,0.22762,-0.54621,-0.719814,-0.113357,0.464256,0.792545,-0.561727,-0.854953,0.924463,-0.0221185,-0.891871,0.897487,0.908308,0.949526,-0.39799,0.865242,-0.130849,-0.454999,0.835,0.259275,0.34514,0.106486,0.408818,-0.33868,-0.756651,0.927579,-0.251139,-0.679791,0.137951,0.310706,-0.0464247,-0.651982,0.321676,0.237936,-0.209827,-0.269914,-0.0300119,-0.234023,-0.526864,-0.499368,0.748222,-0.467425,-0.679701,0.172274,-0.984752,-0.0747399,0.042,-0.558302,0.0390914,-0.0869911,0.756028,-0.573781,0.57532,-0.349525,-0.471652,0.688898,-0.47257,-0.18416,0.5162,0.123246,0.623029,-0.956046,0.542492,-0.0301013,0.220054,0.815951,0.696977,0.733013,-0.423243,-0.891113,-0.823703,0.822173,-0.840477,-0.936716,0.021,0.734749,-0.445518,0.657881,-0.733919,0.646681,-0.919685,0.37588,0.400738,0.466472,-1.00913,-1.05999,0.126452,-1.00295,-0.656452,-0.592187,0.37473,-0.908861,-0.611336,-0.609057,0.025007,0.167953,-0.807055,-0.804004,-0.0815245,-0.170162,0.90679,0.143058,-0.298,0.627504,0.222215,0.351682,0.465839,0.83682,-0.0695301,0.528372,0.276491,-0.1475,-0.581978,-0.776576,-0.656226,-1.00779,0.936197,0.373793,-0.677705,-0.636663,0.687377,0.198616,-0.966861,0.709762,0.54667,-0.0570235,-0.0638373,0.515686,-0.0862513,0.972192,-0.587,-0.173115,-0.306383,-0.243576,-0.446771,0.49684,0.968462,0.406917,-0.245141,-0.638931,-0.59085,-0.996273,0.229791,-0.19283,0.849546,0.336456,-0.392845,0.905135,-0.236049,-0.0687727,-0.724444,-0.976868,0.604531,-0.771415,0.853257,0.106218,0.137601,-0.449,-0.305,-0.946996,-0.464495,0.187431,-0.465173,-0.192865,0.387886,0.0135214,-0.704881,0.294051,0.822497,-0.0863376,0.637489,-0.815416,-0.629761,-0.591118,-0.359784,-0.619078,-1.12555,0.269168,-0.717714,-0.783277,-1.15358,-0.783652,-0.562953,-1.09804,-0.0306674,-0.802,0.145,0.660687,-0.240553,0.88902,0.78478,-0.0807672,-0.323085,-0.609586,0.727158,0.896801,-0.370702,0.748717,-0.344129,-0.641554,-0.864148,0.852302,-0.775515,-0.296537,-1.09682,-0.269465,-0.4378,-1.07971,-0.691352,0.119933,-0.571349,-0.366249,0.916814,-0.114003,-0.251,-0.559128,0.0890912,0.501247,-0.843124,0.969773,0.138329,0.662221,-0.143639,0.470473,0.645568,0.844263,-0.256037,0.608733,0.0791901,0.452856,0.677142,0.30338,-0.244133,0.664179,0.490914,-0.0783415,-0.208904,-0.601888,-0.317269,0.521168,-0.966942,0.0599892,0.872,0.49823,0.941996,-0.753729,0.576167,0.176047,0.859286,0.832422,-0.31359,-0.334863,-0.301789,-0.259247,0.414167,0.613864,-0.447992,-0.718769,0.381082,0.556112,0.00718271,-0.212623,-0.594963,0.585392,-0.63161,-0.75472,-0.207225,-0.0665827,-0.188676,0.096,-0.992,-0.607516,-0.840449,0.921206,0.47538,-0.808175,-0.783241,0.147182,0.0175182,0.502514,-0.708727,0.153623,0.704377,-0.311815,0.443463,-0.237239,-0.746359,0.742394,-0.639181,0.0826553,-0.0558688,0.0996885,0.628863,0.0943942,-0.0855288,1.01665,0.0991297,-0.074,-0.235,0.463068,-0.987315,-0.70707,0.343773,-0.941053,-0.815194,-0.438413,-0.52434,-0.598209,-0.00517751,-0.564306,-0.0308614,0.00472199,0.707429,-0.64327,0.207865,0.043118,0.205304,0.186677,-0.568358,0.493574,1.16728,-0.14539,-0.380702,0.17784,0.557206,-0.418012,-0.058,-0.794072,0.520512,0.171178,0.043661,-0.0373029,0.586781,-0.69928,0.422195,0.444822,-0.465087,-0.0231413,0.0816221,0.0360723,0.591354,-0.822129,0.680967,-0.0119074,-0.23024,-0.0822007,0.447056,0.271532,0.394787,0.219085,-0.437254,0.244435,0.74504,-0.615,-0.714965,-0.145917,-0.447591,-0.261428,-0.485562,-1.03014,0.625607,0.541124,-0.170111,-0.199814,-0.0599463,0.72559,0.591761,0.337577,-0.383528,-0.174863,-0.599848,0.85644,-0.315383,0.919213,-0.359939,0.334254,-0.697121,0.491486,-0.598204,0.444291,-0.492242,-0.595818,-0.744791,0.80594,-0.649852,-0.901619,-0.367884,-0.135351,-0.413588,0.0700188,-0.412321,-1.03848,0.511595,-0.0843612,-0.682864,-0.00082416,-0.334199,0.562251,-0.769519,0.213703,-0.569021,-0.518036,-0.0199908,0.144271,-0.47376,0.175291,0.967852,-0.767176,-0.486847,0.856034,0.679037,0.0145664,0.889042,1.04682,-0.0549639,-0.682161,-0.744434,0.237678,-0.435232,-0.698791,0.22065,-0.112182,-0.924726,0.30841,0.749189,0.975534,-0.848486,-0.649994,0.546318,0.888951,0.160854,0.636768,-0.521108,0.642892,-0.722661,-0.522225,-0.243829,-0.844005,-0.379954,-0.176853,0.601635,1.01465,1.10906,0.699768,1.09604,-0.615629,0.009054,0.642131,-0.344881,0.579664,0.830137,-0.701421,-0.216097,0.993647,0.102114,-0.94637,0.430273,-0.259572,-0.625443,0.00460672,-0.353907,0.441844,-0.394566,-0.277105,0.193044,-0.160027,0.104001,0.508087,-0.426934,0.427266,-0.381204,-0.608131,0.346395,0.807035,-0.0520162,-0.22057,0.776307,-0.917816,-0.645767,-0.541691,0.962691,0.743884,-0.858007,-0.810359,0.0852805,0.109842,-0.863238,-0.415097,-1.06013,-0.894134,0.234467,-0.707415,0.252137,0.819,-0.041,1.00032,-0.759898,0.711277,0.665223,-0.530182,-0.0831865,0.267422,-0.705081,-1.07687,-0.0302355,0.0208051,-0.389699,-0.235257,0.341964,-0.579466,-0.0683837,-0.365143,0.543798,-0.00821748,-0.6307,-0.229631,0.718012,-0.501234,-0.00599366,0.407698,-0.699883,-0.772,0.652,0.545439,0.61795,-0.369181,0.588706,0.368056,-0.880433,-0.626432,0.493823,-0.453625,0.800209,0.599614,-0.683287,-0.248748,-0.151287,-0.21103,0.186465,-1.05472,-0.326815,0.605797,-0.822772,-0.715916,-0.854986,-0.464404,-0.260834,0.638709,-0.255946,0.774,0.00803741,0.0447153,-0.986397,-0.338774,-0.796785,0.164657,-0.240638,0.533318,-0.602666,-0.516951,0.689938,-0.846721,-0.123901,0.412594,0.939055,0.160337,0.995997,-0.330336,0.450551,-0.310049,-0.748388,0.753492,0.874914,-0.552295,-0.823884,-0.799462,-0.321975,-0.042,0.372192,0.420531,-0.709206,-0.611882,-0.509027,-0.66798,-0.375844,-0.37388,0.456336,-0.0465639,0.804184,0.97177,0.192947,0.740738,0.804742,-0.925975,0.118083,0.715065,0.112895,-0.405425,-0.546157,-0.772958,0.342345,-0.722841,-0.955486,-0.129953,-0.176881,0.786,-0.393843,0.500067,-0.681292,0.997505,-0.512489,-0.359965,-0.496683,0.142614,-0.342299,-0.338748,0.203011,0.542428,0.56309,-0.447763,-0.0190617,-0.317437,0.780526,-0.246598,-0.373594,-0.584956,-0.471197,0.383152,0.0247503,-0.491932,0.585345,0.953673,-0.160024,0.622,-0.180721,0.222351,0.411846,0.00377236,-0.67544,0.821048,0.187212,0.0687737,1.15272,0.548486,0.898407,-0.539211,0.919619,-0.639119,0.676293,-0.136946,-0.572254,-0.264648,0.528251,-0.762432,0.530324,0.730552,-0.371036,0.565655,0.075186,0.228951,-0.880282,-0.766,-0.243836,-0.479848,0.842891,0.128348,0.794816,-0.115327,-0.764452,-0.795424,-0.721715,0.209175,-0.106238,1.0499,1.0227,-0.949211,-0.781823,0.338744,0.964522,0.547406,-0.759088,-0.591391,-0.732723,0.289368,-0.397096,0.306829,-0.00634876,-0.20839,-0.105269,-0.914,0.593001,-0.426677,-0.680783,0.909322,0.101036,0.736169,0.0449505,-0.149588,-0.876221,-0.282084,-0.585461,-0.799033,0.350337,0.190021,0.693754,0.301394,-0.227627,0.467844,-0.811266,-0.291255,-0.0173243,-0.608364,0.0807357,-0.221562,0.223527,0.233703,0.643007,-0.78,0.588,-0.463,0.864,-0.263018,-0.333721,0.742288,-0.356978,0.760902,0.473871,0.237198,-0.848136,0.14,0.506999,-0.880015,-0.112015,-0.150008,0.302998,-0.429,0.699,0.624,0.592,0.882224,-0.673863,-0.873,0.826,-0.038,-0.539,0.047,0.753,-0.897,-0.176,0.339985,-0.804387,-0.313873,0.632325,-0.138789,-0.574982,0.831458,-0.81933,0.459966,0.073997,0.892229,-0.844687,-0.863751,-0.990208,0.0451886,-0.0112717,-0.128999,0.170611,-0.314919,-0.505032,-0.679012,-0.877006,-0.622,-0.552,0.95,0.34,-0.0909998,-0.446475,0.094481,0.0127113,0.379111,0.999482,0.224244,0.6391,0.639617,0.634541,-0.952038,0.463284,0.815756,0.0668834,-0.912171,0.264581,0.222702,-0.782627,0.271134,0.831098,0.213428,0.712092,-0.437248,0.457076,-0.806971,-0.124025,0.58,-0.869,0.32423,0.0939309,0.49083,0.802132,0.670056,-0.359365,-0.0908925,-0.295063,-0.326626,0.613834,-0.792919,-0.831205,0.148493,0.713971,0.0816208,-0.536478,-0.643946,0.239105,0.73682,0.137151,0.5051,-0.27009,0.13899,-0.69245,0.891198,0.149937,0.734902,0.666,-0.976085,-0.120733,0.801472,0.325617,0.976847,0.351932,-0.160319,0.321119,0.490052,0.487909,0.670633,0.818146,-0.536996,0.24032,0.416357,0.165613,0.122363,-0.719711,0.744056,0.102675,0.641293,0.339423,-0.453314,-0.209885,0.499746,0.0737714,0.0507667,0.442,-0.7769,-0.66405,-0.361541,0.7174,0.137069,-0.545048,-0.219153,-0.171071,0.773252,0.378094,0.830072,0.0160372,-0.659202,0.0702809,-0.416408,0.0548728,-0.44066,0.74789,-0.683551,0.423976,-0.733951,0.88624,-0.714125,0.477582,-0.239947,-0.20074,-0.688101,0.899,0.434665,-0.0961132,-0.178671,0.0946678,0.0992167,0.387169,-0.0854521,-1.02725,-0.958944,0.772983,-0.17434,0.398985,0.260011,-0.626006,1.1355,0.676147,0.351444,-0.896817,-0.737757,0.658301,-0.922501,-0.28396,-0.404281,0.729978,-0.880087,-0.0631801,0.376069,-0.03,0.740308,0.666518,-0.67021,-0.458126,-0.653013,-0.00319534,0.70075,0.274936,-0.15862,-0.417496,0.115469,-0.376466,-0.489092,0.564926,0.931265,0.0465692,0.545879,0.242198,-0.475349,-0.477278,0.552238,-0.559064,0.641234,-0.0227467,-0.495947,-0.791157,-0.148,-0.299,0.150454,-0.830817,0.0980391,-0.747668,0.650983,0.351135,-0.047656,-1.07869,-0.0258725,-0.180535,0.209169,1.0501,0.40396,-0.687267,-0.441501,0.633323,-0.0469512,0.482229,0.796676,-0.578605,-0.0441159,-0.780398,-0.275323,1.08522,-0.553922,-0.880639,-0.027,-0.046,0.883389,0.721868,0.440612,-0.17963,-1.18918,-0.798104,0.267546,0.427452,-0.81109,-0.59068,0.264848,0.194188,0.179227,1.07644,-0.216488,-0.653072,0.846511,-0.761161,0.0607431,-0.363848,0.864361,0.26294,0.139936,-0.289007,0.343708,-0.0401189,-0.543976,0.695,-0.354866,0.372093,-0.490448,-0.639348,-0.327907,0.675538,-0.128725,-0.322945,-0.698466,-0.319465,0.83735,-0.661721,0.0503363,-0.159971,0.212093,0.53999,-0.439124,0.109144,0.494557,0.618051,0.220092,-0.646642,-0.100528,0.188443,0.56565,0.120259,0.0380138,-0.653,0.655841,0.037515,-1.02724,-0.796473,-0.632244,-0.905636,-0.839813,-0.270743,0.545848,0.370684,0.0247848,0.752307,-0.770589,0.35628,1.16961,-0.162563,0.552157,-0.377132,-0.92242,0.709716,0.377254,0.138805,0.832314,-0.243886,0.56799,0.963018,0.084,-0.481,-0.349813,0.627677,-0.281004,-0.892728,-0.497952,-0.771877,-1.12718,-0.403586,-0.901441,-0.568218,0.453163,0.725153,-0.84375,0.0480515,1.13167,1.09584,0.901817,0.623275,-0.771079,0.189865,0.937242,0.693039,0.0423552,0.175245,-0.118003,-0.732028,0.096,0.781,-0.770188,-0.908735,-0.916847,-0.827024,0.606897,-0.511206,-0.460791,-0.980612,0.155346,-0.491515,-0.134353,0.299206,0.0528571,-0.368879,0.598659,0.118218,0.924365,0.244112,-0.112256,0.407257,-0.469654,-0.68177,0.769286,0.820189,0.931725,-0.280007,-0.363014,-0.906,-0.471949,0.61367,0.69451,-0.845046,0.410069,0.693517,-0.248783,-0.16232,-0.623491,0.0496966,-0.0606493,0.0461601,0.596201,0.577806,-0.141585,0.0775993,-0.392876,0.993723,0.0849101,0.352437,1.34763,0.122619,0.694789,0.947164,0.250043,0.397384,0.412,-0.137986,0.651242,0.554896,-0.109295,-0.908021,-0.100428,-0.617072,-0.594954,0.786446,-0.998345,0.234463,-0.212328,-0.339071,-0.43461,0.505379,0.477182,0.804127,0.143955,1.11759,0.812481,-0.21064,0.423028,-0.384264,0.579362,-0.0350611,0.672647,0.149851,-0.544927,-0.920919,-0.932843,0.409776,-0.558321,0.522094,-0.583377,-0.142133,0.683459,-0.200912,0.293368,1.06415,0.0768616,0.258706,0.383226,0.331775,0.233671,0.234719,-0.357542,-0.525962,-0.637542,0.452731,-0.655879,1.0475,0.829477,0.568496,-0.386632,-0.297545,0.898014,0.335005,0.360808,0.872312,-0.0601711,0.152152,0.000627818,0.172335,-0.545902,0.230525,-0.527618,-0.704421,-0.400612,0.520139,-0.9098,0.328152,-0.626399,-0.241132,-0.929992,0.524559,0.689141,-0.204959,-0.590932,1.05962,1.02983,-0.356329,0.984153,0.0173162,0.104006,0.736687,0.683315,-0.451897,-0.306595,-0.0835808,-1.21738,0.396315,-0.670531,-0.24472,-0.377298,0.306747,-0.579761,-0.374886,-0.165584,-0.218664,-1.05061,-0.203093,0.662316,-1.02247,-1.01363,-0.644768,0.558015,0.475006,-0.209136,0.978774,0.391758,-0.676201,0.624028,-0.314972,-0.124054,-0.651556,-0.369468,-0.391072,-0.628291,-0.515689,0.378499,-0.800703,-0.885808,0.669737,0.344179,-0.640234,-0.615261,0.727048,0.00924881,0.139331,-1.01137,-0.380686,0.890514,-0.851447,-0.000747631,0.739121,-0.705918,-0.466792,-0.0628872,-0.892783,0.66,-0.814,0.968507,-0.141604,-0.432255,-0.0417532,0.104131,-0.733498,0.150989,0.204426,-0.116534,-0.31042,0.553251,-0.19546,0.94633,-0.0371343,0.172489,-0.900029,-1.02803,-0.842349,0.115827,-0.573351,0.104021,0.271492,-0.757695,0.490476,-0.369854,0.645332,0.787,0.503,0.752578,-0.0291856,0.192685,0.684277,0.78656,0.165306,-0.627387,-0.318517,0.502703,0.726457,-0.766272,-0.123671,-0.545125,0.640422,0.287037,0.300589,0.659623,-0.988367,0.790254,-0.897281,1.0149,0.0567455,-0.518744,-0.522004,0.575837,-0.528214,0.857,-0.835987,-0.890497,0.126689,0.120432,0.362877,-0.917344,-1.03482,0.111031,0.468164,0.240802,0.527854,-0.602364,-0.327885,0.0488129,-0.938922,-0.26295,-0.765012,-0.156212,-1.19762,-0.819594,0.119891,0.777143,0.7322,0.295555,0.729478,-0.790608,0.287309,-0.817,0.319069,0.760124,-1.01087,0.427046,0.403601,-0.242173,-0.661075,-0.44812,-0.362568,0.970585,0.765988,-0.70063,-0.282561,-0.623455,-1.02811,-0.375409,-0.541285,-1.50228,0.409803,0.489006,0.133025,0.752155,0.542162,-0.982996,0.637631,-0.108023,0.396028,-0.029,-0.324059,-0.308649,0.135902,0.983998,-0.97435,-0.200795,0.162796,0.115658,0.628655,0.381635,0.54069,0.720076,-0.322339,-0.569193,0.512619,-0.0702675,-0.414428,-1.33531,-1.25026,-1.13992,-1.06531,0.69767,0.272376,-0.0896878,0.654309,-0.472453,0.0552653,-0.074,0.0188943,-0.984237,0.884957,0.712792,-0.652927,-0.249612,0.809297,0.903513,0.00556612,-0.188615,-0.0596912,-0.899253,0.567575,0.660079,0.420097,-1.00524,0.626213,0.26087,0.0503515,-0.183894,0.00533978,0.156824,-0.462122,-0.207741,-0.404107,0.491789,0.795465,-0.674,0.628938,-0.58851,-0.180953,-0.326903,-0.521014,-0.611374,-0.570121,-0.277426,-0.518925,0.662767,-0.860128,0.377594,-0.684168,-0.599815,0.263801,0.327159,-0.902277,-0.485003,0.230709,-0.928953,0.603387,-0.517326,-0.330312,-0.205571,0.281768,-0.212858,0.618457,0.945,-0.682,-0.0278513,0.831062,0.953172,0.38304,-0.793557,-0.839118,0.371509,-0.980815,-0.496961,0.619556,-0.545426,-0.908043,0.666756,0.343892,0.951877,-0.925178,-0.747323,0.395677,0.848398,-0.145136,-0.306436,0.534517,-0.500944,-0.246487,0.738316,0.293016,0.624,-0.461,-0.532,0.125,-0.584754,0.00138263,-0.0440057,0.919005,-0.618564,-0.294692,-0.928529,0.300052,-0.281,-0.881967,-0.100597,0.162403,0.756403,-0.889902,-0.496018,0.706,-0.808,-0.236,-0.337364,0.601943,0.176,-0.086,0.133,0.675,0.225,-0.572,-0.476,-0.595,-0.0320008,-0.451015,0.531596,-0.059465,0.547705,-0.958641,-0.140604,0.927531,-0.25488,-0.0729987,0.225965,0.464884,-0.398355,0.68216,-0.817168,-0.642894,0.793252,-0.755756,0.620582,0.541999,-0.435016,0.840992,0.143,0.742,-0.246,0.833,-0.0269947,0.537163,-0.738854,0.4954,0.93702,-0.217766,-0.960123,0.0265879,0.727992,0.153099,0.0689434,-0.420358,0.0714652,0.366077,0.0611518,0.859408,-0.602512,0.674134,0.101288,-0.418153,-0.969921,-0.119259,-0.625181,0.643794,0.988242,-0.0573761,0.486997,-0.312,-0.75883,0.800558,-0.48525,-0.238767,-0.111792,-0.668687,0.772448,-0.653889,0.114609,0.849259,0.350713,-0.253614,-0.518641,-1.0127,-0.0549448,0.632529,0.42532,-0.967007,0.065041,0.824701,0.698833,0.681281,0.963905,0.766648,-0.817498,-0.679215,-0.0425122,-0.841,-0.177501,-1.00644,-0.150123,-0.363765,0.386941,-0.0613015,0.322578,0.732876,0.194977,0.116474,-1.00286,-0.888036,-0.658601,-0.0818269,-0.423741,0.077187,0.174059,0.773324,-0.545441,-0.362935,0.788356,-0.0606742,-0.65698,0.0639007,-0.227988,-0.61052,-0.561415,-0.053,-0.729221,0.38924,-0.311094,0.142901,0.0179294,0.562032,0.216044,0.805042,-0.611341,-0.439035,0.410619,-0.0991913,0.461548,0.531092,0.336164,-0.708866,-0.0266933,-0.897941,0.433322,-0.632091,0.725517,0.529973,-0.770303,0.469501,-0.284932,-0.546126,-0.244024,0.546,-0.586189,-0.228159,-0.881396,-0.171098,-0.706356,-0.212037,0.302229,-0.381606,-0.858224,-0.561332,-0.775069,-1.18344,-0.116959,-1.06007,0.230991,-0.498821,0.542821,-0.192512,0.0329086,0.022009,-0.251259,-1.13167,-0.72276,-1.14839,0.687402,-0.483168,0.211056,-0.896,-0.00998578,0.557438,0.296952,0.598114,-0.544613,0.326987,0.618261,-0.555947,0.881023,-0.257966,-0.713556,0.335812,-0.18467,0.0172097,0.336858,-0.782711,0.228357,-0.494538,-0.282303,-0.261776,0.233434,0.198088,-0.0290119,0.253459,0.421236,0.330394,0.509,-0.178,0.858237,-0.262114,0.0361865,0.0311718,0.889889,-0.912755,0.734925,-0.964265,0.198727,0.0860022,-1.37209,-0.454518,-0.794723,-0.414615,-0.963209,0.297957,0.540669,0.44053,0.355245,-0.0993424,-0.648768,-0.908813,0.175254,-0.110268,0.120288,-0.778562,-0.395,-0.345,0.123815,0.714069,0.183261,0.142671,0.939548,0.869096,0.259576,0.604769,0.415228,-0.186067,0.408273,-0.728444,-0.587513,0.646122,0.221032,-0.645063,-0.685326,0.481236,0.680489,-0.803651,0.155946,-0.224807,-0.783928,0.120797,-0.562584,0.336059,-0.503035,0.721,0.594785,-0.260361,1.08053,-0.18065,0.895719,-0.0537581,0.168923,0.695736,-0.652819,-0.566557,-0.0571948,-1.05749,0.152322,-0.224577,-0.44335,0.309213,-0.899862,0.597154,-0.784321,-0.293099,0.133712,0.328303,-0.676786,-1.01739,-0.831039,-0.514892,0.0940005,-0.614,0.864814,0.198002,-0.779291,0.489628,0.869129,-0.86182,0.835498,0.294458,-0.460732,-0.133753,0.00691707,-0.0856239,-0.00947601,0.708648,-0.421809,-0.691151,-0.903147,-0.0568598,-0.922264,-0.229741,-0.697337,0.634857,0.00404287,0.322969,0.196272,0.313399,0.218,0.124,0.394387,-0.645184,0.595311,0.342292,0.58139,0.741347,-0.139314,-0.0797496,0.150084,0.845448,-0.90092,0.771176,-0.162226,-0.377841,-0.844521,0.4134,-0.712755,0.076463,-0.769194,-0.0827489,-0.783011,-0.802753,-0.0794933,-0.575159,-0.964633,0.805895,0.603,-0.039,-0.293059,-0.194042,-0.971545,-0.876905,-0.276616,0.217844,0.568786,0.927679,-0.136941,0.60502,-0.80108,0.61263,0.51055,-0.878686,-0.223612,-1.05909,-0.744327,0.167492,0.767317,0.105525,-0.425775,0.432507,0.17402,-0.976455,0.308853,-0.680037,-0.814991,0.002,-0.867546,0.722468,0.804835,-0.182544,-0.824066,0.765523,0.330985,-0.235008,0.0915964,-0.565674,-0.732722,0.163633,0.550427,-0.552239,-0.284301,-0.107635,0.704667,-0.0509828,-0.368246,-0.545333,-0.591776,0.917918,-0.165117,-0.811897,0.391956,-0.853533,0.865,-0.250001,-0.544431,-1.01091,0.690345,-0.878131,0.305244,0.450489,-0.0181866,0.901826,-0.217474,0.635989,0.643583,0.297803,0.614327,1.03387,1.057,-0.23115,0.305004,-1.02603,0.328068,0.409569,0.149737,0.542825,0.255647,0.266777,0.46568,-0.864608,0.123995,-0.558001,0.820247,-0.0666452,0.123692,0.683902,-0.183264,-0.428941,-0.674832,1.16132,0.399218,-0.514612,0.53467,0.924153,1.01131,0.0773003,-0.304965,-0.453372,-0.753011,-0.692578,0.286007,0.332334,0.993801,-0.793816,-0.934225,-0.112413,0.725609,-0.00811739,0.832999,-0.257984,0.10688,-0.0927084,0.0987012,-0.651758,0.286508,1.0985,-0.364967,-0.452953,0.779035,0.665757,-0.520977,0.516902,-0.475801,1.12323,-0.169498,0.732381,-0.712765,-0.355854,-0.810774,-0.743089,-0.249105,0.0491842,-0.176803,-0.540309,-0.16932,0.125394,-0.0349972,-0.481766,0.655314,-0.22304,0.272747,-0.204779,0.336568,-0.673264,0.133988,-0.217123,0.666187,-0.0898493,-0.192738,1.18156,0.191193,0.505822,0.0268736,-0.240089,-0.811649,-0.0996546,0.856991,-0.888049,0.7468,0.519696,0.518655,-0.734613,-0.243546,-0.314409,-0.254023,0.0759535,0.342526,0.223269,0.622994,0.0545031,-0.832684,-0.25469,0.64553,-0.0287706,-0.823562,-1.04902,0.267553,1.1425,0.3612,-0.299637,1.11035,0.14204,-0.249295,-0.904981,0.665523,-0.0897319,0.0909011,0.00941417,-0.223475,-0.201017,-0.0488559,-0.256744,-0.314,0.195,0.405115,-0.102014,-0.787075,-0.706046,-0.679731,0.671685,0.525125,0.867491,0.181126,-0.958092,-0.187651,1.02051,-0.244278,1.03149,0.492129,-0.060836,0.839165,-0.476602,0.83646,-0.933984,-0.400471,-0.0324807,-0.1546,0.385976,-0.487974,-0.795308,0.966,0.033,-0.509086,-0.412292,0.684714,0.400295,0.28828,-0.7225,0.861948,0.345304,-0.235739,-0.62016,0.146777,-0.548109,0.040186,0.85056,0.880811,-0.1198,0.322025,-0.0614726,0.209769,-0.343685,0.0076717,-0.085756,-0.316222,-1.12327,-0.480065,-0.756707,0.623,-0.291989,-0.996657,0.158697,0.740414,-0.881423,0.913658,0.162061,0.547134,-0.0834047,-0.449885,-0.387642,-1.20457,0.712368,0.63776,0.456231,0.824273,-0.86127,-0.351381,-0.00450163,-0.613707,0.821756,0.373815,0.417711,-0.573153,-0.315139,-0.427734,0.404652,-0.031,-0.204944,0.650037,-0.749128,0.737223,0.411661,0.397371,-0.180797,0.266175,-0.36454,0.783819,-0.758807,0.117765,-0.387407,0.392141,0.336378,1.00772,-0.461872,-0.797984,0.573286,-1.05985,-0.860452,-0.636974,-0.819203,-1.04866,-0.880749,0.804518,-0.427227,0.176,-0.490309,0.984794,0.807545,0.0904473,0.404576,0.527965,1.06329,1.07352,-0.689849,-0.327661,-0.292361,-0.163779,-0.8231,0.240217,0.701309,-0.638848,-0.468573,-0.10394,0.718917,-0.161736,-0.547197,-0.299759,-0.759503,-0.395333,-0.0604333,-0.531039,-0.467585,-0.137,-0.63955,-0.332878,-0.901354,-0.44452,-0.561127,0.58806,0.65606,0.211867,-0.658195,0.113473,-0.22971,-0.634936,0.388135,0.698765,0.413265,0.200052,-0.0397896,-0.34224,0.0405254,-0.0573033,0.0288993,-0.286177,0.288384,0.493185,0.135825,0.818444,0.884031,-0.79,-0.673322,-0.583203,0.0825836,-0.238098,-0.232462,-0.13543,-0.0568838,0.0204818,1.01399,0.44913,0.716724,-0.851338,-0.344563,-0.317508,-0.276564,0.74848,-0.959991,0.742995,-0.473485,-0.464986,0.923496,0.588841,0.467576,-0.0431907,0.925963,-0.106624,-0.875417,0.127,-0.719003,-0.991514,0.336637,-0.393277,0.99047,0.983146,-0.123434,-0.357387,-0.357815,0.515651,0.470529,-0.398204,-0.400807,-0.152863,-0.609384,-0.111373,0.149289,-0.290357,-0.32753,0.191239,0.995784,-0.225684,0.726493,0.933336,-0.614476,-0.212495,-0.509049,0.889,0.239,-0.384,-0.428,0.5179,-0.379001,0.464086,-0.872046,-0.835179,0.434868,-0.46174,-0.649019,-0.928,0.622,0.830988,-0.765011,-0.776,-0.763,-0.812983,0.116,0.387,-0.108,0.345124,-0.423,-0.552,-0.879,0.864,0.942,-0.936,-0.349,-0.567,0.953,0.89,0.0480815,-0.479157,0.408989,0.232161,0.547581,0.094811,0.397916,-0.0170389,0.634955,0.749012,0.0566097,-0.185709,0.138256,0.290238,0.036053,0.373974,0.478324,-0.846886,-0.682998,0.92702,0.0560098,-0.105,0.932,0.177,-0.685,0.873999,0.240965,-0.0332794,0.863752,-0.247863,-0.589627,-0.0949211,-0.165659,0.377349,0.706221,-0.618093,-0.96356,-0.339472,0.369977,0.231329,0.966149,0.975961,-0.961738,-0.340692,0.268008,0.072835,-0.964333,-0.6972,-0.212105,-0.655634,0.78478,0.841,-0.202,0.71704,-0.425204,0.119784,0.149594,0.381569,0.648535,0.0298921,-0.844553,0.615554,0.4877,-0.0500586,-0.0110956,-0.251095,-0.0965995,0.0254684,0.412404,0.823796,0.806807,0.363112,0.781463,0.833701,-0.964356,-0.375195,-0.528332,0.590329,-0.537436,-0.193,0.499,-0.751001,-0.796052,0.849382,0.510653,-0.217566,-0.470479,-0.76061,-0.82531,-0.816584,-0.194466,0.844973,0.781339,0.853757,-0.625254,-0.651785,-0.374057,0.280186,-0.0786777,0.998797,0.0589048,-0.305245,-0.089929,-0.577016,-0.899306,-0.552927,-0.0208487,-0.467,0.588,0.444737,0.344481,-0.374313,0.219631,0.0858054,-0.520203,-0.230753,0.873594,-0.027528,-0.0589548,0.544109,-0.275661,0.380978,0.46507,-0.862189,0.269327,0.400525,-0.545497,0.827238,-0.427156,0.286108,0.318246,0.182364,0.52969,0.702394,0.495032,0.552,-0.883,-0.96911,0.647436,0.245129,0.449356,-0.497575,0.857581,-0.308266,0.573998,-0.716122,-0.0715151,-0.0260887,-0.0751646,0.602376,-0.757467,0.334254,0.0379296,0.277273,0.448923,-0.747799,-0.426044,0.337646,0.958885,-0.334123,-0.867652,0.165603,0.703322,0.552,-0.187,-0.250013,-0.344132,-0.519295,-0.242333,-0.741232,0.691786,-0.774768,-0.208231,0.11502,-0.580118,-1.04655,0.57949,0.608058,0.166078,-0.793829,0.247935,0.369548,0.477772,0.827411,-0.376983,-0.604775,0.921167,0.102039,0.661511,0.766474,0.151402,0.652,-0.591,-0.153384,0.193137,-0.21252,0.14821,0.38367,-0.226603,0.902419,0.66193,-0.971931,0.63717,-0.521504,0.342314,0.912319,-0.306706,-0.422187,0.458845,0.293655,-0.275417,-0.677149,-0.2837,0.710428,0.983326,-0.241323,1.03572,0.363288,0.258656,0.104,-0.412,-0.600021,-0.255829,0.0182859,-0.173095,0.528143,0.354349,0.987809,-0.0632874,-0.861146,0.882714,-0.789866,0.870621,0.260283,-0.200025,0.182905,0.0363579,-0.0710213,0.78767,-0.773224,0.894426,0.979452,0.884609,1.01472,0.634675,0.336099,-0.374397,0.073002,-0.418,0.428855,0.726987,-0.253123,0.427281,-0.454867,0.806438,-0.691764,0.69361,-0.256161,-0.711683,-0.855466,-0.620037,0.638343,-0.767765,-0.902965,-0.671015,-0.427635,0.42378,0.180041,0.198019,0.0806938,0.124667,-0.052311,-0.380298,-0.46083,-0.188743,0.624002,0.712,-0.0214648,-0.729944,0.908903,-0.530058,1.06259,-0.335366,0.899564,-0.818478,1.03135,0.729299,0.755317,-0.883033,0.725789,0.58379,-0.764403,-0.246542,0.79851,-0.49541,-0.0838613,-0.892776,0.420502,0.864922,0.218869,-0.854662,0.0577954,-0.95388,-0.435,-0.044,-0.164738,-0.783015,-0.710592,0.433249,-0.503654,0.686627,0.864675,-0.438338,0.91689,0.322087,-0.350779,0.742847,-0.289178,0.574695,0.559363,0.884084,-0.219181,0.596897,-0.567463,-0.752086,0.566766,0.186177,-0.649554,0.189096,0.248652,0.535263,0.156,0.684,0.558484,0.315963,-0.284458,1.01235,0.0664731,-0.520413,0.405569,0.567373,-0.82611,-0.161531,0.616729,0.934495,0.835167,0.495151,-0.00975784,-0.99534,-0.302525,-0.224902,0.56803,0.384879,0.609255,0.769376,0.684831,0.514427,-0.153302,-0.895634,-0.454,0.512,0.62933,0.2937,0.273192,-0.198719,-0.411035,0.469501,-0.226061,0.20598,0.925508,-0.816083,-0.286409,0.498043,-0.284162,0.672594,0.291645,1.01766,-0.252728,-0.581203,0.646669,0.229149,-0.727773,-0.0958884,-0.768607,-0.733207,-0.39927,-0.970065,0.223,0.350999,0.690176,0.794075,-0.0695092,-0.0824229,-0.38004,0.667627,0.670266,-0.249262,-0.32965,-0.549112,0.903452,0.99068,0.909458,1.01492,0.412112,-0.894104,0.228847,-0.645645,0.699756,0.653373,-0.792123,-0.0114992,-0.539051,-0.644328,0.763194,-0.178156,-0.404003,-0.690002,-0.594462,0.8526,0.727362,0.723399,0.185414,-0.900529,-0.466217,0.323052,0.336942,-0.760131,1.02853,0.84423,1.02713,0.362074,0.785837,0.458377,0.347268,-0.20906,0.543303,-0.721587,-0.359994,-0.506027,0.493497,-0.399648,0.706945,0.708807,0.0849995,0.495002,-0.910263,0.274375,0.434352,-0.89625,-0.363026,0.015552,0.664608,0.731637,-0.299635,-0.729214,0.0454412,0.906681,0.911949,-0.453731,0.237407,0.856762,0.874202,-0.347459,0.391301,-0.359582,-0.354354,-0.805903,-0.581175,0.415615,-0.0648008,-0.782934,-0.719946,-0.708945,0.932983,-0.0495438,0.379957,0.572976,-0.834161,-0.291949,0.612273,-0.176873,0.350246,0.348606,-0.939524,0.46699,0.0267944,-0.406164,-0.166458,-0.108949,0.201016,-0.73246,-0.0566304,-0.401548,-0.803551,0.601639,0.196278,0.0734941,0.726641,0.988786,-0.702756,-0.704946,0.770735,-0.414277,-0.411779,0.206592,0.0303819,0.91764,-0.186053,0.272162,-0.743395,-0.569251,0.924544,0.3633,0.159563,0.462041,-0.662721,-0.745007,-0.789072,0.442328,0.365564,0.455437,0.603336,0.796438,-0.829413,0.673683,0.314728,0.211207,-0.12,0.077,0.201718,0.169339,0.346966,-0.544236,0.249042,0.481514,0.762433,-0.622332,-0.00548124,-0.90341,0.027986,0.0116262,-0.622979,-0.520038,-0.986195,0.29052,-0.774448,-0.30586,0.817975,-0.415364,-0.83436,0.212255,0.712871,0.558019,-0.209742,0.599209,0.28,-0.883,-0.186252,0.710273,0.160366,0.506007,-0.622435,-0.901251,-0.904554,0.305747,0.573616,0.332401,0.124365,-0.546319,0.351253,-0.825391,0.633186,0.540357,-0.451439,0.560189,0.105244,-0.102386,-0.707249,-0.055438,0.115185,-0.837648,0.855059,-0.0702927,0.301,-0.354,-0.46517,-0.410105,-0.254038,0.273031,0.747941,0.428448,-0.586946,-0.764441,0.507389,-0.566378,0.483647,0.114846,0.404905,-0.272276,0.78283,0.0338404,-0.211422,0.31105,-0.621644,0.412307,-0.146582,0.466398,-0.606942,-0.164062,-0.929935,0.548562,-0.027,0.895,-0.960616,0.844711,-0.482031,-0.523785,0.835723,-0.251428,0.39273,0.755348,-0.743386,0.80121,0.552531,-1.11404,-1.01692,0.247577,-0.210016,0.5756,0.737098,-0.204047,-0.682926,-0.910511,0.573559,-0.389524,0.533836,-0.494167,-0.878275,0.481478,-0.16,-0.859,-0.411795,0.379704,0.549896,-0.468585,0.10372,0.599141,-0.346482,0.0741742,-0.557888,-0.902077,-0.105899,-0.577773,-0.853182,-0.7489,-0.934935,0.783258,0.114775,-0.0674619,0.415425,-0.164718,0.202823,0.187545,-0.0999412,-0.22133,0.801517,0.991997,-0.191,0.455,0.476251,0.218223,0.139372,-0.973029,-0.448578,-0.30192,-0.843361,0.715912,0.95749,-0.03575,-0.512865,-0.447657,0.215549,0.100496,-0.362495,-0.0576098,0.322088,-0.782912,-0.32754,-0.609715,0.0726937,0.536669,-0.282912,0.804996,-0.262486,0.182805,-0.871,-0.913,0.175155,-0.504314,0.541681,-0.366755,0.695656,-0.316081,-0.769369,-0.746238,-0.0107158,-0.495422,0.607894,-0.45463,0.480474,-0.8705,-0.342347,-0.334956,-0.256582,0.253185,0.107909,1.00652,0.406605,0.702092,0.899689,-0.973529,-0.185933,-0.383303,0.823,0.546,0.7999,0.508289,0.632279,-0.028935,-0.994517,-0.266457,0.173711,0.70676,-0.012603,0.446204,0.539726,0.537762,0.490908,0.154237,-0.911675,-0.0427207,-0.171597,-0.261905,0.16098,0.534697,0.957289,-0.771605,0.0740735,-0.0820554,0.489352,-0.0319953,-0.06,0.858,0.142,-0.68,0.402958,-0.0589403,0.829044,-0.407001,0.472967,0.833076,0.325918,-0.792983,0.096,0.866002,0.204014,-0.363986,0.404022,-0.306995,0.345996,0.489,0.207,0.724,-0.780037,-0.638,-0.186,0.734,-0.853,0.888,-0.349,0.193,-0.588,0.149,0.051,0.554,0.468987,-0.991148,-0.950055,-0.148483,-0.397465,0.525016,-0.755998,0.48499,0.732184,0.338925,0.347836,-0.0671585,0.53093,-0.247018,0.185997,-0.122083,0.799401,-0.608,-0.399,-0.981,-0.246,-0.027,0.311,-0.542,-0.140005,0.961908,0.208161,-0.170045,-0.332834,-0.74209,-0.616629,-0.866207,0.830994,-0.560982,-0.0110264,0.987849,0.520063,0.234277,0.469747,0.246089,-0.874868,-0.623731,0.742716,0.666433,-0.310376,-0.0726132,-0.459073,-0.514055,0.316208,-0.301131,-0.936,0.629,0.228975,0.37672,0.649638,-0.910936,-0.106455,-0.588416,-0.0744545,0.565074,-0.773638,-0.140242,0.694047,-0.952243,-0.146775,-0.762023,-0.968993,-0.635987,0.0326383,0.0644179,0.627208,0.169456,0.437031,-0.10003,-0.640328,-0.896269,0.381397,-0.520506,-0.379994,-0.727,-0.262055,-0.311165,0.466598,0.969011,-0.941043,-0.33247,-0.927058,-0.466598,0.0856404,-0.45631,-0.914394,0.302211,-0.0332181,0.340846,0.353264,0.818634,0.587772,0.410671,-0.792963,-0.819879,-0.562812,0.313043,-0.164716,0.408514,0.789113,0.259054,0.580009,0.211,0.744606,0.759877,0.482428,-0.531415,-0.575383,-0.492904,-0.527377,-0.906082,0.190054,-0.907916,-0.394723,-0.732603,-0.789272,-0.743413,0.579504,0.150829,0.560511,-0.530582,-0.501751,0.113109,0.35204,-0.399349,-0.249953,0.306404,0.488531,0.678521,-0.190997,0.332,-0.0559147,-0.618918,-0.916782,-0.340237,0.688293,0.155346,0.20572,-0.795668,0.705152,0.245104,0.835642,-0.113489,0.343003,0.993397,-0.323389,0.000930912,-0.869737,0.718628,-0.92873,0.593885,-0.964551,-1.00331,-0.819322,0.358404,-0.390238,0.0451107,-0.195055,0.739,-0.269072,0.16497,-0.392373,0.664515,0.134463,-0.233783,0.973837,-0.0912787,0.951757,-0.290768,-0.427683,0.140107,0.912065,-0.619839,0.960434,-0.334627,0.732941,-0.987517,0.546362,0.775142,0.621883,0.0719101,-0.124286,0.669719,0.124008,0.198659,-0.248,0.395,0.80684,0.111265,0.125892,-0.89944,-0.694624,0.813011,0.40617,0.483012,-0.891747,0.294658,-0.731364,0.972095,0.508386,-0.210773,-0.435527,0.251121,-0.490302,0.871712,0.344618,-0.809898,0.862424,-0.129579,0.57527,0.583732,0.621474,-0.410797,-0.065,-0.176,0.348092,0.67615,-0.790299,0.151841,-0.638797,-0.0563157,0.302442,-0.307377,-0.728585,-0.810836,0.665622,-0.658339,0.437723,0.399706,0.702545,-0.711729,0.531023,-0.852952,0.504485,-0.876609,-0.857408,-0.45323,-0.953283,-0.801827,0.144839,0.707606,0.358006,-0.226,0.856232,-0.712768,0.594425,0.221444,0.556841,0.388869,0.9331,0.91753,-0.672787,-0.220919,-0.852117,-0.911143,-0.165661,0.629249,-0.770899,0.638908,-0.0606353,-1.02515,-0.950585,-0.352315,0.826484,0.27761,-0.505738,-0.84774,1.01303,-0.405316,0.845024,-0.369,0.857722,0.200756,0.399973,0.715006,0.0315056,-0.477701,-0.552815,-0.416854,0.505836,0.97894,-0.948677,0.300469,-0.41066,-0.97486,0.280688,-0.0521002,0.273261,0.635803,-0.239945,-1.06879,0.290584,-0.511586,-0.314751,0.273579,0.944297,-0.184768,0.37,0.397,-0.0438903,0.214776,-0.990865,-0.670952,0.932515,-0.0430782,0.627855,0.0179719,0.546198,-0.895461,0.116144,-0.477257,-1.05115,0.119022,0.863666,-0.826575,-0.204678,0.265558,0.276119,-0.779095,-0.433616,0.671323,-0.783367,0.986106,-0.674823,-0.424558,0.24,-0.839,-0.0684785,-0.839016,0.0822542,0.838867,-0.0939842,0.146566,0.81172,-0.0983902,-0.900318,0.406513,0.851869,0.13292,0.00345874,0.0309893,0.784194,0.086841,-0.761766,0.267427,-0.0798771,-0.291343,-0.387524,-0.735363,-0.443733,-0.164839,0.615922,-0.573667,-0.186999,0.846,-0.012051,0.622103,0.581051,0.480592,0.32603,-0.347363,-0.134132,-0.775293,0.318479,-0.294788,0.11876,0.40536,-0.918611,0.053034,-0.725611,0.247748,-0.838842,0.640947,-1.0381,-0.96732,-0.0273252,-0.0510648,-0.617011,0.233187,-0.141063,-0.0115572,-0.945,0.964997,0.415218,-0.532086,0.888656,0.984389,0.559533,0.299494,0.329475,-0.148126,0.578296,-0.644899,0.168934,-0.0858553,-0.44453,-0.675362,-0.531267,-0.230969,0.0111185,-0.677153,0.628539,-0.208462,-0.980311,0.203995,-0.549376,-0.383295,0.787347,-0.125921,0.840984,-0.412018,0.866967,0.523367,-0.391752,0.283954,0.404028,0.828769,-0.333102,-0.0340614,-0.125258,-0.729775,0.997006,-0.541346,-0.897725,-0.308766,0.432069,-0.263672,0.0968755,0.501289,0.0975586,0.700047,0.400226,-0.691823,-0.491714,0.43474,0.564882,0.00710393,0.605997,0.298998,0.87985,0.461396,0.441373,0.256654,-0.599682,0.488797,-0.936654,0.854535,0.504184,-0.0518928,-0.476925,-0.637787,-0.328932,-0.551851,-0.646147,-0.206197,-0.245149,0.358732,0.0462634,0.79989,-0.195986,0.669593,0.0284574,-0.773305,-0.942688,0.590676,0.196997,0.567999,-0.843636,-0.190728,-0.152994,-1.03475,0.752542,-0.704076,-0.136353,0.830553,0.903773,0.0411412,0.750434,-0.0742047,0.905475,-0.789341,-0.203912,-0.878547,-0.784149,0.117165,-0.177703,-0.145036,-0.611615,0.389004,-0.78756,-0.165755,0.159032,0.286475,-0.435031,-0.286008,-0.562294,0.786247,-0.729426,-0.460207,-0.903253,-0.288321,-0.817343,0.52678,-0.38328,0.0928702,0.353579,1.03454,-0.94019,0.0342401,-0.106538,0.445099,-0.265746,0.627441,0.475819,-0.593031,-0.764932,0.880835,-0.0795032,-0.68096,0.359659,0.150713,0.097,-0.967,0.993432,0.686854,-0.251778,-0.60977,-0.0606723,-0.445659,-0.444989,-0.313065,0.336738,-0.208274,-0.784335,0.946016,0.828442,0.486707,0.870502,0.280989,-1.05119,-0.764736,-0.316562,-0.796014,0.424067,0.84818,-0.17505,0.399621,0.785571,0.716132,0.661,-0.324,-0.575256,-0.662192,-0.718813,-0.613988,0.502631,-0.00744359,-0.611273,-0.897777,0.207037,0.000725684,-0.219084,-0.935906,0.276396,-0.0902683,0.85433,-0.530862,0.82913,0.236206,0.78846,0.831265,0.127256,-0.347553,-0.751968,-0.787106,-0.543035,-0.462172,0.544,0.796989,-0.739146,0.202855,-0.51972,-0.776185,0.0592557,-0.271228,-0.78521,-0.373983,0.336878,-0.389205,-0.318423,-0.978056,0.110706,0.427653,-0.97944,0.840882,0.797509,0.428315,-0.608968,0.748097,-0.632724,-0.698418,0.202919,0.434953,-0.63511,-0.133084,0.587,-0.603055,0.410911,-0.33483,-0.839845,0.186255,0.881697,-0.776286,0.45445,-0.492993,-0.49497,0.6442,0.075149,0.325618,0.795223,0.792513,0.398685,-0.54542,-0.242914,0.00448134,-0.631252,-0.786324,-0.478648,-0.221065,0.894113,-0.702541,-0.523353,-0.465266,0.696,-0.148996,0.406673,-0.17332,-0.232101,-0.240543,0.486839,-0.012931,-0.984344,-0.0595237,-0.250964,0.0110101,0.428387,-0.205118,-0.300452,-0.842817,-0.772378,-0.888233,0.558037,0.218855,-0.388577,0.911641,0.794769,-0.043882,-0.948266,-0.795839,0.178129,0.44061,-0.51,0.656007,0.976529,0.728372,-0.971774,-0.112055,-0.897988,-0.148912,0.7196,0.181851,0.398422,0.331761,0.724341,-0.819093,-0.589811,-0.198042,-0.387507,-0.287668,-0.00161104,-0.579168,-0.147591,-0.882386,0.624063,-0.0138499,0.993458,-0.0694549,0.885761,-0.992104,0.128,-0.376996,0.44977,0.162188,0.819307,-0.0385567,-0.545396,0.882059,0.8947,-0.404136,-0.23716,0.232083,0.381817,0.744771,-0.398315,0.151329,0.506655,-0.424239,0.959876,-0.871593,-0.139315,-0.492659,-0.469963,0.24184,-0.386678,0.702331,-0.784382,-0.409289,-0.368,0.662,-0.400042,0.316483,-0.715958,0.608016,-0.952089,-0.880261,-0.850059,-0.477432,0.577534,-0.926344,-0.304673,0.903971,-0.123137,-0.908299,0.653774,0.479156,-0.196611,0.164803,0.61699,-0.244533,-0.153694,-0.525546,0.267677,0.383562,0.721864,0.439015,-0.352,0.939,-0.971,0.28,0.157,-0.813999,-0.846,0.441995,0.351024,-0.797001,0.119003,0.500005,-0.716,-0.304973,0.133339,-0.0186615,-0.403661,0.565082,-0.370982,-0.752,0.041,0.427,-0.0301881,-0.785,0.741,0.818,-0.753,-0.435,-0.242,0.526,-0.997,0.406,0.0219988,0.589543,-0.758374,-0.820456,0.334723,-0.605,0.617804,-0.317894,-0.843034,-0.262025,0.741041,-0.559485,-0.00959274,-0.56636,-0.0146914,0.589804,0.995102,0.165552,0.834651,-0.408009,-0.852016,-0.196008,-0.636,0.889,-0.822,-0.389,-0.988996,-0.0626265,-0.859806,-0.97877,-0.649914,-0.274077,0.164429,-0.849617,-0.0896465,-0.486954,-0.450738,-0.91809,-0.253193,-0.732128,-0.616065,-0.511778,-0.749089,0.354925,-0.533108,0.244734,-0.0430302,-0.531059,0.963717,-0.65729,-0.390623,-0.898995,-0.304,-0.031,0.548339,-0.124169,0.58228,0.567895,0.412353,0.340582,0.140058,0.702491,0.999998,-0.638102,0.918235,-0.00295233,-0.523022,1.07975,-0.367007,0.165885,0.800557,-0.138017,0.103788,-0.898153,-0.623332,0.685564,-0.154562,-0.236684,-0.954867,-0.247682,0.0690401,-0.368,-0.589242,0.759622,0.553167,0.856433,-0.860389,-0.256268,0.484333,0.52779,-0.992399,-0.278197,-0.0950289,0.676122,-0.389944,-0.665099,1.05419,-0.0838344,0.82652,-0.424981,0.579181,0.66009,0.521429,-0.289473,0.152414,0.244728,-0.794322,0.875403,0.915079,0.738,-0.817827,-0.0476967,0.805432,-0.615934,-0.858086,-0.0395081,-1.01511,-1.05045,0.711097,0.570195,0.570799,0.363705,0.785765,-1.01616,-0.0188371,0.941486,-0.68522,0.0100748,-0.677136,0.586437,0.0300647,0.838684,0.18008,-0.416804,-0.513114,-0.852397,0.582031,-0.512,0.563973,0.474104,-0.876911,0.102226,-1.20241,0.533189,0.797523,-0.820205,-0.412155,-1.10363,0.947111,-0.264173,0.298018,0.237489,-0.906052,-0.346696,0.22798,-0.455123,-0.98368,-0.0295215,0.126056,-0.546855,-0.272185,-0.683768,0.803852,0.132078,0.982987,0.955,-0.201777,0.546509,-1.06263,-0.825343,-0.622332,0.604994,0.498259,-0.563192,0.322683,0.140613,-0.280715,-0.409184,-0.0264734,-0.7262,0.0383283,0.441551,0.108837,-0.603392,0.515309,-0.622237,-0.428477,0.674797,-0.118927,0.267748,0.620905,-0.106424,0.12,0.119,0.989554,-0.321069,0.0291015,-0.334104,-0.904519,-0.465687,-0.40032,-0.689234,-0.519208,1.14354,-0.174928,1.09095,-0.250388,-0.254253,0.695907,-0.187964,-0.264422,-0.752057,-0.623108,1.09016,-0.727551,0.406826,0.798418,-0.106227,-0.20805,-0.769551,0.852,-0.823,0.0981237,-0.441053,0.324373,0.0759128,0.109033,0.861658,0.385667,0.0393154,-0.80778,0.709934,-0.092372,-0.564571,-0.0278485,0.320694,0.89424,0.353029,0.869464,0.818134,-0.67712,-0.744136,0.447815,-1.09149,0.589007,0.901547,0.733786,0.480941,-0.95599,0.816,0.238769,0.484527,1.08154,-0.627242,0.956911,-0.0680041,0.127599,-0.0257942,-0.501739,-0.595142,0.261221,-0.718369,0.302936,-1.10362,-0.519658,-0.130684,0.413815,-0.362409,-0.88024,0.0395474,0.608624,0.583487,0.0491014,0.412595,1.00454,-0.196733,-0.39697,0.054,0.83462,-0.206468,0.126139,0.244415,-0.848205,-0.465853,0.0331543,-0.854068,0.216672,0.892518,-0.557129,0.090854,-0.994829,0.36934,0.559148,0.503985,0.56835,-0.762066,-0.840288,-0.442646,-0.987368,0.589325,0.138539,0.548522,0.576264,-0.599648,-0.576,0.026,-0.239867,0.262226,-0.520204,-0.588061,0.678585,-0.535318,0.0727869,0.180903,-0.285054,0.627574,0.153465,-0.713656,0.422534,0.137287,0.262218,0.483204,-0.280844,-0.400922,-0.334469,0.638172,-1.07595,-0.745284,-0.985312,0.929258,-0.90167,0.23084,0.455,0.194,0.187006,0.678513,1.19185,1.11368,-0.565492,0.703452,-1.11458,0.530304,0.801411,0.0155238,0.478407,0.134383,-0.584211,0.919731,-0.394817,1.11092,-0.00506313,0.486797,-0.408213,0.00907879,0.642885,0.447474,-0.154248,0.839272,0.54502,-0.190524,0.597031,0.106,-0.950462,0.349141,-0.215114,0.487116,-0.338199,-0.981765,-0.0694442,-0.697256,0.417988,-0.134742,1.0432,0.653535,0.0629799,-0.271975,0.903042,0.148529,-0.585839,-0.664621,-0.774125,-0.223112,0.596395,0.401736,-0.614755,0.738342,0.0709749,-0.0345621,0.134,-0.6,0.78644,0.0774322,1.07155,1.22969,0.592882,0.334658,-0.620459,0.0787006,-0.268698,0.097289,0.481192,-0.804631,0.934009,0.195484,0.189175,-0.387745,1.0902,-0.191767,0.316098,0.685517,-0.28546,-0.809472,0.0619593,0.149306,0.614225,-0.155878,0.696002,0.906002,0.379709,0.202695,1.44642,0.584496,0.836397,0.433171,-0.664363,-0.753223,-0.95756,-0.238733,0.736813,-0.219119,0.683572,0.232094,-0.0985717,0.63374,-0.562132,0.807756,0.592117,-0.816632,-0.456828,0.513314,0.869874,0.473046,0.373647,-0.829649,0.339,-0.404001,-0.420702,0.370231,0.0604769,1.3438,0.659806,-0.595614,-0.0102549,-0.588619,0.080155,-0.227284,-0.147963,0.0415864,0.513629,-0.687382,0.844574,0.173638,0.152296,-0.231712,-0.559658,0.532384,-0.264007,-0.408748,0.648999,-0.116796,0.425329,-0.615733,0.243,-0.95691,-0.444295,-0.166836,0.153307,0.420312,0.461281,-0.106626,0.05212,-0.921576,-0.497134,0.329156,-0.427827,0.440359,-0.871369,0.692885,-0.358325,0.709534,0.624674,-0.523036,-0.604936,0.0290571,0.331386,0.393066,-0.478677,0.124249,-0.318591,0.0393319,0.480998,0.501006,0.421258,-0.563567,0.916207,1.2084,-0.406937,-0.68167,-0.345973,0.167867,-0.614629,-0.0264841,0.21564,0.0316329,-0.350524,1.08907,-0.619889,0.0196701,0.282249,-0.41239,0.788323,-0.10604,-0.0476396,-0.340426,0.55474,0.568307,0.37646,0.45124,-0.745,0.539,-0.942174,0.480016,0.376359,0.697997,0.136667,-0.540411,-0.115962,0.578954,-0.631002,0.0344958,-0.372518,-0.238774,-0.702049,-0.792178,0.69868,0.152443,0.548427,0.293769,0.0377727,-0.675256,0.750419,0.163844,0.343674,-0.753067,0.546149,-0.940513,0.011,-0.602,0.0908256,0.45683,1.22011,0.34262,-0.836678,-0.622667,-0.577354,0.18572,0.121377,0.115101,-0.634573,0.481309,-0.630384,0.4082,1.10863,-0.364439,-0.388125,0.0257746,-0.141072,0.751932,-0.718166,-0.813207,-0.811585,0.521219,-0.254178,-0.169194,0.031,-0.791003,-0.0824868,-0.789004,-0.538961,1.25339,-0.0959556,0.502341,-0.0821474,-0.151731,-0.834905,0.217711,0.728531,0.27126,0.980032,-0.580224,-0.38035,-0.63398,-0.140156,-0.928474,-0.903195,-0.137973,-0.177855,0.125264,-0.273558,-0.474642,-0.32456,-0.290205,0.85,0.338987,0.11425,-0.338838,0.92827,1.35351,-0.401376,0.241824,0.468561,0.369538,-0.0164673,-0.847284,0.825951,0.0836464,0.555434,1.00482,1.32477,0.543761,0.391581,-0.8264,-0.145129,-0.985605,-0.633332,0.229024,-0.350946,0.141276,-0.787666,0.236829,0.554,-0.184976,0.504223,0.145592,1.02224,-0.527091,0.543147,0.27347,-0.814719,0.564107,-0.812395,0.280304,-0.127719,0.254466,0.773886,-0.377295,1.03554,0.00696192,0.430575,0.517299,0.523347,-0.743455,0.894639,-0.696667,-0.975863,0.891431,0.499209,-0.371892,-0.46,0.231043,0.420083,-0.824766,0.778245,0.0984202,-0.297437,0.319771,-0.247232,0.742669,-0.599879,0.1367,0.451168,-0.249665,1.53353,0.822464,0.189661,0.220638,0.619733,-0.591593,0.757303,-0.467832,-0.86959,0.112878,-0.0885391,0.693214,0.449907,-0.0483733,0.565,-0.511975,0.580495,-0.858562,0.787551,0.0533452,0.780824,-0.113843,0.571643,1.08556,-0.584051,-0.652784,0.780705,1.1813,-0.303337,-0.239345,-0.688157,1.11379,0.456358,-0.561835,-0.0427159,-0.515954,-0.0946813,-0.700343,0.0448698,-0.364154,-0.000459345,0.501175,-0.699,0.987,-0.550741,0.86993,-0.517063,0.59124,0.542868,0.75362,-0.846887,0.310794,-0.343854,0.179294,0.223984,-0.607532,-0.184335,-0.728984,-0.731525,-0.242067,-0.702091,0.892948,-0.291955,0.665374,-0.680516,0.190439,-0.852183,-0.215261,0.0590044,-0.267947,0.4,0.602,0.79,0.701,0.589372,-0.761734,0.123998,-0.937996,0.379798,-0.347775,0.371897,0.0740411,0.492,0.997006,-0.769931,-0.74693,0.928076,-0.418981,-0.941963,-0.824,0.332,-0.651,0.628051,0.593159,0.571,0.505,-0.659,0.274,-0.713,0.399,-0.995,0.687,2.70643e-10,0.795158,-0.0537595,-0.852322,0.593888,0.627593,-0.792264,-0.472276,-0.722883,0.576272,0.600926,0.325749,0.128969,0.38435,0.120737,0.0463753,0.970888,0.193883,-0.210047,0.301016,0.543,0.974,-0.106,0.114,0.479,0.235,-0.612994,0.323086,-0.811848,0.951909,-0.433863,-0.263035,0.289237,0.486946,-0.138865,-0.582458,-0.329065,-0.363206,-0.0300072,-0.036051,0.785101,-0.425932,0.866512,-0.528092,0.965531,-0.0349991,0.51246,0.918363,-0.828279,0.871888,-0.209335,0.723794,0.849999,0.244,-0.606001,-0.126957,-1.02179,-0.74162,-0.87247,-0.878955,-0.832757,-0.387175,-0.670003,-0.0365894,0.672615,0.297241,0.569732,-0.374499,0.783796,-0.182438,0.328511,0.555043,-0.258146,-0.173763,0.28725,-0.965109,0.316262,-0.0995481,0.682367,0.631137,-0.590174,-0.488,-0.086513,0.765055,0.201602,-0.27497,-0.491058,0.0997547,-0.0552276,-0.379369,-0.194411,-0.246933,0.0697651,0.64444,-0.694219,-0.158535,-0.12327,0.639185,0.046257,1.07431,0.657912,0.353981,-0.334278,-1.04532,0.553909,-0.911366,-0.645445,0.257676,-0.21606,0.687,-0.547973,0.138989,0.595427,0.123924,-0.276135,-0.227089,0.517533,0.436814,-0.852676,-0.259618,-0.906805,0.534578,0.672411,0.020924,-0.252313,0.852056,0.295097,0.0759654,0.249578,0.830725,-0.374548,-0.514563,-0.488294,-0.0962553,-0.702731,-0.41062,0.383042,-0.664,0.849129,-0.889582,-1.21027,0.525397,0.0267065,0.565297,-0.344242,0.799913,-0.30727,-0.58082,0.491745,-0.350445,0.446816,0.179144,0.674373,-0.44365,0.858543,-0.818499,-0.600774,-0.159127,-0.463458,0.10355,-0.720079,-0.171447,0.33208,0.294093,-0.785,0.35,0.879956,0.49423,0.388374,-0.0556864,0.556719,0.228674,-0.245218,-0.271251,-0.460488,0.32625,-0.629065,-0.245038,-1.18616,0.467674,0.100639,-0.0211135,-0.391362,0.119747,0.743102,-0.59632,-0.033825,-1.0762,0.468115,0.632691,-0.27285,-0.784158,-0.075,-0.777,0.0670203,0.0169832,-0.144404,-0.717493,-0.320409,-0.531373,0.851307,-1.00764,0.467411,-0.670953,-0.481637,0.486364,0.174408,-0.507316,-0.518297,0.303934,-0.928598,0.533004,-0.870221,-0.354878,-0.134957,-0.71814,0.50443,-0.98292,0.830078,0.362242,0.977,-0.376,0.134379,-0.188772,-0.72405,0.658257,0.53963,0.449556,-0.862228,-0.90572,0.586386,0.450331,0.70925,-0.193156,0.26909,-1.3028,-1.07944,-0.226253,-0.0231571,-0.201194,-0.588731,0.265275,-0.657168,-0.200905,-0.574914,0.230208,-0.305597,0.669571,0.277972,-0.571,-0.425241,-0.222412,0.0344604,0.707546,0.225474,-0.0745787,-0.047096,-0.198623,-0.56107,0.264774,-0.332063,-1.17764,-0.881149,-0.897437,-0.882441,-1.15841,-0.136469,-0.197012,0.124925,-0.844439,0.326453,0.484235,0.225247,-0.698746,0.963583,0.138786,0.18997,-0.572,-0.214228,-0.92017,-0.0453054,0.480204,-0.484039,0.604509,-0.185064,0.778779,-0.491858,0.620458,-0.587148,-0.492803,-0.799697,-0.724223,-1.37173,-0.13104,0.58032,-0.627836,-0.169447,-0.462012,-0.135724,0.907887,-0.708442,-0.273438,0.0214173,-0.110422,-0.835,-0.21,-0.987315,0.0138012,0.415287,0.0247927,-0.262086,0.980397,-0.471164,0.0648693,-0.348103,-0.889798,-0.777587,-0.422591,-1.24155,-0.785535,-0.144751,-0.585302,0.455783,-0.149986,0.0836737,-0.477822,0.232556,-0.875261,-0.248427,-0.390945,0.987905,-0.570029,-0.434,-0.048,0.309562,-0.653818,0.500184,0.175438,0.599038,-0.0448393,0.634059,0.956529,0.800722,0.23526,-1.10447,-0.708198,0.115322,-0.485238,-0.0413803,0.326132,-0.0564643,0.765946,0.13662,0.712431,-0.251865,-0.435913,-0.363096,0.988787,-0.322802,-0.274875,0.841981,-0.829,0.124756,0.975461,-0.0929509,1.41866,-0.27926,1.37362,0.152548,0.353784,-0.658965,-0.837237,-0.824417,0.800113,0.0547602,-0.434011,0.926775,-0.399383,-0.110423,-0.709806,-0.163418,0.336862,-0.834931,-0.39477,0.230064,-0.102602,-0.395553,0.463424,-0.496,0.171999,0.708639,0.913274,0.162477,0.193964,1.17786,0.81477,0.13595,-0.427004,0.416131,0.343871,-0.406567,-0.206778,0.589892,0.312243,-0.138191,1.30957,0.335452,0.909416,-0.985243,0.448014,-0.831941,0.382412,-0.241683,0.894103,0.11385,0.573003,-0.534003,0.673996,-0.417922,-0.369817,-0.236475,-0.422908,-0.480653,0.416656,0.3361,1.07851,-0.517763,0.463533,0.717789,0.0941414,0.0544075,-0.473731,1.12376,1.05561,0.606052,1.17244,0.698416,-0.861958,0.801631,0.415924,0.562143,0.120027,0.891473,0.753274,0.00699939,0.126,0.344751,0.301271,-0.236635,0.90353,0.396644,-0.344363,0.626413,0.518481,0.456696,-0.583942,0.247379,0.574353,-0.751794,0.172569,-0.0516596,-0.229278,0.517948,-0.242577,-0.763148,0.848974,-0.838595,0.503068,0.768528,0.0175012,-0.368057,0.0606681,-0.608078,-0.336808,-0.626677,0.210776,0.609973,0.390351,0.515547,0.350127,-0.21528,-0.08847,-0.585895,-0.116737,-0.869354,0.497785,0.299325,0.197686,0.397997,0.261491,0.845817,0.849788,0.262252,-0.293505,-0.761946,0.37302,-0.994368,0.57067,-0.267368,-0.920189,-0.139345,0.336908,-0.31517,0.0289471,0.823274,-0.141994,0.343766,-0.327825,-0.954562,0.0703594,-0.58759,-0.22239,0.809743,-0.495849,0.732303,0.685954,0.750994,-0.132587,-0.126284,-0.0885822,0.390454,-0.264634,-0.0661515,0.010466,-0.298425,-0.723115,0.828646,-0.00536962,0.941,-0.576,-0.365575,0.00425853,0.634105,-0.00383499,0.114058,-0.295671,0.158396,-0.705742,0.498875,-0.132454,0.597712,0.854479,-0.881813,0.384147,-0.793419,0.638109,-0.0135704,0.73447,-0.646594,0.72393,0.301998,0.805709,0.487107,0.218967,-0.690508,-0.644027,0.415,0.988,-0.0950511,0.498523,-0.339365,0.681252,0.738971,0.110363,0.617144,-0.279442,-0.988033,0.134964,-0.121554,0.490835,-0.507328,-0.178335,0.10741,-0.392072,0.478576,0.0324282,0.783546,-0.537232,-0.153239,-0.860205,0.345573,0.224182,0.46671,-0.215731,-0.72,0.631,-0.306468,0.281117,0.18403,0.453596,-0.516944,-0.0293263,-0.635639,0.720068,-0.65027,-0.603564,-0.820489,-0.519771,0.253845,0.166019,0.479346,0.157434,0.32106,-0.445761,0.733304,0.0286378,0.491555,0.397653,-0.0105913,0.898386,0.417634,-0.818845,-0.013,-0.659,-0.0440708,-0.187574,0.860587,-0.0529507,-1.2234,-0.553231,-0.505881,-0.954595,0.664094,0.194112,-1.05799,-0.882395,0.301059,0.739376,-0.820095,-0.831848,0.104643,-0.919892,0.878478,-0.482096,-0.535221,0.557145,0.147562,0.56482,-0.311576,0.974793,0.363,0.583895,0.698934,0.89219,0.873105,-0.912064,-0.940431,0.16881,0.129256,-0.889787,-1.07233,-1.0728,-0.676354,-1.267,-0.0474495,-0.95455,0.622912,-0.953853,-0.843158,-0.814434,-0.509613,0.00121221,-0.609102,-0.510701,0.445518,-0.393509,0.338125,-0.569717,-0.948,0.472813,0.943964,-0.0297972,0.106421,0.666016,-0.655664,-0.740786,0.459073,-0.686243,0.148413,-0.6514,-0.79864,-0.0905929,-0.589074,-0.345374,0.0602604,0.168059,-0.13582,-0.580237,0.286332,-0.283079,-0.131931,0.731569,0.959558,0.286565,-0.806414,-0.0978793,0.336,-0.0271093,-0.126164,-0.0431011,-0.491415,-0.101062,0.450268,0.345053,-1.21289,0.634746,0.305099,0.14709,-1.08623,-0.0535155,-0.819265,-0.242407,-0.654804,-0.146585,0.519438,0.0837082,-0.843418,-0.831802,0.848608,0.885629,0.181139,-0.145586,0.25938,-0.306038,0.607,-0.0540009,0.146864,-0.057169,0.922061,-0.96603,0.445353,-0.65531,-0.625979,-0.112673,0.38766,-0.607226,-0.190881,-0.444822,0.864654,-0.437585,0.707913,-0.810753,0.397734,0.661451,-0.306186,-0.393222,-0.0905592,0.0304494,-0.107376,-0.632588,-0.485968,0.626921,-0.264,0.76,0.878,-0.658,-0.295109,0.0248478,-0.159107,-0.819997,-0.396996,-0.716182,-0.469834,0.0028255,0.204,0.52099,0.429875,0.589875,-0.907124,-0.12803,-0.833999,0.809,0.074,0.579,0.043832,0.781977,0.747,0.955,-0.631,-0.365,0.875,-0.118,0.82,-0.39,-0.801004,0.696634,-0.490952,-0.542598,-0.727773,0.344515,-0.358813,-0.117786,0.193006,-0.257997,0.884914,-0.606387,-0.743809,-0.135907,0.53861,-0.643688,0.743946,0.709708,0.721178,-0.626001,-0.154,-0.235,0.713,-0.408,-0.723,-0.918,-0.215,-0.849345,-0.481738,-0.840406,-0.683605,-0.724649,0.415868,-0.175702,-0.25867,0.69198,0.733521,0.379553,-0.429832,-0.0768686,-0.884655,-0.992461,-0.124556,0.94083,-0.106066,-0.570228,-0.700349,-0.800751,0.694048,0.577931,-0.438553,-0.459932,0.900001,-0.726,-0.310995,-0.819987,-0.630412,0.0414809,0.887268,-0.569561,-0.260288,-0.802868,-0.294459,-0.858831,-0.43667,0.400328,0.833472,-0.656918,-0.577522,1.02222,0.268601,-0.456985,-0.954447,-0.804074,-0.436017,-0.428783,-0.805483,-0.657603,-0.359519,0.813,0.886214,0.199,0.909446,0.343881,0.488267,-0.799507,0.537511,0.414142,-0.262831,-0.0737859,0.750266,0.424841,-0.355072,-0.534103,0.671859,0.390376,1.10699,0.182768,0.677312,0.955669,0.16302,-0.402864,-0.387778,0.227016,-0.693718,-0.4378,0.563762,-0.74115,-0.682755,0.709,-0.932689,0.758413,-0.088779,0.56729,0.0790601,0.908149,0.643123,-0.914634,0.233016,-0.60159,0.130117,0.160722,1.04895,0.581455,0.462502,0.381873,-0.0229421,-0.0266309,-0.547814,1.15264,-0.0443896,0.418957,1.02494,-0.199949,0.992375,-0.937803,0.154054,-0.031,-0.69563,0.0346364,-0.299319,0.963107,-0.219775,0.123895,-0.0163387,0.82085,0.110367,-0.197367,-0.888072,-0.561448,-0.190385,-0.0403884,0.366477,-0.0264208,-0.491626,1.1358,0.571648,-0.302277,-0.132387,0.633857,0.940915,-0.021636,-0.557234,0.841792,0.638053,-0.731,0.886643,-0.597714,-0.0994619,0.864753,0.45488,0.0688094,0.210873,0.741151,-0.78419,-0.754965,0.583796,0.234594,-0.383307,0.414387,0.485703,0.552086,1.33301,1.04214,0.569948,0.878753,0.850162,-0.247753,-0.820155,1.04059,0.792302,0.641756,-0.515,-0.795,0.487839,0.72566,-0.846987,0.0608538,-0.857624,-0.152031,-0.762625,0.0151502,0.900926,0.462844,-0.365581,-0.95556,0.373036,-0.491339,0.133816,0.654478,0.377793,-0.712848,-0.173489,-0.193801,0.513709,0.47995,-0.592012,-0.136144,0.802221,-0.916394,-0.659,0.643,0.735186,-0.148445,0.912361,0.299529,-0.386705,0.888377,0.732796,-0.833681,-0.214213,1.04378,0.0856788,-0.814912,0.125178,0.650405,-0.480188,1.08978,0.44985,0.0216854,0.57588,-0.514117,-0.426067,0.0759265,-0.117896,0.601671,-0.721512,0.226343,-0.600996,-0.898,-0.131157,-0.672459,0.841962,-0.284005,-0.204645,0.572868,0.295703,0.198144,0.00949556,0.0642323,-0.30142,0.636065,-0.286048,1.13968,0.588661,0.392822,0.588142,1.16368,0.357659,1.15933,-0.8247,0.529753,-0.71233,-0.763531,-0.349386,0.00961359,0.409,-0.433,0.782024,0.349328,-0.197963,-0.559344,0.78213,-0.610027,-0.196069,-0.584456,0.574743,0.687461,-0.0246929,-0.355221,-0.42363,0.993063,0.882471,0.078411,0.556281,0.674574,-0.566401,-0.622832,0.0200134,-0.390405,-0.79467,-0.413533,0.959164,-0.841987,-0.668,-0.751,-0.278744,0.708757,-0.099465,-0.774094,0.116742,0.298913,-0.759615,-0.221639,0.485791,-0.300857,-0.310596,0.159279,-0.883627,0.702511,0.498662,-0.607255,0.643306,0.526341,0.0896465,-0.221598,-0.0900038,-0.330448,-0.267229,0.225573,0.0567479,-0.233043,0.329,0.067,-0.510286,0.618827,-0.0864104,0.296465,0.370179,-0.0180977,-0.271307,-0.546736,-0.255161,-0.283995,-0.231495,0.668162,0.302541,0.341186,-0.409101,0.20192,-0.43995,0.702223,0.345227,-0.884645,0.451813,-0.700521,-0.466799,0.812365,-0.0162065,0.408614,0.0580021,-0.911,0.742489,0.8662,-0.204567,-0.627796,0.605021,0.0119388,0.00629257,0.129692,-0.505896,0.802921,-0.142981,-0.59265,-0.588605,0.335903,-0.735651,0.337828,-0.74515,-0.12528,-0.7534,-0.184119,-0.315622,0.814772,-0.204666,-0.860431,-0.757475,0.6023,0.512,0.254007,-0.433561,-0.966879,0.0303269,-0.511402,-0.890294,0.150725,-0.765911,0.95381,-0.472869,-0.380433,-1.01106,-0.525617,-0.535697,-0.180826,0.26373,-0.467088,-0.945066,0.457083,0.50157,-0.763379,-0.545226,-0.968277,0.0274721,0.180091,0.615043,-0.803533,-0.0639646,0.938042,0.33942,-0.662934,-0.223636,0.594562,-0.812674,0.199772,0.656086,-0.382823,-0.342019,0.478238,0.658258,-0.422809,-0.773338,0.754414,0.319563,-0.851895,-0.795709,-0.934768,-0.554688,-0.700332,0.462553,0.536061,-0.437046,-0.852732,0.550104,0.593615,0.0410066,0.368011,0.32913,0.903377,-0.142546,-0.301575,0.910199,0.188399,-0.461207,-0.5091,-0.471213,0.459159,0.634568,-0.765256,-0.171066,0.557504,-0.37507,-0.735849,-0.434152,0.306358,-0.64207,-0.0428575,0.458916,-0.480538,0.309491,0.406481,-0.37783,0.765492,0.319018,-0.983913,-0.0975096,-0.645591,0.434671,-0.836093,0.628488,-0.883052,0.149209,0.593059,-0.0795093,-0.319655,0.47056,0.38134,1.06785,0.0742866,0.0726225,-0.641106,-1.05365,0.684015,0.252013,0.160958,-0.0856023,0.257177,-0.720202,0.00586597,0.844738,0.269365,-0.828922,-0.745979,-0.411342,0.53905,-0.666918,0.375435,0.105159,0.0580202,0.715656,0.225406,-0.0849917,-0.647688,-0.253513,0.957801,0.203914,0.749485,-0.425201,-0.553848,-0.404186,-0.929233,0.472288,-0.502955,0.620432,-0.911227,0.898562,0.102814,0.171512,0.685967,0.784,-0.313,-0.0576285,0.961751,-0.508608,0.407651,0.307995,-0.608253,-0.339297,-0.253725,0.412785,-0.54265,0.666321,-0.62212,-0.760536,0.679106,-0.978856,-0.218994,0.191483,0.44875,0.932167,0.634213,-0.00385207,0.0757183,-0.540404,-0.00641849,0.203703,-0.803196,0.643,0.922,0.431736,0.427326,-0.861868,-0.730082,-0.145087,-0.291437,0.444242,0.738194,-0.235578,-0.893194,-0.233912,-1.16593,-1.14747,-1.31448,-0.942355,-0.923503,-1.20969,-0.332372,0.633405,-0.124129,0.652815,0.406311,-0.192785,-0.0982635,-0.656356,0.0457705,0.319,-0.0179898,-0.205017,0.0041022,-0.0420702,-0.809066,0.882593,-0.315551,-0.834779,-0.194449,-0.24445,0.138721,-0.743448,0.539721,-0.030611,-0.210861,0.41204,-0.508491,-0.588927,-1.04968,-0.011131,-0.689912,-0.198832,-0.555568,0.398958,-0.361082,0.732862,-0.956562,-0.073,0.941053,-0.359685,-0.729172,-0.0815155,0.348756,-0.32711,0.425414,0.300218,-0.662983,-1.01868,0.262779,-0.0570692,-0.929199,-0.911925,-0.420368,-1.33192,-0.220782,-1.15639,0.55447,0.806894,-0.455336,0.805147,-0.0533871,-0.10249,-0.803313,-0.0631729,-0.713188,-0.206,-0.37987,0.890509,0.281647,-0.446437,-0.530131,0.464452,-0.000661413,0.477327,-0.656305,-0.569073,-0.848247,-0.689456,0.579994,-0.353443,-0.266607,-1.14538,0.185334,-0.909193,-0.917173,-0.573981,-0.953873,0.402891,0.927409,-0.351961,0.252051,-0.502724,0.211202,0.096,0.48623,0.499432,0.429829,-0.875395,0.409373,-0.230847,-0.712557,0.902726,-0.767911,-0.242298,-0.20465,-1.19615,-0.589331,-0.23219,-1.25826,-0.653515,-0.984963,-0.219325,-0.478862,0.320131,-0.195902,-0.604577,0.544033,0.0251534,0.932296,0.549926,0.308649,-0.168,-0.872865,-0.47893,0.471573,0.18422,0.609589,0.0108319,-0.083941,-0.00429231,0.643578,-0.0079204,-0.685421,0.763585,0.702216,-0.24316,0.320561,-0.557552,-1.0816,0.553663,-0.152122,0.872239,-0.711886,0.268142,0.470203,0.23701,0.329362,-0.391978,0.836405,-0.12,-0.786999,0.145211,0.270882,0.899454,0.228382,-0.235376,-0.373843,-0.638916,0.682376,0.459437,0.323725,0.332291,-0.938178,0.29558,-0.218035,0.474807,0.75943,0.888422,0.715893,0.905322,0.220347,-0.257951,0.458361,0.557076,0.604772,-0.0660337,-0.210877,-0.483,0.561,-0.375,0.397,0.33108,0.327609,-0.333847,-0.213938,-0.891972,-0.0219549,0.411502,-0.530954,-0.337,-0.574013,0.351841,0.560841,-0.503155,-0.342038,-0.639001,1,-0.546,-0.728,0.731113,0.92702,0.054,-0.971,0.384,-0.393,0.192,0.876,0.396,0.709,-0.00600024,0.577964,-0.338634,-0.680256,-0.54374,0.323788,-0.336314,-0.431385,-0.694294,0.635986,0.0392022,-0.475071,-0.940577,-0.610282,-0.90911,-0.437166,-0.395497,-0.996696,-0.886214,-0.38402,0.834,0.846,-0.458,-0.113,0.433,0.484,0.493998,-0.375118,0.360168,-0.552341,-0.667841,-0.650672,-0.979947,-0.454445,-0.765216,-0.511824,0.437702,-0.539213,-0.383683,0.303615,-0.902575,0.656556,0.827923,-0.834752,0.60595,0.928285,-0.716537,-0.791846,0.917229,-0.611528,-0.180384,0.749146,-0.768,-0.082,-0.807115,0.231957,-0.58121,0.696714,0.863754,0.357303,-0.842916,0.759221,0.700502,0.735618,-0.699139,0.470371,0.775373,0.747615,0.91391,-0.668163,0.0139954,-0.943977,-0.891684,-0.490117,0.829677,0.671321,0.875752,0.998261,0.384773,0.792793,-0.617988,-0.803,0.0970971,-0.812116,0.116387,0.284551,0.448191,0.18172,-0.369522,-0.136287,-0.560916,-0.295452,-0.442386,0.624813,0.920468,-0.647553,0.0437585,0.672381,0.650745,-0.417402,-0.795583,-0.19094,-0.302215,0.712545,-0.290224,0.894266,-0.176987,-0.488066,0.845002,-0.812,0.856705,0.789073,0.937088,-0.0793004,0.518741,-0.321136,0.831806,-0.114935,0.644319,0.837823,0.207653,0.560943,-0.978237,0.731293,0.231475,-1.00998,0.681396,0.922043,0.429633,0.566164,-0.395697,0.0181327,0.736369,-0.336483,-0.461032,-0.77331,-0.582004,-0.104,-0.261404,0.843758,-0.316995,-0.406668,0.581054,-0.820035,0.0820971,0.0100555,-0.343058,-0.623506,0.498168,-1.08892,-0.730872,-0.232993,0.582286,-0.591512,-0.815369,-0.460167,-0.321592,1.18002,-0.434452,0.428275,0.270443,-0.621514,-0.812555,-0.162896,-0.0909708,-0.718,0.0736294,0.342836,-0.264847,0.709402,0.0443893,0.332941,0.885791,-0.825653,0.448347,-0.0266448,0.297944,0.701658,0.413004,-0.553007,0.783893,0.855233,0.533147,0.228778,1.03543,0.790196,0.546112,0.74289,0.245968,0.303542,0.12453,-0.750441,0.713,0.346,0.0989047,-0.414007,0.548569,0.560016,0.380512,-0.653559,0.089256,-0.799909,0.264924,-0.00321028,-0.533982,-0.622244,0.618811,0.401463,-0.778359,0.382394,-0.622056,-0.607382,-0.159703,0.550788,-0.452589,-0.742645,-0.606632,-0.971599,-0.764478,0.568716,0.471,-0.053,0.812967,-0.26082,-0.757396,-0.619754,0.36113,0.527817,0.788983,-0.626492,0.355308,-0.151811,-0.267042,-0.646986,0.550066,0.202342,-0.166885,0.552543,-0.313199,0.224378,1.14039,-0.67078,-0.603013,0.815495,-0.00208091,-0.0407481,0.908956,0.33216,0.139003,0.74,-0.100514,-0.811174,-0.280152,-0.237904,0.0119615,0.0909488,-0.220924,0.742699,-1.04419,-0.511255,-0.779042,-0.0730134,0.386731,0.074472,0.59409,-0.106748,1.03041,1.16852,0.377942,0.891102,-0.374057,-0.758265,0.297768,-0.0491646,-0.467962,-0.628138,-0.882935,-0.57,0.702337,-0.168413,0.710131,-0.380741,-0.385914,-0.495229,-0.0585305,0.402404,-0.156016,0.40677,-0.388068,-0.258021,0.560793,0.253633,1.20503,-0.146871,1.1572,0.349974,0.241784,0.351635,-0.354969,0.445898,-0.791909,0.0810779,-0.813062,0.999394,0.821,-0.46,-0.661093,0.534395,-0.475693,0.533681,0.847126,-0.633115,-0.715762,-0.656142,-0.966584,-0.674152,0.185619,0.0279753,0.638799,-0.720235,0.761006,0.47387,0.417974,0.816466,1.31726,0.226797,-0.513133,-0.647785,0.774588,-0.654639,1.14172,-0.685071,0.125,-0.958,0.839728,-0.0154607,-0.84453,0.666875,0.915917,-0.764445,0.2515,0.563443,-1.29247,-0.145184,-0.754083,-0.789602,0.544814,0.607837,0.0381219,0.47212,1.09612,0.0573905,-0.133174,0.22024,0.958081,0.746825,0.60174,0.797655,-0.558139,0.0113999,-0.934956,0.809,-0.136118,0.18976,0.392765,-0.372844,0.54255,0.407192,-0.82816,0.220586,-0.0273159,0.197309,0.193827,0.32859,-0.832938,-0.156093,0.275613,0.71952,-0.0150601,-0.35864,0.00633782,-0.539389,-0.0427445,-0.203791,-0.496208,-0.603898,-0.245707,0.924807,0.897,-0.567995,-0.0779619,0.970271,0.792855,0.698193,-0.416402,0.103732,-1.15173,0.666989,-0.849841,-0.975596,0.869033,0.730757,0.2571,-0.618219,-0.204549,0.537212,0.516634,0.974207,0.050401,0.602047,0.888668,0.10444,0.0800523,-0.634263,0.610897,0.383249,-0.507974,0.668027,0.287711,0.930033,0.562184,0.719092,0.479227,0.477211,0.2425,-0.847826,-0.858479,0.157144,-0.709203,-0.46808,-0.271316,0.537746,1.17416,-0.606535,0.832659,0.977589,0.40627,-0.470628,0.487776,0.357635,0.813675,0.0881723,-0.72243,-0.584431,-0.138995,0.688996,0.79151,-0.162487,0.215578,-0.367397,-0.0164208,-0.166983,-0.174883,-0.564535,-1.07736,0.0112351,-0.619263,-0.901145,0.827457,-0.586019,-0.203432,0.0302994,0.384582,0.840664,-0.181912,-0.204796,0.393782,0.304338,-0.301389,-0.331944,-0.50272,-0.879519,0.592992,-0.377034,-0.469663,-1.10117,0.753855,-0.601859,0.101126,0.0871738,0.173749,0.590879,-0.0378339,-0.279525,-1.14761,0.229106,0.729578,-0.574441,0.564887,0.854734,1.1494,0.323942,-0.684823,-0.0446122,-0.89752,-0.39538,0.213684,0.677594,0.663104,0.935706,0.769965,-0.884011,-0.95707,0.290292,-0.676013,-0.20012,0.123445,-0.691857,-0.607301,0.533289,-0.577222,-0.425481,0.153933,0.498235,0.560294,0.534913,0.604698,0.675212,0.724702,1.26669,0.0891766,0.447947,-0.370323,-0.0836095,0.874477,-0.214058,0.197919,0.0193742,-0.592,-0.559,-0.0457501,0.768675,-0.808613,-0.333385,0.068411,-0.680816,-0.462467,0.320292,-1.27563,-0.251725,-0.0192849,-0.62245,0.877829,0.267737,-0.196644,0.837202,-0.305184,0.62385,-0.324681,0.519835,-0.0934312,0.224129,-0.790137,0.383363,0.679409,0.964272,-0.897,-0.624,-0.0307335,-0.996594,-0.279555,0.277754,0.58201,-0.144909,-1.04635,-0.693103,-0.433802,-0.550961,-1.18099,0.0399167,0.69104,0.604032,0.87379,0.761644,-0.600148,1.01665,-0.21262,1.08162,0.0152451,-0.0722735,-0.157566,0.871395,0.684416,-0.00643199,0.118,0.226006,-0.505618,-0.380742,0.332022,-0.241074,-0.305837,0.856704,-0.604589,-0.954816,-0.344699,-0.654583,-0.396739,0.879036,0.0361825,-0.640379,-0.474225,-0.696614,0.923489,0.796145,0.771082,0.417161,0.332381,0.778759,0.395881,0.989585,-0.719465,-0.827731,0.678,0.820029,-0.297277,-0.70423,-0.625878,-0.0178359,-0.052169,0.613833,-0.916205,0.345197,0.601978,-0.788446,0.190912,-0.891597,-0.59482,0.996182,-0.939853,0.472623,0.914656,1.1371,0.688008,0.171319,0.634932,-0.190186,-0.4924,-0.408802,-0.887027,0.326141,-0.598,-0.735993,0.487044,-0.909773,-1.00189,0.601814,0.833611,-0.460297,-0.622424,-0.44586,-1.11187,-0.846049,0.569136,0.555977,-0.501533,0.0300841,0.971596,0.162381,-0.268866,0.715071,-0.76167,-0.469439,0.596218,0.249701,0.462951,-0.321945,0.901288,0.392404,0.138,0.919013,-0.292608,0.556907,0.746648,0.702666,0.123366,0.751754,0.404525,0.0484389,-1.07027,0.408401,0.712492,-1.05669,0.752587,0.125635,0.82945,-0.875729,-0.646246,0.451803,0.246091,-0.485406,-0.0818868,-0.25733,-0.270433,0.886418,0.814309,0.671174,-0.497,0.229007,0.0542849,0.642402,-0.277332,0.767325,0.215583,-0.531961,0.510948,-0.681821,0.76725,-0.489662,0.039301,0.853357,-0.914734,-0.522034,0.526529,0.98501,0.666387,-0.0903556,1.01694,0.922435,-0.781032,-0.364859,0.798238,-0.417786,-0.145013,-0.509945,-0.555,-0.345,0.715896,-0.051444,0.449085,-0.225425,-0.395806,0.707291,-0.904317,0.33223,0.711113,0.600956,0.684553,0.525851,-0.849138,-0.674482,-0.0241176,-0.752103,-0.205562,-0.520242,0.755929,-0.568092,-0.0858965,0.282724,0.855734,0.109824,0.904339,0.637114,0.689,-0.689,0.683,-0.867,-0.474944,0.401402,-0.358471,0.964029,-0.830934,-0.215494,0.227434,-0.740935,-0.891,-0.0769704,0.411265,0.347271,-0.996635,0.111089,0.661992,-0.03,-0.087,-0.548,0.0066776,-0.333011,-0.56,0.481,0.509,-0.706,-0.41,-0.031,0.488,0.836,0.279998,0.169526,0.968855,0.801624,-0.433935,-0.835783,0.322413,-0.707243,-0.0509818,-0.455994,-0.89101,0.0579442,0.467484,0.0766849,0.961073,0.026308,-0.813064,0.180046,0.555043,-0.342974,0.632018,-0.881991,0.324,0.629,0.599,-0.61,0.923005,-0.812332,0.355888,0.408601,-0.971297,-0.353751,-0.851912,0.565454,1.00853,-0.737889,0.278519,0.330093,-0.891536,-0.780625,0.863714,-0.77126,-0.153526,-0.102661,-0.136339,-0.189765,0.923896,-0.396938,0.983252,0.0305288,0.256452,0.1669,0.146,-0.864,-0.203759,-0.255158,-0.47404,-0.70547,-0.432203,0.532463,0.335771,-0.816683,-0.824839,0.466841,0.692894,0.667573,0.580175,-0.163385,-0.0808755,0.750496,-0.282151,-0.543603,0.60337,0.589131,0.321439,-0.614749,0.880346,-0.237818,-0.454799,0.397697,0.771982,0.79,-0.43394,-0.0909474,0.895884,-0.0706597,0.30312,-0.862518,0.383836,0.963377,0.659853,-0.411639,0.835081,-0.00691621,0.207709,0.242452,-0.384876,-0.0398495,0.93766,0.843552,-0.463347,-0.277241,-0.808054,0.862363,0.575172,-0.154075,0.769799,0.451526,0.189976,-0.684,-0.144314,-0.0408488,0.624671,-0.0602853,0.473421,0.70153,1.11383,-0.0297877,0.830722,-0.286043,-0.715296,-0.650092,-0.67965,-1.16301,0.443271,-1.14738,0.0785152,-0.433601,-0.0977018,-0.0979043,0.980413,0.116259,-0.353687,0.294381,-0.670831,-0.822137,-0.841006,0.644,0.194585,0.349797,0.441897,0.520548,0.838878,0.20005,-0.307664,0.547533,-0.522446,-0.917279,0.862894,0.187798,-1.18181,-1.14348,-1.32268,-0.897156,-1.13135,0.854168,-0.212097,0.168909,1.19736,-0.00909776,0.435945,0.46754,0.571764,0.78846,-0.339914,0.352,0.518125,-0.628077,-0.0894116,-0.746281,0.306312,-0.479293,0.986635,0.42721,0.495423,-0.7024,-0.352414,0.409811,0.150245,0.443342,-0.458849,0.378707,0.612757,-0.292624,-0.468008,1.21011,-0.188472,-0.353173,-0.219523,-0.744468,-0.533044,0.282264,0.131,0.458,0.0594983,0.328929,-0.218173,-0.780203,0.757379,0.27359,-0.733572,0.0223382,0.560446,1.04019,0.809718,-0.504641,0.521284,-1.17228,-1.04677,-0.240742,0.524763,-0.162968,-0.0413077,0.712059,0.856123,-0.0178532,0.148347,0.572131,-0.516875,0.0315711,0.275,-0.144,-0.677293,-0.611497,-0.657956,0.0898254,0.836614,-0.38431,-0.0424428,-0.0128039,-0.920056,0.134895,0.581601,0.288087,-0.399,-0.0677051,-1.24582,-1.04384,-0.234907,0.773014,0.209952,-0.198801,-0.421139,0.948603,-0.519638,0.934917,0.780385,-0.284014,0.421942,-0.757,0.776145,-0.709906,-0.269609,-0.744411,-0.196213,-0.482558,0.00809287,0.919453,0.207926,0.741951,-0.553964,-0.440495,-1.02473,-1.28545,-1.23745,-0.262819,0.144654,0.720078,-0.139886,-0.502696,0.577144,-0.473655,0.37938,0.981915,0.932271,-0.0239844,0.300955,0.26,0.710627,-0.736727,0.491007,0.0332305,-0.469407,0.618634,0.162627,-0.222979,-0.572012,0.89107,-0.790548,-0.260952,-0.350001,-0.670413,0.267975,0.0469541,-0.0893349,0.577173,-1.04802,-0.625412,0.053755,0.0659407,-0.399322,-0.140684,0.49802,0.234201,-0.905,-0.117,0.77834,0.326775,-0.963611,0.0375446,0.178762,0.0121548,-1.0554,0.715543,-0.29823,0.485862,-0.778206,-0.881345,-0.792667,-1.00437,-0.00933208,0.609946,0.424365,-0.118975,-0.106591,0.716575,0.832606,-0.472776,0.816418,0.180177,0.756092,-0.784185,0.719,-0.312,0.014201,0.224394,-0.0403937,-0.280205,-0.364598,-0.436754,0.735132,0.736979,1.0043,1.13943,0.339075,-1.154,-0.533401,-0.249145,-0.666666,0.147117,0.648468,0.472332,-0.484569,-0.82017,0.489382,-0.0917821,0.776716,0.380405,0.618809,0.0421783,-0.748004,-0.236,-0.195133,0.379834,0.308607,0.745834,-0.191054,-0.539773,-0.626199,0.761223,0.964993,-0.7791,-0.364219,-0.422983,0.375925,0.672093,-0.197365,1.27083,-0.0536326,-0.173911,-0.492112,0.728544,0.445104,-0.108065,0.180637,-0.114739,0.412662,-0.657987,0.808,-0.722018,0.357283,0.537532,0.0658502,-0.775127,-0.271106,-0.399122,-0.563552,1.26177,0.173852,0.861803,-0.856162,0.338606,0.438146,-0.136518,-0.615299,0.330943,1.19245,-0.0182512,-0.372913,-0.676124,0.0268259,-0.128223,0.597509,-0.734615,0.176637,-0.875326,-0.379094,0.822887,-0.557597,0.937498,-0.796458,0.833048,0.0417236,0.141745,1.24372,1.23982,0.383513,0.426207,-0.137813,0.485402,0.541618,0.607502,0.223496,0.103246,0.93,-0.210326,0.35431,0.661274,0.122489,0.382749,0.217624,0.95472,0.687987,-0.674209,0.824983,-0.798039,-0.567668,-1.05454,-0.925992,-0.215916,0.236109,0.615342,-0.272803,-0.317716,-0.731659,-0.868178,-0.482191,0.279171,1.04847,0.742405,-0.322416,0.0144193,-0.142293,0.184716,0.0728224,0.788117,0.7768,0.931816,-0.0682315,-0.182317,0.28869,-0.840588,-0.503021,-0.561037,-0.519233,0.858028,-0.41299,-0.311673,0.593668,-0.885762,0.546516,-0.0183066,0.541981,-1.11613,0.680825,-0.508351,-0.454022,-0.721545,-0.0454472,0.896188,0.742663,0.698984,-0.492374,0.513804,-0.516663,-0.0540585,0.182561,0.810209,0.114221,0.768568,-0.492075,0.942953,0.9168,-0.508465,-0.723615,-0.783428,-0.741364,-0.469931,-0.356644,0.570481,-0.340559,-0.286817,-0.0626097,-0.612528,-0.146121,-0.507163,-0.908764,-0.174154,-0.365127,0.248256,-0.47297,0.848269,-0.895458,-0.656454,-0.291027,-0.907109,0.592954,0.691251,-0.975,-0.69,0.449772,-0.993211,0.635022,0.0549739,-0.63752,-0.940721,0.227279,-0.431428,-0.666301,-0.669712,-0.781766,-0.237674,-0.540695,-0.179942,-0.0562994,-0.00692334,0.730453,-0.251075,0.635019,1.01358,0.714851,0.375586,-0.000903258,0.214619,-1.02733,-0.913111,0.618,0.276,0.33424,0.592159,-0.0931615,-0.647644,0.352803,-0.193959,0.604813,0.878134,-0.284761,0.11097,-0.857237,-0.468119,0.153122,-0.894352,0.282896,0.439667,-0.0938804,0.858447,-0.729426,-0.591551,-0.61367,0.0649067,0.433298,0.464487,-0.204731,-0.486658,0.06,-0.493983,-0.40768,-0.810344,0.152352,0.561939,0.580606,-0.728413,-0.868192,0.101167,-0.05676,-1.10542,-0.0584462,0.555861,-0.0269672,-0.262149,0.860414,0.958067,0.175898,